SVM-light Version V6.02
1 # kernel type
8 # kernel parameter -d 
1 # kernel parameter -g 
1 # kernel parameter -s 
1 # kernel parameter -r 
empty# kernel parameter -u 
9 # highest feature index 
3657 # number of training documents 
2432 # number of support vectors plus 1 
0 # threshold b, each following line is a SV (starting with alpha*y)
-3.0376012715536173e-005 1:0 2:0.25 3:0.33333334 4:0.33333334 5:0.60000002 6:0.75 7:0.2 8:-0.25 9:0 #
3.0376012715536173e-005 1:0 2:0.25 3:0.16666667 4:0.33333334 5:0.80000001 6:1 7:0.26666668 8:0 9:0.25 #
-1.2404700985553937e-005 1:0 2:0.25 3:0.33333334 4:1 5:0.80000001 6:0.80000001 7:0.26666668 8:-0.25 9:0.25 #
-7.7426037370247905e-008 1:0 2:0.25 3:0.33333334 4:1 5:0.80000001 6:0.80000001 7:0.26666668 8:-0.25 9:0.25 #
5.9497759036498039e-005 1:0 2:0.25 3:0.16666667 4:1 5:1 6:1 7:0.33333331 8:0 9:0.5 #
-3.0376012715536173e-005 1:0 2:0.25 3:0.33333334 4:1 5:0.80000001 6:0.80000001 7:0.26666668 8:-0.25 9:0.25 #
-1.6639619298037681e-005 1:0 2:0.25 3:0.33333334 4:1 5:0.80000001 6:0.80000001 7:0.26666668 8:-0.25 9:0.25 #
-3.0376012715536173e-005 1:0 2:0.5 3:0.33333334 4:0.33333334 5:0.60000002 6:0.75 7:0.2 8:-0.25 9:0 #
3.0376012715536173e-005 1:0 2:0.5 3:0.16666667 4:0.33333334 5:0.80000001 6:1 7:0.26666668 8:0 9:0.25 #
-3.0376012715536173e-005 1:0.11111111 2:0.25 3:0.33333334 4:1 5:0.80000001 6:0.80000001 7:0.26666668 8:-0.25 9:0.25 #
-3.0376012715536173e-005 1:0.11111111 2:0.25 3:0.33333334 4:1 5:0.80000001 6:0.80000001 7:0.26666668 8:-0.25 9:0.25 #
-3.0376012715536173e-005 1:0.11111111 2:0.25 3:0.16666667 4:1 5:1 6:1 7:0.33333331 8:0 9:0.5 #
-3.0376012715536173e-005 1:0.11111111 2:0.25 3:0.33333334 4:1 5:0.80000001 6:0.80000001 7:0.26666668 8:-0.25 9:0.25 #
0.00012150405086214469 1:0.11111111 2:0.25 3:0.33333334 4:1 5:0.80000001 6:0.80000001 7:0.26666668 8:-0.25 9:0.25 #
3.0376012715536173e-005 1:0.22222222 2:0 3:0.33333334 4:0.33333334 5:0.40000001 6:0.5 7:0.2 8:-0.5 9:0 #
-3.0376012715536173e-005 1:0.22222222 2:0 3:0.16666667 4:0.33333334 5:0.80000001 6:1 7:0.40000001 8:0 9:0.5 #
-3.0376012715536173e-005 1:0.33333334 2:0 3:0.33333334 4:0.33333334 5:0.40000001 6:0.5 7:0.2 8:-0.5 9:0 #
3.0376012715536173e-005 1:0.33333334 2:0 3:0.16666667 4:0.33333334 5:0.80000001 6:1 7:0.40000001 8:0 9:0.5 #
-3.0376012715536173e-005 1:0.22222222 2:0.25 3:0.33333334 4:1 5:0.80000001 6:0.80000001 7:0.26666668 8:-0.25 9:0.25 #
0.00012150405086214469 1:0.22222222 2:0.25 3:0.33333334 4:1 5:0.80000001 6:0.80000001 7:0.26666668 8:-0.25 9:0.25 #
-3.0376012715536173e-005 1:0.22222222 2:0.25 3:0.16666667 4:1 5:1 6:1 7:0.33333331 8:0 9:0.5 #
-3.0376012715536173e-005 1:0.22222222 2:0.25 3:0.33333334 4:1 5:0.80000001 6:0.80000001 7:0.26666668 8:-0.25 9:0.25 #
-3.0376012715536173e-005 1:0.22222222 2:0.25 3:0.33333334 4:1 5:0.80000001 6:0.80000001 7:0.26666668 8:-0.25 9:0.25 #
3.0376012715536173e-005 1:0 2:0.75 3:0.16666667 4:0.33333334 5:0.60000002 6:1 7:0.2 8:0 9:0 #
-3.0376012715536173e-005 1:0 2:0.75 3:0.16666667 4:0.33333334 5:0.60000002 6:1 7:0.2 8:0 9:0 #
-3.0376012715536173e-005 1:0 2:0.5 3:0.16666667 4:0.5 5:0.60000002 6:1 7:0.30000001 8:0 9:0.25 #
3.0376012715536173e-005 1:0 2:0.5 3:0.16666667 4:0.5 5:0.60000002 6:1 7:0.30000001 8:0 9:0.25 #
6.0752025431072345e-005 1:0 2:0.75 3:0.16666667 4:0.5 5:0.60000002 6:1 7:0.2 8:0 9:0 #
-3.0376012715536173e-005 1:0 2:0.75 3:0.16666667 4:0.5 5:0.60000002 6:1 7:0.2 8:0 9:0 #
-3.0376012715536173e-005 1:0 2:0.75 3:0.16666667 4:0.5 5:0.60000002 6:1 7:0.2 8:0 9:0 #
-3.0376012715536173e-005 1:0.11111111 2:0 3:0.33333334 4:0.5 5:0.60000002 6:0.75 7:0.60000002 8:-0.25 9:0.5 #
3.0376012715536173e-005 1:0.11111111 2:0 3:0.16666667 4:0.5 5:0.80000001 6:1 7:0.80000001 8:0 9:0.75 #
-3.0376012715536173e-005 1:0.11111111 2:0.5 3:0.16666667 4:0.5 5:0.60000002 6:1 7:0.30000001 8:0 9:0.25 #
3.0376012715536173e-005 1:0.11111111 2:0.5 3:0.16666667 4:0.5 5:0.60000002 6:1 7:0.30000001 8:0 9:0.25 #
-3.0376012715536173e-005 1:0.11111111 2:0.75 3:0.16666667 4:0.5 5:0.60000002 6:1 7:0.2 8:0 9:0 #
6.0752025431072345e-005 1:0.11111111 2:0.75 3:0.16666667 4:0.5 5:0.60000002 6:1 7:0.2 8:0 9:0 #
-3.0376012715536173e-005 1:0.11111111 2:0.75 3:0.16666667 4:0.5 5:0.60000002 6:1 7:0.2 8:0 9:0 #
-3.0376012715536173e-005 1:0 2:0 3:0.33333334 4:0.33333334 5:0.40000001 6:0.66666669 7:0.2 8:-0.25 9:0 #
3.0376012715536173e-005 1:0 2:0 3:0.16666667 4:0.33333334 5:0.60000002 6:1 7:0.30000001 8:0 9:0.25 #
-3.0376012715536173e-005 1:0 2:0.25 3:0.16666667 4:0.33333334 5:0.60000002 6:1 7:0.2 8:0 9:0 #
3.0376012715536173e-005 1:0 2:0.25 3:0.16666667 4:0.33333334 5:0.60000002 6:1 7:0.2 8:0 9:0 #
-3.0376012715536173e-005 1:0 2:0.75 3:0.16666667 4:0.33333334 5:0.40000001 6:1 7:0.2 8:0 9:0 #
3.0376012715536173e-005 1:0 2:0.75 3:0.16666667 4:0.33333334 5:0.40000001 6:1 7:0.2 8:0 9:0 #
3.0376012715536173e-005 1:0 2:0 3:0.16666667 4:0.33333334 5:0.60000002 6:1 7:0.2 8:0 9:0 #
-3.0376012715536173e-005 1:0 2:0 3:0.16666667 4:0.33333334 5:0.60000002 6:1 7:0.2 8:0 9:0 #
3.0376012715536173e-005 1:0 2:0.25 3:0.16666667 4:0.33333334 5:0.80000001 6:1 7:0.26666668 8:0 9:0.25 #
-3.0376012715536173e-005 1:0 2:0.25 3:0.33333334 4:0.33333334 5:0.60000002 6:0.75 7:0.2 8:-0.25 9:0 #
3.0376012715536149e-005 1:0 2:0.5 3:0.16666667 4:0.33333334 5:0.80000001 6:1 7:0.26666668 8:0 9:0.25 #
-3.0376012715536149e-005 1:0 2:0.5 3:0.33333334 4:0.33333334 5:0.60000002 6:0.75 7:0.2 8:-0.25 9:0 #
0.00014868751471287288 1:0.33333334 2:0.25 3:0.33333334 4:1 5:0.80000001 6:0.80000001 7:0.26666668 8:-0.25 9:0.25 #
-3.0376012715536173e-005 1:0.33333334 2:0.25 3:0.33333334 4:1 5:0.80000001 6:0.80000001 7:0.26666668 8:-0.25 9:0.25 #
-2.7183463850728186e-005 1:0.33333334 2:0.25 3:1 4:1 5:0.60000002 6:0.60000002 7:0.2 8:-0.5 9:0 #
-3.0376012715536173e-005 1:0.33333334 2:0.25 3:0.16666667 4:1 5:1 6:1 7:0.33333331 8:0 9:0.5 #
-3.0376012715536173e-005 1:0.33333334 2:0.25 3:0.33333334 4:1 5:0.80000001 6:0.80000001 7:0.26666668 8:-0.25 9:0.25 #
-3.0376012715536173e-005 1:0.33333334 2:0.25 3:0.33333334 4:1 5:0.80000001 6:0.80000001 7:0.26666668 8:-0.25 9:0.25 #
-3.0376012715536173e-005 1:0 2:0.5 3:0.16666667 4:0.33333334 5:0.60000002 6:1 7:0.2 8:0 9:0 #
3.0376012715536173e-005 1:0 2:0.5 3:0.16666667 4:0.33333334 5:0.60000002 6:1 7:0.2 8:0 9:0 #
-3.0376012715536173e-005 1:0.11111111 2:0 3:0.33333334 4:0.33333334 5:0.40000001 6:0.66666669 7:0.2 8:-0.25 9:0 #
3.0376012715536173e-005 1:0.11111111 2:0 3:0.16666667 4:0.33333334 5:0.60000002 6:1 7:0.30000001 8:0 9:0.25 #
3.0376012715536173e-005 1:0.11111111 2:0.25 3:0.16666667 4:0.33333334 5:0.60000002 6:1 7:0.2 8:0 9:0 #
-3.0376012715536173e-005 1:0.11111111 2:0.25 3:0.16666667 4:0.33333334 5:0.60000002 6:1 7:0.2 8:0 9:0 #
3.0376012715536173e-005 1:0.11111111 2:0.25 3:0.33333334 4:0.33333334 5:0.60000002 6:0.75 7:0.2 8:-0.25 9:0 #
-3.0376012715536173e-005 1:0.11111111 2:0.25 3:0.16666667 4:0.33333334 5:0.80000001 6:1 7:0.26666668 8:0 9:0.25 #
-3.0376012715536173e-005 1:0 2:0.75 3:0.16666667 4:0.33333334 5:0.60000002 6:1 7:0.2 8:0 9:0 #
3.0376012715536173e-005 1:0 2:0.75 3:0.16666667 4:0.33333334 5:0.60000002 6:1 7:0.2 8:0 9:0 #
-3.0376012715536173e-005 1:0.22222222 2:0 3:0.5 4:0.5 5:0.2 6:0.25 7:0.2 8:-0.75 9:0 #
-3.0376012715536173e-005 1:0.22222222 2:0 3:0.33333334 4:0.5 5:0.40000001 6:0.5 7:0.40000001 8:-0.5 9:0.25 #
6.0752025431072345e-005 1:0.22222222 2:0 3:0.16666667 4:0.5 5:0.80000001 6:1 7:0.80000001 8:0 9:0.75 #
-3.0376012715536173e-005 1:0.22222222 2:0.25 3:0.33333334 4:0.33333334 5:0.60000002 6:0.75 7:0.2 8:-0.25 9:0 #
3.0376012715536173e-005 1:0.22222222 2:0.25 3:0.16666667 4:0.33333334 5:0.80000001 6:1 7:0.26666668 8:0 9:0.25 #
-3.0376012715536173e-005 1:0.11111111 2:0.5 3:0.16666667 4:0.5 5:0.80000001 6:1 7:0.40000001 8:0 9:0.5 #
6.0752025431072345e-005 1:0.11111111 2:0.5 3:0.33333334 4:0.5 5:0.60000002 6:0.75 7:0.30000001 8:-0.25 9:0.25 #
-3.0376012715536173e-005 1:0.11111111 2:0.5 3:0.5 4:0.5 5:0.40000001 6:0.5 7:0.2 8:-0.5 9:0 #
-3.0376012715536173e-005 1:0 2:0.75 3:0.16666667 4:0.33333334 5:0.60000002 6:1 7:0.2 8:0 9:0 #
3.0376012715536173e-005 1:0 2:0.75 3:0.16666667 4:0.33333334 5:0.60000002 6:1 7:0.2 8:0 9:0 #
6.0752025431072345e-005 1:0.22222222 2:0 3:0.33333334 4:0.5 5:0.60000002 6:0.75 7:0.60000002 8:-0.25 9:0.5 #
-3.0376012715536173e-005 1:0.22222222 2:0 3:0.5 4:0.5 5:0.2 6:0.25 7:0.2 8:-0.75 9:0 #
-3.0376012715536173e-005 1:0.22222222 2:0 3:0.16666667 4:0.5 5:0.80000001 6:1 7:0.80000001 8:0 9:0.75 #
6.0752025431072345e-005 1:0.33333334 2:0 3:0.33333334 4:0.5 5:0.60000002 6:0.75 7:0.60000002 8:-0.25 9:0.5 #
-3.0376012715536173e-005 1:0.33333334 2:0 3:0.5 4:0.5 5:0.2 6:0.25 7:0.2 8:-0.75 9:0 #
-3.0376012715536173e-005 1:0.33333334 2:0 3:0.16666667 4:0.5 5:0.80000001 6:1 7:0.80000001 8:0 9:0.75 #
3.0376012715536173e-005 1:0.11111111 2:0.25 3:0.16666667 4:0.5 5:0.80000001 6:1 7:0.40000001 8:0 9:0.5 #
-3.0376012715536173e-005 1:0.11111111 2:0.25 3:0.33333334 4:0.5 5:0.60000002 6:0.75 7:0.30000001 8:-0.25 9:0.25 #
-3.0376012715536173e-005 1:0.11111111 2:0.5 3:0.33333334 4:0.33333334 5:0.80000001 6:0.80000001 7:0.2 8:-0.25 9:0 #
3.0376012715536173e-005 1:0.11111111 2:0.5 3:0.16666667 4:0.33333334 5:1 6:1 7:0.25 8:0 9:0.25 #
-3.0376012715536173e-005 1:0.11111111 2:1 3:0.66666669 4:0.66666669 5:0.40000001 6:0.5 7:0.2 8:-0.5 9:0 #
9.1128038146608511e-005 1:0.11111111 2:1 3:0.33333334 4:0.66666669 5:0.60000002 6:0.75 7:0.30000001 8:-0.25 9:0.25 #
-3.0376012715536173e-005 1:0.11111111 2:1 3:0.16666667 4:0.66666669 5:0.80000001 6:1 7:0.40000001 8:0 9:0.5 #
-3.0376012715536173e-005 1:0.11111111 2:1 3:0.33333334 4:0.66666669 5:0.60000002 6:0.75 7:0.30000001 8:-0.25 9:0.25 #
3.0376012715536173e-005 1:0.11111111 2:0 3:0.16666667 4:0.33333334 5:0.60000002 6:1 7:0.2 8:0 9:0 #
-3.0376012715536173e-005 1:0.11111111 2:0 3:0.16666667 4:0.33333334 5:0.60000002 6:1 7:0.2 8:0 9:0 #
3.0376012715536173e-005 1:0.11111111 2:0.25 3:0.16666667 4:0.33333334 5:0.80000001 6:1 7:0.26666668 8:0 9:0.25 #
-3.0376012715536173e-005 1:0.11111111 2:0.25 3:0.33333334 4:0.33333334 5:0.60000002 6:0.75 7:0.2 8:-0.25 9:0 #
-3.0376012715536173e-005 1:0.11111111 2:0.5 3:0.16666667 4:0.33333334 5:0.80000001 6:1 7:0.26666668 8:0 9:0.25 #
3.0376012715536173e-005 1:0.11111111 2:0.5 3:0.33333334 4:0.33333334 5:0.60000002 6:0.75 7:0.2 8:-0.25 9:0 #
3.0376012715536173e-005 1:0 2:0.75 3:0.16666667 4:0.5 5:0.80000001 6:1 7:0.40000001 8:0 9:0.5 #
-3.0376012715536173e-005 1:0 2:0.75 3:0.16666667 4:0.5 5:0.80000001 6:1 7:0.40000001 8:0 9:0.5 #
-2.2448924494743036e-007 1:0 2:1 3:0.33333334 4:0.5 5:0.80000001 6:0.80000001 7:0.26666668 8:-0.25 9:0.25 #
2.2448924494743036e-007 1:0 2:1 3:0.16666667 4:0.5 5:1 6:1 7:0.33333331 8:0 9:0.5 #
3.0376012715536173e-005 1:0.22222222 2:0 3:0.33333334 4:0.33333334 5:0.40000001 6:0.66666669 7:0.2 8:-0.25 9:0 #
-3.0376012715536173e-005 1:0.22222222 2:0 3:0.16666667 4:0.33333334 5:0.60000002 6:1 7:0.30000001 8:0 9:0.25 #
-3.0376012715536173e-005 1:0.44444445 2:0.25 3:0.33333334 4:1 5:0.80000001 6:0.80000001 7:0.26666668 8:-0.25 9:0.25 #
-3.0376012715536173e-005 1:0.44444445 2:0.25 3:0.33333334 4:1 5:0.80000001 6:0.80000001 7:0.26666668 8:-0.25 9:0.25 #
-3.0376012715536173e-005 1:0.44444445 2:0.25 3:1 4:1 5:0.60000002 6:0.60000002 7:0.2 8:-0.5 9:0 #
0.00012150405086214469 1:0.44444445 2:0.25 3:0.33333334 4:1 5:0.80000001 6:0.80000001 7:0.26666668 8:-0.25 9:0.25 #
-3.0376012715536173e-005 1:0.44444445 2:0.25 3:0.33333334 4:1 5:0.80000001 6:0.80000001 7:0.26666668 8:-0.25 9:0.25 #
3.0376012715536173e-005 1:0 2:1 3:0.16666667 4:0.5 5:0.60000002 6:1 7:0.30000001 8:0 9:0.25 #
-3.0376012715536173e-005 1:0 2:1 3:0.16666667 4:0.5 5:0.60000002 6:1 7:0.30000001 8:0 9:0.25 #
-3.0376012715536173e-005 1:0.33333334 2:0 3:0.5 4:0.5 5:0.2 6:0.25 7:0.2 8:-0.75 9:0 #
6.0752025431072345e-005 1:0.33333334 2:0 3:0.33333334 4:0.5 5:0.40000001 6:0.5 7:0.40000001 8:-0.5 9:0.25 #
-3.0376012715536173e-005 1:0.33333334 2:0 3:0.16666667 4:0.5 5:0.80000001 6:1 7:0.80000001 8:0 9:0.75 #
-3.0376012715536173e-005 1:0 2:0.25 3:0.33333334 4:0.33333334 5:0.60000002 6:0.75 7:0.2 8:-0.25 9:0 #
3.0376012715536173e-005 1:0 2:0.25 3:0.16666667 4:0.33333334 5:0.80000001 6:1 7:0.26666668 8:0 9:0.25 #
2.9208383490097017e-005 1:0 2:0.5 3:0.16666667 4:0.33333334 5:0.80000001 6:1 7:0.26666668 8:0 9:0.25 #
-2.9208383490097017e-005 1:0 2:0.5 3:0.33333334 4:0.33333334 5:0.60000002 6:0.75 7:0.2 8:-0.25 9:0 #
6.0752025431072345e-005 1:0.44444445 2:0 3:0.5 4:0.5 5:0.2 6:0.25 7:0.2 8:-0.75 9:0 #
-3.0376012715536173e-005 1:0.44444445 2:0 3:0.33333334 4:0.5 5:0.40000001 6:0.5 7:0.40000001 8:-0.5 9:0.25 #
-3.0376012715536173e-005 1:0.44444445 2:0 3:0.16666667 4:0.5 5:0.80000001 6:1 7:0.80000001 8:0 9:0.75 #
3.0376012715536173e-005 1:0 2:0 3:0.16666667 4:0.33333334 5:0.60000002 6:1 7:0.2 8:0 9:0 #
-3.0376012715536173e-005 1:0 2:0 3:0.16666667 4:0.33333334 5:0.60000002 6:1 7:0.2 8:0 9:0 #
6.0752025431072345e-005 1:0 2:0.5 3:0.16666667 4:0.5 5:0.80000001 6:1 7:0.2 8:0 9:0 #
-3.0376012715536173e-005 1:0 2:0.5 3:0.16666667 4:0.5 5:0.80000001 6:1 7:0.2 8:0 9:0 #
-3.0376012715536173e-005 1:0 2:0.5 3:0.16666667 4:0.5 5:0.80000001 6:1 7:0.2 8:0 9:0 #
-3.0376012715536173e-005 1:0 2:0.75 3:0.16666667 4:0.33333334 5:0.80000001 6:1 7:0.2 8:0 9:0 #
3.0376012715536173e-005 1:0 2:0.75 3:0.16666667 4:0.33333334 5:0.80000001 6:1 7:0.2 8:0 9:0 #
3.0376012715536173e-005 1:0.11111111 2:0 3:0.16666667 4:0.33333334 5:0.60000002 6:1 7:0.2 8:0 9:0 #
-3.0376012715536173e-005 1:0.11111111 2:0 3:0.16666667 4:0.33333334 5:0.60000002 6:1 7:0.2 8:0 9:0 #
6.0752025431072345e-005 1:0.11111111 2:0.5 3:0.16666667 4:0.5 5:0.80000001 6:1 7:0.2 8:0 9:0 #
-3.0376012715536173e-005 1:0.11111111 2:0.5 3:0.16666667 4:0.5 5:0.80000001 6:1 7:0.2 8:0 9:0 #
-3.0376012715536173e-005 1:0.11111111 2:0.5 3:0.16666667 4:0.5 5:0.80000001 6:1 7:0.2 8:0 9:0 #
3.0376012715536173e-005 1:0.11111111 2:0.75 3:0.16666667 4:0.33333334 5:0.80000001 6:1 7:0.2 8:0 9:0 #
-3.0376012715536173e-005 1:0.11111111 2:0.75 3:0.16666667 4:0.33333334 5:0.80000001 6:1 7:0.2 8:0 9:0 #
3.0376012715536173e-005 1:0 2:1 3:0.16666667 4:0.33333334 5:0.60000002 6:1 7:0.2 8:0 9:0 #
-3.0376012715536173e-005 1:0 2:1 3:0.16666667 4:0.33333334 5:0.60000002 6:1 7:0.2 8:0 9:0 #
3.0376012715536173e-005 1:0 2:0 3:0.16666667 4:0.33333334 5:0.80000001 6:1 7:0.2 8:0 9:0 #
-3.0376012715536173e-005 1:0 2:0 3:0.16666667 4:0.33333334 5:0.80000001 6:1 7:0.2 8:0 9:0 #
3.0376012715536173e-005 1:0 2:0.25 3:0.16666667 4:0.33333334 5:0.80000001 6:1 7:0.2 8:0 9:0 #
-3.0376012715536173e-005 1:0 2:0.25 3:0.16666667 4:0.33333334 5:0.80000001 6:1 7:0.2 8:0 9:0 #
-3.0376012715536173e-005 1:0 2:0.5 3:0.16666667 4:0.33333334 5:0.80000001 6:1 7:0.2 8:0 9:0 #
3.0376012715536173e-005 1:0 2:0.5 3:0.16666667 4:0.33333334 5:0.80000001 6:1 7:0.2 8:0 9:0 #
3.0376012715536173e-005 1:0 2:0.75 3:0.16666667 4:0.5 5:1 6:1 7:0.25 8:0 9:0.25 #
-3.0376012715536173e-005 1:0 2:0.75 3:0.16666667 4:0.5 5:1 6:1 7:0.25 8:0 9:0.25 #
-3.0376012715536173e-005 1:0 2:1 3:0.16666667 4:0.5 5:0.80000001 6:1 7:0.26666668 8:0 9:0.25 #
3.0376012715536173e-005 1:0 2:1 3:0.16666667 4:0.5 5:0.80000001 6:1 7:0.26666668 8:0 9:0.25 #
3.0376012715536173e-005 1:0.22222222 2:0 3:0.16666667 4:0.33333334 5:0.60000002 6:1 7:0.2 8:0 9:0 #
-3.0376012715536173e-005 1:0.22222222 2:0 3:0.16666667 4:0.33333334 5:0.60000002 6:1 7:0.2 8:0 9:0 #
-3.0376012715536173e-005 1:0.22222222 2:0.5 3:0.16666667 4:0.5 5:0.80000001 6:1 7:0.2 8:0 9:0 #
6.0752025431072345e-005 1:0.22222222 2:0.5 3:0.16666667 4:0.5 5:0.80000001 6:1 7:0.2 8:0 9:0 #
-3.0376012715536173e-005 1:0.22222222 2:0.5 3:0.16666667 4:0.5 5:0.80000001 6:1 7:0.2 8:0 9:0 #
3.0376012715536173e-005 1:0.33333334 2:0 3:0.16666667 4:0.33333334 5:0.60000002 6:1 7:0.2 8:0 9:0 #
-3.0376012715536173e-005 1:0.33333334 2:0 3:0.16666667 4:0.33333334 5:0.60000002 6:1 7:0.2 8:0 9:0 #
-3.0376012715536173e-005 1:0.33333334 2:0.5 3:0.16666667 4:0.5 5:0.80000001 6:1 7:0.2 8:0 9:0 #
-3.0376012715536173e-005 1:0.33333334 2:0.5 3:0.16666667 4:0.5 5:0.80000001 6:1 7:0.2 8:0 9:0 #
6.0752025431072345e-005 1:0.33333334 2:0.5 3:0.16666667 4:0.5 5:0.80000001 6:1 7:0.2 8:0 9:0 #
-3.0376012715536173e-005 1:0 2:0.75 3:0.33333334 4:0.5 5:0.40000001 6:0.66666669 7:0.2 8:-0.25 9:0 #
6.0752025431072345e-005 1:0 2:0.75 3:0.33333334 4:0.5 5:0.40000001 6:0.66666669 7:0.2 8:-0.25 9:0 #
-3.0376012715536173e-005 1:0 2:0.75 3:0.16666667 4:0.5 5:0.60000002 6:1 7:0.30000001 8:0 9:0.25 #
-3.0376012715536173e-005 1:0 2:1 3:0.16666667 4:0.5 5:0.60000002 6:1 7:0.2 8:0 9:0 #
-3.0376012715536173e-005 1:0 2:1 3:0.16666667 4:0.5 5:0.60000002 6:1 7:0.2 8:0 9:0 #
6.0752025431072345e-005 1:0 2:1 3:0.16666667 4:0.5 5:0.60000002 6:1 7:0.2 8:0 9:0 #
-3.0376012715536173e-005 1:0.11111111 2:0 3:0.16666667 4:0.33333334 5:0.80000001 6:1 7:0.2 8:0 9:0 #
3.0376012715536173e-005 1:0.11111111 2:0 3:0.16666667 4:0.33333334 5:0.80000001 6:1 7:0.2 8:0 9:0 #
-3.0376012715536173e-005 1:0 2:0.25 3:0.16666667 4:0.33333334 5:0.60000002 6:1 7:0.2 8:0 9:0 #
3.0376012715536173e-005 1:0 2:0.25 3:0.16666667 4:0.33333334 5:0.60000002 6:1 7:0.2 8:0 9:0 #
-3.0376012715536173e-005 1:0 2:1 3:0.16666667 4:0.33333334 5:0.60000002 6:1 7:0.2 8:0 9:0 #
3.0376012715536173e-005 1:0 2:1 3:0.16666667 4:0.33333334 5:0.60000002 6:1 7:0.2 8:0 9:0 #
-3.0376012715536173e-005 1:0 2:0 3:0.16666667 4:0.33333334 5:0.60000002 6:1 7:0.2 8:0 9:0 #
3.0376012715536173e-005 1:0 2:0 3:0.16666667 4:0.33333334 5:0.60000002 6:1 7:0.2 8:0 9:0 #
3.0376012715536173e-005 1:0 2:0.25 3:0.16666667 4:0.33333334 5:0.80000001 6:1 7:0.2 8:0 9:0 #
-3.0376012715536173e-005 1:0 2:0.25 3:0.16666667 4:0.33333334 5:0.80000001 6:1 7:0.2 8:0 9:0 #
-3.0376012715536173e-005 1:0 2:0.5 3:0.16666667 4:0.33333334 5:1 6:1 7:0.2 8:0 9:0 #
3.0376012715536173e-005 1:0 2:0.5 3:0.16666667 4:0.33333334 5:1 6:1 7:0.2 8:0 9:0 #
6.0752025431072345e-005 1:0 2:0 3:0.16666667 4:0.5 5:0.60000002 6:1 7:0.2 8:0 9:0 #
-3.0376012715536173e-005 1:0 2:0 3:0.16666667 4:0.5 5:0.60000002 6:1 7:0.2 8:0 9:0 #
-3.0376012715536173e-005 1:0 2:0 3:0.16666667 4:0.5 5:0.60000002 6:1 7:0.2 8:0 9:0 #
6.0752025431072345e-005 1:0 2:0.25 3:0.16666667 4:0.5 5:0.60000002 6:1 7:0.2 8:0 9:0 #
-3.0376012715536173e-005 1:0 2:0.25 3:0.16666667 4:0.5 5:0.60000002 6:1 7:0.2 8:0 9:0 #
-3.0376012715536173e-005 1:0 2:0.25 3:0.16666667 4:0.5 5:0.60000002 6:1 7:0.2 8:0 9:0 #
-3.0376012715536173e-005 1:0 2:0.5 3:0.16666667 4:0.33333334 5:0.60000002 6:1 7:0.2 8:0 9:0 #
3.0376012715536173e-005 1:0 2:0.5 3:0.16666667 4:0.33333334 5:0.60000002 6:1 7:0.2 8:0 9:0 #
9.1128038146608511e-005 1:0 2:1 3:0.16666667 4:0.66666669 5:0.60000002 6:1 7:0.2 8:0 9:0 #
-3.0376012715536173e-005 1:0 2:1 3:0.16666667 4:0.66666669 5:0.60000002 6:1 7:0.2 8:0 9:0 #
-3.0376012715536173e-005 1:0 2:1 3:0.16666667 4:0.66666669 5:0.60000002 6:1 7:0.2 8:0 9:0 #
-3.0376012715536173e-005 1:0 2:1 3:0.16666667 4:0.66666669 5:0.60000002 6:1 7:0.2 8:0 9:0 #
-3.0376012715536173e-005 1:0.44444445 2:0 3:0.16666667 4:0.33333334 5:0.60000002 6:1 7:0.2 8:0 9:0 #
3.0376012715536173e-005 1:0.44444445 2:0 3:0.16666667 4:0.33333334 5:0.60000002 6:1 7:0.2 8:0 9:0 #
3.0376012715536173e-005 1:0 2:0.25 3:0.16666667 4:1 5:0.80000001 6:1 7:0.80000001 8:0 9:0.75 #
-3.0376012715536173e-005 1:0 2:0.25 3:0.16666667 4:1 5:0.80000001 6:1 7:0.80000001 8:0 9:0.75 #
-3.0376012715536173e-005 1:0 2:0.5 3:0.16666667 4:0.33333334 5:0.80000001 6:1 7:0.2 8:0 9:0 #
3.0376012715536173e-005 1:0 2:0.5 3:0.16666667 4:0.33333334 5:0.80000001 6:1 7:0.2 8:0 9:0 #
-3.0376012715536173e-005 1:0.11111111 2:0 3:0.16666667 4:0.33333334 5:0.60000002 6:1 7:0.2 8:0 9:0 #
3.0376012715536173e-005 1:0.11111111 2:0 3:0.16666667 4:0.33333334 5:0.60000002 6:1 7:0.2 8:0 9:0 #
-3.0376012715536173e-005 1:0.11111111 2:0.25 3:0.16666667 4:0.33333334 5:0.80000001 6:1 7:0.2 8:0 9:0 #
3.0376012715536173e-005 1:0.11111111 2:0.25 3:0.16666667 4:0.33333334 5:0.80000001 6:1 7:0.2 8:0 9:0 #
3.0376012715536173e-005 1:0 2:1 3:0.16666667 4:0.33333334 5:0.60000002 6:1 7:0.2 8:0 9:0 #
-3.0376012715536173e-005 1:0 2:1 3:0.16666667 4:0.33333334 5:0.60000002 6:1 7:0.2 8:0 9:0 #
-3.0376012715536173e-005 1:0.55555558 2:0 3:0.16666667 4:0.33333334 5:0.60000002 6:1 7:0.2 8:0 9:0 #
3.0376012715536173e-005 1:0.55555558 2:0 3:0.16666667 4:0.33333334 5:0.60000002 6:1 7:0.2 8:0 9:0 #
-3.0376012715536173e-005 1:0.11111111 2:0.25 3:0.16666667 4:1 5:0.80000001 6:1 7:0.80000001 8:0 9:0.75 #
-3.0376012715536173e-005 1:0.11111111 2:0.25 3:0.66666669 4:1 5:0.2 6:0.25 7:0.2 8:-0.75 9:0 #
0.00012150405086214469 1:0.11111111 2:0.25 3:0.16666667 4:1 5:0.80000001 6:1 7:0.80000001 8:0 9:0.75 #
-3.0376012715536173e-005 1:0.11111111 2:0.25 3:0.66666669 4:1 5:0.2 6:0.25 7:0.2 8:-0.75 9:0 #
-3.0376012715536173e-005 1:0.11111111 2:0.25 3:0.66666669 4:1 5:0.2 6:0.25 7:0.2 8:-0.75 9:0 #
3.0376012715536173e-005 1:0 2:0.5 3:0.16666667 4:0.33333334 5:0.60000002 6:1 7:0.2 8:0 9:0 #
-3.0376012715536173e-005 1:0 2:0.5 3:0.16666667 4:0.33333334 5:0.60000002 6:1 7:0.2 8:0 9:0 #
3.0376012715536173e-005 1:0.22222222 2:0 3:0.16666667 4:0.33333334 5:0.60000002 6:1 7:0.2 8:0 9:0 #
-3.0376012715536173e-005 1:0.22222222 2:0 3:0.16666667 4:0.33333334 5:0.60000002 6:1 7:0.2 8:0 9:0 #
-3.0376012715536173e-005 1:0.11111111 2:0 3:0.16666667 4:0.5 5:0.60000002 6:1 7:0.2 8:0 9:0 #
6.0752025431072345e-005 1:0.11111111 2:0 3:0.16666667 4:0.5 5:0.60000002 6:1 7:0.2 8:0 9:0 #
-3.0376012715536173e-005 1:0.11111111 2:0 3:0.16666667 4:0.5 5:0.60000002 6:1 7:0.2 8:0 9:0 #
-3.0376012715536173e-005 1:0.66666669 2:0 3:0.16666667 4:0.33333334 5:0.60000002 6:1 7:0.2 8:0 9:0 #
3.0376012715536173e-005 1:0.66666669 2:0 3:0.16666667 4:0.33333334 5:0.60000002 6:1 7:0.2 8:0 9:0 #
-3.0376012715536173e-005 1:0.22222222 2:0.25 3:0.16666667 4:1 5:0.80000001 6:1 7:0.80000001 8:0 9:0.75 #
-3.0376012715536173e-005 1:0.22222222 2:0.25 3:0.66666669 4:1 5:0.2 6:0.25 7:0.2 8:-0.75 9:0 #
-3.0376012715536173e-005 1:0.22222222 2:0.25 3:0.5 4:1 5:0.40000001 6:0.5 7:0.40000001 8:-0.5 9:0.25 #
-3.0376012715536173e-005 1:0.22222222 2:0.25 3:0.16666667 4:1 5:0.80000001 6:1 7:0.80000001 8:0 9:0.75 #
-3.0376012715536173e-005 1:0.22222222 2:0.25 3:0.66666669 4:1 5:0.2 6:0.25 7:0.2 8:-0.75 9:0 #
0.00015188006357768087 1:0.22222222 2:0.25 3:0.66666669 4:1 5:0.2 6:0.25 7:0.2 8:-0.75 9:0 #
3.0376012715536173e-005 1:0 2:0.75 3:0.16666667 4:0.33333334 5:0.60000002 6:1 7:0.2 8:0 9:0 #
-3.0376012715536173e-005 1:0 2:0.75 3:0.16666667 4:0.33333334 5:0.60000002 6:1 7:0.2 8:0 9:0 #
-3.0376012715536173e-005 1:0.22222222 2:0 3:0.16666667 4:0.5 5:0.60000002 6:1 7:0.2 8:0 9:0 #
-3.0376012715536173e-005 1:0.22222222 2:0 3:0.16666667 4:0.5 5:0.60000002 6:1 7:0.2 8:0 9:0 #
6.0752025431072345e-005 1:0.22222222 2:0 3:0.16666667 4:0.5 5:0.60000002 6:1 7:0.2 8:0 9:0 #
-3.0376012715536173e-005 1:0 2:0.5 3:0.16666667 4:0.5 5:0.60000002 6:1 7:0.2 8:0 9:0 #
-3.0376012715536173e-005 1:0 2:0.5 3:0.16666667 4:0.5 5:0.60000002 6:1 7:0.2 8:0 9:0 #
6.0752025431072345e-005 1:0 2:0.5 3:0.16666667 4:0.5 5:0.60000002 6:1 7:0.2 8:0 9:0 #
3.0376012715536173e-005 1:0 2:1 3:0.16666667 4:0.33333334 5:0.60000002 6:1 7:0.2 8:0 9:0 #
-3.0376012715536173e-005 1:0 2:1 3:0.16666667 4:0.33333334 5:0.60000002 6:1 7:0.2 8:0 9:0 #
-3.0376012715536173e-005 1:0.33333334 2:0 3:0.16666667 4:0.5 5:0.60000002 6:1 7:0.2 8:0 9:0 #
-3.0376012715536173e-005 1:0.33333334 2:0 3:0.16666667 4:0.5 5:0.60000002 6:1 7:0.2 8:0 9:0 #
6.0752025431072345e-005 1:0.33333334 2:0 3:0.16666667 4:0.5 5:0.60000002 6:1 7:0.2 8:0 9:0 #
6.0752025431072345e-005 1:0.11111111 2:0.5 3:0.16666667 4:0.5 5:0.60000002 6:1 7:0.2 8:0 9:0 #
-3.0376012715536173e-005 1:0.11111111 2:0.5 3:0.16666667 4:0.5 5:0.60000002 6:1 7:0.2 8:0 9:0 #
-3.0376012715536173e-005 1:0.11111111 2:0.5 3:0.16666667 4:0.5 5:0.60000002 6:1 7:0.2 8:0 9:0 #
-3.0376012715536173e-005 1:0 2:0 3:0.16666667 4:0.5 5:0.60000002 6:1 7:0.2 8:0 9:0 #
-3.0376012715536173e-005 1:0 2:0 3:0.16666667 4:0.5 5:0.60000002 6:1 7:0.2 8:0 9:0 #
6.0752025431072345e-005 1:0 2:0 3:0.16666667 4:0.5 5:0.60000002 6:1 7:0.2 8:0 9:0 #
-3.0376012715536173e-005 1:0 2:0.25 3:0.16666667 4:0.33333334 5:0.80000001 6:1 7:0.2 8:0 9:0 #
3.0376012715536173e-005 1:0 2:0.25 3:0.16666667 4:0.33333334 5:0.80000001 6:1 7:0.2 8:0 9:0 #
6.0752025431072345e-005 1:0 2:0.5 3:0.16666667 4:0.5 5:0.60000002 6:1 7:0.2 8:0 9:0 #
-3.0376012715536173e-005 1:0 2:0.5 3:0.16666667 4:0.5 5:0.60000002 6:1 7:0.2 8:0 9:0 #
-3.0376012715536173e-005 1:0 2:0.5 3:0.16666667 4:0.5 5:0.60000002 6:1 7:0.2 8:0 9:0 #
3.0376012715536173e-005 1:0 2:1 3:0.16666667 4:0.33333334 5:0.60000002 6:1 7:0.2 8:0 9:0 #
-3.0376012715536173e-005 1:0 2:1 3:0.16666667 4:0.33333334 5:0.60000002 6:1 7:0.2 8:0 9:0 #
3.0376012715536173e-005 1:0.22222222 2:0 3:0.16666667 4:0.33333334 5:0.80000001 6:1 7:0.2 8:0 9:0 #
-3.0376012715536173e-005 1:0.22222222 2:0 3:0.16666667 4:0.33333334 5:0.80000001 6:1 7:0.2 8:0 9:0 #
-3.0376012715536173e-005 1:0.11111111 2:0.25 3:0.16666667 4:0.33333334 5:0.80000001 6:1 7:0.2 8:0 9:0 #
3.0376012715536173e-005 1:0.11111111 2:0.25 3:0.16666667 4:0.33333334 5:0.80000001 6:1 7:0.2 8:0 9:0 #
-3.0376012715536173e-005 1:0 2:0.5 3:0.16666667 4:0.66666669 5:0.80000001 6:1 7:0.2 8:0 9:0 #
-3.0376012715536173e-005 1:0 2:0.5 3:0.16666667 4:0.66666669 5:0.80000001 6:1 7:0.2 8:0 9:0 #
9.1128038146608511e-005 1:0 2:0.5 3:0.16666667 4:0.66666669 5:0.80000001 6:1 7:0.2 8:0 9:0 #
-3.0376012715536173e-005 1:0 2:0.5 3:0.16666667 4:0.66666669 5:0.80000001 6:1 7:0.2 8:0 9:0 #
3.0376012715536173e-005 1:0.33333334 2:0 3:0.16666667 4:0.33333334 5:0.60000002 6:1 7:0.2 8:0 9:0 #
-3.0376012715536173e-005 1:0.33333334 2:0 3:0.16666667 4:0.33333334 5:0.60000002 6:1 7:0.2 8:0 9:0 #
-3.0376012715536173e-005 1:0.44444445 2:0 3:0.16666667 4:0.33333334 5:0.60000002 6:1 7:0.2 8:0 9:0 #
3.0376012715536173e-005 1:0.44444445 2:0 3:0.16666667 4:0.33333334 5:0.60000002 6:1 7:0.2 8:0 9:0 #
3.0376012715536173e-005 1:0.22222222 2:0.25 3:0.16666667 4:0.33333334 5:0.80000001 6:1 7:0.2 8:0 9:0 #
-3.0376012715536173e-005 1:0.22222222 2:0.25 3:0.16666667 4:0.33333334 5:0.80000001 6:1 7:0.2 8:0 9:0 #
3.0376012715536173e-005 1:0.11111111 2:0.5 3:0.16666667 4:0.33333334 5:1 6:1 7:0.2 8:0 9:0 #
-3.0376012715536173e-005 1:0.11111111 2:0.5 3:0.16666667 4:0.33333334 5:1 6:1 7:0.2 8:0 9:0 #
3.0376012715536173e-005 1:0 2:0.75 3:0.16666667 4:0.33333334 5:0.60000002 6:1 7:0.2 8:0 9:0 #
-3.0376012715536173e-005 1:0 2:0.75 3:0.16666667 4:0.33333334 5:0.60000002 6:1 7:0.2 8:0 9:0 #
-3.0376012715536173e-005 1:0 2:0 3:0.5 4:0.5 5:0.2 6:0.2 7:0.2 8:-1 9:0 #
6.0752025431072345e-005 1:0 2:0 3:0.33333334 4:0.5 5:0.80000001 6:0.80000001 7:0.80000001 8:-0.25 9:0.75 #
-3.0376012715536173e-005 1:0 2:0 3:0.16666667 4:0.5 5:1 6:1 7:1 8:0 9:1 #
3.0376012715536173e-005 1:0 2:0.5 3:0.16666667 4:0.33333334 5:0.80000001 6:1 7:0.2 8:0 9:0 #
-3.0376012715536173e-005 1:0 2:0.5 3:0.16666667 4:0.33333334 5:0.80000001 6:1 7:0.2 8:0 9:0 #
6.0752025431072345e-005 1:0.11111111 2:0 3:0.5 4:0.5 5:0.2 6:0.2 7:0.2 8:-1 9:0 #
-3.0376012715536173e-005 1:0.11111111 2:0 3:0.33333334 4:0.5 5:0.80000001 6:0.80000001 7:0.80000001 8:-0.25 9:0.75 #
-3.0376012715536173e-005 1:0.11111111 2:0 3:0.16666667 4:0.5 5:1 6:1 7:1 8:0 9:1 #
6.0752025431072345e-005 1:0.22222222 2:0 3:0.5 4:0.5 5:0.2 6:0.2 7:0.2 8:-1 9:0 #
-3.0376012715536173e-005 1:0.22222222 2:0 3:0.33333334 4:0.5 5:0.80000001 6:0.80000001 7:0.80000001 8:-0.25 9:0.75 #
-3.0376012715536173e-005 1:0.22222222 2:0 3:0.16666667 4:0.5 5:1 6:1 7:1 8:0 9:1 #
6.0752025431072345e-005 1:0.11111111 2:0.25 3:0.33333334 4:0.5 5:0.40000001 6:0.5 7:0.2 8:-0.5 9:0 #
-3.0376012715536173e-005 1:0.11111111 2:0.25 3:0.16666667 4:0.5 5:0.80000001 6:1 7:0.40000001 8:0 9:0.5 #
-3.0376012715536173e-005 1:0.11111111 2:0.25 3:0.33333334 4:0.5 5:0.40000001 6:0.5 7:0.2 8:-0.5 9:0 #
-3.0376012715536173e-005 1:0.11111111 2:0 3:0.33333334 4:0.5 5:0.40000001 6:0.5 7:0.2 8:-0.5 9:0 #
6.0752025431072345e-005 1:0.11111111 2:0 3:0.33333334 4:0.5 5:0.40000001 6:0.5 7:0.2 8:-0.5 9:0 #
-3.0376012715536173e-005 1:0.11111111 2:0 3:0.16666667 4:0.5 5:0.80000001 6:1 7:0.40000001 8:0 9:0.5 #
3.0376012715536173e-005 1:0.11111111 2:0.25 3:0.16666667 4:0.33333334 5:0.80000001 6:1 7:0.80000001 8:0 9:0.75 #
-3.0376012715536173e-005 1:0.11111111 2:0.25 3:0.33333334 4:0.33333334 5:0.2 6:0.25 7:0.2 8:-0.75 9:0 #
-3.0376012715536173e-005 1:0.11111111 2:0.5 3:0.16666667 4:0.33333334 5:0.80000001 6:1 7:0.2 8:0 9:0 #
3.0376012715536173e-005 1:0.11111111 2:0.5 3:0.16666667 4:0.33333334 5:0.80000001 6:1 7:0.2 8:0 9:0 #
6.0752025431072345e-005 1:0.33333334 2:0 3:0.33333334 4:0.5 5:0.40000001 6:0.5 7:0.2 8:-0.5 9:0 #
-3.0376012715536173e-005 1:0.33333334 2:0 3:0.33333334 4:0.5 5:0.40000001 6:0.5 7:0.2 8:-0.5 9:0 #
-3.0376012715536173e-005 1:0.33333334 2:0 3:0.16666667 4:0.5 5:0.80000001 6:1 7:0.40000001 8:0 9:0.5 #
-3.0376012715536173e-005 1:0.11111111 2:0.5 3:0.33333334 4:0.66666669 5:0.60000002 6:0.75 7:0.30000001 8:-0.25 9:0.25 #
6.0752025431072345e-005 1:0.11111111 2:0.5 3:0.16666667 4:0.66666669 5:0.80000001 6:1 7:0.40000001 8:0 9:0.5 #
-3.0376012715536173e-005 1:0.11111111 2:0.5 3:0.33333334 4:0.66666669 5:0.60000002 6:0.75 7:0.30000001 8:-0.25 9:0.25 #
7.8043764939044037e-006 1:0 2:0.75 3:0.16666667 4:0.33333334 5:1 6:1 7:1 8:0 9:1 #
-7.8043764939044037e-006 1:0 2:0.75 3:0.33333334 4:0.33333334 5:0.2 6:0.2 7:0.2 8:-1 9:0 #
6.0752025431072345e-005 1:0.33333334 2:0 3:0.5 4:0.5 5:0.2 6:0.2 7:0.2 8:-1 9:0 #
-3.0376012715536173e-005 1:0.33333334 2:0 3:0.33333334 4:0.5 5:0.80000001 6:0.80000001 7:0.80000001 8:-0.25 9:0.75 #
-3.0376012715536173e-005 1:0.33333334 2:0 3:0.16666667 4:0.5 5:1 6:1 7:1 8:0 9:1 #
6.0752025431072345e-005 1:0.22222222 2:0.25 3:0.33333334 4:0.5 5:0.40000001 6:0.5 7:0.2 8:-0.5 9:0 #
-3.0376012715536173e-005 1:0.22222222 2:0.25 3:0.16666667 4:0.5 5:0.80000001 6:1 7:0.40000001 8:0 9:0.5 #
-3.0376012715536173e-005 1:0.22222222 2:0.25 3:0.33333334 4:0.5 5:0.40000001 6:0.5 7:0.2 8:-0.5 9:0 #
-3.0376012715536173e-005 1:0.11111111 2:0.5 3:0.33333334 4:0.33333334 5:0.40000001 6:0.5 7:0.2 8:-0.5 9:0 #
3.0376012715536173e-005 1:0.11111111 2:0.5 3:0.16666667 4:0.33333334 5:0.80000001 6:1 7:0.40000001 8:0 9:0.5 #
-2.1656992403463966e-005 1:0.11111111 2:1 3:0.5 4:0.66666669 5:0.40000001 6:0.5 7:0.2 8:-0.5 9:0 #
8.2369711414983642e-005 1:0.11111111 2:1 3:0.16666667 4:0.66666669 5:0.80000001 6:1 7:0.40000001 8:0 9:0.5 #
-3.0376012715536173e-005 1:0.11111111 2:1 3:0.33333334 4:0.66666669 5:0.60000002 6:0.75 7:0.30000001 8:-0.25 9:0.25 #
-3.03367062959835e-005 1:0.11111111 2:1 3:0.5 4:0.66666669 5:0.40000001 6:0.5 7:0.2 8:-0.5 9:0 #
-3.0376012715536173e-005 1:0.44444445 2:0 3:0.33333334 4:0.5 5:0.40000001 6:0.5 7:0.2 8:-0.5 9:0 #
-3.0376012715536173e-005 1:0.44444445 2:0 3:0.33333334 4:0.5 5:0.40000001 6:0.5 7:0.2 8:-0.5 9:0 #
6.0752025431072345e-005 1:0.44444445 2:0 3:0.16666667 4:0.5 5:0.80000001 6:1 7:0.40000001 8:0 9:0.5 #
3.0376012715536173e-005 1:0.22222222 2:0.25 3:0.16666667 4:0.33333334 5:0.80000001 6:1 7:0.80000001 8:0 9:0.75 #
-3.0376012715536173e-005 1:0.22222222 2:0.25 3:0.33333334 4:0.33333334 5:0.2 6:0.25 7:0.2 8:-0.75 9:0 #
3.0376012715536173e-005 1:0.22222222 2:0.5 3:0.16666667 4:0.33333334 5:0.80000001 6:1 7:0.2 8:0 9:0 #
-3.0376012715536173e-005 1:0.22222222 2:0.5 3:0.16666667 4:0.33333334 5:0.80000001 6:1 7:0.2 8:0 9:0 #
-3.0376012715536173e-005 1:0.22222222 2:0 3:0.16666667 4:0.33333334 5:0.80000001 6:1 7:0.40000001 8:0 9:0.5 #
3.0376012715536173e-005 1:0.22222222 2:0 3:0.33333334 4:0.33333334 5:0.40000001 6:0.5 7:0.2 8:-0.5 9:0 #
3.0376012715536173e-005 1:0.33333334 2:0 3:0.16666667 4:0.33333334 5:0.80000001 6:1 7:0.40000001 8:0 9:0.5 #
-3.0376012715536173e-005 1:0.33333334 2:0 3:0.33333334 4:0.33333334 5:0.40000001 6:0.5 7:0.2 8:-0.5 9:0 #
3.0376012715536173e-005 1:0.22222222 2:0.25 3:0.33333334 4:0.33333334 5:0.40000001 6:0.5 7:0.2 8:-0.5 9:0 #
-3.0376012715536173e-005 1:0.22222222 2:0.25 3:0.16666667 4:0.33333334 5:0.80000001 6:1 7:0.40000001 8:0 9:0.5 #
3.0376012715536173e-005 1:0.11111111 2:0 3:0.33333334 4:0.33333334 5:0.40000001 6:0.40000001 7:0.2 8:-0.75 9:0 #
-3.0376012715536173e-005 1:0.11111111 2:0 3:0.16666667 4:0.33333334 5:1 6:1 7:0.5 8:0 9:0.75 #
-3.0376012715536173e-005 1:0.55555558 2:0 3:0.33333334 4:0.5 5:0.40000001 6:0.5 7:0.2 8:-0.5 9:0 #
-3.0376012715536173e-005 1:0.55555558 2:0 3:0.33333334 4:0.5 5:0.40000001 6:0.5 7:0.2 8:-0.5 9:0 #
6.0752025431072345e-005 1:0.55555558 2:0 3:0.16666667 4:0.5 5:0.80000001 6:1 7:0.40000001 8:0 9:0.5 #
3.0376012715536173e-005 1:0.33333334 2:0.25 3:0.16666667 4:0.33333334 5:0.80000001 6:1 7:0.80000001 8:0 9:0.75 #
-3.0376012715536173e-005 1:0.33333334 2:0.25 3:0.33333334 4:0.33333334 5:0.2 6:0.25 7:0.2 8:-0.75 9:0 #
-3.0376012715536173e-005 1:0.33333334 2:0.5 3:0.16666667 4:0.33333334 5:0.80000001 6:1 7:0.2 8:0 9:0 #
3.0376012715536173e-005 1:0.33333334 2:0.5 3:0.16666667 4:0.33333334 5:0.80000001 6:1 7:0.2 8:0 9:0 #
-3.0376012715536173e-005 1:0.11111111 2:0.75 3:0.16666667 4:0.33333334 5:0.80000001 6:1 7:0.40000001 8:0 9:0.5 #
3.0376012715536173e-005 1:0.11111111 2:0.75 3:0.33333334 4:0.33333334 5:0.40000001 6:0.5 7:0.2 8:-0.5 9:0 #
3.0376012715536173e-005 1:0.44444445 2:0.25 3:0.16666667 4:0.33333334 5:0.80000001 6:1 7:0.80000001 8:0 9:0.75 #
-3.0376012715536173e-005 1:0.44444445 2:0.25 3:0.33333334 4:0.33333334 5:0.2 6:0.25 7:0.2 8:-0.75 9:0 #
3.0376012715536173e-005 1:0.44444445 2:0.5 3:0.16666667 4:0.33333334 5:0.80000001 6:1 7:0.2 8:0 9:0 #
-3.0376012715536173e-005 1:0.44444445 2:0.5 3:0.16666667 4:0.33333334 5:0.80000001 6:1 7:0.2 8:0 9:0 #
-3.0376012715536173e-005 1:0.33333334 2:0.25 3:0.33333334 4:0.33333334 5:0.40000001 6:0.5 7:0.2 8:-0.5 9:0 #
3.0376012715536173e-005 1:0.33333334 2:0.25 3:0.16666667 4:0.33333334 5:0.80000001 6:1 7:0.40000001 8:0 9:0.5 #
-3.0376012715536173e-005 1:0.22222222 2:0.5 3:0.33333334 4:0.66666669 5:0.60000002 6:0.75 7:0.30000001 8:-0.25 9:0.25 #
-3.0376012715536173e-005 1:0.22222222 2:0.5 3:0.16666667 4:0.66666669 5:0.80000001 6:1 7:0.40000001 8:0 9:0.5 #
-3.0376012715536173e-005 1:0.22222222 2:0.5 3:0.33333334 4:0.66666669 5:0.60000002 6:0.75 7:0.30000001 8:-0.25 9:0.25 #
9.1128038146608511e-005 1:0.22222222 2:0.5 3:0.66666669 4:0.66666669 5:0.40000001 6:0.5 7:0.2 8:-0.5 9:0 #
-3.0376012715536173e-005 1:0.22222222 2:0 3:0.33333334 4:0.33333334 5:0.40000001 6:0.40000001 7:0.2 8:-0.75 9:0 #
3.0376012715536173e-005 1:0.22222222 2:0 3:0.16666667 4:0.33333334 5:1 6:1 7:0.5 8:0 9:0.75 #
0.00015188006357768087 1:0.11111111 2:0.25 3:0.66666669 4:1 5:0.40000001 6:0.40000001 7:0.2 8:-0.75 9:0 #
-3.0376012715536173e-005 1:0.11111111 2:0.25 3:0.66666669 4:1 5:0.40000001 6:0.40000001 7:0.2 8:-0.75 9:0 #
-3.0376012715536173e-005 1:0.11111111 2:0.25 3:0.66666669 4:1 5:0.40000001 6:0.40000001 7:0.2 8:-0.75 9:0 #
-3.0376012715536173e-005 1:0.11111111 2:0.25 3:0.5 4:1 5:0.60000002 6:0.60000002 7:0.30000001 8:-0.5 9:0.25 #
-3.0376012715536173e-005 1:0.11111111 2:0.25 3:0.33333334 4:1 5:0.80000001 6:0.80000001 7:0.40000001 8:-0.25 9:0.5 #
-3.0376012715536173e-005 1:0.11111111 2:0.25 3:0.16666667 4:1 5:1 6:1 7:0.5 8:0 9:0.75 #
-3.0376012715536173e-005 1:0.33333334 2:0 3:0.33333334 4:0.33333334 5:0.40000001 6:0.40000001 7:0.2 8:-0.75 9:0 #
3.0376012715536173e-005 1:0.33333334 2:0 3:0.16666667 4:0.33333334 5:1 6:1 7:0.5 8:0 9:0.75 #
-3.0376012715536173e-005 1:0.22222222 2:0.25 3:0.66666669 4:1 5:0.40000001 6:0.40000001 7:0.2 8:-0.75 9:0 #
0.00015188006357768087 1:0.22222222 2:0.25 3:0.66666669 4:1 5:0.40000001 6:0.40000001 7:0.2 8:-0.75 9:0 #
-3.0376012715536173e-005 1:0.22222222 2:0.25 3:0.66666669 4:1 5:0.40000001 6:0.40000001 7:0.2 8:-0.75 9:0 #
-3.0376012715536173e-005 1:0.22222222 2:0.25 3:0.5 4:1 5:0.60000002 6:0.60000002 7:0.30000001 8:-0.5 9:0.25 #
-3.0376012715536173e-005 1:0.22222222 2:0.25 3:0.33333334 4:1 5:0.80000001 6:0.80000001 7:0.40000001 8:-0.25 9:0.5 #
-3.0376012715536173e-005 1:0.22222222 2:0.25 3:0.16666667 4:1 5:1 6:1 7:0.5 8:0 9:0.75 #
6.0752025431072345e-005 1:0 2:0 3:0.16666667 4:0.5 5:0.60000002 6:1 7:0.30000001 8:0 9:0.25 #
-3.0376012715536173e-005 1:0 2:0 3:0.33333334 4:0.5 5:0.40000001 6:0.66666669 7:0.2 8:-0.25 9:0 #
-3.0376012715536173e-005 1:0 2:0 3:0.33333334 4:0.5 5:0.40000001 6:0.66666669 7:0.2 8:-0.25 9:0 #
-3.0376012715536173e-005 1:0 2:0 3:0.33333334 4:0.5 5:0.60000002 6:0.75 7:0.30000001 8:-0.25 9:0.25 #
3.0376012715536173e-005 1:0 2:0 3:0.16666667 4:0.5 5:0.80000001 6:1 7:0.40000001 8:0 9:0.5 #
-3.0376012715536173e-005 1:0 2:1 3:0.16666667 4:0.33333334 5:0.80000001 6:1 7:0.2 8:0 9:0 #
3.0376012715536173e-005 1:0 2:1 3:0.16666667 4:0.33333334 5:0.80000001 6:1 7:0.2 8:0 9:0 #
-3.0376012715536173e-005 1:0.11111111 2:0 3:0.16666667 4:0.5 5:0.60000002 6:1 7:0.30000001 8:0 9:0.25 #
6.0752025431072345e-005 1:0.11111111 2:0 3:0.33333334 4:0.5 5:0.40000001 6:0.66666669 7:0.2 8:-0.25 9:0 #
-3.0376012715536173e-005 1:0.11111111 2:0 3:0.33333334 4:0.5 5:0.40000001 6:0.66666669 7:0.2 8:-0.25 9:0 #
-3.0376012715536173e-005 1:0.22222222 2:0 3:0.16666667 4:0.5 5:0.60000002 6:1 7:0.30000001 8:0 9:0.25 #
-3.0376012715536173e-005 1:0.22222222 2:0 3:0.33333334 4:0.5 5:0.40000001 6:0.66666669 7:0.2 8:-0.25 9:0 #
6.0752025431072345e-005 1:0.22222222 2:0 3:0.33333334 4:0.5 5:0.40000001 6:0.66666669 7:0.2 8:-0.25 9:0 #
-3.0376012715536173e-005 1:0 2:0.5 3:0.16666667 4:0.5 5:0.80000001 6:1 7:0.26666668 8:0 9:0.25 #
3.0376012715536173e-005 1:0 2:0.5 3:0.16666667 4:0.5 5:0.80000001 6:1 7:0.26666668 8:0 9:0.25 #
-3.0376012715536173e-005 1:0.11111111 2:0 3:0.33333334 4:0.5 5:0.60000002 6:0.75 7:0.30000001 8:-0.25 9:0.25 #
-3.0376012715536173e-005 1:0.11111111 2:0 3:0.16666667 4:0.5 5:0.80000001 6:1 7:0.40000001 8:0 9:0.5 #
6.0752025431072345e-005 1:0.11111111 2:0 3:0.5 4:0.5 5:0.40000001 6:0.5 7:0.2 8:-0.5 9:0 #
-3.0376012715536173e-005 1:0 2:0.25 3:0.33333334 4:0.33333334 5:0.60000002 6:0.75 7:0.2 8:-0.25 9:0 #
3.0376012715536173e-005 1:0 2:0.25 3:0.16666667 4:0.33333334 5:0.80000001 6:1 7:0.26666668 8:0 9:0.25 #
3.0376012715536173e-005 1:0 2:0.5 3:0.16666667 4:0.5 5:1 6:1 7:0.5 8:0 9:0.75 #
-3.0376012715536173e-005 1:0 2:0.5 3:0.33333334 4:0.5 5:0.80000001 6:0.80000001 7:0.40000001 8:-0.25 9:0.5 #
6.0752025431072345e-005 1:0.22222222 2:0 3:0.33333334 4:0.5 5:0.60000002 6:0.75 7:0.30000001 8:-0.25 9:0.25 #
-3.0376012715536173e-005 1:0.22222222 2:0 3:0.16666667 4:0.5 5:0.80000001 6:1 7:0.40000001 8:0 9:0.5 #
-3.0376012715536173e-005 1:0.22222222 2:0 3:0.5 4:0.5 5:0.40000001 6:0.5 7:0.2 8:-0.5 9:0 #
3.0376012715536173e-005 1:0 2:1 3:0.16666667 4:0.33333334 5:1 6:1 7:0.25 8:0 9:0.25 #
-3.0376012715536173e-005 1:0 2:1 3:0.33333334 4:0.33333334 5:0.80000001 6:0.80000001 7:0.2 8:-0.25 9:0 #
-3.0376012715536173e-005 1:0 2:0 3:0.33333334 4:0.33333334 5:0.60000002 6:0.75 7:0.2 8:-0.25 9:0 #
3.0376012715536173e-005 1:0 2:0 3:0.16666667 4:0.33333334 5:0.80000001 6:1 7:0.26666668 8:0 9:0.25 #
2.2459121031484056e-005 1:0 2:0.25 3:0.16666667 4:0.33333334 5:1 6:1 7:0.25 8:0 9:0.25 #
-2.2459121031484056e-005 1:0 2:0.25 3:0.33333334 4:0.33333334 5:0.80000001 6:0.80000001 7:0.2 8:-0.25 9:0 #
3.0376012715536173e-005 1:0.11111111 2:0 3:0.33333334 4:0.33333334 5:0.60000002 6:0.75 7:0.2 8:-0.25 9:0 #
-3.0376012715536173e-005 1:0.11111111 2:0 3:0.16666667 4:0.33333334 5:0.80000001 6:1 7:0.26666668 8:0 9:0.25 #
-3.0376012715536173e-005 1:0 2:0.5 3:0.16666667 4:0.66666669 5:1 6:1 7:0.25 8:0 9:0.25 #
3.0376012715536173e-005 1:0 2:0.5 3:0.16666667 4:0.66666669 5:1 6:1 7:0.25 8:0 9:0.25 #
-3.0376012715536173e-005 1:0.33333334 2:0 3:0.33333334 4:0.5 5:0.60000002 6:0.75 7:0.30000001 8:-0.25 9:0.25 #
3.0376012715536173e-005 1:0.33333334 2:0 3:0.16666667 4:0.5 5:0.80000001 6:1 7:0.40000001 8:0 9:0.5 #
-3.0376012715536173e-005 1:0.11111111 2:0.25 3:0.33333334 4:0.33333334 5:0.2 6:0.25 7:0.2 8:-0.75 9:0 #
3.0376012715536173e-005 1:0.11111111 2:0.25 3:0.16666667 4:0.33333334 5:0.80000001 6:1 7:0.80000001 8:0 9:0.75 #
-3.0376012715536173e-005 1:0.11111111 2:0.5 3:0.16666667 4:0.33333334 5:1 6:1 7:0.25 8:0 9:0.25 #
3.0376012715536173e-005 1:0.11111111 2:0.5 3:0.33333334 4:0.33333334 5:0.80000001 6:0.80000001 7:0.2 8:-0.25 9:0 #
3.0376012715536173e-005 1:0 2:0 3:0.16666667 4:0.33333334 5:1 6:1 7:0.25 8:0 9:0.25 #
-3.0376012715536173e-005 1:0 2:0 3:0.33333334 4:0.33333334 5:0.80000001 6:0.80000001 7:0.2 8:-0.25 9:0 #
-3.0376012715536173e-005 1:0.44444445 2:0 3:0.33333334 4:0.5 5:0.60000002 6:0.75 7:0.30000001 8:-0.25 9:0.25 #
6.0752025431072345e-005 1:0.44444445 2:0 3:0.16666667 4:0.5 5:0.80000001 6:1 7:0.40000001 8:0 9:0.5 #
-3.0376012715536173e-005 1:0.44444445 2:0 3:0.5 4:0.5 5:0.40000001 6:0.5 7:0.2 8:-0.5 9:0 #
3.0376012715536173e-005 1:0.22222222 2:0.25 3:0.33333334 4:0.33333334 5:0.2 6:0.25 7:0.2 8:-0.75 9:0 #
-3.0376012715536173e-005 1:0.22222222 2:0.25 3:0.16666667 4:0.33333334 5:0.80000001 6:1 7:0.80000001 8:0 9:0.75 #
-3.0376012715536173e-005 1:0.55555558 2:0 3:0.33333334 4:0.5 5:0.60000002 6:0.75 7:0.30000001 8:-0.25 9:0.25 #
3.0376012715536173e-005 1:0.55555558 2:0 3:0.16666667 4:0.5 5:0.80000001 6:1 7:0.40000001 8:0 9:0.5 #
-3.0376012715536173e-005 1:0.33333334 2:0.25 3:0.33333334 4:0.33333334 5:0.2 6:0.25 7:0.2 8:-0.75 9:0 #
3.0376012715536173e-005 1:0.33333334 2:0.25 3:0.16666667 4:0.33333334 5:0.80000001 6:1 7:0.80000001 8:0 9:0.75 #
3.0376012715536173e-005 1:0.22222222 2:0.5 3:0.16666667 4:0.33333334 5:1 6:1 7:0.25 8:0 9:0.25 #
-3.0376012715536173e-005 1:0.22222222 2:0.5 3:0.33333334 4:0.33333334 5:0.80000001 6:0.80000001 7:0.2 8:-0.25 9:0 #
3.0376012715536173e-005 1:0.11111111 2:1 3:0.16666667 4:0.33333334 5:0.80000001 6:1 7:0.2 8:0 9:0 #
-3.0376012715536173e-005 1:0.11111111 2:1 3:0.16666667 4:0.33333334 5:0.80000001 6:1 7:0.2 8:0 9:0 #
-3.0376012715536173e-005 1:0.11111111 2:0 3:0.16666667 4:0.33333334 5:1 6:1 7:0.25 8:0 9:0.25 #
3.0376012715536173e-005 1:0.11111111 2:0 3:0.33333334 4:0.33333334 5:0.80000001 6:0.80000001 7:0.2 8:-0.25 9:0 #
-3.0376012715536173e-005 1:0 2:0.25 3:0.16666667 4:1 5:1 6:1 7:0.5 8:0 9:0.75 #
-3.0376012715536173e-005 1:0 2:0.25 3:0.66666669 4:1 5:0.80000001 6:0.80000001 7:0.40000001 8:-0.25 9:0.5 #
-3.0376012715536173e-005 1:0 2:0.25 3:0.16666667 4:1 5:1 6:1 7:0.5 8:0 9:0.75 #
9.1128038146608511e-005 1:0 2:0.25 3:0.16666667 4:1 5:1 6:1 7:0.5 8:0 9:0.75 #
-3.0376012715536173e-005 1:0.66666669 2:0 3:0.33333334 4:0.5 5:0.60000002 6:0.75 7:0.30000001 8:-0.25 9:0.25 #
-3.0376012715536173e-005 1:0.66666669 2:0 3:0.16666667 4:0.5 5:0.80000001 6:1 7:0.40000001 8:0 9:0.5 #
6.0752025431072345e-005 1:0.66666669 2:0 3:0.5 4:0.5 5:0.40000001 6:0.5 7:0.2 8:-0.5 9:0 #
3.0376012715536173e-005 1:0.11111111 2:0.25 3:0.33333334 4:0.33333334 5:0.60000002 6:0.75 7:0.2 8:-0.25 9:0 #
-3.0376012715536173e-005 1:0.11111111 2:0.25 3:0.16666667 4:0.33333334 5:0.80000001 6:1 7:0.26666668 8:0 9:0.25 #
3.0376012715536173e-005 1:0.22222222 2:0 3:0.16666667 4:0.33333334 5:1 6:1 7:0.25 8:0 9:0.25 #
-3.0376012715536173e-005 1:0.22222222 2:0 3:0.33333334 4:0.33333334 5:0.80000001 6:0.80000001 7:0.2 8:-0.25 9:0 #
-3.0376012715536173e-005 1:0.11111111 2:0.5 3:0.33333334 4:0.5 5:0.2 6:0.25 7:0.2 8:-0.75 9:0 #
-3.0376012715536173e-005 1:0.11111111 2:0.5 3:0.16666667 4:0.5 5:0.80000001 6:1 7:0.80000001 8:0 9:0.75 #
6.0752025431072345e-005 1:0.11111111 2:0.5 3:0.33333334 4:0.5 5:0.2 6:0.25 7:0.2 8:-0.75 9:0 #
-3.0376012715536173e-005 1:0 2:0.75 3:0.33333334 4:0.5 5:0.80000001 6:0.80000001 7:0.40000001 8:-0.25 9:0.5 #
3.0376012715536173e-005 1:0 2:0.75 3:0.16666667 4:0.5 5:1 6:1 7:0.5 8:0 9:0.75 #
-3.0376012715536173e-005 1:0 2:1 3:0.33333334 4:0.5 5:0.80000001 6:0.80000001 7:0.40000001 8:-0.25 9:0.5 #
3.0376012715536173e-005 1:0 2:1 3:0.16666667 4:0.5 5:1 6:1 7:0.5 8:0 9:0.75 #
-3.0376012715536173e-005 1:0.22222222 2:0 3:0.33333334 4:0.33333334 5:0.60000002 6:0.75 7:0.2 8:-0.25 9:0 #
3.0376012715536173e-005 1:0.22222222 2:0 3:0.16666667 4:0.33333334 5:0.80000001 6:1 7:0.26666668 8:0 9:0.25 #
-3.0376012715536173e-005 1:0.11111111 2:0.25 3:0.16666667 4:0.33333334 5:1 6:1 7:0.25 8:0 9:0.25 #
3.0376012715536173e-005 1:0.11111111 2:0.25 3:0.33333334 4:0.33333334 5:0.80000001 6:0.80000001 7:0.2 8:-0.25 9:0 #
-3.0376012715536173e-005 1:0 2:1 3:0.16666667 4:0.33333334 5:0.80000001 6:1 7:0.2 8:0 9:0 #
3.0376012715536173e-005 1:0 2:1 3:0.16666667 4:0.33333334 5:0.80000001 6:1 7:0.2 8:0 9:0 #
-3.0376012715536173e-005 1:0.33333334 2:0 3:0.16666667 4:0.33333334 5:1 6:1 7:0.25 8:0 9:0.25 #
3.0376012715536173e-005 1:0.33333334 2:0 3:0.33333334 4:0.33333334 5:0.80000001 6:0.80000001 7:0.2 8:-0.25 9:0 #
0.00015188006357768087 1:0.11111111 2:0.25 3:0.16666667 4:1 5:1 6:1 7:0.5 8:0 9:0.75 #
-3.0376012715536173e-005 1:0.11111111 2:0.25 3:0.66666669 4:1 5:0.80000001 6:0.80000001 7:0.40000001 8:-0.25 9:0.5 #
-3.0376012715536173e-005 1:0.11111111 2:0.25 3:0.16666667 4:1 5:1 6:1 7:0.5 8:0 9:0.75 #
-3.0376012715536173e-005 1:0.11111111 2:0.25 3:0.16666667 4:1 5:1 6:1 7:0.5 8:0 9:0.75 #
-3.0376012715536173e-005 1:0.11111111 2:0.25 3:0.83333331 4:1 5:0.40000001 6:0.40000001 7:0.2 8:-0.75 9:0 #
-3.0376012715536173e-005 1:0.11111111 2:0.25 3:0.83333331 4:1 5:0.40000001 6:0.40000001 7:0.2 8:-0.75 9:0 #
-3.0376012715536173e-005 1:0 2:0.5 3:0.16666667 4:0.33333334 5:0.80000001 6:1 7:0.2 8:0 9:0 #
3.0376012715536173e-005 1:0 2:0.5 3:0.16666667 4:0.33333334 5:0.80000001 6:1 7:0.2 8:0 9:0 #
6.0752025431072345e-005 1:0.33333334 2:0 3:0.16666667 4:0.5 5:0.60000002 6:1 7:0.30000001 8:0 9:0.25 #
-3.0376012715536173e-005 1:0.33333334 2:0 3:0.33333334 4:0.5 5:0.40000001 6:0.66666669 7:0.2 8:-0.25 9:0 #
-3.0376012715536173e-005 1:0.33333334 2:0 3:0.33333334 4:0.5 5:0.40000001 6:0.66666669 7:0.2 8:-0.25 9:0 #
-3.0376012715536173e-005 1:0.11111111 2:0.25 3:0.5 4:0.5 5:0.40000001 6:0.5 7:0.2 8:-0.5 9:0 #
-3.0376012715536173e-005 1:0.11111111 2:0.25 3:0.16666667 4:0.5 5:0.80000001 6:1 7:0.40000001 8:0 9:0.5 #
6.0752025431072345e-005 1:0.11111111 2:0.25 3:0.33333334 4:0.5 5:0.60000002 6:0.75 7:0.30000001 8:-0.25 9:0.25 #
3.0376012715536173e-005 1:0 2:0.75 3:0.16666667 4:0.33333334 5:0.80000001 6:1 7:0.2 8:0 9:0 #
-3.0376012715536173e-005 1:0 2:0.75 3:0.16666667 4:0.33333334 5:0.80000001 6:1 7:0.2 8:0 9:0 #
-3.0376012715536173e-005 1:0.44444445 2:0 3:0.16666667 4:0.33333334 5:1 6:1 7:0.25 8:0 9:0.25 #
3.0376012715536173e-005 1:0.44444445 2:0 3:0.33333334 4:0.33333334 5:0.80000001 6:0.80000001 7:0.2 8:-0.25 9:0 #
-1.0938199490043567e-005 1:0.22222222 2:0.25 3:0.16666667 4:1 5:1 6:1 7:0.5 8:0 9:0.75 #
0.00011376518569221678 1:0.22222222 2:0.25 3:0.66666669 4:1 5:0.80000001 6:0.80000001 7:0.40000001 8:-0.25 9:0.5 #
-2.4965017833681799e-005 1:0.22222222 2:0.25 3:0.16666667 4:1 5:1 6:1 7:0.5 8:0 9:0.75 #
-1.7109942937419069e-005 1:0.22222222 2:0.25 3:0.16666667 4:1 5:1 6:1 7:0.5 8:0 9:0.75 #
-3.0376012715536173e-005 1:0.22222222 2:0.25 3:0.83333331 4:1 5:0.40000001 6:0.40000001 7:0.2 8:-0.75 9:0 #
-3.0376012715536173e-005 1:0.22222222 2:0.25 3:0.83333331 4:1 5:0.40000001 6:0.40000001 7:0.2 8:-0.75 9:0 #
2.8884270292762391e-005 1:0 2:1 3:0.16666667 4:0.33333334 5:1 6:1 7:0.25 8:0 9:0.25 #
-2.8884270292762391e-005 1:0 2:1 3:0.33333334 4:0.33333334 5:0.80000001 6:0.80000001 7:0.2 8:-0.25 9:0 #
-3.0376012715536173e-005 1:0.77777779 2:0 3:0.33333334 4:0.5 5:0.60000002 6:0.75 7:0.30000001 8:-0.25 9:0.25 #
-3.0376012715536173e-005 1:0.77777779 2:0 3:0.16666667 4:0.5 5:0.80000001 6:1 7:0.40000001 8:0 9:0.5 #
6.0752025431072345e-005 1:0.77777779 2:0 3:0.5 4:0.5 5:0.40000001 6:0.5 7:0.2 8:-0.5 9:0 #
3.0376012715536173e-005 1:0.22222222 2:0.25 3:0.33333334 4:0.33333334 5:0.60000002 6:0.75 7:0.2 8:-0.25 9:0 #
-3.0376012715536173e-005 1:0.22222222 2:0.25 3:0.16666667 4:0.33333334 5:0.80000001 6:1 7:0.26666668 8:0 9:0.25 #
-3.0376012715536173e-005 1:0.11111111 2:0.5 3:0.16666667 4:0.33333334 5:1 6:1 7:0.25 8:0 9:0.25 #
3.0376012715536173e-005 1:0.11111111 2:0.5 3:0.33333334 4:0.33333334 5:0.80000001 6:0.80000001 7:0.2 8:-0.25 9:0 #
-3.0376012715536173e-005 1:0 2:0 3:0.33333334 4:0.5 5:0.80000001 6:0.80000001 7:0.2 8:-0.25 9:0 #
-3.0376012715536173e-005 1:0 2:0 3:0.16666667 4:0.5 5:1 6:1 7:0.25 8:0 9:0.25 #
6.0752025431072345e-005 1:0 2:0 3:0.33333334 4:0.5 5:0.80000001 6:0.80000001 7:0.2 8:-0.25 9:0 #
-3.0376012715536173e-005 1:0 2:0.5 3:0.33333334 4:0.33333334 5:0.60000002 6:0.75 7:0.2 8:-0.25 9:0 #
3.0376012715536173e-005 1:0 2:0.5 3:0.16666667 4:0.33333334 5:0.80000001 6:1 7:0.26666668 8:0 9:0.25 #
-3.0376012715536173e-005 1:0.11111111 2:0 3:0.33333334 4:0.5 5:0.80000001 6:0.80000001 7:0.2 8:-0.25 9:0 #
6.0752025431072345e-005 1:0.11111111 2:0 3:0.16666667 4:0.5 5:1 6:1 7:0.25 8:0 9:0.25 #
-3.0376012715536173e-005 1:0.11111111 2:0 3:0.33333334 4:0.5 5:0.80000001 6:0.80000001 7:0.2 8:-0.25 9:0 #
-2.1305969650270457e-005 1:0 2:0.25 3:0.33333334 4:0.5 5:0.60000002 6:0.75 7:0.60000002 8:-0.25 9:0.5 #
2.1305969650270457e-005 1:0 2:0.25 3:0.16666667 4:0.5 5:0.80000001 6:1 7:0.80000001 8:0 9:0.75 #
-3.0376012715536173e-005 1:0.22222222 2:0 3:0.33333334 4:0.5 5:0.80000001 6:0.80000001 7:0.2 8:-0.25 9:0 #
-3.0376012715536173e-005 1:0.22222222 2:0 3:0.16666667 4:0.5 5:1 6:1 7:0.25 8:0 9:0.25 #
6.0752025431072345e-005 1:0.22222222 2:0 3:0.33333334 4:0.5 5:0.80000001 6:0.80000001 7:0.2 8:-0.25 9:0 #
3.0376012715536173e-005 1:0.11111111 2:0.5 3:0.33333334 4:0.33333334 5:0.60000002 6:0.75 7:0.2 8:-0.25 9:0 #
-3.0376012715536173e-005 1:0.11111111 2:0.5 3:0.16666667 4:0.33333334 5:0.80000001 6:1 7:0.26666668 8:0 9:0.25 #
3.0376012715536173e-005 1:0 2:0.25 3:0.16666667 4:1 5:0.80000001 6:1 7:0.80000001 8:0 9:0.75 #
-3.0376012715536173e-005 1:0 2:0.25 3:0.16666667 4:1 5:0.80000001 6:1 7:0.80000001 8:0 9:0.75 #
3.0376012715536173e-005 1:0 2:0.5 3:0.16666667 4:0.33333334 5:0.80000001 6:1 7:0.2 8:0 9:0 #
-3.0376012715536173e-005 1:0 2:0.5 3:0.16666667 4:0.33333334 5:0.80000001 6:1 7:0.2 8:0 9:0 #
-3.0376012715536173e-005 1:0.11111111 2:0 3:0.16666667 4:0.33333334 5:1 6:1 7:0.33333331 8:0 9:0.5 #
3.0376012715536173e-005 1:0.11111111 2:0 3:0.33333334 4:0.33333334 5:0.60000002 6:0.60000002 7:0.2 8:-0.5 9:0 #
3.0376012715536173e-005 1:0 2:0.25 3:0.16666667 4:0.33333334 5:0.80000001 6:1 7:0.26666668 8:0 9:0.25 #
-3.0376012715536173e-005 1:0 2:0.25 3:0.33333334 4:0.33333334 5:0.60000002 6:0.75 7:0.2 8:-0.25 9:0 #
-2.4830760832006989e-005 1:0 2:0.5 3:0.33333334 4:0.33333334 5:0.2 6:0.2 7:0.2 8:-1 9:0 #
2.4830760832006989e-005 1:0 2:0.5 3:0.16666667 4:0.33333334 5:1 6:1 7:1 8:0 9:1 #
-3.0376012715536173e-005 1:0.11111111 2:0.25 3:0.16666667 4:1 5:0.80000001 6:1 7:0.80000001 8:0 9:0.75 #
-3.0376012715536173e-005 1:0.11111111 2:0.25 3:0.5 4:1 5:0.60000002 6:0.75 7:0.60000002 8:-0.25 9:0.5 #
-3.0376012715536173e-005 1:0.11111111 2:0.25 3:0.5 4:1 5:0.60000002 6:0.75 7:0.60000002 8:-0.25 9:0.5 #
9.1128038146608511e-005 1:0.11111111 2:0.25 3:0.16666667 4:1 5:0.80000001 6:1 7:0.80000001 8:0 9:0.75 #
-6.1005293494935719e-006 1:0 2:0.75 3:0.33333334 4:0.5 5:0.60000002 6:0.75 7:0.60000002 8:-0.25 9:0.5 #
6.1005293494935719e-006 1:0 2:0.75 3:0.16666667 4:0.5 5:0.80000001 6:1 7:0.80000001 8:0 9:0.75 #
-3.0376012715536173e-005 1:0 2:1 3:0.16666667 4:0.5 5:0.80000001 6:1 7:0.40000001 8:0 9:0.5 #
3.0376012715536173e-005 1:0 2:1 3:0.16666667 4:0.5 5:0.80000001 6:1 7:0.40000001 8:0 9:0.5 #
-3.0376012715536173e-005 1:0.33333334 2:0 3:0.33333334 4:0.5 5:0.80000001 6:0.80000001 7:0.2 8:-0.25 9:0 #
-3.0376012715536173e-005 1:0.33333334 2:0 3:0.16666667 4:0.5 5:1 6:1 7:0.25 8:0 9:0.25 #
6.0752025431072345e-005 1:0.33333334 2:0 3:0.33333334 4:0.5 5:0.80000001 6:0.80000001 7:0.2 8:-0.25 9:0 #
-3.0376012715536173e-005 1:0.22222222 2:0.25 3:0.16666667 4:0.33333334 5:0.80000001 6:1 7:0.40000001 8:0 9:0.5 #
3.0376012715536173e-005 1:0.22222222 2:0.25 3:0.33333334 4:0.33333334 5:0.40000001 6:0.5 7:0.2 8:-0.5 9:0 #
6.0752025431072345e-005 1:0.44444445 2:0 3:0.33333334 4:0.5 5:0.80000001 6:0.80000001 7:0.2 8:-0.25 9:0 #
-3.0376012715536173e-005 1:0.44444445 2:0 3:0.16666667 4:0.5 5:1 6:1 7:0.25 8:0 9:0.25 #
-3.0376012715536173e-005 1:0.44444445 2:0 3:0.33333334 4:0.5 5:0.80000001 6:0.80000001 7:0.2 8:-0.25 9:0 #
3.0376012715536173e-005 1:0 2:0.25 3:0.16666667 4:0.5 5:0.80000001 6:1 7:0.26666668 8:0 9:0.25 #
-3.0376012715536173e-005 1:0 2:0.25 3:0.16666667 4:0.5 5:0.80000001 6:1 7:0.26666668 8:0 9:0.25 #
1.3430498021721093e-005 1:0 2:1 3:0.16666667 4:0.33333334 5:1 6:1 7:0.25 8:0 9:0.25 #
-1.3430498021721093e-005 1:0 2:1 3:0.33333334 4:0.33333334 5:0.80000001 6:0.80000001 7:0.2 8:-0.25 9:0 #
-3.0376012715536173e-005 1:0.11111111 2:0.25 3:0.5 4:0.5 5:0.2 6:0.25 7:0.2 8:-0.75 9:0 #
6.0752025431072345e-005 1:0.11111111 2:0.25 3:0.33333334 4:0.5 5:0.60000002 6:0.75 7:0.60000002 8:-0.25 9:0.5 #
-3.0376012715536173e-005 1:0.11111111 2:0.25 3:0.16666667 4:0.5 5:0.80000001 6:1 7:0.80000001 8:0 9:0.75 #
3.0376012715536173e-005 1:0 2:0.75 3:0.16666667 4:0.33333334 5:0.80000001 6:1 7:0.2 8:0 9:0 #
-3.0376012715536173e-005 1:0 2:0.75 3:0.16666667 4:0.33333334 5:0.80000001 6:1 7:0.2 8:0 9:0 #
6.0752025431072345e-005 1:0.55555558 2:0 3:0.33333334 4:0.5 5:0.80000001 6:0.80000001 7:0.2 8:-0.25 9:0 #
-3.0376012715536173e-005 1:0.55555558 2:0 3:0.16666667 4:0.5 5:1 6:1 7:0.25 8:0 9:0.25 #
-3.0376012715536173e-005 1:0.55555558 2:0 3:0.33333334 4:0.5 5:0.80000001 6:0.80000001 7:0.2 8:-0.25 9:0 #
-3.0376012715536173e-005 1:0.11111111 2:0.25 3:0.16666667 4:0.5 5:0.80000001 6:1 7:0.26666668 8:0 9:0.25 #
-3.0376012715536173e-005 1:0.11111111 2:0.25 3:0.5 4:0.5 5:0.60000002 6:0.75 7:0.2 8:-0.25 9:0 #
6.0752025431072345e-005 1:0.11111111 2:0.25 3:0.16666667 4:0.5 5:0.80000001 6:1 7:0.26666668 8:0 9:0.25 #
-3.0376012715536173e-005 1:0.66666669 2:0 3:0.33333334 4:0.5 5:0.80000001 6:0.80000001 7:0.2 8:-0.25 9:0 #
-3.0376012715536173e-005 1:0.66666669 2:0 3:0.16666667 4:0.5 5:1 6:1 7:0.25 8:0 9:0.25 #
6.0752025431072345e-005 1:0.66666669 2:0 3:0.33333334 4:0.5 5:0.80000001 6:0.80000001 7:0.2 8:-0.25 9:0 #
3.0376012715536173e-005 1:0.33333334 2:0.25 3:0.16666667 4:0.33333334 5:0.80000001 6:1 7:0.40000001 8:0 9:0.5 #
-3.0376012715536173e-005 1:0.33333334 2:0.25 3:0.33333334 4:0.33333334 5:0.40000001 6:0.5 7:0.2 8:-0.5 9:0 #
-3.0376012715536173e-005 1:0.22222222 2:0.5 3:0.33333334 4:0.33333334 5:0.60000002 6:0.75 7:0.2 8:-0.25 9:0 #
3.0376012715536173e-005 1:0.22222222 2:0.5 3:0.16666667 4:0.33333334 5:0.80000001 6:1 7:0.26666668 8:0 9:0.25 #
3.0376012715536173e-005 1:0.11111111 2:0.75 3:0.33333334 4:0.33333334 5:0.40000001 6:0.5 7:0.2 8:-0.5 9:0 #
-3.0376012715536173e-005 1:0.11111111 2:0.75 3:0.16666667 4:0.33333334 5:0.80000001 6:1 7:0.40000001 8:0 9:0.5 #
3.0376012715536173e-005 1:0 2:1 3:0.16666667 4:0.33333334 5:0.80000001 6:1 7:0.2 8:0 9:0 #
-3.0376012715536173e-005 1:0 2:1 3:0.16666667 4:0.33333334 5:0.80000001 6:1 7:0.2 8:0 9:0 #
-3.0376012715536173e-005 1:0.77777779 2:0 3:0.33333334 4:0.5 5:0.80000001 6:0.80000001 7:0.2 8:-0.25 9:0 #
-3.0376012715536173e-005 1:0.77777779 2:0 3:0.16666667 4:0.5 5:1 6:1 7:0.25 8:0 9:0.25 #
6.0752025431072345e-005 1:0.77777779 2:0 3:0.33333334 4:0.5 5:0.80000001 6:0.80000001 7:0.2 8:-0.25 9:0 #
3.0376012715536173e-005 1:0.44444445 2:0.25 3:0.16666667 4:0.33333334 5:0.80000001 6:1 7:0.40000001 8:0 9:0.5 #
-3.0376012715536173e-005 1:0.44444445 2:0.25 3:0.33333334 4:0.33333334 5:0.40000001 6:0.5 7:0.2 8:-0.5 9:0 #
-3.0376012715536173e-005 1:0.33333334 2:0.5 3:0.33333334 4:0.33333334 5:0.60000002 6:0.75 7:0.2 8:-0.25 9:0 #
3.0376012715536173e-005 1:0.33333334 2:0.5 3:0.16666667 4:0.33333334 5:0.80000001 6:1 7:0.26666668 8:0 9:0.25 #
3.0376012715536173e-005 1:0.22222222 2:0.75 3:0.33333334 4:0.33333334 5:0.40000001 6:0.5 7:0.2 8:-0.5 9:0 #
-3.0376012715536173e-005 1:0.22222222 2:0.75 3:0.16666667 4:0.33333334 5:0.80000001 6:1 7:0.40000001 8:0 9:0.5 #
-3.0376012715536173e-005 1:0.11111111 2:1 3:0.16666667 4:0.33333334 5:0.80000001 6:1 7:0.2 8:0 9:0 #
3.0376012715536173e-005 1:0.11111111 2:1 3:0.16666667 4:0.33333334 5:0.80000001 6:1 7:0.2 8:0 9:0 #
-3.0376012715536173e-005 1:0.22222222 2:0 3:0.16666667 4:0.5 5:1 6:1 7:0.5 8:0 9:0.75 #
-3.0376012715536173e-005 1:0.22222222 2:0 3:0.5 4:0.5 5:0.40000001 6:0.40000001 7:0.2 8:-0.75 9:0 #
6.0752025431072345e-005 1:0.22222222 2:0 3:0.33333334 4:0.5 5:0.60000002 6:0.60000002 7:0.30000001 8:-0.5 9:0.25 #
3.0376012715536173e-005 1:0 2:0.75 3:0.16666667 4:0.5 5:1 6:1 7:0.33333331 8:0 9:0.5 #
-3.0376012715536173e-005 1:0 2:0.75 3:0.33333334 4:0.5 5:0.80000001 6:0.80000001 7:0.26666668 8:-0.25 9:0.25 #
3.0376012715536173e-005 1:0.22222222 2:0 3:0.33333334 4:0.33333334 5:0.60000002 6:0.60000002 7:0.2 8:-0.5 9:0 #
-3.0376012715536173e-005 1:0.22222222 2:0 3:0.16666667 4:0.33333334 5:1 6:1 7:0.33333331 8:0 9:0.5 #
3.0376012715536173e-005 1:0 2:0.5 3:0.16666667 4:0.5 5:1 6:1 7:1 8:0 9:1 #
-3.0376012715536173e-005 1:0 2:0.5 3:0.33333334 4:0.5 5:0.80000001 6:0.80000001 7:0.80000001 8:-0.25 9:0.75 #
-3.0376012715536173e-005 1:0.11111111 2:0.25 3:0.16666667 4:0.33333334 5:1 6:1 7:0.33333331 8:0 9:0.5 #
3.0376012715536173e-005 1:0.11111111 2:0.25 3:0.33333334 4:0.33333334 5:0.60000002 6:0.60000002 7:0.2 8:-0.5 9:0 #
-3.0376012715536173e-005 1:0 2:0.5 3:0.33333334 4:0.66666669 5:0.60000002 6:0.75 7:0.30000001 8:-0.25 9:0.25 #
-3.0376012715536173e-005 1:0 2:0.5 3:0.16666667 4:0.66666669 5:0.80000001 6:1 7:0.40000001 8:0 9:0.5 #
-3.0376012715536173e-005 1:0 2:0.5 3:0.66666669 4:0.66666669 5:0.40000001 6:0.5 7:0.2 8:-0.5 9:0 #
9.1128038146608511e-005 1:0 2:0.5 3:0.33333334 4:0.66666669 5:0.60000002 6:0.75 7:0.30000001 8:-0.25 9:0.25 #
3.0376012715536173e-005 1:0 2:0.75 3:0.16666667 4:0.5 5:0.80000001 6:1 7:0.26666668 8:0 9:0.25 #
-3.0376012715536173e-005 1:0 2:0.75 3:0.16666667 4:0.5 5:0.80000001 6:1 7:0.26666668 8:0 9:0.25 #
1.4327703259783545e-006 1:0.22222222 2:0 3:0.16666667 4:0.33333334 5:0.80000001 6:1 7:0.40000001 8:0 9:0.5 #
-1.4327703259783545e-006 1:0.22222222 2:0 3:0.33333334 4:0.33333334 5:0.40000001 6:0.5 7:0.2 8:-0.5 9:0 #
-3.0376012715536173e-005 1:0.22222222 2:0.25 3:0.16666667 4:0.33333334 5:1 6:1 7:0.33333331 8:0 9:0.5 #
3.0376012715536173e-005 1:0.22222222 2:0.25 3:0.33333334 4:0.33333334 5:0.60000002 6:0.60000002 7:0.2 8:-0.5 9:0 #
9.1128038146608511e-005 1:0.11111111 2:0.5 3:0.33333334 4:0.66666669 5:0.60000002 6:0.75 7:0.30000001 8:-0.25 9:0.25 #
-3.0376012715536173e-005 1:0.11111111 2:0.5 3:0.16666667 4:0.66666669 5:0.80000001 6:1 7:0.40000001 8:0 9:0.5 #
-3.0376012715536173e-005 1:0.11111111 2:0.5 3:0.66666669 4:0.66666669 5:0.40000001 6:0.5 7:0.2 8:-0.5 9:0 #
-3.0376012715536173e-005 1:0.11111111 2:0.5 3:0.33333334 4:0.66666669 5:0.60000002 6:0.75 7:0.30000001 8:-0.25 9:0.25 #
-2.9437346201840622e-005 1:0 2:1 3:0.33333334 4:0.33333334 5:0.80000001 6:0.80000001 7:0.2 8:-0.25 9:0 #
2.9437346201840622e-005 1:0 2:1 3:0.16666667 4:0.33333334 5:1 6:1 7:0.25 8:0 9:0.25 #
3.0376012715536173e-005 1:0.33333334 2:0 3:0.33333334 4:0.33333334 5:0.60000002 6:0.60000002 7:0.2 8:-0.5 9:0 #
-3.0376012715536173e-005 1:0.33333334 2:0 3:0.16666667 4:0.33333334 5:1 6:1 7:0.33333331 8:0 9:0.5 #
-3.0376012715536173e-005 1:0.11111111 2:0.5 3:0.16666667 4:0.5 5:1 6:1 7:1 8:0 9:1 #
6.0752025431072345e-005 1:0.11111111 2:0.5 3:0.33333334 4:0.5 5:0.80000001 6:0.80000001 7:0.80000001 8:-0.25 9:0.75 #
-3.0376012715536173e-005 1:0.11111111 2:0.5 3:0.5 4:0.5 5:0.2 6:0.2 7:0.2 8:-1 9:0 #
1.7813527540805575e-005 1:0 2:0 3:0.16666667 4:0.5 5:0.80000001 6:1 7:0.40000001 8:0 9:0.5 #
-1.7813527540805575e-005 1:0 2:0 3:0.33333334 4:0.5 5:0.60000002 6:0.75 7:0.30000001 8:-0.25 9:0.25 #
-3.0376012715536173e-005 1:0 2:0 3:0.33333334 4:0.33333334 5:0.60000002 6:0.75 7:0.2 8:-0.25 9:0 #
3.0376012715536173e-005 1:0 2:0 3:0.16666667 4:0.33333334 5:0.80000001 6:1 7:0.26666668 8:0 9:0.25 #
-3.0376012715536173e-005 1:0.11111111 2:0 3:0.16666667 4:0.5 5:0.80000001 6:1 7:0.40000001 8:0 9:0.5 #
6.0752025431072345e-005 1:0.11111111 2:0 3:0.33333334 4:0.5 5:0.60000002 6:0.75 7:0.30000001 8:-0.25 9:0.25 #
-3.0376012715536173e-005 1:0.11111111 2:0 3:0.5 4:0.5 5:0.40000001 6:0.5 7:0.2 8:-0.5 9:0 #
-3.0376012715536173e-005 1:0 2:0.5 3:0.5 4:0.5 5:0.60000002 6:0.60000002 7:0.2 8:-0.5 9:0 #
6.0752025431072345e-005 1:0 2:0.5 3:0.33333334 4:0.5 5:0.80000001 6:0.80000001 7:0.26666668 8:-0.25 9:0.25 #
-3.0376012715536173e-005 1:0 2:0.5 3:0.16666667 4:0.5 5:1 6:1 7:0.33333331 8:0 9:0.5 #
-3.0376012715536173e-005 1:0.22222222 2:0 3:0.16666667 4:0.5 5:0.80000001 6:1 7:0.40000001 8:0 9:0.5 #
-3.0376012715536173e-005 1:0.22222222 2:0 3:0.33333334 4:0.5 5:0.60000002 6:0.75 7:0.30000001 8:-0.25 9:0.25 #
6.0752025431072345e-005 1:0.22222222 2:0 3:0.5 4:0.5 5:0.40000001 6:0.5 7:0.2 8:-0.5 9:0 #
-3.0376012715536173e-005 1:0.33333334 2:0 3:0.16666667 4:0.5 5:0.80000001 6:1 7:0.40000001 8:0 9:0.5 #
-3.0376012715536173e-005 1:0.33333334 2:0 3:0.33333334 4:0.5 5:0.60000002 6:0.75 7:0.30000001 8:-0.25 9:0.25 #
6.0752025431072345e-005 1:0.33333334 2:0 3:0.5 4:0.5 5:0.40000001 6:0.5 7:0.2 8:-0.5 9:0 #
6.0752025431072345e-005 1:0.11111111 2:0.5 3:0.33333334 4:0.5 5:0.60000002 6:0.75 7:0.30000001 8:-0.25 9:0.25 #
-3.0376012715536173e-005 1:0.11111111 2:0.5 3:0.16666667 4:0.5 5:0.80000001 6:1 7:0.40000001 8:0 9:0.5 #
-3.0376012715536173e-005 1:0.11111111 2:0.5 3:0.5 4:0.5 5:0.40000001 6:0.5 7:0.2 8:-0.5 9:0 #
-3.0376012715536173e-005 1:0.11111111 2:0 3:0.16666667 4:0.33333334 5:0.80000001 6:1 7:0.40000001 8:0 9:0.5 #
3.0376012715536173e-005 1:0.11111111 2:0 3:0.33333334 4:0.33333334 5:0.40000001 6:0.5 7:0.2 8:-0.5 9:0 #
-3.0376012715536173e-005 1:0 2:0.25 3:0.83333331 4:1 5:0.40000001 6:0.5 7:0.2 8:-0.5 9:0 #
-3.0376012715536173e-005 1:0 2:0.25 3:0.5 4:1 5:0.60000002 6:0.75 7:0.30000001 8:-0.25 9:0.25 #
-3.0376012715536173e-005 1:0 2:0.25 3:0.83333331 4:1 5:0.40000001 6:0.5 7:0.2 8:-0.5 9:0 #
-3.0376012715536173e-005 1:0 2:0.25 3:0.16666667 4:1 5:0.80000001 6:1 7:0.40000001 8:0 9:0.5 #
-3.0376012715536173e-005 1:0 2:0.25 3:0.16666667 4:1 5:0.80000001 6:1 7:0.40000001 8:0 9:0.5 #
0.00015188006357768087 1:0 2:0.25 3:0.5 4:1 5:0.60000002 6:0.75 7:0.30000001 8:-0.25 9:0.25 #
6.0752025431072345e-005 1:0.11111111 2:0.5 3:0.5 4:0.5 5:0.60000002 6:0.60000002 7:0.2 8:-0.5 9:0 #
-3.0376012715536173e-005 1:0.11111111 2:0.5 3:0.33333334 4:0.5 5:0.80000001 6:0.80000001 7:0.26666668 8:-0.25 9:0.25 #
-3.0376012715536173e-005 1:0.11111111 2:0.5 3:0.16666667 4:0.5 5:1 6:1 7:0.33333331 8:0 9:0.5 #
6.0752025431072345e-005 1:0.11111111 2:0 3:0.5 4:0.5 5:0.2 6:0.25 7:0.2 8:-0.75 9:0 #
-3.0376012715536173e-005 1:0.11111111 2:0 3:0.33333334 4:0.5 5:0.40000001 6:0.5 7:0.40000001 8:-0.5 9:0.25 #
-3.0376012715536173e-005 1:0.11111111 2:0 3:0.16666667 4:0.5 5:0.80000001 6:1 7:0.80000001 8:0 9:0.75 #
-3.0376012715536173e-005 1:0 2:0.75 3:0.16666667 4:0.5 5:0.80000001 6:1 7:0.26666668 8:0 9:0.25 #
3.0376012715536173e-005 1:0 2:0.75 3:0.16666667 4:0.5 5:0.80000001 6:1 7:0.26666668 8:0 9:0.25 #
-3.0376012715536173e-005 1:0.22222222 2:0 3:0.5 4:0.5 5:0.2 6:0.25 7:0.2 8:-0.75 9:0 #
6.0752025431072345e-005 1:0.22222222 2:0 3:0.33333334 4:0.5 5:0.40000001 6:0.5 7:0.40000001 8:-0.5 9:0.25 #
-3.0376012715536173e-005 1:0.22222222 2:0 3:0.16666667 4:0.5 5:0.80000001 6:1 7:0.80000001 8:0 9:0.75 #
-3.0376012715536173e-005 1:0 2:0.25 3:0.33333334 4:0.33333334 5:0.60000002 6:0.75 7:0.2 8:-0.25 9:0 #
3.0376012715536173e-005 1:0 2:0.25 3:0.16666667 4:0.33333334 5:0.80000001 6:1 7:0.26666668 8:0 9:0.25 #
3.0376012715536173e-005 1:0.11111111 2:0 3:0.33333334 4:0.33333334 5:0.60000002 6:0.75 7:0.2 8:-0.25 9:0 #
-3.0376012715536173e-005 1:0.11111111 2:0 3:0.16666667 4:0.33333334 5:0.80000001 6:1 7:0.26666668 8:0 9:0.25 #
-3.0376012715536173e-005 1:0 2:0.25 3:0.33333334 4:0.33333334 5:0.60000002 6:0.75 7:0.2 8:-0.25 9:0 #
3.0376012715536173e-005 1:0 2:0.25 3:0.16666667 4:0.33333334 5:0.80000001 6:1 7:0.26666668 8:0 9:0.25 #
6.0752025431072345e-005 1:0.44444445 2:0 3:0.16666667 4:0.5 5:0.80000001 6:1 7:0.40000001 8:0 9:0.5 #
-3.0376012715536173e-005 1:0.44444445 2:0 3:0.33333334 4:0.5 5:0.60000002 6:0.75 7:0.30000001 8:-0.25 9:0.25 #
-3.0376012715536173e-005 1:0.44444445 2:0 3:0.5 4:0.5 5:0.40000001 6:0.5 7:0.2 8:-0.5 9:0 #
6.0752025431072345e-005 1:0.11111111 2:0.25 3:0.5 4:0.5 5:0.40000001 6:0.5 7:0.2 8:-0.5 9:0 #
-3.0376012715536173e-005 1:0.11111111 2:0.25 3:0.16666667 4:0.5 5:0.80000001 6:1 7:0.40000001 8:0 9:0.5 #
-3.0376012715536173e-005 1:0.11111111 2:0.25 3:0.33333334 4:0.5 5:0.60000002 6:0.75 7:0.30000001 8:-0.25 9:0.25 #
3.0376012715536173e-005 1:0.33333334 2:0 3:0.16666667 4:0.33333334 5:0.80000001 6:1 7:0.40000001 8:0 9:0.5 #
-3.0376012715536173e-005 1:0.33333334 2:0 3:0.33333334 4:0.33333334 5:0.40000001 6:0.5 7:0.2 8:-0.5 9:0 #
-3.0376012715536173e-005 1:0.22222222 2:0.5 3:0.5 4:0.5 5:0.60000002 6:0.60000002 7:0.2 8:-0.5 9:0 #
-3.0376012715536173e-005 1:0.22222222 2:0.5 3:0.33333334 4:0.5 5:0.80000001 6:0.80000001 7:0.26666668 8:-0.25 9:0.25 #
6.0752025431072345e-005 1:0.22222222 2:0.5 3:0.16666667 4:0.5 5:1 6:1 7:0.33333331 8:0 9:0.5 #
3.0376012715536173e-005 1:0 2:0.75 3:0.16666667 4:0.5 5:1 6:1 7:0.33333331 8:0 9:0.5 #
-3.0376012715536173e-005 1:0 2:0.75 3:0.33333334 4:0.5 5:0.80000001 6:0.80000001 7:0.26666668 8:-0.25 9:0.25 #
3.0376012715536173e-005 1:0 2:1 3:0.16666667 4:0.5 5:0.80000001 6:1 7:0.26666668 8:0 9:0.25 #
-3.0376012715536173e-005 1:0 2:1 3:0.16666667 4:0.5 5:0.80000001 6:1 7:0.26666668 8:0 9:0.25 #
-3.0376012715536173e-005 1:0.33333334 2:0.5 3:0.5 4:0.5 5:0.60000002 6:0.60000002 7:0.2 8:-0.5 9:0 #
-3.0376012715536173e-005 1:0.33333334 2:0.5 3:0.33333334 4:0.5 5:0.80000001 6:0.80000001 7:0.26666668 8:-0.25 9:0.25 #
6.0752025431072345e-005 1:0.33333334 2:0.5 3:0.16666667 4:0.5 5:1 6:1 7:0.33333331 8:0 9:0.5 #
-3.0376012715536173e-005 1:0.11111111 2:0.75 3:0.5 4:0.5 5:0.60000002 6:0.60000002 7:0.2 8:-0.5 9:0 #
-3.0376012715536173e-005 1:0.11111111 2:0.75 3:0.16666667 4:0.5 5:1 6:1 7:0.33333331 8:0 9:0.5 #
6.0752025431072345e-005 1:0.11111111 2:0.75 3:0.33333334 4:0.5 5:0.80000001 6:0.80000001 7:0.26666668 8:-0.25 9:0.25 #
-3.0376012715536173e-005 1:0.44444445 2:0.5 3:0.5 4:0.5 5:0.60000002 6:0.60000002 7:0.2 8:-0.5 9:0 #
-3.0376012715536173e-005 1:0.44444445 2:0.5 3:0.33333334 4:0.5 5:0.80000001 6:0.80000001 7:0.26666668 8:-0.25 9:0.25 #
6.0752025431072345e-005 1:0.44444445 2:0.5 3:0.16666667 4:0.5 5:1 6:1 7:0.33333331 8:0 9:0.5 #
6.0752025431072345e-005 1:0.22222222 2:0.75 3:0.5 4:0.5 5:0.60000002 6:0.60000002 7:0.2 8:-0.5 9:0 #
-3.0376012715536173e-005 1:0.22222222 2:0.75 3:0.16666667 4:0.5 5:1 6:1 7:0.33333331 8:0 9:0.5 #
-3.0376012715536173e-005 1:0.22222222 2:0.75 3:0.33333334 4:0.5 5:0.80000001 6:0.80000001 7:0.26666668 8:-0.25 9:0.25 #
-3.0376012715536173e-005 1:0.66666669 2:0 3:0.16666667 4:0.33333334 5:0.80000001 6:1 7:0.40000001 8:0 9:0.5 #
3.0376012715536173e-005 1:0.66666669 2:0 3:0.33333334 4:0.33333334 5:0.40000001 6:0.5 7:0.2 8:-0.5 9:0 #
-3.0376012715536173e-005 1:0.11111111 2:0.25 3:0.83333331 4:1 5:0.40000001 6:0.5 7:0.2 8:-0.5 9:0 #
-3.0376012715536173e-005 1:0.11111111 2:0.25 3:0.5 4:1 5:0.60000002 6:0.75 7:0.30000001 8:-0.25 9:0.25 #
0.00015188006357768087 1:0.11111111 2:0.25 3:0.83333331 4:1 5:0.40000001 6:0.5 7:0.2 8:-0.5 9:0 #
-3.0376012715536173e-005 1:0.11111111 2:0.25 3:0.16666667 4:1 5:0.80000001 6:1 7:0.40000001 8:0 9:0.5 #
-3.0376012715536173e-005 1:0.11111111 2:0.25 3:0.16666667 4:1 5:0.80000001 6:1 7:0.40000001 8:0 9:0.5 #
-3.0376012715536173e-005 1:0.11111111 2:0.25 3:0.5 4:1 5:0.60000002 6:0.75 7:0.30000001 8:-0.25 9:0.25 #
-3.0376012715536173e-005 1:0 2:0.5 3:0.33333334 4:0.33333334 5:0.40000001 6:0.66666669 7:0.2 8:-0.25 9:0 #
3.0376012715536173e-005 1:0 2:0.5 3:0.16666667 4:0.33333334 5:0.60000002 6:1 7:0.30000001 8:0 9:0.25 #
3.0376012715536173e-005 1:0.22222222 2:0 3:0.33333334 4:0.33333334 5:0.60000002 6:0.75 7:0.2 8:-0.25 9:0 #
-3.0376012715536173e-005 1:0.22222222 2:0 3:0.16666667 4:0.33333334 5:0.80000001 6:1 7:0.26666668 8:0 9:0.25 #
3.0376012715536173e-005 1:0.11111111 2:0.25 3:0.33333334 4:0.33333334 5:0.60000002 6:0.75 7:0.2 8:-0.25 9:0 #
-3.0376012715536173e-005 1:0.11111111 2:0.25 3:0.16666667 4:0.33333334 5:0.80000001 6:1 7:0.26666668 8:0 9:0.25 #
-3.0376012715536173e-005 1:0.77777779 2:0 3:0.16666667 4:0.33333334 5:0.80000001 6:1 7:0.40000001 8:0 9:0.5 #
3.0376012715536173e-005 1:0.77777779 2:0 3:0.33333334 4:0.33333334 5:0.40000001 6:0.5 7:0.2 8:-0.5 9:0 #
-3.0376012715536173e-005 1:0.22222222 2:0.25 3:0.83333331 4:1 5:0.40000001 6:0.5 7:0.2 8:-0.5 9:0 #
0.00015188006357768087 1:0.22222222 2:0.25 3:0.5 4:1 5:0.60000002 6:0.75 7:0.30000001 8:-0.25 9:0.25 #
-3.0376012715536173e-005 1:0.22222222 2:0.25 3:0.83333331 4:1 5:0.40000001 6:0.5 7:0.2 8:-0.5 9:0 #
-3.0376012715536173e-005 1:0.22222222 2:0.25 3:0.16666667 4:1 5:0.80000001 6:1 7:0.40000001 8:0 9:0.5 #
-3.0376012715536173e-005 1:0.22222222 2:0.25 3:0.16666667 4:1 5:0.80000001 6:1 7:0.40000001 8:0 9:0.5 #
-3.0376012715536173e-005 1:0.22222222 2:0.25 3:0.5 4:1 5:0.60000002 6:0.75 7:0.30000001 8:-0.25 9:0.25 #
3.0376012715536173e-005 1:0 2:0.25 3:0.16666667 4:0.33333334 5:0.80000001 6:1 7:0.26666668 8:0 9:0.25 #
-3.0376012715536173e-005 1:0 2:0.25 3:0.33333334 4:0.33333334 5:0.60000002 6:0.75 7:0.2 8:-0.25 9:0 #
3.0376012715536173e-005 1:0 2:0.25 3:0.16666667 4:0.33333334 5:0.80000001 6:1 7:0.2 8:0 9:0 #
-3.0376012715536173e-005 1:0 2:0.25 3:0.16666667 4:0.33333334 5:0.80000001 6:1 7:0.2 8:0 9:0 #
-3.0376012715536173e-005 1:0.11111111 2:0 3:0.33333334 4:0.5 5:0.60000002 6:0.75 7:0.2 8:-0.25 9:0 #
6.0752025431072345e-005 1:0.11111111 2:0 3:0.33333334 4:0.5 5:0.60000002 6:0.75 7:0.2 8:-0.25 9:0 #
-3.0376012715536173e-005 1:0.11111111 2:0 3:0.16666667 4:0.5 5:0.80000001 6:1 7:0.26666668 8:0 9:0.25 #
3.0376012715536173e-005 1:0 2:0.25 3:0.16666667 4:0.33333334 5:0.80000001 6:1 7:0.2 8:0 9:0 #
-3.0376012715536173e-005 1:0 2:0.25 3:0.16666667 4:0.33333334 5:0.80000001 6:1 7:0.2 8:0 9:0 #
3.0376012715536173e-005 1:0 2:0 3:0.16666667 4:0.33333334 5:0.80000001 6:1 7:0.26666668 8:0 9:0.25 #
-3.0376012715536173e-005 1:0 2:0 3:0.33333334 4:0.33333334 5:0.60000002 6:0.75 7:0.2 8:-0.25 9:0 #
-3.0376012715536173e-005 1:0 2:0.5 3:0.16666667 4:0.5 5:0.80000001 6:1 7:0.40000001 8:0 9:0.5 #
3.0376012715536173e-005 1:0 2:0.5 3:0.16666667 4:0.5 5:0.80000001 6:1 7:0.40000001 8:0 9:0.5 #
-3.0376012715536173e-005 1:0.11111111 2:0 3:0.16666667 4:0.5 5:0.80000001 6:1 7:0.40000001 8:0 9:0.5 #
-3.0376012715536173e-005 1:0.11111111 2:0 3:0.33333334 4:0.5 5:0.40000001 6:0.5 7:0.2 8:-0.5 9:0 #
6.0752025431072345e-005 1:0.11111111 2:0 3:0.33333334 4:0.5 5:0.40000001 6:0.5 7:0.2 8:-0.5 9:0 #
3.0376012715536173e-005 1:0 2:1 3:0.16666667 4:0.33333334 5:0.80000001 6:1 7:0.2 8:0 9:0 #
-3.0376012715536173e-005 1:0 2:1 3:0.16666667 4:0.33333334 5:0.80000001 6:1 7:0.2 8:0 9:0 #
-3.0376012715536173e-005 1:0.22222222 2:0 3:0.33333334 4:0.5 5:0.60000002 6:0.75 7:0.2 8:-0.25 9:0 #
-3.0376012715536173e-005 1:0.22222222 2:0 3:0.33333334 4:0.5 5:0.60000002 6:0.75 7:0.2 8:-0.25 9:0 #
6.0752025431072345e-005 1:0.22222222 2:0 3:0.16666667 4:0.5 5:0.80000001 6:1 7:0.26666668 8:0 9:0.25 #
-3.0376012715536173e-005 1:0.11111111 2:0.25 3:0.16666667 4:0.33333334 5:0.80000001 6:1 7:0.2 8:0 9:0 #
3.0376012715536173e-005 1:0.11111111 2:0.25 3:0.16666667 4:0.33333334 5:0.80000001 6:1 7:0.2 8:0 9:0 #
-3.0376012715536173e-005 1:0 2:0.5 3:0.16666667 4:0.5 5:0.80000001 6:1 7:0.26666668 8:0 9:0.25 #
3.0376012715536173e-005 1:0 2:0.5 3:0.16666667 4:0.5 5:0.80000001 6:1 7:0.26666668 8:0 9:0.25 #
-3.0376012715536173e-005 1:0.11111111 2:0 3:0.16666667 4:0.33333334 5:0.80000001 6:1 7:0.26666668 8:0 9:0.25 #
3.0376012715536173e-005 1:0.11111111 2:0 3:0.33333334 4:0.33333334 5:0.60000002 6:0.75 7:0.2 8:-0.25 9:0 #
-3.0376012715536173e-005 1:0 2:0.25 3:0.16666667 4:1 5:0.80000001 6:1 7:0.26666668 8:0 9:0.25 #
3.0376012715536173e-005 1:0 2:0.25 3:0.16666667 4:1 5:0.80000001 6:1 7:0.26666668 8:0 9:0.25 #
3.0376012715536173e-005 1:0 2:0.5 3:0.16666667 4:0.33333334 5:0.60000002 6:1 7:0.2 8:0 9:0 #
-3.0376012715536173e-005 1:0 2:0.5 3:0.16666667 4:0.33333334 5:0.60000002 6:1 7:0.2 8:0 9:0 #
-3.0376012715536173e-005 1:0.22222222 2:0 3:0.16666667 4:0.5 5:0.80000001 6:1 7:0.40000001 8:0 9:0.5 #
6.0752025431072345e-005 1:0.22222222 2:0 3:0.33333334 4:0.5 5:0.40000001 6:0.5 7:0.2 8:-0.5 9:0 #
-3.0376012715536173e-005 1:0.22222222 2:0 3:0.33333334 4:0.5 5:0.40000001 6:0.5 7:0.2 8:-0.5 9:0 #
6.0752025431072345e-005 1:0.33333334 2:0 3:0.16666667 4:0.5 5:0.80000001 6:1 7:0.40000001 8:0 9:0.5 #
-3.0376012715536173e-005 1:0.33333334 2:0 3:0.33333334 4:0.5 5:0.40000001 6:0.5 7:0.2 8:-0.5 9:0 #
-3.0376012715536173e-005 1:0.33333334 2:0 3:0.33333334 4:0.5 5:0.40000001 6:0.5 7:0.2 8:-0.5 9:0 #
-3.0376012715536173e-005 1:0.11111111 2:0.25 3:0.5 4:0.5 5:0.40000001 6:0.40000001 7:0.2 8:-0.75 9:0 #
6.0752025431072345e-005 1:0.11111111 2:0.25 3:0.33333334 4:0.5 5:0.60000002 6:0.60000002 7:0.30000001 8:-0.5 9:0.25 #
-3.0376012715536173e-005 1:0.11111111 2:0.25 3:0.16666667 4:0.5 5:1 6:1 7:0.5 8:0 9:0.75 #
3.0376012715536173e-005 1:0 2:0.75 3:0.16666667 4:0.33333334 5:0.60000002 6:1 7:0.2 8:0 9:0 #
-3.0376012715536173e-005 1:0 2:0.75 3:0.16666667 4:0.33333334 5:0.60000002 6:1 7:0.2 8:0 9:0 #
-3.0376012715536173e-005 1:0.33333334 2:0 3:0.33333334 4:0.5 5:0.60000002 6:0.75 7:0.2 8:-0.25 9:0 #
-3.0376012715536173e-005 1:0.33333334 2:0 3:0.33333334 4:0.5 5:0.60000002 6:0.75 7:0.2 8:-0.25 9:0 #
6.0752025431072345e-005 1:0.33333334 2:0 3:0.16666667 4:0.5 5:0.80000001 6:1 7:0.26666668 8:0 9:0.25 #
3.0376012715536173e-005 1:0.22222222 2:0.25 3:0.16666667 4:0.33333334 5:0.80000001 6:1 7:0.2 8:0 9:0 #
-3.0376012715536173e-005 1:0.22222222 2:0.25 3:0.16666667 4:0.33333334 5:0.80000001 6:1 7:0.2 8:0 9:0 #
-3.0376012715536173e-005 1:0.11111111 2:0.5 3:0.16666667 4:0.33333334 5:1 6:1 7:0.25 8:0 9:0.25 #
3.0376012715536173e-005 1:0.11111111 2:0.5 3:0.33333334 4:0.33333334 5:0.80000001 6:0.80000001 7:0.2 8:-0.25 9:0 #
-3.0376012715536173e-005 1:0.44444445 2:0 3:0.33333334 4:0.5 5:0.60000002 6:0.75 7:0.2 8:-0.25 9:0 #
-3.0376012715536173e-005 1:0.44444445 2:0 3:0.33333334 4:0.5 5:0.60000002 6:0.75 7:0.2 8:-0.25 9:0 #
6.0752025431072345e-005 1:0.44444445 2:0 3:0.16666667 4:0.5 5:0.80000001 6:1 7:0.26666668 8:0 9:0.25 #
3.0376012715536173e-005 1:0.33333334 2:0.25 3:0.16666667 4:0.33333334 5:0.80000001 6:1 7:0.2 8:0 9:0 #
-3.0376012715536173e-005 1:0.33333334 2:0.25 3:0.16666667 4:0.33333334 5:0.80000001 6:1 7:0.2 8:0 9:0 #
-3.0376012715536173e-005 1:0.22222222 2:0.5 3:0.16666667 4:0.33333334 5:1 6:1 7:0.25 8:0 9:0.25 #
3.0376012715536173e-005 1:0.22222222 2:0.5 3:0.33333334 4:0.33333334 5:0.80000001 6:0.80000001 7:0.2 8:-0.25 9:0 #
3.0376012715536173e-005 1:0.11111111 2:0.75 3:0.33333334 4:0.33333334 5:0.40000001 6:0.40000001 7:0.2 8:-0.75 9:0 #
-3.0376012715536173e-005 1:0.11111111 2:0.75 3:0.16666667 4:0.33333334 5:1 6:1 7:0.5 8:0 9:0.75 #
6.0752025431072345e-005 1:0.44444445 2:0 3:0.16666667 4:0.5 5:0.80000001 6:1 7:0.40000001 8:0 9:0.5 #
-3.0376012715536173e-005 1:0.44444445 2:0 3:0.33333334 4:0.5 5:0.40000001 6:0.5 7:0.2 8:-0.5 9:0 #
-3.0376012715536173e-005 1:0.44444445 2:0 3:0.33333334 4:0.5 5:0.40000001 6:0.5 7:0.2 8:-0.5 9:0 #
-3.0376012715536173e-005 1:0.22222222 2:0.25 3:0.5 4:0.5 5:0.40000001 6:0.40000001 7:0.2 8:-0.75 9:0 #
6.0752025431072345e-005 1:0.22222222 2:0.25 3:0.33333334 4:0.5 5:0.60000002 6:0.60000002 7:0.30000001 8:-0.5 9:0.25 #
-3.0376012715536173e-005 1:0.22222222 2:0.25 3:0.16666667 4:0.5 5:1 6:1 7:0.5 8:0 9:0.75 #
-3.0376012715536173e-005 1:0.11111111 2:0.75 3:0.16666667 4:0.33333334 5:0.60000002 6:1 7:0.2 8:0 9:0 #
3.0376012715536173e-005 1:0.11111111 2:0.75 3:0.16666667 4:0.33333334 5:0.60000002 6:1 7:0.2 8:0 9:0 #
-3.0376012715536173e-005 1:0.55555558 2:0 3:0.33333334 4:0.5 5:0.60000002 6:0.75 7:0.2 8:-0.25 9:0 #
-3.0376012715536173e-005 1:0.55555558 2:0 3:0.33333334 4:0.5 5:0.60000002 6:0.75 7:0.2 8:-0.25 9:0 #
6.0752025431072345e-005 1:0.55555558 2:0 3:0.16666667 4:0.5 5:0.80000001 6:1 7:0.26666668 8:0 9:0.25 #
3.0376012715536173e-005 1:0.44444445 2:0.25 3:0.16666667 4:0.33333334 5:0.80000001 6:1 7:0.2 8:0 9:0 #
-3.0376012715536173e-005 1:0.44444445 2:0.25 3:0.16666667 4:0.33333334 5:0.80000001 6:1 7:0.2 8:0 9:0 #
3.0376012715536173e-005 1:0.33333334 2:0.5 3:0.16666667 4:0.33333334 5:1 6:1 7:0.25 8:0 9:0.25 #
-3.0376012715536173e-005 1:0.33333334 2:0.5 3:0.33333334 4:0.33333334 5:0.80000001 6:0.80000001 7:0.2 8:-0.25 9:0 #
4.2780953746092221e-005 1:0.55555558 2:0 3:0.16666667 4:0.5 5:0.80000001 6:1 7:0.40000001 8:0 9:0.5 #
-3.0376012715536173e-005 1:0.55555558 2:0 3:0.33333334 4:0.5 5:0.40000001 6:0.5 7:0.2 8:-0.5 9:0 #
-1.2404941030556047e-005 1:0.55555558 2:0 3:0.33333334 4:0.5 5:0.40000001 6:0.5 7:0.2 8:-0.5 9:0 #
-3.0376012715536173e-005 1:0.33333334 2:0.25 3:0.5 4:0.5 5:0.40000001 6:0.40000001 7:0.2 8:-0.75 9:0 #
6.0752025431072345e-005 1:0.33333334 2:0.25 3:0.33333334 4:0.5 5:0.60000002 6:0.60000002 7:0.30000001 8:-0.5 9:0.25 #
-3.0376012715536173e-005 1:0.33333334 2:0.25 3:0.16666667 4:0.5 5:1 6:1 7:0.5 8:0 9:0.75 #
3.0376012715536173e-005 1:0.22222222 2:0.75 3:0.16666667 4:0.33333334 5:0.60000002 6:1 7:0.2 8:0 9:0 #
-3.0376012715536173e-005 1:0.22222222 2:0.75 3:0.16666667 4:0.33333334 5:0.60000002 6:1 7:0.2 8:0 9:0 #
-3.0376012715536173e-005 1:0.11111111 2:1 3:0.16666667 4:0.33333334 5:0.80000001 6:1 7:0.26666668 8:0 9:0.25 #
3.0376012715536173e-005 1:0.11111111 2:1 3:0.33333334 4:0.33333334 5:0.60000002 6:0.75 7:0.2 8:-0.25 9:0 #
-3.0376012715536173e-005 1:0 2:0 3:0.33333334 4:0.33333334 5:0.60000002 6:0.75 7:0.2 8:-0.25 9:0 #
3.0376012715536173e-005 1:0 2:0 3:0.16666667 4:0.33333334 5:0.80000001 6:1 7:0.26666668 8:0 9:0.25 #
-3.0376012715536173e-005 1:0.22222222 2:0 3:0.16666667 4:0.33333334 5:0.80000001 6:1 7:0.26666668 8:0 9:0.25 #
3.0376012715536173e-005 1:0.22222222 2:0 3:0.33333334 4:0.33333334 5:0.60000002 6:0.75 7:0.2 8:-0.25 9:0 #
-3.0376012715536173e-005 1:0.11111111 2:0.25 3:0.5 4:1 5:0.60000002 6:0.75 7:0.2 8:-0.25 9:0 #
-3.0376012715536173e-005 1:0.11111111 2:0.25 3:0.5 4:1 5:0.60000002 6:0.75 7:0.2 8:-0.25 9:0 #
0.00015188006357768087 1:0.11111111 2:0.25 3:0.16666667 4:1 5:0.80000001 6:1 7:0.26666668 8:0 9:0.25 #
-3.0376012715536173e-005 1:0.11111111 2:0.25 3:0.16666667 4:1 5:0.80000001 6:1 7:0.26666668 8:0 9:0.25 #
-3.0376012715536173e-005 1:0.11111111 2:0.25 3:0.5 4:1 5:0.60000002 6:0.75 7:0.2 8:-0.25 9:0 #
-3.0376012715536173e-005 1:0.11111111 2:0.25 3:0.5 4:1 5:0.60000002 6:0.75 7:0.2 8:-0.25 9:0 #
3.0376012715536173e-005 1:0 2:1 3:0.16666667 4:0.83333331 5:0.80000001 6:1 7:0.80000001 8:0 9:0.75 #
-3.0376012715536173e-005 1:0 2:1 3:0.16666667 4:0.83333331 5:0.80000001 6:1 7:0.80000001 8:0 9:0.75 #
-3.0376012715536173e-005 1:0.11111111 2:0 3:0.33333334 4:0.33333334 5:0.60000002 6:0.75 7:0.2 8:-0.25 9:0 #
3.0376012715536173e-005 1:0.11111111 2:0 3:0.16666667 4:0.33333334 5:0.80000001 6:1 7:0.26666668 8:0 9:0.25 #
-3.0376012715536173e-005 1:0.11111111 2:0.25 3:0.16666667 4:0.33333334 5:0.80000001 6:1 7:0.80000001 8:0 9:0.75 #
3.0376012715536173e-005 1:0.11111111 2:0.25 3:0.33333334 4:0.33333334 5:0.2 6:0.25 7:0.2 8:-0.75 9:0 #
-3.0376012715536173e-005 1:0.66666669 2:0 3:0.33333334 4:0.5 5:0.60000002 6:0.75 7:0.2 8:-0.25 9:0 #
-3.0376012715536173e-005 1:0.66666669 2:0 3:0.33333334 4:0.5 5:0.60000002 6:0.75 7:0.2 8:-0.25 9:0 #
6.0752025431072345e-005 1:0.66666669 2:0 3:0.16666667 4:0.5 5:0.80000001 6:1 7:0.26666668 8:0 9:0.25 #
-3.0376012715536173e-005 1:0.55555558 2:0.25 3:0.16666667 4:0.33333334 5:0.80000001 6:1 7:0.2 8:0 9:0 #
3.0376012715536173e-005 1:0.55555558 2:0.25 3:0.16666667 4:0.33333334 5:0.80000001 6:1 7:0.2 8:0 9:0 #
3.0376012715536173e-005 1:0.11111111 2:0.5 3:0.16666667 4:0.5 5:0.80000001 6:1 7:0.26666668 8:0 9:0.25 #
-3.0376012715536173e-005 1:0.11111111 2:0.5 3:0.16666667 4:0.5 5:0.80000001 6:1 7:0.26666668 8:0 9:0.25 #
-3.0376012715536173e-005 1:0.33333334 2:0 3:0.16666667 4:0.33333334 5:0.80000001 6:1 7:0.26666668 8:0 9:0.25 #
3.0376012715536173e-005 1:0.33333334 2:0 3:0.33333334 4:0.33333334 5:0.60000002 6:0.75 7:0.2 8:-0.25 9:0 #
0.00015188006357768087 1:0.22222222 2:0.25 3:0.5 4:1 5:0.60000002 6:0.75 7:0.2 8:-0.25 9:0 #
-3.0376012715536173e-005 1:0.22222222 2:0.25 3:0.5 4:1 5:0.60000002 6:0.75 7:0.2 8:-0.25 9:0 #
-3.0376012715536173e-005 1:0.22222222 2:0.25 3:0.16666667 4:1 5:0.80000001 6:1 7:0.26666668 8:0 9:0.25 #
-3.0376012715536173e-005 1:0.22222222 2:0.25 3:0.16666667 4:1 5:0.80000001 6:1 7:0.26666668 8:0 9:0.25 #
-3.0376012715536173e-005 1:0.22222222 2:0.25 3:0.5 4:1 5:0.60000002 6:0.75 7:0.2 8:-0.25 9:0 #
-3.0376012715536173e-005 1:0.22222222 2:0.25 3:0.5 4:1 5:0.60000002 6:0.75 7:0.2 8:-0.25 9:0 #
-3.0376012715536173e-005 1:0 2:0.5 3:0.16666667 4:0.33333334 5:0.60000002 6:1 7:0.2 8:0 9:0 #
3.0376012715536173e-005 1:0 2:0.5 3:0.16666667 4:0.33333334 5:0.60000002 6:1 7:0.2 8:0 9:0 #
-3.0376012715536173e-005 1:0 2:0.5 3:0.33333334 4:0.5 5:0.80000001 6:0.80000001 7:0.26666668 8:-0.25 9:0.25 #
3.0376012715536173e-005 1:0 2:0.5 3:0.16666667 4:0.5 5:1 6:1 7:0.33333331 8:0 9:0.5 #
-3.0376012715536173e-005 1:0 2:1 3:0.16666667 4:0.33333334 5:0.80000001 6:1 7:0.2 8:0 9:0 #
3.0376012715536173e-005 1:0 2:1 3:0.16666667 4:0.33333334 5:0.80000001 6:1 7:0.2 8:0 9:0 #
-3.0376012715536173e-005 1:0 2:0 3:0.33333334 4:0.33333334 5:0.80000001 6:0.80000001 7:0.2 8:-0.25 9:0 #
3.0376012715536173e-005 1:0 2:0 3:0.16666667 4:0.33333334 5:1 6:1 7:0.25 8:0 9:0.25 #
3.0376012715536173e-005 1:0 2:0.25 3:0.16666667 4:0.33333334 5:0.80000001 6:1 7:0.2 8:0 9:0 #
-3.0376012715536173e-005 1:0 2:0.25 3:0.16666667 4:0.33333334 5:0.80000001 6:1 7:0.2 8:0 9:0 #
9.1439172306721256e-006 1:0 2:1 3:0.16666667 4:0.5 5:1 6:1 7:0.33333331 8:0 9:0.5 #
-9.1439172306721256e-006 1:0 2:1 3:0.33333334 4:0.5 5:0.80000001 6:0.80000001 7:0.26666668 8:-0.25 9:0.25 #
-3.0376012715536173e-005 1:0 2:0 3:0.33333334 4:0.33333334 5:0.80000001 6:0.80000001 7:0.2 8:-0.25 9:0 #
3.0376012715536173e-005 1:0 2:0 3:0.16666667 4:0.33333334 5:1 6:1 7:0.25 8:0 9:0.25 #
-3.0376012715536173e-005 1:0 2:0.25 3:0.16666667 4:1 5:1 6:1 7:0.33333331 8:0 9:0.5 #
-3.0376012715536173e-005 1:0 2:0.25 3:0.5 4:1 5:0.80000001 6:0.80000001 7:0.26666668 8:-0.25 9:0.25 #
-3.0376012715536173e-005 1:0 2:0.25 3:0.16666667 4:1 5:1 6:1 7:0.33333331 8:0 9:0.5 #
9.1128038146608511e-005 1:0 2:0.25 3:0.5 4:1 5:0.80000001 6:0.80000001 7:0.26666668 8:-0.25 9:0.25 #
5.9214016295494009e-007 1:0 2:1 3:0.16666667 4:0.33333334 5:1 6:1 7:0.25 8:0 9:0.25 #
-5.9214016295494009e-007 1:0 2:1 3:0.33333334 4:0.33333334 5:0.80000001 6:0.80000001 7:0.2 8:-0.25 9:0 #
3.0376012715536173e-005 1:0.11111111 2:0 3:0.33333334 4:0.33333334 5:0.80000001 6:0.80000001 7:0.2 8:-0.25 9:0 #
-3.0376012715536173e-005 1:0.11111111 2:0 3:0.16666667 4:0.33333334 5:1 6:1 7:0.25 8:0 9:0.25 #
-3.0376012715536173e-005 1:0 2:0.25 3:0.16666667 4:0.33333334 5:0.80000001 6:1 7:0.2 8:0 9:0 #
3.0376012715536173e-005 1:0 2:0.25 3:0.16666667 4:0.33333334 5:0.80000001 6:1 7:0.2 8:0 9:0 #
3.0376012715536173e-005 1:0 2:0.5 3:0.16666667 4:0.66666669 5:1 6:1 7:0.33333331 8:0 9:0.5 #
-3.0376012715536173e-005 1:0 2:0.5 3:0.16666667 4:0.66666669 5:1 6:1 7:0.33333331 8:0 9:0.5 #
6.0752025431072345e-005 1:0.11111111 2:0 3:0.33333334 4:0.5 5:0.80000001 6:0.80000001 7:0.2 8:-0.25 9:0 #
-3.0376012715536173e-005 1:0.11111111 2:0 3:0.33333334 4:0.5 5:0.80000001 6:0.80000001 7:0.2 8:-0.25 9:0 #
-3.0376012715536173e-005 1:0.11111111 2:0 3:0.16666667 4:0.5 5:1 6:1 7:0.25 8:0 9:0.25 #
-3.0376012715536173e-005 1:0 2:0.25 3:0.16666667 4:0.5 5:1 6:1 7:0.25 8:0 9:0.25 #
3.0376012715536173e-005 1:0 2:0.25 3:0.16666667 4:0.5 5:1 6:1 7:0.25 8:0 9:0.25 #
-3.0376012715536173e-005 1:0 2:0.75 3:0.16666667 4:0.33333334 5:1 6:1 7:0.2 8:0 9:0 #
3.0376012715536173e-005 1:0 2:0.75 3:0.16666667 4:0.33333334 5:1 6:1 7:0.2 8:0 9:0 #
3.0376012715536173e-005 1:0 2:0 3:0.16666667 4:0.33333334 5:1 6:1 7:0.2 8:0 9:0 #
-3.0376012715536173e-005 1:0 2:0 3:0.16666667 4:0.33333334 5:1 6:1 7:0.2 8:0 9:0 #
-3.0376012715536173e-005 1:0.11111111 2:0 3:0.16666667 4:0.33333334 5:1 6:1 7:0.2 8:0 9:0 #
3.0376012715536173e-005 1:0.11111111 2:0 3:0.16666667 4:0.33333334 5:1 6:1 7:0.2 8:0 9:0 #
-3.0376012715536173e-005 1:0 2:0.25 3:0.16666667 4:0.33333334 5:1 6:1 7:0.2 8:0 9:0 #
3.0376012715536173e-005 1:0 2:0.25 3:0.16666667 4:0.33333334 5:1 6:1 7:0.2 8:0 9:0 #
-3.0376012715536173e-005 1:0.22222222 2:0 3:0.16666667 4:0.33333334 5:1 6:1 7:0.2 8:0 9:0 #
3.0376012715536173e-005 1:0.22222222 2:0 3:0.16666667 4:0.33333334 5:1 6:1 7:0.2 8:0 9:0 #
3.0376012715536173e-005 1:0.11111111 2:0.25 3:0.16666667 4:0.33333334 5:1 6:1 7:0.2 8:0 9:0 #
-3.0376012715536173e-005 1:0.11111111 2:0.25 3:0.16666667 4:0.33333334 5:1 6:1 7:0.2 8:0 9:0 #
3.0376012715536173e-005 1:0.22222222 2:0 3:0.33333334 4:0.33333334 5:0.80000001 6:0.80000001 7:0.2 8:-0.25 9:0 #
-3.0376012715536173e-005 1:0.22222222 2:0 3:0.16666667 4:0.33333334 5:1 6:1 7:0.25 8:0 9:0.25 #
3.0376012715536173e-005 1:0.11111111 2:0.25 3:0.16666667 4:0.33333334 5:0.80000001 6:1 7:0.2 8:0 9:0 #
-3.0376012715536173e-005 1:0.11111111 2:0.25 3:0.16666667 4:0.33333334 5:0.80000001 6:1 7:0.2 8:0 9:0 #
-3.0376012715536173e-005 1:0 2:0.5 3:0.16666667 4:0.33333334 5:1 6:1 7:0.33333331 8:0 9:0.5 #
3.0376012715536173e-005 1:0 2:0.5 3:0.33333334 4:0.33333334 5:0.60000002 6:0.60000002 7:0.2 8:-0.5 9:0 #
3.0376012715536173e-005 1:0 2:0.75 3:0.16666667 4:0.5 5:0.80000001 6:1 7:0.26666668 8:0 9:0.25 #
-3.0376012715536173e-005 1:0 2:0.75 3:0.16666667 4:0.5 5:0.80000001 6:1 7:0.26666668 8:0 9:0.25 #
-3.0376012715536173e-005 1:0.33333334 2:0 3:0.33333334 4:0.33333334 5:0.80000001 6:0.80000001 7:0.2 8:-0.25 9:0 #
3.0376012715536173e-005 1:0.33333334 2:0 3:0.16666667 4:0.33333334 5:1 6:1 7:0.25 8:0 9:0.25 #
-3.0376012715536173e-005 1:0.11111111 2:0.25 3:0.16666667 4:0.33333334 5:0.80000001 6:1 7:0.2 8:0 9:0 #
3.0376012715536173e-005 1:0.11111111 2:0.25 3:0.16666667 4:0.33333334 5:0.80000001 6:1 7:0.2 8:0 9:0 #
-9.1837180363073244e-006 1:0 2:1 3:0.33333334 4:0.33333334 5:0.80000001 6:0.80000001 7:0.2 8:-0.25 9:0 #
9.1837180363073244e-006 1:0 2:1 3:0.16666667 4:0.33333334 5:1 6:1 7:0.25 8:0 9:0.25 #
-3.0376012715536173e-005 1:0.33333334 2:0 3:0.16666667 4:0.33333334 5:1 6:1 7:0.2 8:0 9:0 #
3.0376012715536173e-005 1:0.33333334 2:0 3:0.16666667 4:0.33333334 5:1 6:1 7:0.2 8:0 9:0 #
3.0376012715536173e-005 1:0.22222222 2:0.25 3:0.16666667 4:0.33333334 5:1 6:1 7:0.2 8:0 9:0 #
-3.0376012715536173e-005 1:0.22222222 2:0.25 3:0.16666667 4:0.33333334 5:1 6:1 7:0.2 8:0 9:0 #
3.0376012715536173e-005 1:0.11111111 2:0.5 3:0.33333334 4:0.33333334 5:0.80000001 6:0.80000001 7:0.2 8:-0.25 9:0 #
-3.0376012715536173e-005 1:0.11111111 2:0.5 3:0.16666667 4:0.33333334 5:1 6:1 7:0.25 8:0 9:0.25 #
3.0376012715536173e-005 1:0 2:0.75 3:0.16666667 4:0.33333334 5:1 6:1 7:0.2 8:0 9:0 #
-3.0376012715536173e-005 1:0 2:0.75 3:0.16666667 4:0.33333334 5:1 6:1 7:0.2 8:0 9:0 #
-3.0376012715536173e-005 1:0.44444445 2:0 3:0.16666667 4:0.33333334 5:1 6:1 7:0.2 8:0 9:0 #
3.0376012715536173e-005 1:0.44444445 2:0 3:0.16666667 4:0.33333334 5:1 6:1 7:0.2 8:0 9:0 #
3.0376012715536173e-005 1:0.33333334 2:0.25 3:0.16666667 4:0.33333334 5:1 6:1 7:0.2 8:0 9:0 #
-3.0376012715536173e-005 1:0.33333334 2:0.25 3:0.16666667 4:0.33333334 5:1 6:1 7:0.2 8:0 9:0 #
3.0376012715536173e-005 1:0.22222222 2:0.5 3:0.33333334 4:0.33333334 5:0.80000001 6:0.80000001 7:0.2 8:-0.25 9:0 #
-3.0376012715536173e-005 1:0.22222222 2:0.5 3:0.16666667 4:0.33333334 5:1 6:1 7:0.25 8:0 9:0.25 #
-3.0376012715536173e-005 1:0.11111111 2:0.75 3:0.16666667 4:0.33333334 5:1 6:1 7:0.2 8:0 9:0 #
3.0376012715536173e-005 1:0.11111111 2:0.75 3:0.16666667 4:0.33333334 5:1 6:1 7:0.2 8:0 9:0 #
3.0376012715536173e-005 1:0 2:0 3:0.16666667 4:0.5 5:1 6:1 7:0.25 8:0 9:0.25 #
-3.0376012715536173e-005 1:0 2:0 3:0.16666667 4:0.5 5:1 6:1 7:0.25 8:0 9:0.25 #
3.0376012715536173e-005 1:0 2:0.25 3:0.16666667 4:0.5 5:1 6:1 7:0.25 8:0 9:0.25 #
-3.0376012715536173e-005 1:0 2:0.25 3:0.16666667 4:0.5 5:1 6:1 7:0.25 8:0 9:0.25 #
3.0376012715536173e-005 1:0.55555558 2:0 3:0.16666667 4:0.33333334 5:1 6:1 7:0.2 8:0 9:0 #
-3.0376012715536173e-005 1:0.55555558 2:0 3:0.16666667 4:0.33333334 5:1 6:1 7:0.2 8:0 9:0 #
6.0752025431072345e-005 1:0.22222222 2:0 3:0.33333334 4:0.5 5:0.80000001 6:0.80000001 7:0.2 8:-0.25 9:0 #
-3.0376012715536173e-005 1:0.22222222 2:0 3:0.33333334 4:0.5 5:0.80000001 6:0.80000001 7:0.2 8:-0.25 9:0 #
-3.0376012715536173e-005 1:0.22222222 2:0 3:0.16666667 4:0.5 5:1 6:1 7:0.25 8:0 9:0.25 #
3.0376012715536173e-005 1:0.11111111 2:0.25 3:0.16666667 4:0.5 5:1 6:1 7:0.25 8:0 9:0.25 #
-3.0376012715536173e-005 1:0.11111111 2:0.25 3:0.16666667 4:0.5 5:1 6:1 7:0.25 8:0 9:0.25 #
-3.0376012715536173e-005 1:0 2:0.5 3:0.16666667 4:0.33333334 5:1 6:1 7:0.2 8:0 9:0 #
3.0376012715536173e-005 1:0 2:0.5 3:0.16666667 4:0.33333334 5:1 6:1 7:0.2 8:0 9:0 #
-3.0376012715536173e-005 1:0 2:1 3:0.16666667 4:0.66666669 5:1 6:1 7:0.25 8:0 9:0.25 #
3.0376012715536173e-005 1:0 2:1 3:0.16666667 4:0.66666669 5:1 6:1 7:0.25 8:0 9:0.25 #
6.0752025431072345e-005 1:0.33333334 2:0 3:0.33333334 4:0.5 5:0.80000001 6:0.80000001 7:0.2 8:-0.25 9:0 #
-3.0376012715536173e-005 1:0.33333334 2:0 3:0.33333334 4:0.5 5:0.80000001 6:0.80000001 7:0.2 8:-0.25 9:0 #
-3.0376012715536173e-005 1:0.33333334 2:0 3:0.16666667 4:0.5 5:1 6:1 7:0.25 8:0 9:0.25 #
-3.0376012715536173e-005 1:0.22222222 2:0.25 3:0.16666667 4:0.5 5:1 6:1 7:0.25 8:0 9:0.25 #
6.0752025431072345e-005 1:0.22222222 2:0.25 3:0.16666667 4:0.5 5:1 6:1 7:0.25 8:0 9:0.25 #
-3.0376012715536173e-005 1:0.22222222 2:0.25 3:0.5 4:0.5 5:0.80000001 6:0.80000001 7:0.2 8:-0.25 9:0 #
3.0376012715536173e-005 1:0.11111111 2:0.75 3:0.16666667 4:0.33333334 5:1 6:1 7:0.2 8:0 9:0 #
-3.0376012715536173e-005 1:0.11111111 2:0.75 3:0.16666667 4:0.33333334 5:1 6:1 7:0.2 8:0 9:0 #
3.0376012715536173e-005 1:0 2:1 3:0.16666667 4:0.33333334 5:1 6:1 7:0.2 8:0 9:0 #
-3.0376012715536173e-005 1:0 2:1 3:0.16666667 4:0.33333334 5:1 6:1 7:0.2 8:0 9:0 #
-3.0376012715536173e-005 1:0.11111111 2:0 3:0.16666667 4:0.5 5:1 6:1 7:0.25 8:0 9:0.25 #
3.0376012715536173e-005 1:0.11111111 2:0 3:0.16666667 4:0.5 5:1 6:1 7:0.25 8:0 9:0.25 #
-3.0376012715536173e-005 1:0 2:0.25 3:0.16666667 4:0.33333334 5:1 6:1 7:0.2 8:0 9:0 #
3.0376012715536173e-005 1:0 2:0.25 3:0.16666667 4:0.33333334 5:1 6:1 7:0.2 8:0 9:0 #
-3.0376012715536173e-005 1:0 2:0.5 3:0.16666667 4:0.5 5:1 6:1 7:0.33333331 8:0 9:0.5 #
3.0376012715536173e-005 1:0 2:0.5 3:0.16666667 4:0.5 5:1 6:1 7:0.33333331 8:0 9:0.5 #
3.0376012715536173e-005 1:0 2:0.75 3:0.16666667 4:0.33333334 5:1 6:1 7:0.2 8:0 9:0 #
-3.0376012715536173e-005 1:0 2:0.75 3:0.16666667 4:0.33333334 5:1 6:1 7:0.2 8:0 9:0 #
-3.0376012715536173e-005 1:0.22222222 2:0 3:0.16666667 4:0.5 5:1 6:1 7:0.25 8:0 9:0.25 #
-3.0376012715536173e-005 1:0.22222222 2:0 3:0.5 4:0.5 5:0.80000001 6:0.80000001 7:0.2 8:-0.25 9:0 #
6.0752025431072345e-005 1:0.22222222 2:0 3:0.16666667 4:0.5 5:1 6:1 7:0.25 8:0 9:0.25 #
3.0376012715536173e-005 1:0.11111111 2:0.25 3:0.16666667 4:0.33333334 5:1 6:1 7:0.2 8:0 9:0 #
-3.0376012715536173e-005 1:0.11111111 2:0.25 3:0.16666667 4:0.33333334 5:1 6:1 7:0.2 8:0 9:0 #
-3.0376012715536173e-005 1:0.11111111 2:0 3:0.33333334 4:0.33333334 5:0.80000001 6:0.80000001 7:0.2 8:-0.25 9:0 #
3.0376012715536173e-005 1:0.11111111 2:0 3:0.16666667 4:0.33333334 5:1 6:1 7:0.25 8:0 9:0.25 #
-3.0376012715536173e-005 1:0.11111111 2:0.25 3:0.16666667 4:1 5:1 6:1 7:0.33333331 8:0 9:0.5 #
0.00011400719272907693 1:0.11111111 2:0.25 3:0.5 4:1 5:0.80000001 6:0.80000001 7:0.26666668 8:-0.25 9:0.25 #
-2.287915458246841e-005 1:0.11111111 2:0.25 3:0.83333331 4:1 5:0.60000002 6:0.60000002 7:0.2 8:-0.5 9:0 #
-3.0376012715536173e-005 1:0.11111111 2:0.25 3:0.16666667 4:1 5:1 6:1 7:0.33333331 8:0 9:0.5 #
-3.0376012715536173e-005 1:0.11111111 2:0.25 3:0.5 4:1 5:0.80000001 6:0.80000001 7:0.26666668 8:-0.25 9:0.25 #
3.0376012715536173e-005 1:0 2:0.75 3:0.16666667 4:0.33333334 5:1 6:1 7:0.2 8:0 9:0 #
-3.0376012715536173e-005 1:0 2:0.75 3:0.16666667 4:0.33333334 5:1 6:1 7:0.2 8:0 9:0 #
-3.0376012715536173e-005 1:0 2:1 3:0.16666667 4:0.33333334 5:1 6:1 7:0.2 8:0 9:0 #
3.0376012715536173e-005 1:0 2:1 3:0.16666667 4:0.33333334 5:1 6:1 7:0.2 8:0 9:0 #
-3.0376012715536173e-005 1:0.22222222 2:0 3:0.33333334 4:0.33333334 5:0.80000001 6:0.80000001 7:0.2 8:-0.25 9:0 #
3.0376012715536173e-005 1:0.22222222 2:0 3:0.16666667 4:0.33333334 5:1 6:1 7:0.25 8:0 9:0.25 #
0.00015188006357768087 1:0.22222222 2:0.25 3:0.16666667 4:1 5:1 6:1 7:0.33333331 8:0 9:0.5 #
-3.0376012715536173e-005 1:0.22222222 2:0.25 3:0.5 4:1 5:0.80000001 6:0.80000001 7:0.26666668 8:-0.25 9:0.25 #
-3.0376012715536173e-005 1:0.22222222 2:0.25 3:0.83333331 4:1 5:0.60000002 6:0.60000002 7:0.2 8:-0.5 9:0 #
-3.0376012715536173e-005 1:0.22222222 2:0.25 3:0.16666667 4:1 5:1 6:1 7:0.33333331 8:0 9:0.5 #
-3.0376012715536173e-005 1:0.22222222 2:0.25 3:0.83333331 4:1 5:0.60000002 6:0.60000002 7:0.2 8:-0.5 9:0 #
-3.0376012715536173e-005 1:0.22222222 2:0.25 3:0.5 4:1 5:0.80000001 6:0.80000001 7:0.26666668 8:-0.25 9:0.25 #
-3.0376012715536173e-005 1:0 2:0.25 3:0.33333334 4:0.33333334 5:0.60000002 6:0.75 7:0.2 8:-0.25 9:0 #
3.0376012715536173e-005 1:0 2:0.25 3:0.16666667 4:0.33333334 5:0.80000001 6:1 7:0.26666668 8:0 9:0.25 #
3.0376012715536173e-005 1:0 2:0.25 3:0.16666667 4:0.5 5:1 6:1 7:0.5 8:0 9:0.75 #
-3.0376012715536173e-005 1:0 2:0.25 3:0.33333334 4:0.5 5:0.80000001 6:0.80000001 7:0.40000001 8:-0.25 9:0.5 #
-3.0376012715536173e-005 1:0 2:0.5 3:0.16666667 4:0.33333334 5:1 6:1 7:0.2 8:0 9:0 #
3.0376012715536173e-005 1:0 2:0.5 3:0.16666667 4:0.33333334 5:1 6:1 7:0.2 8:0 9:0 #
-3.0376012715536173e-005 1:0 2:1 3:0.16666667 4:0.66666669 5:1 6:1 7:0.5 8:0 9:0.75 #
3.0376012715536173e-005 1:0 2:1 3:0.16666667 4:0.66666669 5:1 6:1 7:0.5 8:0 9:0.75 #
3.0376012715536173e-005 1:0 2:0 3:0.16666667 4:0.33333334 5:0.80000001 6:1 7:0.2 8:0 9:0 #
-3.0376012715536173e-005 1:0 2:0 3:0.16666667 4:0.33333334 5:0.80000001 6:1 7:0.2 8:0 9:0 #
-3.0376012715536173e-005 1:0 2:0.5 3:0.16666667 4:0.5 5:1 6:1 7:0.5 8:0 9:0.75 #
3.0376012715536173e-005 1:0 2:0.5 3:0.16666667 4:0.5 5:1 6:1 7:0.5 8:0 9:0.75 #
-3.0376012715536173e-005 1:0.11111111 2:0 3:0.16666667 4:0.5 5:0.80000001 6:1 7:0.40000001 8:0 9:0.5 #
-3.0376012715536173e-005 1:0.11111111 2:0 3:0.5 4:0.5 5:0.40000001 6:0.5 7:0.2 8:-0.5 9:0 #
6.0752025431072345e-005 1:0.11111111 2:0 3:0.33333334 4:0.5 5:0.60000002 6:0.75 7:0.30000001 8:-0.25 9:0.25 #
3.0376012715536173e-005 1:0 2:0.75 3:0.16666667 4:0.5 5:1 6:1 7:0.25 8:0 9:0.25 #
-3.0376012715536173e-005 1:0 2:0.75 3:0.16666667 4:0.5 5:1 6:1 7:0.25 8:0 9:0.25 #
3.0376012715536173e-005 1:0 2:0 3:0.16666667 4:0.33333334 5:0.80000001 6:1 7:0.2 8:0 9:0 #
-3.0376012715536173e-005 1:0 2:0 3:0.16666667 4:0.33333334 5:0.80000001 6:1 7:0.2 8:0 9:0 #
3.0376012715536173e-005 1:0 2:0.25 3:0.16666667 4:0.33333334 5:0.80000001 6:1 7:0.2 8:0 9:0 #
-3.0376012715536173e-005 1:0 2:0.25 3:0.16666667 4:0.33333334 5:0.80000001 6:1 7:0.2 8:0 9:0 #
3.0376012715536173e-005 1:0 2:0.5 3:0.16666667 4:0.33333334 5:1 6:1 7:0.2 8:0 9:0 #
-3.0376012715536173e-005 1:0 2:0.5 3:0.16666667 4:0.33333334 5:1 6:1 7:0.2 8:0 9:0 #
-3.0376012715536173e-005 1:0 2:0 3:0.16666667 4:0.5 5:0.80000001 6:1 7:0.40000001 8:0 9:0.5 #
3.0376012715536173e-005 1:0 2:0 3:0.16666667 4:0.5 5:0.80000001 6:1 7:0.40000001 8:0 9:0.5 #
3.0376012715536173e-005 1:0 2:0.25 3:0.16666667 4:0.33333334 5:0.80000001 6:1 7:0.2 8:0 9:0 #
-3.0376012715536173e-005 1:0 2:0.25 3:0.16666667 4:0.33333334 5:0.80000001 6:1 7:0.2 8:0 9:0 #
3.0376012715536173e-005 1:0 2:0.5 3:0.16666667 4:0.33333334 5:0.60000002 6:1 7:0.2 8:0 9:0 #
-3.0376012715536173e-005 1:0 2:0.5 3:0.16666667 4:0.33333334 5:0.60000002 6:1 7:0.2 8:0 9:0 #
-3.0376012715536173e-005 1:0.11111111 2:0 3:0.16666667 4:0.33333334 5:0.80000001 6:1 7:0.2 8:0 9:0 #
3.0376012715536173e-005 1:0.11111111 2:0 3:0.16666667 4:0.33333334 5:0.80000001 6:1 7:0.2 8:0 9:0 #
-3.0376012715536173e-005 1:0 2:0.25 3:0.16666667 4:1 5:0.80000001 6:1 7:0.80000001 8:0 9:0.75 #
3.0376012715536173e-005 1:0 2:0.25 3:0.16666667 4:1 5:0.80000001 6:1 7:0.80000001 8:0 9:0.75 #
3.0376012715536173e-005 1:0 2:0.5 3:0.16666667 4:0.33333334 5:1 6:1 7:0.2 8:0 9:0 #
-3.0376012715536173e-005 1:0 2:0.5 3:0.16666667 4:0.33333334 5:1 6:1 7:0.2 8:0 9:0 #
-3.0376012715536173e-005 1:0.11111111 2:0 3:0.16666667 4:0.5 5:0.80000001 6:1 7:0.40000001 8:0 9:0.5 #
3.0376012715536173e-005 1:0.11111111 2:0 3:0.16666667 4:0.5 5:0.80000001 6:1 7:0.40000001 8:0 9:0.5 #
3.0376012715536173e-005 1:0.11111111 2:0.25 3:0.16666667 4:0.33333334 5:0.80000001 6:1 7:0.2 8:0 9:0 #
-3.0376012715536173e-005 1:0.11111111 2:0.25 3:0.16666667 4:0.33333334 5:0.80000001 6:1 7:0.2 8:0 9:0 #
-3.0376012715536173e-005 1:0.11111111 2:0.5 3:0.16666667 4:0.33333334 5:0.60000002 6:1 7:0.2 8:0 9:0 #
3.0376012715536173e-005 1:0.11111111 2:0.5 3:0.16666667 4:0.33333334 5:0.60000002 6:1 7:0.2 8:0 9:0 #
-3.0376012715536173e-005 1:0 2:0.75 3:0.16666667 4:0.33333334 5:0.60000002 6:1 7:0.2 8:0 9:0 #
3.0376012715536173e-005 1:0 2:0.75 3:0.16666667 4:0.33333334 5:0.60000002 6:1 7:0.2 8:0 9:0 #
3.0376012715536173e-005 1:0.22222222 2:0 3:0.16666667 4:0.5 5:0.80000001 6:1 7:0.40000001 8:0 9:0.5 #
-3.0376012715536173e-005 1:0.22222222 2:0 3:0.16666667 4:0.5 5:0.80000001 6:1 7:0.40000001 8:0 9:0.5 #
-3.0376012715536173e-005 1:0 2:0.25 3:0.16666667 4:0.5 5:0.80000001 6:1 7:0.40000001 8:0 9:0.5 #
3.0376012715536173e-005 1:0 2:0.25 3:0.16666667 4:0.5 5:0.80000001 6:1 7:0.40000001 8:0 9:0.5 #
3.0376012715536173e-005 1:0 2:0.5 3:0.16666667 4:0.33333334 5:0.80000001 6:1 7:0.2 8:0 9:0 #
-3.0376012715536173e-005 1:0 2:0.5 3:0.16666667 4:0.33333334 5:0.80000001 6:1 7:0.2 8:0 9:0 #
6.0752025431072345e-005 1:0 2:0.75 3:0.16666667 4:0.5 5:0.80000001 6:1 7:0.2 8:0 9:0 #
-3.0376012715536173e-005 1:0 2:0.75 3:0.16666667 4:0.5 5:0.80000001 6:1 7:0.2 8:0 9:0 #
-3.0376012715536173e-005 1:0 2:0.75 3:0.16666667 4:0.5 5:0.80000001 6:1 7:0.2 8:0 9:0 #
-3.0376012715536173e-005 1:0.11111111 2:0 3:0.16666667 4:0.33333334 5:0.80000001 6:1 7:0.2 8:0 9:0 #
3.0376012715536173e-005 1:0.11111111 2:0 3:0.16666667 4:0.33333334 5:0.80000001 6:1 7:0.2 8:0 9:0 #
3.0376012715536173e-005 1:0 2:0.25 3:0.16666667 4:0.33333334 5:0.80000001 6:1 7:0.2 8:0 9:0 #
-3.0376012715536173e-005 1:0 2:0.25 3:0.16666667 4:0.33333334 5:0.80000001 6:1 7:0.2 8:0 9:0 #
-3.0376012715536173e-005 1:0 2:0.5 3:0.16666667 4:0.33333334 5:0.80000001 6:1 7:0.2 8:0 9:0 #
3.0376012715536173e-005 1:0 2:0.5 3:0.16666667 4:0.33333334 5:0.80000001 6:1 7:0.2 8:0 9:0 #
-3.0376012715536173e-005 1:0 2:0.75 3:0.16666667 4:0.33333334 5:0.80000001 6:1 7:0.2 8:0 9:0 #
3.0376012715536173e-005 1:0 2:0.75 3:0.16666667 4:0.33333334 5:0.80000001 6:1 7:0.2 8:0 9:0 #
3.0376012715536173e-005 1:0.22222222 2:0 3:0.16666667 4:0.33333334 5:0.80000001 6:1 7:0.2 8:0 9:0 #
-3.0376012715536173e-005 1:0.22222222 2:0 3:0.16666667 4:0.33333334 5:0.80000001 6:1 7:0.2 8:0 9:0 #
3.0376012715536173e-005 1:0.11111111 2:0.25 3:0.16666667 4:0.33333334 5:0.80000001 6:1 7:0.2 8:0 9:0 #
-3.0376012715536173e-005 1:0.11111111 2:0.25 3:0.16666667 4:0.33333334 5:0.80000001 6:1 7:0.2 8:0 9:0 #
-3.0376012715536173e-005 1:0.11111111 2:0.5 3:0.16666667 4:0.33333334 5:1 6:1 7:0.2 8:0 9:0 #
3.0376012715536173e-005 1:0.11111111 2:0.5 3:0.16666667 4:0.33333334 5:1 6:1 7:0.2 8:0 9:0 #
-3.0376012715536173e-005 1:0 2:1 3:0.16666667 4:0.5 5:1 6:1 7:0.5 8:0 9:0.75 #
3.0376012715536173e-005 1:0 2:1 3:0.16666667 4:0.5 5:1 6:1 7:0.5 8:0 9:0.75 #
3.0376012715536173e-005 1:0.22222222 2:0 3:0.16666667 4:0.33333334 5:0.80000001 6:1 7:0.2 8:0 9:0 #
-3.0376012715536173e-005 1:0.22222222 2:0 3:0.16666667 4:0.33333334 5:0.80000001 6:1 7:0.2 8:0 9:0 #
6.0752025431072345e-005 1:0.11111111 2:0.5 3:0.16666667 4:0.5 5:1 6:1 7:0.5 8:0 9:0.75 #
-3.0376012715536173e-005 1:0.11111111 2:0.5 3:0.16666667 4:0.5 5:1 6:1 7:0.5 8:0 9:0.75 #
-3.0376012715536173e-005 1:0.11111111 2:0.5 3:0.5 4:0.5 5:0.40000001 6:0.40000001 7:0.2 8:-0.75 9:0 #
3.0376012715536173e-005 1:0 2:0.75 3:0.16666667 4:0.33333334 5:1 6:1 7:0.2 8:0 9:0 #
-3.0376012715536173e-005 1:0 2:0.75 3:0.16666667 4:0.33333334 5:1 6:1 7:0.2 8:0 9:0 #
-3.0376012715536173e-005 1:0 2:1 3:0.16666667 4:0.33333334 5:1 6:1 7:0.2 8:0 9:0 #
3.0376012715536173e-005 1:0 2:1 3:0.16666667 4:0.33333334 5:1 6:1 7:0.2 8:0 9:0 #
-3.0376012715536173e-005 1:0.33333334 2:0 3:0.16666667 4:0.33333334 5:0.80000001 6:1 7:0.2 8:0 9:0 #
3.0376012715536173e-005 1:0.33333334 2:0 3:0.16666667 4:0.33333334 5:0.80000001 6:1 7:0.2 8:0 9:0 #
-3.0376012715536173e-005 1:0.11111111 2:0.25 3:0.16666667 4:1 5:0.80000001 6:1 7:0.80000001 8:0 9:0.75 #
-3.0376012715536173e-005 1:0.11111111 2:0.25 3:0.5 4:1 5:0.60000002 6:0.75 7:0.60000002 8:-0.25 9:0.5 #
6.0752025431072345e-005 1:0.11111111 2:0.25 3:0.16666667 4:1 5:0.80000001 6:1 7:0.80000001 8:0 9:0.75 #
-3.0376012715536173e-005 1:0.11111111 2:0.5 3:0.16666667 4:0.33333334 5:1 6:1 7:0.2 8:0 9:0 #
3.0376012715536173e-005 1:0.11111111 2:0.5 3:0.16666667 4:0.33333334 5:1 6:1 7:0.2 8:0 9:0 #
