SVM-light Version V6.02
1 # kernel type
8 # kernel parameter -d 
1 # kernel parameter -g 
1 # kernel parameter -s 
1 # kernel parameter -r 
empty# kernel parameter -u 
9 # highest feature index 
3836 # number of training documents 
2590 # number of support vectors plus 1 
0 # threshold b, each following line is a SV (starting with alpha*y)
-2.3157160897699785e-005 1:0 2:0.5 3:0.5 4:0.5 5:0.2 6:0.25 7:0.2 8:-0.75 9:0 #
4.6314321795399569e-005 1:0 2:0.5 3:0.33333334 4:0.5 5:0.60000002 6:0.75 7:0.60000002 8:-0.25 9:0.5 #
-2.3157160897699785e-005 1:0 2:0.5 3:0.16666667 4:0.5 5:0.80000001 6:1 7:0.80000001 8:0 9:0.75 #
-2.3157160897699785e-005 1:0.11111111 2:0.5 3:0.5 4:0.5 5:0.2 6:0.25 7:0.2 8:-0.75 9:0 #
4.6314321795399569e-005 1:0.11111111 2:0.5 3:0.33333334 4:0.5 5:0.60000002 6:0.75 7:0.60000002 8:-0.25 9:0.5 #
-2.3157160897699785e-005 1:0.11111111 2:0.5 3:0.16666667 4:0.5 5:0.80000001 6:1 7:0.80000001 8:0 9:0.75 #
-2.3157160897699785e-005 1:0 2:0 3:0.33333334 4:0.33333334 5:0.60000002 6:0.75 7:0.2 8:-0.25 9:0 #
2.3157160897699785e-005 1:0 2:0 3:0.16666667 4:0.33333334 5:0.80000001 6:1 7:0.26666668 8:0 9:0.25 #
-2.3157160897699785e-005 1:0 2:0.25 3:0.33333334 4:0.33333334 5:0.60000002 6:0.75 7:0.2 8:-0.25 9:0 #
2.3157160897699785e-005 1:0 2:0.25 3:0.16666667 4:0.33333334 5:0.80000001 6:1 7:0.26666668 8:0 9:0.25 #
-2.3157160897699785e-005 1:0 2:0 3:0.33333334 4:0.5 5:0.60000002 6:0.75 7:0.30000001 8:-0.25 9:0.25 #
2.3157160897699785e-005 1:0 2:0 3:0.16666667 4:0.5 5:0.80000001 6:1 7:0.40000001 8:0 9:0.5 #
-2.3157160897699785e-005 1:0 2:0.5 3:0.33333334 4:0.5 5:0.60000002 6:0.75 7:0.30000001 8:-0.25 9:0.25 #
2.3157160897699785e-005 1:0 2:0.5 3:0.16666667 4:0.5 5:0.80000001 6:1 7:0.40000001 8:0 9:0.5 #
2.3157160897699785e-005 1:0.22222222 2:0 3:0.16666667 4:0.33333334 5:1 6:1 7:0.33333331 8:0 9:0.5 #
-2.3157160897699785e-005 1:0.22222222 2:0 3:0.33333334 4:0.33333334 5:0.60000002 6:0.60000002 7:0.2 8:-0.5 9:0 #
4.6314321795399569e-005 1:0.22222222 2:0.5 3:0.5 4:0.5 5:0.2 6:0.25 7:0.2 8:-0.75 9:0 #
-2.3157160897699785e-005 1:0.22222222 2:0.5 3:0.33333334 4:0.5 5:0.60000002 6:0.75 7:0.60000002 8:-0.25 9:0.5 #
-2.3157160897699785e-005 1:0.22222222 2:0.5 3:0.16666667 4:0.5 5:0.80000001 6:1 7:0.80000001 8:0 9:0.75 #
-2.3157160897699785e-005 1:0 2:0.25 3:0.33333334 4:0.33333334 5:0.60000002 6:0.75 7:0.2 8:-0.25 9:0 #
2.3157160897699785e-005 1:0 2:0.25 3:0.16666667 4:0.33333334 5:0.80000001 6:1 7:0.26666668 8:0 9:0.25 #
-2.3157160897699785e-005 1:0 2:0.5 3:0.16666667 4:0.5 5:0.80000001 6:1 7:0.26666668 8:0 9:0.25 #
2.3157160897699785e-005 1:0 2:0.5 3:0.16666667 4:0.5 5:0.80000001 6:1 7:0.26666668 8:0 9:0.25 #
4.6314321795399569e-005 1:0.11111111 2:0 3:0.33333334 4:0.5 5:0.60000002 6:0.75 7:0.30000001 8:-0.25 9:0.25 #
-2.3157160897699785e-005 1:0.11111111 2:0 3:0.5 4:0.5 5:0.40000001 6:0.5 7:0.2 8:-0.5 9:0 #
-2.3157160897699785e-005 1:0.11111111 2:0 3:0.16666667 4:0.5 5:0.80000001 6:1 7:0.40000001 8:0 9:0.5 #
-2.3157160897699785e-005 1:0 2:0.25 3:0.16666667 4:0.5 5:0.80000001 6:1 7:0.40000001 8:0 9:0.5 #
2.3157160897699785e-005 1:0 2:0.25 3:0.16666667 4:0.5 5:0.80000001 6:1 7:0.40000001 8:0 9:0.5 #
2.3157160897699785e-005 1:0 2:0.75 3:0.16666667 4:0.33333334 5:0.80000001 6:1 7:0.2 8:0 9:0 #
-2.3157160897699785e-005 1:0 2:0.75 3:0.16666667 4:0.33333334 5:0.80000001 6:1 7:0.2 8:0 9:0 #
2.3157160897699785e-005 1:0.11111111 2:0 3:0.33333334 4:0.33333334 5:0.60000002 6:0.75 7:0.2 8:-0.25 9:0 #
-2.3157160897699785e-005 1:0.11111111 2:0 3:0.16666667 4:0.33333334 5:0.80000001 6:1 7:0.26666668 8:0 9:0.25 #
2.3157160897699785e-005 1:0.33333334 2:0 3:0.16666667 4:0.33333334 5:1 6:1 7:0.33333331 8:0 9:0.5 #
-2.3157160897699785e-005 1:0.33333334 2:0 3:0.33333334 4:0.33333334 5:0.60000002 6:0.60000002 7:0.2 8:-0.5 9:0 #
4.6314321795399569e-005 1:0.33333334 2:0.5 3:0.5 4:0.5 5:0.2 6:0.25 7:0.2 8:-0.75 9:0 #
-2.3157160897699785e-005 1:0.33333334 2:0.5 3:0.33333334 4:0.5 5:0.60000002 6:0.75 7:0.60000002 8:-0.25 9:0.5 #
-2.3157160897699785e-005 1:0.33333334 2:0.5 3:0.16666667 4:0.5 5:0.80000001 6:1 7:0.80000001 8:0 9:0.75 #
2.3157160897699785e-005 1:0.11111111 2:0.75 3:0.16666667 4:0.33333334 5:0.80000001 6:1 7:0.40000001 8:0 9:0.5 #
-2.3157160897699785e-005 1:0.11111111 2:0.75 3:0.33333334 4:0.33333334 5:0.40000001 6:0.5 7:0.2 8:-0.5 9:0 #
-1.5841644044799401e-005 1:0.11111111 2:1 3:0.33333334 4:0.33333334 5:0.2 6:0.2 7:0.2 8:-1 9:0 #
1.5841644044799401e-005 1:0.11111111 2:1 3:0.16666667 4:0.33333334 5:1 6:1 7:1 8:0 9:1 #
2.3157160897699785e-005 1:0.22222222 2:0 3:0.33333334 4:0.33333334 5:0.60000002 6:0.75 7:0.2 8:-0.25 9:0 #
-2.3157160897699785e-005 1:0.22222222 2:0 3:0.16666667 4:0.33333334 5:0.80000001 6:1 7:0.26666668 8:0 9:0.25 #
-2.3157160897699785e-005 1:0.44444445 2:0 3:0.16666667 4:0.33333334 5:1 6:1 7:0.33333331 8:0 9:0.5 #
2.3157160897699785e-005 1:0.44444445 2:0 3:0.33333334 4:0.33333334 5:0.60000002 6:0.60000002 7:0.2 8:-0.5 9:0 #
-2.3157160897699785e-005 1:0 2:0.25 3:0.16666667 4:1 5:0.80000001 6:1 7:0.26666668 8:0 9:0.25 #
-2.3157160897699785e-005 1:0 2:0.25 3:0.16666667 4:1 5:0.80000001 6:1 7:0.26666668 8:0 9:0.25 #
4.6314321795399569e-005 1:0 2:0.25 3:0.16666667 4:1 5:0.80000001 6:1 7:0.26666668 8:0 9:0.25 #
2.3157160897699785e-005 1:0 2:0.5 3:0.16666667 4:0.33333334 5:0.80000001 6:1 7:0.26666668 8:0 9:0.25 #
-2.3157160897699785e-005 1:0 2:0.5 3:0.33333334 4:0.33333334 5:0.60000002 6:0.75 7:0.2 8:-0.25 9:0 #
-2.3157160897699785e-005 1:0.22222222 2:0 3:0.33333334 4:0.5 5:0.60000002 6:0.75 7:0.30000001 8:-0.25 9:0.25 #
4.6314321795399569e-005 1:0.22222222 2:0 3:0.5 4:0.5 5:0.40000001 6:0.5 7:0.2 8:-0.5 9:0 #
-2.3157160897699785e-005 1:0.22222222 2:0 3:0.16666667 4:0.5 5:0.80000001 6:1 7:0.40000001 8:0 9:0.5 #
-2.3157160897699785e-005 1:0.11111111 2:0 3:0.33333334 4:0.33333334 5:0.40000001 6:0.5 7:0.2 8:-0.5 9:0 #
2.3157160897699785e-005 1:0.11111111 2:0 3:0.16666667 4:0.33333334 5:0.80000001 6:1 7:0.40000001 8:0 9:0.5 #
2.3157160897699785e-005 1:0.11111111 2:0.25 3:0.33333334 4:0.33333334 5:0.40000001 6:0.5 7:0.2 8:-0.5 9:0 #
-2.3157160897699785e-005 1:0.11111111 2:0.25 3:0.16666667 4:0.33333334 5:0.80000001 6:1 7:0.40000001 8:0 9:0.5 #
7.2014038712107261e-006 1:0 2:0.5 3:0.16666667 4:0.33333334 5:1 6:1 7:0.5 8:0 9:0.75 #
-7.2014038712107261e-006 1:0 2:0.5 3:0.33333334 4:0.33333334 5:0.40000001 6:0.40000001 7:0.2 8:-0.75 9:0 #
-2.3157160897699785e-005 1:0.55555558 2:0 3:0.16666667 4:0.33333334 5:1 6:1 7:0.33333331 8:0 9:0.5 #
2.3157160897699785e-005 1:0.55555558 2:0 3:0.33333334 4:0.33333334 5:0.60000002 6:0.60000002 7:0.2 8:-0.5 9:0 #
-2.3157160897699785e-005 1:0.11111111 2:0.25 3:0.16666667 4:1 5:0.80000001 6:1 7:0.26666668 8:0 9:0.25 #
4.6314321795399569e-005 1:0.11111111 2:0.25 3:0.16666667 4:1 5:0.80000001 6:1 7:0.26666668 8:0 9:0.25 #
-2.3157160897699785e-005 1:0.11111111 2:0.25 3:0.16666667 4:1 5:0.80000001 6:1 7:0.26666668 8:0 9:0.25 #
-2.3157160897699785e-005 1:0 2:0.5 3:0.33333334 4:0.33333334 5:0.60000002 6:0.75 7:0.2 8:-0.25 9:0 #
2.3157160897699785e-005 1:0 2:0.5 3:0.16666667 4:0.33333334 5:0.80000001 6:1 7:0.26666668 8:0 9:0.25 #
2.3157160897699785e-005 1:0 2:1 3:0.16666667 4:0.83333331 5:0.80000001 6:1 7:0.80000001 8:0 9:0.75 #
-2.3157160897699785e-005 1:0 2:1 3:0.16666667 4:0.83333331 5:0.80000001 6:1 7:0.80000001 8:0 9:0.75 #
-2.3157160897699785e-005 1:0.66666669 2:0 3:0.16666667 4:0.33333334 5:1 6:1 7:0.33333331 8:0 9:0.5 #
2.3157160897699785e-005 1:0.66666669 2:0 3:0.33333334 4:0.33333334 5:0.60000002 6:0.60000002 7:0.2 8:-0.5 9:0 #
-2.3157160897699785e-005 1:0.22222222 2:0.25 3:0.16666667 4:1 5:0.80000001 6:1 7:0.26666668 8:0 9:0.25 #
0.00011578580448849892 1:0.22222222 2:0.25 3:0.66666669 4:1 5:0.60000002 6:0.75 7:0.2 8:-0.25 9:0 #
-2.3157160897699785e-005 1:0.22222222 2:0.25 3:0.16666667 4:1 5:0.80000001 6:1 7:0.26666668 8:0 9:0.25 #
-2.3157160897699785e-005 1:0.22222222 2:0.25 3:0.16666667 4:1 5:0.80000001 6:1 7:0.26666668 8:0 9:0.25 #
-2.3157160897699785e-005 1:0.22222222 2:0.25 3:0.66666669 4:1 5:0.60000002 6:0.75 7:0.2 8:-0.25 9:0 #
-2.3157160897699785e-005 1:0.22222222 2:0.25 3:0.66666669 4:1 5:0.60000002 6:0.75 7:0.2 8:-0.25 9:0 #
2.3157160897699785e-005 1:0 2:0.75 3:0.16666667 4:0.33333334 5:0.80000001 6:1 7:0.2 8:0 9:0 #
-2.3157160897699785e-005 1:0 2:0.75 3:0.16666667 4:0.33333334 5:0.80000001 6:1 7:0.2 8:0 9:0 #
4.6314321795399569e-005 1:0.33333334 2:0 3:0.33333334 4:0.5 5:0.60000002 6:0.75 7:0.30000001 8:-0.25 9:0.25 #
-2.3157160897699785e-005 1:0.33333334 2:0 3:0.5 4:0.5 5:0.40000001 6:0.5 7:0.2 8:-0.5 9:0 #
-2.3157160897699785e-005 1:0.33333334 2:0 3:0.16666667 4:0.5 5:0.80000001 6:1 7:0.40000001 8:0 9:0.5 #
2.3157160897699785e-005 1:0.11111111 2:0.25 3:0.16666667 4:0.5 5:0.80000001 6:1 7:0.40000001 8:0 9:0.5 #
-2.3157160897699785e-005 1:0.11111111 2:0.25 3:0.16666667 4:0.5 5:0.80000001 6:1 7:0.40000001 8:0 9:0.5 #
-2.3157160897699785e-005 1:0 2:0.5 3:0.33333334 4:0.33333334 5:0.60000002 6:0.75 7:0.2 8:-0.25 9:0 #
2.3157160897699785e-005 1:0 2:0.5 3:0.16666667 4:0.33333334 5:0.80000001 6:1 7:0.26666668 8:0 9:0.25 #
2.3157160897699785e-005 1:0 2:1 3:0.16666667 4:0.66666669 5:0.80000001 6:1 7:0.40000001 8:0 9:0.5 #
-2.3157160897699785e-005 1:0 2:1 3:0.16666667 4:0.66666669 5:0.80000001 6:1 7:0.40000001 8:0 9:0.5 #
4.6314321795399569e-005 1:0.11111111 2:0 3:0.33333334 4:0.5 5:0.60000002 6:0.75 7:0.2 8:-0.25 9:0 #
-2.3157160897699785e-005 1:0.11111111 2:0 3:0.33333334 4:0.5 5:0.60000002 6:0.75 7:0.2 8:-0.25 9:0 #
-2.3157160897699785e-005 1:0.11111111 2:0 3:0.16666667 4:0.5 5:0.80000001 6:1 7:0.26666668 8:0 9:0.25 #
-2.3157160897699785e-005 1:0.44444445 2:0 3:0.33333334 4:0.5 5:0.60000002 6:0.75 7:0.30000001 8:-0.25 9:0.25 #
-2.3157160897699785e-005 1:0.44444445 2:0 3:0.5 4:0.5 5:0.40000001 6:0.5 7:0.2 8:-0.5 9:0 #
4.6314321795399569e-005 1:0.44444445 2:0 3:0.16666667 4:0.5 5:0.80000001 6:1 7:0.40000001 8:0 9:0.5 #
-2.3157160897699785e-005 1:0.11111111 2:0.5 3:0.5 4:0.5 5:0.40000001 6:0.5 7:0.2 8:-0.5 9:0 #
4.6314321795399569e-005 1:0.11111111 2:0.5 3:0.33333334 4:0.5 5:0.60000002 6:0.75 7:0.30000001 8:-0.25 9:0.25 #
-2.3157160897699785e-005 1:0.11111111 2:0.5 3:0.16666667 4:0.5 5:0.80000001 6:1 7:0.40000001 8:0 9:0.5 #
4.6314321795399569e-005 1:0 2:0.75 3:0.16666667 4:0.5 5:0.80000001 6:1 7:0.2 8:0 9:0 #
-2.3157160897699785e-005 1:0 2:0.75 3:0.16666667 4:0.5 5:0.80000001 6:1 7:0.2 8:0 9:0 #
-2.3157160897699785e-005 1:0 2:0.75 3:0.16666667 4:0.5 5:0.80000001 6:1 7:0.2 8:0 9:0 #
2.3157160897699785e-005 1:0.22222222 2:0 3:0.33333334 4:0.33333334 5:0.40000001 6:0.5 7:0.2 8:-0.5 9:0 #
-2.3157160897699785e-005 1:0.22222222 2:0 3:0.16666667 4:0.33333334 5:0.80000001 6:1 7:0.40000001 8:0 9:0.5 #
2.3157160897699785e-005 1:0 2:0.25 3:0.16666667 4:0.33333334 5:0.60000002 6:1 7:0.2 8:0 9:0 #
-2.3157160897699785e-005 1:0 2:0.25 3:0.16666667 4:0.33333334 5:0.60000002 6:1 7:0.2 8:0 9:0 #
-2.3157160897699785e-005 1:0 2:0.5 3:0.33333334 4:0.33333334 5:0.60000002 6:0.75 7:0.2 8:-0.25 9:0 #
2.3157160897699785e-005 1:0 2:0.5 3:0.16666667 4:0.33333334 5:0.80000001 6:1 7:0.26666668 8:0 9:0.25 #
-2.3157160897699785e-005 1:0 2:0.25 3:0.33333334 4:0.33333334 5:0.60000002 6:0.75 7:0.2 8:-0.25 9:0 #
2.3157160897699785e-005 1:0 2:0.25 3:0.16666667 4:0.33333334 5:0.80000001 6:1 7:0.26666668 8:0 9:0.25 #
2.3157160897699785e-005 1:0 2:0.5 3:0.16666667 4:0.5 5:0.80000001 6:1 7:0.40000001 8:0 9:0.5 #
-2.3157160897699785e-005 1:0 2:0.5 3:0.33333334 4:0.5 5:0.60000002 6:0.75 7:0.30000001 8:-0.25 9:0.25 #
-2.3157160897699785e-005 1:0 2:0.25 3:0.33333334 4:1 5:0.80000001 6:0.80000001 7:0.26666668 8:-0.25 9:0.25 #
-2.3157160897699785e-005 1:0 2:0.25 3:0.33333334 4:1 5:0.80000001 6:0.80000001 7:0.26666668 8:-0.25 9:0.25 #
9.2628643590799139e-005 1:0 2:0.25 3:0.16666667 4:1 5:1 6:1 7:0.33333331 8:0 9:0.5 #
-2.3157160897699785e-005 1:0 2:0.25 3:0.33333334 4:1 5:0.80000001 6:0.80000001 7:0.26666668 8:-0.25 9:0.25 #
-2.3157160897699785e-005 1:0 2:0.25 3:0.33333334 4:1 5:0.80000001 6:0.80000001 7:0.26666668 8:-0.25 9:0.25 #
-2.3157160897699785e-005 1:0 2:0.5 3:0.33333334 4:0.33333334 5:0.60000002 6:0.75 7:0.2 8:-0.25 9:0 #
2.3157160897699785e-005 1:0 2:0.5 3:0.16666667 4:0.33333334 5:0.80000001 6:1 7:0.26666668 8:0 9:0.25 #
-2.3157160897699785e-005 1:0.11111111 2:0 3:0.33333334 4:0.33333334 5:0.40000001 6:0.5 7:0.2 8:-0.5 9:0 #
2.3157160897699785e-005 1:0.11111111 2:0 3:0.16666667 4:0.33333334 5:0.80000001 6:1 7:0.40000001 8:0 9:0.5 #
-2.3157160897699785e-005 1:0.11111111 2:0.25 3:0.33333334 4:1 5:0.80000001 6:0.80000001 7:0.26666668 8:-0.25 9:0.25 #
-2.3157160897699785e-005 1:0.11111111 2:0.25 3:0.33333334 4:1 5:0.80000001 6:0.80000001 7:0.26666668 8:-0.25 9:0.25 #
-2.3157160897699785e-005 1:0.11111111 2:0.25 3:0.16666667 4:1 5:1 6:1 7:0.33333331 8:0 9:0.5 #
-2.3157160897699785e-005 1:0.11111111 2:0.25 3:0.33333334 4:1 5:0.80000001 6:0.80000001 7:0.26666668 8:-0.25 9:0.25 #
9.2628643590799139e-005 1:0.11111111 2:0.25 3:0.33333334 4:1 5:0.80000001 6:0.80000001 7:0.26666668 8:-0.25 9:0.25 #
2.3157160897699785e-005 1:0.22222222 2:0 3:0.33333334 4:0.33333334 5:0.40000001 6:0.5 7:0.2 8:-0.5 9:0 #
-2.3157160897699785e-005 1:0.22222222 2:0 3:0.16666667 4:0.33333334 5:0.80000001 6:1 7:0.40000001 8:0 9:0.5 #
-2.3157160897699785e-005 1:0.33333334 2:0 3:0.33333334 4:0.33333334 5:0.40000001 6:0.5 7:0.2 8:-0.5 9:0 #
2.3157160897699785e-005 1:0.33333334 2:0 3:0.16666667 4:0.33333334 5:0.80000001 6:1 7:0.40000001 8:0 9:0.5 #
-2.3157160897699785e-005 1:0.22222222 2:0.25 3:0.33333334 4:1 5:0.80000001 6:0.80000001 7:0.26666668 8:-0.25 9:0.25 #
9.2628643590799139e-005 1:0.22222222 2:0.25 3:0.33333334 4:1 5:0.80000001 6:0.80000001 7:0.26666668 8:-0.25 9:0.25 #
-2.3157160897699785e-005 1:0.22222222 2:0.25 3:0.16666667 4:1 5:1 6:1 7:0.33333331 8:0 9:0.5 #
-2.3157160897699785e-005 1:0.22222222 2:0.25 3:0.33333334 4:1 5:0.80000001 6:0.80000001 7:0.26666668 8:-0.25 9:0.25 #
-2.3157160897699785e-005 1:0.22222222 2:0.25 3:0.33333334 4:1 5:0.80000001 6:0.80000001 7:0.26666668 8:-0.25 9:0.25 #
2.3157160897699785e-005 1:0 2:0.75 3:0.16666667 4:0.33333334 5:0.60000002 6:1 7:0.2 8:0 9:0 #
-2.3157160897699785e-005 1:0 2:0.75 3:0.16666667 4:0.33333334 5:0.60000002 6:1 7:0.2 8:0 9:0 #
-2.3157160897699785e-005 1:0 2:0 3:0.33333334 4:0.5 5:0.60000002 6:0.75 7:0.60000002 8:-0.25 9:0.5 #
2.3157160897699785e-005 1:0 2:0 3:0.16666667 4:0.5 5:0.80000001 6:1 7:0.80000001 8:0 9:0.75 #
-2.3157160897699785e-005 1:0 2:0.5 3:0.16666667 4:0.5 5:0.60000002 6:1 7:0.30000001 8:0 9:0.25 #
2.3157160897699785e-005 1:0 2:0.5 3:0.16666667 4:0.5 5:0.60000002 6:1 7:0.30000001 8:0 9:0.25 #
4.6314321795399569e-005 1:0 2:0.75 3:0.16666667 4:0.5 5:0.60000002 6:1 7:0.2 8:0 9:0 #
-2.3157160897699785e-005 1:0 2:0.75 3:0.16666667 4:0.5 5:0.60000002 6:1 7:0.2 8:0 9:0 #
-2.3157160897699785e-005 1:0 2:0.75 3:0.16666667 4:0.5 5:0.60000002 6:1 7:0.2 8:0 9:0 #
-2.3157160897699785e-005 1:0.11111111 2:0 3:0.33333334 4:0.5 5:0.60000002 6:0.75 7:0.60000002 8:-0.25 9:0.5 #
2.3157160897699785e-005 1:0.11111111 2:0 3:0.16666667 4:0.5 5:0.80000001 6:1 7:0.80000001 8:0 9:0.75 #
-2.3157160897699785e-005 1:0.11111111 2:0.5 3:0.16666667 4:0.5 5:0.60000002 6:1 7:0.30000001 8:0 9:0.25 #
4.6314321795399569e-005 1:0.11111111 2:0.5 3:0.16666667 4:0.5 5:0.60000002 6:1 7:0.30000001 8:0 9:0.25 #
-2.3157160897699785e-005 1:0.11111111 2:0.5 3:0.5 4:0.5 5:0.40000001 6:0.66666669 7:0.2 8:-0.25 9:0 #
-2.3157160897699785e-005 1:0.11111111 2:0.75 3:0.16666667 4:0.5 5:0.60000002 6:1 7:0.2 8:0 9:0 #
4.6314321795399569e-005 1:0.11111111 2:0.75 3:0.16666667 4:0.5 5:0.60000002 6:1 7:0.2 8:0 9:0 #
-2.3157160897699785e-005 1:0.11111111 2:0.75 3:0.16666667 4:0.5 5:0.60000002 6:1 7:0.2 8:0 9:0 #
-2.3157160897699785e-005 1:0 2:0 3:0.33333334 4:0.33333334 5:0.40000001 6:0.66666669 7:0.2 8:-0.25 9:0 #
2.3157160897699785e-005 1:0 2:0 3:0.16666667 4:0.33333334 5:0.60000002 6:1 7:0.30000001 8:0 9:0.25 #
-2.3157160897699785e-005 1:0 2:0.25 3:0.16666667 4:0.33333334 5:0.60000002 6:1 7:0.2 8:0 9:0 #
2.3157160897699785e-005 1:0 2:0.25 3:0.16666667 4:0.33333334 5:0.60000002 6:1 7:0.2 8:0 9:0 #
-2.3157160897699785e-005 1:0 2:0.75 3:0.16666667 4:0.33333334 5:0.40000001 6:1 7:0.2 8:0 9:0 #
2.3157160897699785e-005 1:0 2:0.75 3:0.16666667 4:0.33333334 5:0.40000001 6:1 7:0.2 8:0 9:0 #
2.3157160897699785e-005 1:0 2:0 3:0.16666667 4:0.33333334 5:0.60000002 6:1 7:0.2 8:0 9:0 #
-2.3157160897699785e-005 1:0 2:0 3:0.16666667 4:0.33333334 5:0.60000002 6:1 7:0.2 8:0 9:0 #
2.3157160897699785e-005 1:0 2:0.25 3:0.16666667 4:0.33333334 5:0.80000001 6:1 7:0.26666668 8:0 9:0.25 #
-2.3157160897699785e-005 1:0 2:0.25 3:0.33333334 4:0.33333334 5:0.60000002 6:0.75 7:0.2 8:-0.25 9:0 #
2.3157160897699785e-005 1:0 2:0.5 3:0.16666667 4:0.33333334 5:0.80000001 6:1 7:0.26666668 8:0 9:0.25 #
-2.3157160897699785e-005 1:0 2:0.5 3:0.33333334 4:0.33333334 5:0.60000002 6:0.75 7:0.2 8:-0.25 9:0 #
-2.3157160897699785e-005 1:0.44444445 2:0 3:0.33333334 4:0.33333334 5:0.40000001 6:0.5 7:0.2 8:-0.5 9:0 #
2.3157160897699785e-005 1:0.44444445 2:0 3:0.16666667 4:0.33333334 5:0.80000001 6:1 7:0.40000001 8:0 9:0.5 #
9.2628643590799139e-005 1:0.33333334 2:0.25 3:0.33333334 4:1 5:0.80000001 6:0.80000001 7:0.26666668 8:-0.25 9:0.25 #
-2.3157160897699785e-005 1:0.33333334 2:0.25 3:0.33333334 4:1 5:0.80000001 6:0.80000001 7:0.26666668 8:-0.25 9:0.25 #
-2.3157160897699785e-005 1:0.33333334 2:0.25 3:0.16666667 4:1 5:1 6:1 7:0.33333331 8:0 9:0.5 #
-2.3157160897699785e-005 1:0.33333334 2:0.25 3:0.33333334 4:1 5:0.80000001 6:0.80000001 7:0.26666668 8:-0.25 9:0.25 #
-2.3157160897699785e-005 1:0.33333334 2:0.25 3:0.33333334 4:1 5:0.80000001 6:0.80000001 7:0.26666668 8:-0.25 9:0.25 #
-2.3157160897699785e-005 1:0 2:0.5 3:0.16666667 4:0.33333334 5:0.60000002 6:1 7:0.2 8:0 9:0 #
2.3157160897699785e-005 1:0 2:0.5 3:0.16666667 4:0.33333334 5:0.60000002 6:1 7:0.2 8:0 9:0 #
-2.3157160897699785e-005 1:0.11111111 2:0 3:0.33333334 4:0.33333334 5:0.40000001 6:0.66666669 7:0.2 8:-0.25 9:0 #
2.3157160897699785e-005 1:0.11111111 2:0 3:0.16666667 4:0.33333334 5:0.60000002 6:1 7:0.30000001 8:0 9:0.25 #
2.3157160897699785e-005 1:0.11111111 2:0.25 3:0.16666667 4:0.33333334 5:0.60000002 6:1 7:0.2 8:0 9:0 #
-2.3157160897699785e-005 1:0.11111111 2:0.25 3:0.16666667 4:0.33333334 5:0.60000002 6:1 7:0.2 8:0 9:0 #
2.3157160897699785e-005 1:0.11111111 2:0.25 3:0.33333334 4:0.33333334 5:0.60000002 6:0.75 7:0.2 8:-0.25 9:0 #
-2.3157160897699785e-005 1:0.11111111 2:0.25 3:0.16666667 4:0.33333334 5:0.80000001 6:1 7:0.26666668 8:0 9:0.25 #
-2.3157160897699785e-005 1:0 2:0.75 3:0.16666667 4:0.33333334 5:0.60000002 6:1 7:0.2 8:0 9:0 #
2.3157160897699785e-005 1:0 2:0.75 3:0.16666667 4:0.33333334 5:0.60000002 6:1 7:0.2 8:0 9:0 #
-2.3157160897699785e-005 1:0.22222222 2:0 3:0.5 4:0.5 5:0.2 6:0.25 7:0.2 8:-0.75 9:0 #
-2.3157160897699785e-005 1:0.22222222 2:0 3:0.33333334 4:0.5 5:0.40000001 6:0.5 7:0.40000001 8:-0.5 9:0.25 #
4.6314321795399569e-005 1:0.22222222 2:0 3:0.16666667 4:0.5 5:0.80000001 6:1 7:0.80000001 8:0 9:0.75 #
-2.3157160897699785e-005 1:0.22222222 2:0.25 3:0.33333334 4:0.33333334 5:0.60000002 6:0.75 7:0.2 8:-0.25 9:0 #
2.3157160897699785e-005 1:0.22222222 2:0.25 3:0.16666667 4:0.33333334 5:0.80000001 6:1 7:0.26666668 8:0 9:0.25 #
-2.3157160897699785e-005 1:0.11111111 2:0.5 3:0.16666667 4:0.5 5:0.80000001 6:1 7:0.40000001 8:0 9:0.5 #
4.6314321795399569e-005 1:0.11111111 2:0.5 3:0.33333334 4:0.5 5:0.60000002 6:0.75 7:0.30000001 8:-0.25 9:0.25 #
-2.3157160897699785e-005 1:0.11111111 2:0.5 3:0.5 4:0.5 5:0.40000001 6:0.5 7:0.2 8:-0.5 9:0 #
-2.3157160897699785e-005 1:0 2:0.75 3:0.16666667 4:0.33333334 5:0.60000002 6:1 7:0.2 8:0 9:0 #
2.3157160897699785e-005 1:0 2:0.75 3:0.16666667 4:0.33333334 5:0.60000002 6:1 7:0.2 8:0 9:0 #
4.6314321795399569e-005 1:0.22222222 2:0 3:0.33333334 4:0.5 5:0.60000002 6:0.75 7:0.60000002 8:-0.25 9:0.5 #
-2.3157160897699785e-005 1:0.22222222 2:0 3:0.5 4:0.5 5:0.2 6:0.25 7:0.2 8:-0.75 9:0 #
-2.3157160897699785e-005 1:0.22222222 2:0 3:0.16666667 4:0.5 5:0.80000001 6:1 7:0.80000001 8:0 9:0.75 #
2.3157160897699785e-005 1:0 2:0.25 3:0.16666667 4:0.5 5:0.80000001 6:1 7:0.40000001 8:0 9:0.5 #
-2.3157160897699785e-005 1:0 2:0.25 3:0.33333334 4:0.5 5:0.60000002 6:0.75 7:0.30000001 8:-0.25 9:0.25 #
4.6314321795399569e-005 1:0.33333334 2:0 3:0.33333334 4:0.5 5:0.60000002 6:0.75 7:0.60000002 8:-0.25 9:0.5 #
-2.3157160897699785e-005 1:0.33333334 2:0 3:0.5 4:0.5 5:0.2 6:0.25 7:0.2 8:-0.75 9:0 #
-2.3157160897699785e-005 1:0.33333334 2:0 3:0.16666667 4:0.5 5:0.80000001 6:1 7:0.80000001 8:0 9:0.75 #
2.3157160897699785e-005 1:0.11111111 2:0.25 3:0.16666667 4:0.5 5:0.80000001 6:1 7:0.40000001 8:0 9:0.5 #
-2.3157160897699785e-005 1:0.11111111 2:0.25 3:0.33333334 4:0.5 5:0.60000002 6:0.75 7:0.30000001 8:-0.25 9:0.25 #
-2.3157160897699785e-005 1:0.11111111 2:0.5 3:0.33333334 4:0.33333334 5:0.80000001 6:0.80000001 7:0.2 8:-0.25 9:0 #
2.3157160897699785e-005 1:0.11111111 2:0.5 3:0.16666667 4:0.33333334 5:1 6:1 7:0.25 8:0 9:0.25 #
-2.3157160897699785e-005 1:0.11111111 2:1 3:0.66666669 4:0.66666669 5:0.40000001 6:0.5 7:0.2 8:-0.5 9:0 #
6.9471482693099357e-005 1:0.11111111 2:1 3:0.33333334 4:0.66666669 5:0.60000002 6:0.75 7:0.30000001 8:-0.25 9:0.25 #
-2.3157160897699785e-005 1:0.11111111 2:1 3:0.16666667 4:0.66666669 5:0.80000001 6:1 7:0.40000001 8:0 9:0.5 #
-2.3157160897699785e-005 1:0.11111111 2:1 3:0.33333334 4:0.66666669 5:0.60000002 6:0.75 7:0.30000001 8:-0.25 9:0.25 #
2.3157160897699785e-005 1:0.11111111 2:0 3:0.16666667 4:0.33333334 5:0.60000002 6:1 7:0.2 8:0 9:0 #
-2.3157160897699785e-005 1:0.11111111 2:0 3:0.16666667 4:0.33333334 5:0.60000002 6:1 7:0.2 8:0 9:0 #
2.3157160897699785e-005 1:0.11111111 2:0.25 3:0.16666667 4:0.33333334 5:0.80000001 6:1 7:0.26666668 8:0 9:0.25 #
-2.3157160897699785e-005 1:0.11111111 2:0.25 3:0.33333334 4:0.33333334 5:0.60000002 6:0.75 7:0.2 8:-0.25 9:0 #
-2.3157160897699785e-005 1:0.11111111 2:0.5 3:0.16666667 4:0.33333334 5:0.80000001 6:1 7:0.26666668 8:0 9:0.25 #
2.3157160897699785e-005 1:0.11111111 2:0.5 3:0.33333334 4:0.33333334 5:0.60000002 6:0.75 7:0.2 8:-0.25 9:0 #
2.3157160897699785e-005 1:0 2:0.75 3:0.16666667 4:0.5 5:0.80000001 6:1 7:0.40000001 8:0 9:0.5 #
-2.3157160897699785e-005 1:0 2:0.75 3:0.16666667 4:0.5 5:0.80000001 6:1 7:0.40000001 8:0 9:0.5 #
-2.2261074398759051e-005 1:0 2:1 3:0.33333334 4:0.5 5:0.80000001 6:0.80000001 7:0.26666668 8:-0.25 9:0.25 #
2.2261074398759051e-005 1:0 2:1 3:0.16666667 4:0.5 5:1 6:1 7:0.33333331 8:0 9:0.5 #
2.3157160897699785e-005 1:0.22222222 2:0 3:0.33333334 4:0.33333334 5:0.40000001 6:0.66666669 7:0.2 8:-0.25 9:0 #
-2.3157160897699785e-005 1:0.22222222 2:0 3:0.16666667 4:0.33333334 5:0.60000002 6:1 7:0.30000001 8:0 9:0.25 #
-2.3157160897699785e-005 1:0.55555558 2:0 3:0.33333334 4:0.33333334 5:0.40000001 6:0.5 7:0.2 8:-0.5 9:0 #
2.3157160897699785e-005 1:0.55555558 2:0 3:0.16666667 4:0.33333334 5:0.80000001 6:1 7:0.40000001 8:0 9:0.5 #
-2.3157160897699785e-005 1:0.44444445 2:0.25 3:0.33333334 4:1 5:0.80000001 6:0.80000001 7:0.26666668 8:-0.25 9:0.25 #
-2.3157160897699785e-005 1:0.44444445 2:0.25 3:0.33333334 4:1 5:0.80000001 6:0.80000001 7:0.26666668 8:-0.25 9:0.25 #
6.9471482693099357e-005 1:0.44444445 2:0.25 3:0.33333334 4:1 5:0.80000001 6:0.80000001 7:0.26666668 8:-0.25 9:0.25 #
-2.3157160897699785e-005 1:0.44444445 2:0.25 3:0.33333334 4:1 5:0.80000001 6:0.80000001 7:0.26666668 8:-0.25 9:0.25 #
2.3157160897699785e-005 1:0 2:1 3:0.16666667 4:0.5 5:0.60000002 6:1 7:0.30000001 8:0 9:0.25 #
-2.3157160897699785e-005 1:0 2:1 3:0.16666667 4:0.5 5:0.60000002 6:1 7:0.30000001 8:0 9:0.25 #
-2.3157160897699785e-005 1:0.33333334 2:0 3:0.5 4:0.5 5:0.2 6:0.25 7:0.2 8:-0.75 9:0 #
4.6314321795399569e-005 1:0.33333334 2:0 3:0.33333334 4:0.5 5:0.40000001 6:0.5 7:0.40000001 8:-0.5 9:0.25 #
-2.3157160897699785e-005 1:0.33333334 2:0 3:0.16666667 4:0.5 5:0.80000001 6:1 7:0.80000001 8:0 9:0.75 #
-2.3157160897699785e-005 1:0 2:0.25 3:0.33333334 4:0.33333334 5:0.60000002 6:0.75 7:0.2 8:-0.25 9:0 #
2.3157160897699785e-005 1:0 2:0.25 3:0.16666667 4:0.33333334 5:0.80000001 6:1 7:0.26666668 8:0 9:0.25 #
2.3157160897699785e-005 1:0 2:0.5 3:0.16666667 4:0.33333334 5:0.80000001 6:1 7:0.26666668 8:0 9:0.25 #
-2.3157160897699785e-005 1:0 2:0.5 3:0.33333334 4:0.33333334 5:0.60000002 6:0.75 7:0.2 8:-0.25 9:0 #
4.6314321795399569e-005 1:0.44444445 2:0 3:0.5 4:0.5 5:0.2 6:0.25 7:0.2 8:-0.75 9:0 #
-2.3157160897699785e-005 1:0.44444445 2:0 3:0.33333334 4:0.5 5:0.40000001 6:0.5 7:0.40000001 8:-0.5 9:0.25 #
-2.3157160897699785e-005 1:0.44444445 2:0 3:0.16666667 4:0.5 5:0.80000001 6:1 7:0.80000001 8:0 9:0.75 #
2.3157160897699785e-005 1:0 2:0.25 3:0.16666667 4:0.5 5:0.80000001 6:1 7:0.40000001 8:0 9:0.5 #
-2.3157160897699785e-005 1:0 2:0.25 3:0.33333334 4:0.5 5:0.60000002 6:0.75 7:0.30000001 8:-0.25 9:0.25 #
2.3157160897699785e-005 1:0 2:0.25 3:0.16666667 4:1 5:1 6:1 7:1 8:0 9:1 #
-2.3157160897699785e-005 1:0 2:0.25 3:0.16666667 4:1 5:1 6:1 7:1 8:0 9:1 #
-2.3157160897699785e-005 1:0 2:0.25 3:0.33333334 4:0.5 5:0.80000001 6:0.80000001 7:0.40000001 8:-0.25 9:0.5 #
2.3157160897699785e-005 1:0 2:0.25 3:0.16666667 4:0.5 5:1 6:1 7:0.5 8:0 9:0.75 #
2.3157160897699785e-005 1:0.11111111 2:0 3:0.33333334 4:0.33333334 5:0.60000002 6:0.60000002 7:0.2 8:-0.5 9:0 #
-2.3157160897699785e-005 1:0.11111111 2:0 3:0.16666667 4:0.33333334 5:1 6:1 7:0.33333331 8:0 9:0.5 #
-2.3157160897699785e-005 1:0 2:0.5 3:0.33333334 4:0.5 5:0.80000001 6:0.80000001 7:0.40000001 8:-0.25 9:0.5 #
2.3157160897699785e-005 1:0 2:0.5 3:0.16666667 4:0.5 5:1 6:1 7:0.5 8:0 9:0.75 #
2.3157160897699785e-005 1:0.22222222 2:0 3:0.33333334 4:0.33333334 5:0.60000002 6:0.60000002 7:0.2 8:-0.5 9:0 #
-2.3157160897699785e-005 1:0.22222222 2:0 3:0.16666667 4:0.33333334 5:1 6:1 7:0.33333331 8:0 9:0.5 #
4.6314321795399569e-005 1:0.11111111 2:0.5 3:0.33333334 4:0.5 5:0.80000001 6:0.80000001 7:0.40000001 8:-0.25 9:0.5 #
-2.3157160897699785e-005 1:0.11111111 2:0.5 3:0.16666667 4:0.5 5:1 6:1 7:0.5 8:0 9:0.75 #
-2.3157160897699785e-005 1:0.11111111 2:0.5 3:0.5 4:0.5 5:0.40000001 6:0.40000001 7:0.2 8:-0.75 9:0 #
2.3157160897699785e-005 1:0 2:0.25 3:0.16666667 4:0.33333334 5:1 6:1 7:0.25 8:0 9:0.25 #
-2.3157160897699785e-005 1:0 2:0.25 3:0.33333334 4:0.33333334 5:0.80000001 6:0.80000001 7:0.2 8:-0.25 9:0 #
-2.3157160897699785e-005 1:0.11111111 2:0 3:0.16666667 4:0.5 5:1 6:1 7:1 8:0 9:1 #
4.6314321795399569e-005 1:0.11111111 2:0 3:0.33333334 4:0.5 5:0.2 6:0.2 7:0.2 8:-1 9:0 #
-2.3157160897699785e-005 1:0.11111111 2:0 3:0.33333334 4:0.5 5:0.2 6:0.2 7:0.2 8:-1 9:0 #
-2.3157160897699785e-005 1:0.11111111 2:0 3:0.16666667 4:0.33333334 5:1 6:1 7:1 8:0 9:1 #
2.3157160897699785e-005 1:0.11111111 2:0 3:0.33333334 4:0.33333334 5:0.2 6:0.2 7:0.2 8:-1 9:0 #
-2.3157160897699785e-005 1:0 2:0.25 3:0.16666667 4:0.33333334 5:0.60000002 6:1 7:0.2 8:0 9:0 #
2.3157160897699785e-005 1:0 2:0.25 3:0.16666667 4:0.33333334 5:0.60000002 6:1 7:0.2 8:0 9:0 #
2.3157160897699785e-005 1:0 2:0.25 3:0.16666667 4:0.33333334 5:1 6:1 7:0.25 8:0 9:0.25 #
-2.3157160897699785e-005 1:0 2:0.25 3:0.33333334 4:0.33333334 5:0.80000001 6:0.80000001 7:0.2 8:-0.25 9:0 #
-2.3157160897699785e-005 1:0.22222222 2:0 3:0.16666667 4:0.5 5:1 6:1 7:1 8:0 9:1 #
-2.3157160897699785e-005 1:0.22222222 2:0 3:0.33333334 4:0.5 5:0.2 6:0.2 7:0.2 8:-1 9:0 #
4.6314321795399569e-005 1:0.22222222 2:0 3:0.33333334 4:0.5 5:0.2 6:0.2 7:0.2 8:-1 9:0 #
1.1658864601755487e-005 1:0 2:1 3:0.16666667 4:0.33333334 5:1 6:1 7:0.25 8:0 9:0.25 #
-1.1658864601755487e-005 1:0 2:1 3:0.33333334 4:0.33333334 5:0.80000001 6:0.80000001 7:0.2 8:-0.25 9:0 #
-2.3157160897699785e-005 1:0.33333334 2:0 3:0.33333334 4:0.33333334 5:0.60000002 6:0.60000002 7:0.2 8:-0.5 9:0 #
2.3157160897699785e-005 1:0.33333334 2:0 3:0.16666667 4:0.33333334 5:1 6:1 7:0.33333331 8:0 9:0.5 #
-2.3157160897699785e-005 1:0.11111111 2:0.25 3:0.5 4:1 5:0.80000001 6:0.80000001 7:0.80000001 8:-0.25 9:0.75 #
-2.3157160897699785e-005 1:0.11111111 2:0.25 3:0.16666667 4:1 5:1 6:1 7:1 8:0 9:1 #
-2.3157160897699785e-005 1:0.11111111 2:0.25 3:0.66666669 4:1 5:0.40000001 6:0.40000001 7:0.40000001 8:-0.75 9:0.25 #
-2.3157160897699785e-005 1:0.11111111 2:0.25 3:0.83333331 4:1 5:0.2 6:0.2 7:0.2 8:-1 9:0 #
-2.3157160897699785e-005 1:0.11111111 2:0.25 3:0.16666667 4:1 5:1 6:1 7:1 8:0 9:1 #
0.00011578580448849892 1:0.11111111 2:0.25 3:0.83333331 4:1 5:0.2 6:0.2 7:0.2 8:-1 9:0 #
-2.3157160897699785e-005 1:0.33333334 2:0 3:0.16666667 4:0.5 5:1 6:1 7:1 8:0 9:1 #
-2.3157160897699785e-005 1:0.33333334 2:0 3:0.33333334 4:0.5 5:0.2 6:0.2 7:0.2 8:-1 9:0 #
4.6314321795399569e-005 1:0.33333334 2:0 3:0.33333334 4:0.5 5:0.2 6:0.2 7:0.2 8:-1 9:0 #
-2.3157160897699785e-005 1:0.11111111 2:0.5 3:0.33333334 4:0.5 5:0.2 6:0.2 7:0.2 8:-1 9:0 #
4.6314321795399569e-005 1:0.11111111 2:0.5 3:0.33333334 4:0.5 5:0.2 6:0.2 7:0.2 8:-1 9:0 #
-2.3157160897699785e-005 1:0.11111111 2:0.5 3:0.16666667 4:0.5 5:1 6:1 7:1 8:0 9:1 #
-2.3157160897699785e-005 1:0 2:0.75 3:0.16666667 4:0.5 5:0.60000002 6:1 7:0.2 8:0 9:0 #
-2.3157160897699785e-005 1:0 2:0.75 3:0.16666667 4:0.5 5:0.60000002 6:1 7:0.2 8:0 9:0 #
4.6314321795399569e-005 1:0 2:0.75 3:0.16666667 4:0.5 5:0.60000002 6:1 7:0.2 8:0 9:0 #
-2.3157160897699785e-005 1:0.44444445 2:0 3:0.33333334 4:0.33333334 5:0.60000002 6:0.60000002 7:0.2 8:-0.5 9:0 #
2.3157160897699785e-005 1:0.44444445 2:0 3:0.16666667 4:0.33333334 5:1 6:1 7:0.33333331 8:0 9:0.5 #
6.4946727333583143e-005 1:0.22222222 2:0.25 3:0.5 4:1 5:0.80000001 6:0.80000001 7:0.80000001 8:-0.25 9:0.75 #
-1.8830722751119872e-005 1:0.22222222 2:0.25 3:0.66666669 4:1 5:0.40000001 6:0.40000001 7:0.40000001 8:-0.75 9:0.25 #
-2.2958843684763487e-005 1:0.22222222 2:0.25 3:0.83333331 4:1 5:0.2 6:0.2 7:0.2 8:-1 9:0 #
-2.3157160897699785e-005 1:0.22222222 2:0.25 3:0.83333331 4:1 5:0.2 6:0.2 7:0.2 8:-1 9:0 #
-2.3157160897699785e-005 1:0.22222222 2:0 3:0.16666667 4:0.33333334 5:1 6:1 7:1 8:0 9:1 #
2.3157160897699785e-005 1:0.22222222 2:0 3:0.33333334 4:0.33333334 5:0.2 6:0.2 7:0.2 8:-1 9:0 #
2.3157160897699785e-005 1:0.11111111 2:0.25 3:0.16666667 4:0.33333334 5:0.60000002 6:1 7:0.2 8:0 9:0 #
-2.3157160897699785e-005 1:0.11111111 2:0.25 3:0.16666667 4:0.33333334 5:0.60000002 6:1 7:0.2 8:0 9:0 #
1.5008365034162134e-020 1:0 2:0.5 3:0.16666667 4:0.33333334 5:1 6:1 7:0.25 8:0 9:0.25 #
-1.5008365034162134e-020 1:0 2:0.5 3:0.33333334 4:0.33333334 5:0.80000001 6:0.80000001 7:0.2 8:-0.25 9:0 #
-2.3157160897699785e-005 1:0.11111111 2:0.25 3:0.33333334 4:0.5 5:0.80000001 6:0.80000001 7:0.40000001 8:-0.25 9:0.5 #
-2.3157160897699785e-005 1:0.11111111 2:0.25 3:0.16666667 4:0.5 5:1 6:1 7:0.5 8:0 9:0.75 #
4.6314321795399569e-005 1:0.11111111 2:0.25 3:0.5 4:0.5 5:0.40000001 6:0.40000001 7:0.2 8:-0.75 9:0 #
-1.8393712877844048e-005 1:0 2:0.5 3:0.33333334 4:0.5 5:0.80000001 6:0.80000001 7:0.80000001 8:-0.25 9:0.75 #
1.8393712877844048e-005 1:0 2:0.5 3:0.16666667 4:0.5 5:1 6:1 7:1 8:0 9:1 #
2.3157160897699785e-005 1:0 2:0.75 3:0.16666667 4:0.5 5:1 6:1 7:0.33333331 8:0 9:0.5 #
-2.3157160897699785e-005 1:0 2:0.75 3:0.33333334 4:0.5 5:0.80000001 6:0.80000001 7:0.26666668 8:-0.25 9:0.25 #
-2.3157160897699785e-005 1:0.22222222 2:0.25 3:0.33333334 4:0.5 5:0.80000001 6:0.80000001 7:0.40000001 8:-0.25 9:0.5 #
-2.3157160897699785e-005 1:0.22222222 2:0.25 3:0.16666667 4:0.5 5:1 6:1 7:0.5 8:0 9:0.75 #
4.6314321795399569e-005 1:0.22222222 2:0.25 3:0.5 4:0.5 5:0.40000001 6:0.40000001 7:0.2 8:-0.75 9:0 #
-2.3157160897699785e-005 1:0.11111111 2:0.5 3:0.33333334 4:0.5 5:0.80000001 6:0.80000001 7:0.80000001 8:-0.25 9:0.75 #
-2.3157160897699785e-005 1:0.11111111 2:0.5 3:0.5 4:0.5 5:0.2 6:0.2 7:0.2 8:-1 9:0 #
4.6314321795399569e-005 1:0.11111111 2:0.5 3:0.16666667 4:0.5 5:1 6:1 7:1 8:0 9:1 #
-2.3157160897699785e-005 1:0.11111111 2:0.75 3:0.16666667 4:0.5 5:1 6:1 7:0.33333331 8:0 9:0.5 #
-2.3157160897699785e-005 1:0.11111111 2:0.75 3:0.33333334 4:0.5 5:0.80000001 6:0.80000001 7:0.26666668 8:-0.25 9:0.25 #
4.6314321795399569e-005 1:0.11111111 2:0.75 3:0.5 4:0.5 5:0.60000002 6:0.60000002 7:0.2 8:-0.5 9:0 #
-1.3738019523446018e-006 1:0 2:1 3:0.33333334 4:0.33333334 5:0.80000001 6:0.80000001 7:0.2 8:-0.25 9:0 #
1.3738019523446018e-006 1:0 2:1 3:0.16666667 4:0.33333334 5:1 6:1 7:0.25 8:0 9:0.25 #
-2.3157160897699785e-005 1:0.11111111 2:0 3:0.33333334 4:0.5 5:0.80000001 6:0.80000001 7:0.2 8:-0.25 9:0 #
4.6314321795399569e-005 1:0.11111111 2:0 3:0.33333334 4:0.5 5:0.80000001 6:0.80000001 7:0.2 8:-0.25 9:0 #
-2.3157160897699785e-005 1:0.11111111 2:0 3:0.16666667 4:0.5 5:1 6:1 7:0.25 8:0 9:0.25 #
-2.3157160897699785e-005 1:0.55555558 2:0 3:0.33333334 4:0.33333334 5:0.60000002 6:0.60000002 7:0.2 8:-0.5 9:0 #
2.3157160897699785e-005 1:0.55555558 2:0 3:0.16666667 4:0.33333334 5:1 6:1 7:0.33333331 8:0 9:0.5 #
-2.3157160897699785e-005 1:0.33333334 2:0.25 3:0.5 4:1 5:0.80000001 6:0.80000001 7:0.80000001 8:-0.25 9:0.75 #
6.9471482693099357e-005 1:0.33333334 2:0.25 3:0.66666669 4:1 5:0.40000001 6:0.40000001 7:0.40000001 8:-0.75 9:0.25 #
-2.3157160897699785e-005 1:0.33333334 2:0.25 3:0.83333331 4:1 5:0.2 6:0.2 7:0.2 8:-1 9:0 #
-2.3157160897699785e-005 1:0.33333334 2:0.25 3:0.83333331 4:1 5:0.2 6:0.2 7:0.2 8:-1 9:0 #
1.8846483076408183e-020 1:0 2:0.75 3:0.16666667 4:0.33333334 5:0.80000001 6:1 7:0.26666668 8:0 9:0.25 #
-1.8846483076408183e-020 1:0 2:0.75 3:0.33333334 4:0.33333334 5:0.60000002 6:0.75 7:0.2 8:-0.25 9:0 #
-2.3157160897699785e-005 1:0 2:1 3:0.16666667 4:0.66666669 5:1 6:1 7:0.33333331 8:0 9:0.5 #
-2.3157160897699785e-005 1:0 2:1 3:0.16666667 4:0.66666669 5:1 6:1 7:0.33333331 8:0 9:0.5 #
4.6314321795399569e-005 1:0 2:1 3:0.16666667 4:0.66666669 5:1 6:1 7:0.33333331 8:0 9:0.5 #
2.3157160897699785e-005 1:0.33333334 2:0 3:0.16666667 4:0.33333334 5:1 6:1 7:1 8:0 9:1 #
-2.3157160897699785e-005 1:0.33333334 2:0 3:0.33333334 4:0.33333334 5:0.2 6:0.2 7:0.2 8:-1 9:0 #
-2.3157160897699785e-005 1:0.11111111 2:0.25 3:0.16666667 4:0.33333334 5:1 6:1 7:0.25 8:0 9:0.25 #
2.3157160897699785e-005 1:0.11111111 2:0.25 3:0.33333334 4:0.33333334 5:0.80000001 6:0.80000001 7:0.2 8:-0.25 9:0 #
2.3157160897699785e-005 1:0 2:0.5 3:0.16666667 4:0.66666669 5:1 6:1 7:0.33333331 8:0 9:0.5 #
-2.3157160897699785e-005 1:0 2:0.5 3:0.16666667 4:0.66666669 5:1 6:1 7:0.33333331 8:0 9:0.5 #
-2.3157160897699785e-005 1:0.66666669 2:0 3:0.33333334 4:0.33333334 5:0.60000002 6:0.60000002 7:0.2 8:-0.5 9:0 #
2.3157160897699785e-005 1:0.66666669 2:0 3:0.16666667 4:0.33333334 5:1 6:1 7:0.33333331 8:0 9:0.5 #
3.3522643915675509e-005 1:0.44444445 2:0.25 3:0.5 4:1 5:0.80000001 6:0.80000001 7:0.80000001 8:-0.25 9:0.75 #
-2.3157160897699785e-005 1:0.44444445 2:0.25 3:0.66666669 4:1 5:0.40000001 6:0.40000001 7:0.40000001 8:-0.75 9:0.25 #
-6.4558391277451612e-007 1:0.44444445 2:0.25 3:0.83333331 4:1 5:0.2 6:0.2 7:0.2 8:-1 9:0 #
-9.7198991052012063e-006 1:0.44444445 2:0.25 3:0.83333331 4:1 5:0.2 6:0.2 7:0.2 8:-1 9:0 #
2.3157160897699785e-005 1:0.11111111 2:0.5 3:0.33333334 4:0.33333334 5:0.80000001 6:0.80000001 7:0.2 8:-0.25 9:0 #
-2.3157160897699785e-005 1:0.11111111 2:0.5 3:0.16666667 4:0.33333334 5:1 6:1 7:0.25 8:0 9:0.25 #
-2.3157160897699785e-005 1:0 2:0 3:0.33333334 4:0.5 5:0.60000002 6:0.75 7:0.30000001 8:-0.25 9:0.25 #
2.3157160897699785e-005 1:0 2:0 3:0.16666667 4:0.5 5:0.80000001 6:1 7:0.40000001 8:0 9:0.5 #
-2.3157160897699785e-005 1:0 2:0.25 3:0.33333334 4:0.33333334 5:0.60000002 6:0.75 7:0.2 8:-0.25 9:0 #
2.3157160897699785e-005 1:0 2:0.25 3:0.16666667 4:0.33333334 5:0.80000001 6:1 7:0.26666668 8:0 9:0.25 #
-2.3157160897699785e-005 1:0 2:0.5 3:0.33333334 4:0.5 5:0.60000002 6:0.75 7:0.30000001 8:-0.25 9:0.25 #
2.3157160897699785e-005 1:0 2:0.5 3:0.16666667 4:0.5 5:0.80000001 6:1 7:0.40000001 8:0 9:0.5 #
-2.3157160897699785e-005 1:0 2:0.25 3:0.33333334 4:0.33333334 5:0.60000002 6:0.75 7:0.2 8:-0.25 9:0 #
2.3157160897699785e-005 1:0 2:0.25 3:0.16666667 4:0.33333334 5:0.80000001 6:1 7:0.26666668 8:0 9:0.25 #
-2.3157160897699785e-005 1:0 2:0.5 3:0.16666667 4:0.66666669 5:0.80000001 6:1 7:0.80000001 8:0 9:0.75 #
2.3157160897699785e-005 1:0 2:0.5 3:0.16666667 4:0.66666669 5:0.80000001 6:1 7:0.80000001 8:0 9:0.75 #
-2.3157160897699785e-005 1:0 2:0.75 3:0.16666667 4:0.5 5:0.60000002 6:1 7:0.30000001 8:0 9:0.25 #
2.3157160897699785e-005 1:0 2:0.75 3:0.16666667 4:0.5 5:0.60000002 6:1 7:0.30000001 8:0 9:0.25 #
4.6314321795399569e-005 1:0.11111111 2:0 3:0.33333334 4:0.5 5:0.60000002 6:0.75 7:0.30000001 8:-0.25 9:0.25 #
-2.3157160897699785e-005 1:0.11111111 2:0 3:0.5 4:0.5 5:0.40000001 6:0.5 7:0.2 8:-0.5 9:0 #
-2.3157160897699785e-005 1:0.11111111 2:0 3:0.16666667 4:0.5 5:0.80000001 6:1 7:0.40000001 8:0 9:0.5 #
2.3157160897699785e-005 1:0 2:0.25 3:0.16666667 4:0.5 5:0.80000001 6:1 7:0.40000001 8:0 9:0.5 #
-2.3157160897699785e-005 1:0 2:0.25 3:0.33333334 4:0.5 5:0.60000002 6:0.75 7:0.30000001 8:-0.25 9:0.25 #
2.0381150716850408e-005 1:0 2:1 3:0.16666667 4:0.33333334 5:1 6:1 7:0.25 8:0 9:0.25 #
-2.0381150716850408e-005 1:0 2:1 3:0.33333334 4:0.33333334 5:0.80000001 6:0.80000001 7:0.2 8:-0.25 9:0 #
-2.3157160897699785e-005 1:0.11111111 2:0 3:0.16666667 4:0.33333334 5:0.80000001 6:1 7:0.40000001 8:0 9:0.5 #
2.3157160897699785e-005 1:0.11111111 2:0 3:0.33333334 4:0.33333334 5:0.40000001 6:0.5 7:0.2 8:-0.5 9:0 #
-2.3157160897699785e-005 1:0 2:0.25 3:0.16666667 4:0.33333334 5:0.80000001 6:1 7:0.2 8:0 9:0 #
2.3157160897699785e-005 1:0 2:0.25 3:0.16666667 4:0.33333334 5:0.80000001 6:1 7:0.2 8:0 9:0 #
2.3157160897699785e-005 1:0 2:1 3:0.16666667 4:0.33333334 5:0.80000001 6:1 7:0.2 8:0 9:0 #
-2.3157160897699785e-005 1:0 2:1 3:0.16666667 4:0.33333334 5:0.80000001 6:1 7:0.2 8:0 9:0 #
2.3157160897699785e-005 1:0.22222222 2:0 3:0.16666667 4:0.33333334 5:0.80000001 6:1 7:0.40000001 8:0 9:0.5 #
-2.3157160897699785e-005 1:0.22222222 2:0 3:0.33333334 4:0.33333334 5:0.40000001 6:0.5 7:0.2 8:-0.5 9:0 #
2.3157160897699785e-005 1:0.11111111 2:0.25 3:0.33333334 4:0.33333334 5:0.60000002 6:0.75 7:0.2 8:-0.25 9:0 #
-2.3157160897699785e-005 1:0.11111111 2:0.25 3:0.16666667 4:0.33333334 5:0.80000001 6:1 7:0.26666668 8:0 9:0.25 #
4.6314321795399569e-005 1:0 2:0 3:0.16666667 4:0.5 5:0.60000002 6:1 7:0.30000001 8:0 9:0.25 #
-2.3157160897699785e-005 1:0 2:0 3:0.16666667 4:0.5 5:0.60000002 6:1 7:0.30000001 8:0 9:0.25 #
-2.3157160897699785e-005 1:0 2:0 3:0.5 4:0.5 5:0.40000001 6:0.66666669 7:0.2 8:-0.25 9:0 #
-2.3157160897699785e-005 1:0 2:0.25 3:0.16666667 4:0.5 5:1 6:1 7:0.33333331 8:0 9:0.5 #
2.3157160897699785e-005 1:0 2:0.25 3:0.16666667 4:0.5 5:1 6:1 7:0.33333331 8:0 9:0.5 #
2.3157160897699785e-005 1:0 2:0.75 3:0.16666667 4:0.33333334 5:0.60000002 6:1 7:0.2 8:0 9:0 #
-2.3157160897699785e-005 1:0 2:0.75 3:0.16666667 4:0.33333334 5:0.60000002 6:1 7:0.2 8:0 9:0 #
2.3157160897699785e-005 1:0 2:1 3:0.16666667 4:0.33333334 5:0.80000001 6:1 7:0.2 8:0 9:0 #
-2.3157160897699785e-005 1:0 2:1 3:0.16666667 4:0.33333334 5:0.80000001 6:1 7:0.2 8:0 9:0 #
-2.3157160897699785e-005 1:0.22222222 2:0 3:0.33333334 4:0.5 5:0.60000002 6:0.75 7:0.30000001 8:-0.25 9:0.25 #
4.6314321795399569e-005 1:0.22222222 2:0 3:0.5 4:0.5 5:0.40000001 6:0.5 7:0.2 8:-0.5 9:0 #
-2.3157160897699785e-005 1:0.22222222 2:0 3:0.16666667 4:0.5 5:0.80000001 6:1 7:0.40000001 8:0 9:0.5 #
-2.3157160897699785e-005 1:0 2:0.25 3:0.16666667 4:0.33333334 5:0.80000001 6:1 7:0.2 8:0 9:0 #
2.3157160897699785e-005 1:0 2:0.25 3:0.16666667 4:0.33333334 5:0.80000001 6:1 7:0.2 8:0 9:0 #
2.3157160897699785e-005 1:0 2:0.5 3:0.16666667 4:0.33333334 5:0.80000001 6:1 7:0.2 8:0 9:0 #
-2.3157160897699785e-005 1:0 2:0.5 3:0.16666667 4:0.33333334 5:0.80000001 6:1 7:0.2 8:0 9:0 #
-2.3157160897699785e-005 1:0 2:1 3:0.16666667 4:0.33333334 5:0.60000002 6:1 7:0.2 8:0 9:0 #
2.3157160897699785e-005 1:0 2:1 3:0.16666667 4:0.33333334 5:0.60000002 6:1 7:0.2 8:0 9:0 #
2.3157160897699785e-005 1:0 2:0 3:0.16666667 4:0.33333334 5:0.60000002 6:1 7:0.2 8:0 9:0 #
-2.3157160897699785e-005 1:0 2:0 3:0.16666667 4:0.33333334 5:0.60000002 6:1 7:0.2 8:0 9:0 #
-2.3157160897699785e-005 1:0 2:0.5 3:0.16666667 4:0.5 5:0.80000001 6:1 7:0.40000001 8:0 9:0.5 #
2.3157160897699785e-005 1:0 2:0.5 3:0.16666667 4:0.5 5:0.80000001 6:1 7:0.40000001 8:0 9:0.5 #
-2.3157160897699785e-005 1:0.11111111 2:0 3:0.16666667 4:0.5 5:0.60000002 6:1 7:0.30000001 8:0 9:0.25 #
4.6314321795399569e-005 1:0.11111111 2:0 3:0.16666667 4:0.5 5:0.60000002 6:1 7:0.30000001 8:0 9:0.25 #
-2.3157160897699785e-005 1:0.11111111 2:0 3:0.5 4:0.5 5:0.40000001 6:0.66666669 7:0.2 8:-0.25 9:0 #
-2.3157160897699785e-005 1:0.11111111 2:0 3:0.16666667 4:0.33333334 5:0.60000002 6:1 7:0.2 8:0 9:0 #
2.3157160897699785e-005 1:0.11111111 2:0 3:0.16666667 4:0.33333334 5:0.60000002 6:1 7:0.2 8:0 9:0 #
2.3157160897699785e-005 1:0 2:0.25 3:0.16666667 4:1 5:0.80000001 6:1 7:0.40000001 8:0 9:0.5 #
-2.3157160897699785e-005 1:0 2:0.25 3:0.16666667 4:1 5:0.80000001 6:1 7:0.40000001 8:0 9:0.5 #
2.3157160897699785e-005 1:0 2:1 3:0.16666667 4:0.33333334 5:0.80000001 6:1 7:0.2 8:0 9:0 #
-2.3157160897699785e-005 1:0 2:1 3:0.16666667 4:0.33333334 5:0.80000001 6:1 7:0.2 8:0 9:0 #
-2.3157160897699785e-005 1:0.22222222 2:0 3:0.16666667 4:0.5 5:0.60000002 6:1 7:0.30000001 8:0 9:0.25 #
-2.3157160897699785e-005 1:0.22222222 2:0 3:0.16666667 4:0.5 5:0.60000002 6:1 7:0.30000001 8:0 9:0.25 #
4.6314321795399569e-005 1:0.22222222 2:0 3:0.5 4:0.5 5:0.40000001 6:0.66666669 7:0.2 8:-0.25 9:0 #
2.3157160897699785e-005 1:0 2:0.5 3:0.16666667 4:0.5 5:0.80000001 6:1 7:0.80000001 8:0 9:0.75 #
-2.3157160897699785e-005 1:0 2:0.5 3:0.16666667 4:0.5 5:0.80000001 6:1 7:0.80000001 8:0 9:0.75 #
-2.3157160897699785e-005 1:0 2:0.75 3:0.16666667 4:0.5 5:0.80000001 6:1 7:0.80000001 8:0 9:0.75 #
2.3157160897699785e-005 1:0 2:0.75 3:0.16666667 4:0.5 5:0.80000001 6:1 7:0.80000001 8:0 9:0.75 #
-2.3157160897699785e-005 1:0.22222222 2:0 3:0.16666667 4:0.33333334 5:0.60000002 6:1 7:0.2 8:0 9:0 #
2.3157160897699785e-005 1:0.22222222 2:0 3:0.16666667 4:0.33333334 5:0.60000002 6:1 7:0.2 8:0 9:0 #
-1.1000452102601911e-006 1:0.11111111 2:0.25 3:0.5 4:1 5:0.40000001 6:0.5 7:0.2 8:-0.5 9:0 #
-2.3157160897699785e-005 1:0.11111111 2:0.25 3:0.16666667 4:1 5:0.80000001 6:1 7:0.40000001 8:0 9:0.5 #
-1.7179178570355422e-005 1:0.11111111 2:0.25 3:0.5 4:1 5:0.40000001 6:0.5 7:0.2 8:-0.5 9:0 #
-2.3157160897699785e-005 1:0.11111111 2:0.25 3:0.5 4:1 5:0.40000001 6:0.5 7:0.2 8:-0.5 9:0 #
6.4760970049706953e-005 1:0.11111111 2:0.25 3:0.16666667 4:1 5:0.80000001 6:1 7:0.40000001 8:0 9:0.5 #
-1.6742447369177533e-007 1:0.11111111 2:0.25 3:0.5 4:1 5:0.40000001 6:0.5 7:0.2 8:-0.5 9:0 #
-2.3157160897699785e-005 1:0 2:0.75 3:0.16666667 4:0.5 5:0.80000001 6:1 7:0.40000001 8:0 9:0.5 #
2.3157160897699785e-005 1:0 2:0.75 3:0.16666667 4:0.5 5:0.80000001 6:1 7:0.40000001 8:0 9:0.5 #
2.3157160897699785e-005 1:0 2:1 3:0.16666667 4:0.5 5:0.80000001 6:1 7:0.40000001 8:0 9:0.5 #
-2.3157160897699785e-005 1:0 2:1 3:0.16666667 4:0.5 5:0.80000001 6:1 7:0.40000001 8:0 9:0.5 #
-2.3157160897699785e-005 1:0.33333334 2:0 3:0.33333334 4:0.5 5:0.60000002 6:0.75 7:0.30000001 8:-0.25 9:0.25 #
4.6314321795399569e-005 1:0.33333334 2:0 3:0.5 4:0.5 5:0.40000001 6:0.5 7:0.2 8:-0.5 9:0 #
-2.3157160897699785e-005 1:0.33333334 2:0 3:0.16666667 4:0.5 5:0.80000001 6:1 7:0.40000001 8:0 9:0.5 #
2.3157160897699785e-005 1:0.11111111 2:0.25 3:0.16666667 4:0.33333334 5:0.80000001 6:1 7:0.2 8:0 9:0 #
-2.3157160897699785e-005 1:0.11111111 2:0.25 3:0.16666667 4:0.33333334 5:0.80000001 6:1 7:0.2 8:0 9:0 #
2.3157160897699785e-005 1:0.33333334 2:0 3:0.16666667 4:0.33333334 5:0.80000001 6:1 7:0.40000001 8:0 9:0.5 #
-2.3157160897699785e-005 1:0.33333334 2:0 3:0.33333334 4:0.33333334 5:0.40000001 6:0.5 7:0.2 8:-0.5 9:0 #
2.3157160897699785e-005 1:0.22222222 2:0.25 3:0.33333334 4:0.33333334 5:0.60000002 6:0.75 7:0.2 8:-0.25 9:0 #
-2.3157160897699785e-005 1:0.22222222 2:0.25 3:0.16666667 4:0.33333334 5:0.80000001 6:1 7:0.26666668 8:0 9:0.25 #
-2.3157160897699785e-005 1:0.11111111 2:0.5 3:0.16666667 4:0.33333334 5:1 6:1 7:0.33333331 8:0 9:0.5 #
2.3157160897699785e-005 1:0.11111111 2:0.5 3:0.33333334 4:0.33333334 5:0.60000002 6:0.60000002 7:0.2 8:-0.5 9:0 #
2.3157160897699785e-005 1:0 2:0.75 3:0.16666667 4:0.5 5:0.80000001 6:1 7:0.26666668 8:0 9:0.25 #
-2.3157160897699785e-005 1:0 2:0.75 3:0.16666667 4:0.5 5:0.80000001 6:1 7:0.26666668 8:0 9:0.25 #
-2.3157160897699785e-005 1:0 2:1 3:0.16666667 4:0.5 5:1 6:1 7:0.33333331 8:0 9:0.5 #
2.3157160897699785e-005 1:0 2:1 3:0.16666667 4:0.5 5:1 6:1 7:0.33333331 8:0 9:0.5 #
2.3157160897699785e-005 1:0.44444445 2:0 3:0.16666667 4:0.33333334 5:0.80000001 6:1 7:0.40000001 8:0 9:0.5 #
-2.3157160897699785e-005 1:0.44444445 2:0 3:0.33333334 4:0.33333334 5:0.40000001 6:0.5 7:0.2 8:-0.5 9:0 #
2.3157160897699785e-005 1:0.33333334 2:0.25 3:0.33333334 4:0.33333334 5:0.60000002 6:0.75 7:0.2 8:-0.25 9:0 #
-2.3157160897699785e-005 1:0.33333334 2:0.25 3:0.16666667 4:0.33333334 5:0.80000001 6:1 7:0.26666668 8:0 9:0.25 #
-2.3157160897699785e-005 1:0.22222222 2:0.5 3:0.16666667 4:0.33333334 5:1 6:1 7:0.33333331 8:0 9:0.5 #
2.3157160897699785e-005 1:0.22222222 2:0.5 3:0.33333334 4:0.33333334 5:0.60000002 6:0.60000002 7:0.2 8:-0.5 9:0 #
-2.3157160897699785e-005 1:0.11111111 2:0.75 3:0.16666667 4:0.5 5:0.80000001 6:1 7:0.26666668 8:0 9:0.25 #
4.6314321795399569e-005 1:0.11111111 2:0.75 3:0.16666667 4:0.5 5:0.80000001 6:1 7:0.26666668 8:0 9:0.25 #
-2.3157160897699785e-005 1:0.11111111 2:0.75 3:0.5 4:0.5 5:0.60000002 6:0.75 7:0.2 8:-0.25 9:0 #
-2.3157160897699785e-005 1:0.33333334 2:0 3:0.16666667 4:0.33333334 5:0.60000002 6:1 7:0.2 8:0 9:0 #
2.3157160897699785e-005 1:0.33333334 2:0 3:0.16666667 4:0.33333334 5:0.60000002 6:1 7:0.2 8:0 9:0 #
0.00011578580448849892 1:0.22222222 2:0.25 3:0.5 4:1 5:0.40000001 6:0.5 7:0.2 8:-0.5 9:0 #
-2.3157160897699785e-005 1:0.22222222 2:0.25 3:0.16666667 4:1 5:0.80000001 6:1 7:0.40000001 8:0 9:0.5 #
-2.3157160897699785e-005 1:0.22222222 2:0.25 3:0.5 4:1 5:0.40000001 6:0.5 7:0.2 8:-0.5 9:0 #
-2.3157160897699785e-005 1:0.22222222 2:0.25 3:0.5 4:1 5:0.40000001 6:0.5 7:0.2 8:-0.5 9:0 #
-2.3157160897699785e-005 1:0.22222222 2:0.25 3:0.16666667 4:1 5:0.80000001 6:1 7:0.40000001 8:0 9:0.5 #
-2.3157160897699785e-005 1:0.22222222 2:0.25 3:0.5 4:1 5:0.40000001 6:0.5 7:0.2 8:-0.5 9:0 #
2.3157160897699785e-005 1:0 2:0.5 3:0.16666667 4:0.33333334 5:0.80000001 6:1 7:0.26666668 8:0 9:0.25 #
-2.3157160897699785e-005 1:0 2:0.5 3:0.33333334 4:0.33333334 5:0.60000002 6:0.75 7:0.2 8:-0.25 9:0 #
4.6314321795399569e-005 1:0.33333334 2:0 3:0.16666667 4:0.5 5:0.60000002 6:1 7:0.30000001 8:0 9:0.25 #
-2.3157160897699785e-005 1:0.33333334 2:0 3:0.16666667 4:0.5 5:0.60000002 6:1 7:0.30000001 8:0 9:0.25 #
-2.3157160897699785e-005 1:0.33333334 2:0 3:0.5 4:0.5 5:0.40000001 6:0.66666669 7:0.2 8:-0.25 9:0 #
-2.3157160897699785e-005 1:0.11111111 2:0.25 3:0.16666667 4:0.5 5:1 6:1 7:0.33333331 8:0 9:0.5 #
-2.3157160897699785e-005 1:0.11111111 2:0.25 3:0.16666667 4:0.5 5:1 6:1 7:0.33333331 8:0 9:0.5 #
4.6314321795399569e-005 1:0.11111111 2:0.25 3:0.5 4:0.5 5:0.60000002 6:0.60000002 7:0.2 8:-0.5 9:0 #
2.3157160897699785e-005 1:0 2:0.5 3:0.16666667 4:0.5 5:0.80000001 6:1 7:0.40000001 8:0 9:0.5 #
-2.3157160897699785e-005 1:0 2:0.5 3:0.16666667 4:0.5 5:0.80000001 6:1 7:0.40000001 8:0 9:0.5 #
4.367960607903837e-008 1:0 2:0.75 3:0.16666667 4:0.33333334 5:0.80000001 6:1 7:0.26666668 8:0 9:0.25 #
-4.367960607903837e-008 1:0 2:0.75 3:0.33333334 4:0.33333334 5:0.60000002 6:0.75 7:0.2 8:-0.25 9:0 #
2.3157160897699785e-005 1:0 2:1 3:0.16666667 4:0.33333334 5:0.80000001 6:1 7:0.2 8:0 9:0 #
-2.3157160897699785e-005 1:0 2:1 3:0.16666667 4:0.33333334 5:0.80000001 6:1 7:0.2 8:0 9:0 #
-2.3157160897699785e-005 1:0.44444445 2:0 3:0.16666667 4:0.33333334 5:0.60000002 6:1 7:0.2 8:0 9:0 #
2.3157160897699785e-005 1:0.44444445 2:0 3:0.16666667 4:0.33333334 5:0.60000002 6:1 7:0.2 8:0 9:0 #
-2.3157160897699785e-005 1:0.33333334 2:0.25 3:0.5 4:1 5:0.40000001 6:0.5 7:0.2 8:-0.5 9:0 #
-2.3157160897699785e-005 1:0.33333334 2:0.25 3:0.16666667 4:1 5:0.80000001 6:1 7:0.40000001 8:0 9:0.5 #
-2.3157160897699785e-005 1:0.33333334 2:0.25 3:0.5 4:1 5:0.40000001 6:0.5 7:0.2 8:-0.5 9:0 #
0.00011578580448849892 1:0.33333334 2:0.25 3:0.5 4:1 5:0.40000001 6:0.5 7:0.2 8:-0.5 9:0 #
-2.3157160897699785e-005 1:0.33333334 2:0.25 3:0.16666667 4:1 5:0.80000001 6:1 7:0.40000001 8:0 9:0.5 #
-2.3157160897699785e-005 1:0.33333334 2:0.25 3:0.5 4:1 5:0.40000001 6:0.5 7:0.2 8:-0.5 9:0 #
-2.3157160897699785e-005 1:0 2:0.5 3:0.16666667 4:0.33333334 5:0.80000001 6:1 7:0.40000001 8:0 9:0.5 #
2.3157160897699785e-005 1:0 2:0.5 3:0.33333334 4:0.33333334 5:0.40000001 6:0.5 7:0.2 8:-0.5 9:0 #
2.3157160897699785e-005 1:0.55555558 2:0 3:0.16666667 4:0.33333334 5:0.60000002 6:1 7:0.2 8:0 9:0 #
-2.3157160897699785e-005 1:0.55555558 2:0 3:0.16666667 4:0.33333334 5:0.60000002 6:1 7:0.2 8:0 9:0 #
4.6314321795399569e-005 1:0.11111111 2:0.5 3:0.16666667 4:0.5 5:0.80000001 6:1 7:0.40000001 8:0 9:0.5 #
-2.3157160897699785e-005 1:0.11111111 2:0.5 3:0.16666667 4:0.5 5:0.80000001 6:1 7:0.40000001 8:0 9:0.5 #
-2.3157160897699785e-005 1:0.11111111 2:0.5 3:0.5 4:0.5 5:0.40000001 6:0.5 7:0.2 8:-0.5 9:0 #
-2.3157160897699785e-005 1:0 2:1 3:0.16666667 4:0.33333334 5:0.60000002 6:1 7:0.2 8:0 9:0 #
2.3157160897699785e-005 1:0 2:1 3:0.16666667 4:0.33333334 5:0.60000002 6:1 7:0.2 8:0 9:0 #
-2.3157160897699785e-005 1:0 2:0 3:0.33333334 4:0.5 5:0.80000001 6:0.80000001 7:0.2 8:-0.25 9:0 #
-2.3157160897699785e-005 1:0 2:0 3:0.16666667 4:0.5 5:1 6:1 7:0.25 8:0 9:0.25 #
4.6314321795399569e-005 1:0 2:0 3:0.33333334 4:0.5 5:0.80000001 6:0.80000001 7:0.2 8:-0.25 9:0 #
-2.3157160897699785e-005 1:0 2:0.5 3:0.33333334 4:0.33333334 5:0.60000002 6:0.75 7:0.2 8:-0.25 9:0 #
2.3157160897699785e-005 1:0 2:0.5 3:0.16666667 4:0.33333334 5:0.80000001 6:1 7:0.26666668 8:0 9:0.25 #
-2.3157160897699785e-005 1:0.11111111 2:0 3:0.33333334 4:0.5 5:0.80000001 6:0.80000001 7:0.2 8:-0.25 9:0 #
4.6314321795399569e-005 1:0.11111111 2:0 3:0.16666667 4:0.5 5:1 6:1 7:0.25 8:0 9:0.25 #
-2.3157160897699785e-005 1:0.11111111 2:0 3:0.33333334 4:0.5 5:0.80000001 6:0.80000001 7:0.2 8:-0.25 9:0 #
-2.3157160897699785e-005 1:0 2:0.25 3:0.33333334 4:0.5 5:0.60000002 6:0.75 7:0.60000002 8:-0.25 9:0.5 #
2.3157160897699785e-005 1:0 2:0.25 3:0.16666667 4:0.5 5:0.80000001 6:1 7:0.80000001 8:0 9:0.75 #
2.3157160897699785e-005 1:0 2:0.5 3:0.16666667 4:0.5 5:0.80000001 6:1 7:0.40000001 8:0 9:0.5 #
-2.3157160897699785e-005 1:0 2:0.5 3:0.33333334 4:0.5 5:0.60000002 6:0.75 7:0.30000001 8:-0.25 9:0.25 #
-2.3157160897699785e-005 1:0.22222222 2:0 3:0.33333334 4:0.5 5:0.80000001 6:0.80000001 7:0.2 8:-0.25 9:0 #
-2.3157160897699785e-005 1:0.22222222 2:0 3:0.16666667 4:0.5 5:1 6:1 7:0.25 8:0 9:0.25 #
4.6314321795399569e-005 1:0.22222222 2:0 3:0.33333334 4:0.5 5:0.80000001 6:0.80000001 7:0.2 8:-0.25 9:0 #
2.3157160897699785e-005 1:0.11111111 2:0.25 3:0.16666667 4:0.33333334 5:0.80000001 6:1 7:0.40000001 8:0 9:0.5 #
-2.3157160897699785e-005 1:0.11111111 2:0.25 3:0.33333334 4:0.33333334 5:0.40000001 6:0.5 7:0.2 8:-0.5 9:0 #
2.3157160897699785e-005 1:0.11111111 2:0.5 3:0.33333334 4:0.33333334 5:0.60000002 6:0.75 7:0.2 8:-0.25 9:0 #
-2.3157160897699785e-005 1:0.11111111 2:0.5 3:0.16666667 4:0.33333334 5:0.80000001 6:1 7:0.26666668 8:0 9:0.25 #
2.3157160897699785e-005 1:0 2:0.25 3:0.16666667 4:1 5:0.80000001 6:1 7:0.80000001 8:0 9:0.75 #
-2.3157160897699785e-005 1:0 2:0.25 3:0.16666667 4:1 5:0.80000001 6:1 7:0.80000001 8:0 9:0.75 #
2.3157160897699785e-005 1:0 2:0.5 3:0.16666667 4:0.33333334 5:0.80000001 6:1 7:0.2 8:0 9:0 #
-2.3157160897699785e-005 1:0 2:0.5 3:0.16666667 4:0.33333334 5:0.80000001 6:1 7:0.2 8:0 9:0 #
-2.3157160897699785e-005 1:0.11111111 2:0 3:0.16666667 4:0.33333334 5:1 6:1 7:0.33333331 8:0 9:0.5 #
2.3157160897699785e-005 1:0.11111111 2:0 3:0.33333334 4:0.33333334 5:0.60000002 6:0.60000002 7:0.2 8:-0.5 9:0 #
2.3157160897699785e-005 1:0 2:0.25 3:0.16666667 4:0.33333334 5:0.80000001 6:1 7:0.26666668 8:0 9:0.25 #
-2.3157160897699785e-005 1:0 2:0.25 3:0.33333334 4:0.33333334 5:0.60000002 6:0.75 7:0.2 8:-0.25 9:0 #
-2.3157160897699785e-005 1:0.11111111 2:0.25 3:0.16666667 4:1 5:0.80000001 6:1 7:0.80000001 8:0 9:0.75 #
-2.3157160897699785e-005 1:0.11111111 2:0.25 3:0.5 4:1 5:0.60000002 6:0.75 7:0.60000002 8:-0.25 9:0.5 #
-2.3157160897699785e-005 1:0.11111111 2:0.25 3:0.5 4:1 5:0.60000002 6:0.75 7:0.60000002 8:-0.25 9:0.5 #
6.9471482693099357e-005 1:0.11111111 2:0.25 3:0.16666667 4:1 5:0.80000001 6:1 7:0.80000001 8:0 9:0.75 #
-4.24338798016555e-006 1:0 2:0.75 3:0.33333334 4:0.5 5:0.60000002 6:0.75 7:0.60000002 8:-0.25 9:0.5 #
4.24338798016555e-006 1:0 2:0.75 3:0.16666667 4:0.5 5:0.80000001 6:1 7:0.80000001 8:0 9:0.75 #
-2.3157160897699785e-005 1:0 2:1 3:0.16666667 4:0.5 5:0.80000001 6:1 7:0.40000001 8:0 9:0.5 #
2.3157160897699785e-005 1:0 2:1 3:0.16666667 4:0.5 5:0.80000001 6:1 7:0.40000001 8:0 9:0.5 #
-2.3157160897699785e-005 1:0.33333334 2:0 3:0.33333334 4:0.5 5:0.80000001 6:0.80000001 7:0.2 8:-0.25 9:0 #
-2.3157160897699785e-005 1:0.33333334 2:0 3:0.16666667 4:0.5 5:1 6:1 7:0.25 8:0 9:0.25 #
4.6314321795399569e-005 1:0.33333334 2:0 3:0.33333334 4:0.5 5:0.80000001 6:0.80000001 7:0.2 8:-0.25 9:0 #
-2.3157160897699785e-005 1:0.22222222 2:0.25 3:0.16666667 4:0.33333334 5:0.80000001 6:1 7:0.40000001 8:0 9:0.5 #
2.3157160897699785e-005 1:0.22222222 2:0.25 3:0.33333334 4:0.33333334 5:0.40000001 6:0.5 7:0.2 8:-0.5 9:0 #
2.3157160897699785e-005 1:0 2:0.5 3:0.16666667 4:0.5 5:0.80000001 6:1 7:0.40000001 8:0 9:0.5 #
-2.3157160897699785e-005 1:0 2:0.5 3:0.33333334 4:0.5 5:0.60000002 6:0.75 7:0.30000001 8:-0.25 9:0.25 #
4.6314321795399569e-005 1:0.44444445 2:0 3:0.33333334 4:0.5 5:0.80000001 6:0.80000001 7:0.2 8:-0.25 9:0 #
-2.3157160897699785e-005 1:0.44444445 2:0 3:0.16666667 4:0.5 5:1 6:1 7:0.25 8:0 9:0.25 #
-2.3157160897699785e-005 1:0.44444445 2:0 3:0.33333334 4:0.5 5:0.80000001 6:0.80000001 7:0.2 8:-0.25 9:0 #
2.3157160897699785e-005 1:0 2:0.25 3:0.16666667 4:0.5 5:0.80000001 6:1 7:0.26666668 8:0 9:0.25 #
-2.3157160897699785e-005 1:0 2:0.25 3:0.16666667 4:0.5 5:0.80000001 6:1 7:0.26666668 8:0 9:0.25 #
1.2874185669683935e-006 1:0 2:1 3:0.16666667 4:0.33333334 5:1 6:1 7:0.25 8:0 9:0.25 #
-1.2874185669683935e-006 1:0 2:1 3:0.33333334 4:0.33333334 5:0.80000001 6:0.80000001 7:0.2 8:-0.25 9:0 #
4.6314321795399569e-005 1:0.11111111 2:0 3:0.16666667 4:0.5 5:1 6:1 7:0.5 8:0 9:0.75 #
-2.3157160897699785e-005 1:0.11111111 2:0 3:0.5 4:0.5 5:0.40000001 6:0.40000001 7:0.2 8:-0.75 9:0 #
-2.3157160897699785e-005 1:0.11111111 2:0 3:0.33333334 4:0.5 5:0.60000002 6:0.60000002 7:0.30000001 8:-0.5 9:0.25 #
-2.3157160897699785e-005 1:0.11111111 2:0.25 3:0.5 4:0.5 5:0.2 6:0.25 7:0.2 8:-0.75 9:0 #
4.6314321795399569e-005 1:0.11111111 2:0.25 3:0.33333334 4:0.5 5:0.60000002 6:0.75 7:0.60000002 8:-0.25 9:0.5 #
-2.3157160897699785e-005 1:0.11111111 2:0.25 3:0.16666667 4:0.5 5:0.80000001 6:1 7:0.80000001 8:0 9:0.75 #
2.3157160897699785e-005 1:0 2:0.75 3:0.16666667 4:0.33333334 5:0.80000001 6:1 7:0.2 8:0 9:0 #
-2.3157160897699785e-005 1:0 2:0.75 3:0.16666667 4:0.33333334 5:0.80000001 6:1 7:0.2 8:0 9:0 #
4.6314321795399569e-005 1:0.55555558 2:0 3:0.33333334 4:0.5 5:0.80000001 6:0.80000001 7:0.2 8:-0.25 9:0 #
-2.3157160897699785e-005 1:0.55555558 2:0 3:0.16666667 4:0.5 5:1 6:1 7:0.25 8:0 9:0.25 #
-2.3157160897699785e-005 1:0.55555558 2:0 3:0.33333334 4:0.5 5:0.80000001 6:0.80000001 7:0.2 8:-0.25 9:0 #
-2.3157160897699785e-005 1:0.11111111 2:0.25 3:0.16666667 4:0.5 5:0.80000001 6:1 7:0.26666668 8:0 9:0.25 #
-2.3157160897699785e-005 1:0.11111111 2:0.25 3:0.5 4:0.5 5:0.60000002 6:0.75 7:0.2 8:-0.25 9:0 #
4.6314321795399569e-005 1:0.11111111 2:0.25 3:0.16666667 4:0.5 5:0.80000001 6:1 7:0.26666668 8:0 9:0.25 #
-2.3157160897699785e-005 1:0.66666669 2:0 3:0.33333334 4:0.5 5:0.80000001 6:0.80000001 7:0.2 8:-0.25 9:0 #
-2.3157160897699785e-005 1:0.66666669 2:0 3:0.16666667 4:0.5 5:1 6:1 7:0.25 8:0 9:0.25 #
4.6314321795399569e-005 1:0.66666669 2:0 3:0.33333334 4:0.5 5:0.80000001 6:0.80000001 7:0.2 8:-0.25 9:0 #
2.3157160897699785e-005 1:0.33333334 2:0.25 3:0.16666667 4:0.33333334 5:0.80000001 6:1 7:0.40000001 8:0 9:0.5 #
-2.3157160897699785e-005 1:0.33333334 2:0.25 3:0.33333334 4:0.33333334 5:0.40000001 6:0.5 7:0.2 8:-0.5 9:0 #
-2.3157160897699785e-005 1:0.22222222 2:0.5 3:0.33333334 4:0.33333334 5:0.60000002 6:0.75 7:0.2 8:-0.25 9:0 #
2.3157160897699785e-005 1:0.22222222 2:0.5 3:0.16666667 4:0.33333334 5:0.80000001 6:1 7:0.26666668 8:0 9:0.25 #
2.3157160897699785e-005 1:0.11111111 2:0.75 3:0.33333334 4:0.33333334 5:0.40000001 6:0.5 7:0.2 8:-0.5 9:0 #
-2.3157160897699785e-005 1:0.11111111 2:0.75 3:0.16666667 4:0.33333334 5:0.80000001 6:1 7:0.40000001 8:0 9:0.5 #
2.3157160897699785e-005 1:0 2:1 3:0.16666667 4:0.33333334 5:0.80000001 6:1 7:0.2 8:0 9:0 #
-2.3157160897699785e-005 1:0 2:1 3:0.16666667 4:0.33333334 5:0.80000001 6:1 7:0.2 8:0 9:0 #
-2.3157160897699785e-005 1:0.77777779 2:0 3:0.33333334 4:0.5 5:0.80000001 6:0.80000001 7:0.2 8:-0.25 9:0 #
-2.3157160897699785e-005 1:0.77777779 2:0 3:0.16666667 4:0.5 5:1 6:1 7:0.25 8:0 9:0.25 #
4.6314321795399569e-005 1:0.77777779 2:0 3:0.33333334 4:0.5 5:0.80000001 6:0.80000001 7:0.2 8:-0.25 9:0 #
2.3157160897699785e-005 1:0.44444445 2:0.25 3:0.16666667 4:0.33333334 5:0.80000001 6:1 7:0.40000001 8:0 9:0.5 #
-2.3157160897699785e-005 1:0.44444445 2:0.25 3:0.33333334 4:0.33333334 5:0.40000001 6:0.5 7:0.2 8:-0.5 9:0 #
-2.3157160897699785e-005 1:0.33333334 2:0.5 3:0.33333334 4:0.33333334 5:0.60000002 6:0.75 7:0.2 8:-0.25 9:0 #
2.3157160897699785e-005 1:0.33333334 2:0.5 3:0.16666667 4:0.33333334 5:0.80000001 6:1 7:0.26666668 8:0 9:0.25 #
2.3157160897699785e-005 1:0.22222222 2:0.75 3:0.33333334 4:0.33333334 5:0.40000001 6:0.5 7:0.2 8:-0.5 9:0 #
-2.3157160897699785e-005 1:0.22222222 2:0.75 3:0.16666667 4:0.33333334 5:0.80000001 6:1 7:0.40000001 8:0 9:0.5 #
-2.3157160897699785e-005 1:0.11111111 2:1 3:0.16666667 4:0.33333334 5:0.80000001 6:1 7:0.2 8:0 9:0 #
2.3157160897699785e-005 1:0.11111111 2:1 3:0.16666667 4:0.33333334 5:0.80000001 6:1 7:0.2 8:0 9:0 #
-2.3157160897699785e-005 1:0.22222222 2:0 3:0.16666667 4:0.5 5:1 6:1 7:0.5 8:0 9:0.75 #
-2.3157160897699785e-005 1:0.22222222 2:0 3:0.5 4:0.5 5:0.40000001 6:0.40000001 7:0.2 8:-0.75 9:0 #
4.6314321795399569e-005 1:0.22222222 2:0 3:0.33333334 4:0.5 5:0.60000002 6:0.60000002 7:0.30000001 8:-0.5 9:0.25 #
2.3157160897699785e-005 1:0 2:0.75 3:0.16666667 4:0.5 5:1 6:1 7:0.33333331 8:0 9:0.5 #
-2.3157160897699785e-005 1:0 2:0.75 3:0.33333334 4:0.5 5:0.80000001 6:0.80000001 7:0.26666668 8:-0.25 9:0.25 #
2.3157160897699785e-005 1:0.22222222 2:0 3:0.33333334 4:0.33333334 5:0.60000002 6:0.60000002 7:0.2 8:-0.5 9:0 #
-2.3157160897699785e-005 1:0.22222222 2:0 3:0.16666667 4:0.33333334 5:1 6:1 7:0.33333331 8:0 9:0.5 #
1.7438660805239759e-005 1:0 2:0.5 3:0.16666667 4:0.5 5:1 6:1 7:1 8:0 9:1 #
-1.7438660805239759e-005 1:0 2:0.5 3:0.33333334 4:0.5 5:0.80000001 6:0.80000001 7:0.80000001 8:-0.25 9:0.75 #
2.3157160897699785e-005 1:0.11111111 2:0 3:0.16666667 4:0.33333334 5:0.80000001 6:1 7:0.40000001 8:0 9:0.5 #
-2.3157160897699785e-005 1:0.11111111 2:0 3:0.33333334 4:0.33333334 5:0.40000001 6:0.5 7:0.2 8:-0.5 9:0 #
-2.3157160897699785e-005 1:0.11111111 2:0.25 3:0.16666667 4:0.33333334 5:1 6:1 7:0.33333331 8:0 9:0.5 #
2.3157160897699785e-005 1:0.11111111 2:0.25 3:0.33333334 4:0.33333334 5:0.60000002 6:0.60000002 7:0.2 8:-0.5 9:0 #
-2.3157160897699785e-005 1:0 2:0.5 3:0.33333334 4:0.66666669 5:0.60000002 6:0.75 7:0.30000001 8:-0.25 9:0.25 #
-2.3157160897699785e-005 1:0 2:0.5 3:0.16666667 4:0.66666669 5:0.80000001 6:1 7:0.40000001 8:0 9:0.5 #
-2.3157160897699785e-005 1:0 2:0.5 3:0.66666669 4:0.66666669 5:0.40000001 6:0.5 7:0.2 8:-0.5 9:0 #
6.9471482693099357e-005 1:0 2:0.5 3:0.33333334 4:0.66666669 5:0.60000002 6:0.75 7:0.30000001 8:-0.25 9:0.25 #
2.3157160897699785e-005 1:0 2:0.75 3:0.16666667 4:0.5 5:0.80000001 6:1 7:0.26666668 8:0 9:0.25 #
-2.3157160897699785e-005 1:0 2:0.75 3:0.16666667 4:0.5 5:0.80000001 6:1 7:0.26666668 8:0 9:0.25 #
2.3157160897699785e-005 1:0.22222222 2:0 3:0.16666667 4:0.33333334 5:0.80000001 6:1 7:0.40000001 8:0 9:0.5 #
-2.3157160897699785e-005 1:0.22222222 2:0 3:0.33333334 4:0.33333334 5:0.40000001 6:0.5 7:0.2 8:-0.5 9:0 #
-2.3157160897699785e-005 1:0.22222222 2:0.25 3:0.16666667 4:0.33333334 5:1 6:1 7:0.33333331 8:0 9:0.5 #
2.3157160897699785e-005 1:0.22222222 2:0.25 3:0.33333334 4:0.33333334 5:0.60000002 6:0.60000002 7:0.2 8:-0.5 9:0 #
6.9471482693099357e-005 1:0.11111111 2:0.5 3:0.33333334 4:0.66666669 5:0.60000002 6:0.75 7:0.30000001 8:-0.25 9:0.25 #
-2.3157160897699785e-005 1:0.11111111 2:0.5 3:0.16666667 4:0.66666669 5:0.80000001 6:1 7:0.40000001 8:0 9:0.5 #
-2.3157160897699785e-005 1:0.11111111 2:0.5 3:0.66666669 4:0.66666669 5:0.40000001 6:0.5 7:0.2 8:-0.5 9:0 #
-2.3157160897699785e-005 1:0.11111111 2:0.5 3:0.33333334 4:0.66666669 5:0.60000002 6:0.75 7:0.30000001 8:-0.25 9:0.25 #
-1.21222096362136e-006 1:0 2:1 3:0.33333334 4:0.33333334 5:0.80000001 6:0.80000001 7:0.2 8:-0.25 9:0 #
1.21222096362136e-006 1:0 2:1 3:0.16666667 4:0.33333334 5:1 6:1 7:0.25 8:0 9:0.25 #
2.3157160897699785e-005 1:0.33333334 2:0 3:0.33333334 4:0.33333334 5:0.60000002 6:0.60000002 7:0.2 8:-0.5 9:0 #
-2.3157160897699785e-005 1:0.33333334 2:0 3:0.16666667 4:0.33333334 5:1 6:1 7:0.33333331 8:0 9:0.5 #
-2.3157160897699785e-005 1:0.11111111 2:0.5 3:0.16666667 4:0.5 5:1 6:1 7:1 8:0 9:1 #
4.6314321795399569e-005 1:0.11111111 2:0.5 3:0.33333334 4:0.5 5:0.80000001 6:0.80000001 7:0.80000001 8:-0.25 9:0.75 #
-2.3157160897699785e-005 1:0.11111111 2:0.5 3:0.5 4:0.5 5:0.2 6:0.2 7:0.2 8:-1 9:0 #
2.3157160897699785e-005 1:0 2:0.25 3:0.16666667 4:0.33333334 5:0.80000001 6:1 7:0.26666668 8:0 9:0.25 #
-2.3157160897699785e-005 1:0 2:0.25 3:0.33333334 4:0.33333334 5:0.60000002 6:0.75 7:0.2 8:-0.25 9:0 #
2.3157160897699785e-005 1:0 2:0.25 3:0.16666667 4:0.33333334 5:0.80000001 6:1 7:0.2 8:0 9:0 #
-2.3157160897699785e-005 1:0 2:0.25 3:0.16666667 4:0.33333334 5:0.80000001 6:1 7:0.2 8:0 9:0 #
-2.3157160897699785e-005 1:0.11111111 2:0 3:0.33333334 4:0.5 5:0.60000002 6:0.75 7:0.2 8:-0.25 9:0 #
4.6314321795399569e-005 1:0.11111111 2:0 3:0.33333334 4:0.5 5:0.60000002 6:0.75 7:0.2 8:-0.25 9:0 #
-2.3157160897699785e-005 1:0.11111111 2:0 3:0.16666667 4:0.5 5:0.80000001 6:1 7:0.26666668 8:0 9:0.25 #
2.3157160897699785e-005 1:0 2:0.25 3:0.16666667 4:0.33333334 5:0.80000001 6:1 7:0.2 8:0 9:0 #
-2.3157160897699785e-005 1:0 2:0.25 3:0.16666667 4:0.33333334 5:0.80000001 6:1 7:0.2 8:0 9:0 #
2.3157160897699785e-005 1:0 2:0 3:0.16666667 4:0.33333334 5:0.80000001 6:1 7:0.26666668 8:0 9:0.25 #
-2.3157160897699785e-005 1:0 2:0 3:0.33333334 4:0.33333334 5:0.60000002 6:0.75 7:0.2 8:-0.25 9:0 #
-2.3157160897699785e-005 1:0 2:0.5 3:0.16666667 4:0.5 5:0.80000001 6:1 7:0.40000001 8:0 9:0.5 #
2.3157160897699785e-005 1:0 2:0.5 3:0.16666667 4:0.5 5:0.80000001 6:1 7:0.40000001 8:0 9:0.5 #
-2.3157160897699785e-005 1:0.11111111 2:0 3:0.16666667 4:0.5 5:0.80000001 6:1 7:0.40000001 8:0 9:0.5 #
-2.3157160897699785e-005 1:0.11111111 2:0 3:0.33333334 4:0.5 5:0.40000001 6:0.5 7:0.2 8:-0.5 9:0 #
4.6314321795399569e-005 1:0.11111111 2:0 3:0.33333334 4:0.5 5:0.40000001 6:0.5 7:0.2 8:-0.5 9:0 #
2.3157160897699785e-005 1:0 2:1 3:0.16666667 4:0.33333334 5:0.80000001 6:1 7:0.2 8:0 9:0 #
-2.3157160897699785e-005 1:0 2:1 3:0.16666667 4:0.33333334 5:0.80000001 6:1 7:0.2 8:0 9:0 #
-2.3157160897699785e-005 1:0.22222222 2:0 3:0.33333334 4:0.5 5:0.60000002 6:0.75 7:0.2 8:-0.25 9:0 #
-2.3157160897699785e-005 1:0.22222222 2:0 3:0.33333334 4:0.5 5:0.60000002 6:0.75 7:0.2 8:-0.25 9:0 #
4.6314321795399569e-005 1:0.22222222 2:0 3:0.16666667 4:0.5 5:0.80000001 6:1 7:0.26666668 8:0 9:0.25 #
-2.3157160897699785e-005 1:0.11111111 2:0.25 3:0.16666667 4:0.33333334 5:0.80000001 6:1 7:0.2 8:0 9:0 #
2.3157160897699785e-005 1:0.11111111 2:0.25 3:0.16666667 4:0.33333334 5:0.80000001 6:1 7:0.2 8:0 9:0 #
-2.3157160897699785e-005 1:0 2:0.5 3:0.16666667 4:0.5 5:0.80000001 6:1 7:0.26666668 8:0 9:0.25 #
2.3157160897699785e-005 1:0 2:0.5 3:0.16666667 4:0.5 5:0.80000001 6:1 7:0.26666668 8:0 9:0.25 #
-2.3157160897699785e-005 1:0.11111111 2:0 3:0.16666667 4:0.33333334 5:0.80000001 6:1 7:0.26666668 8:0 9:0.25 #
2.3157160897699785e-005 1:0.11111111 2:0 3:0.33333334 4:0.33333334 5:0.60000002 6:0.75 7:0.2 8:-0.25 9:0 #
-2.3157160897699785e-005 1:0 2:0.25 3:0.16666667 4:1 5:0.80000001 6:1 7:0.26666668 8:0 9:0.25 #
2.3157160897699785e-005 1:0 2:0.25 3:0.16666667 4:1 5:0.80000001 6:1 7:0.26666668 8:0 9:0.25 #
2.3157160897699785e-005 1:0 2:0.5 3:0.16666667 4:0.33333334 5:0.60000002 6:1 7:0.2 8:0 9:0 #
-2.3157160897699785e-005 1:0 2:0.5 3:0.16666667 4:0.33333334 5:0.60000002 6:1 7:0.2 8:0 9:0 #
-2.3157160897699785e-005 1:0.22222222 2:0 3:0.16666667 4:0.5 5:0.80000001 6:1 7:0.40000001 8:0 9:0.5 #
4.6314321795399569e-005 1:0.22222222 2:0 3:0.33333334 4:0.5 5:0.40000001 6:0.5 7:0.2 8:-0.5 9:0 #
-2.3157160897699785e-005 1:0.22222222 2:0 3:0.33333334 4:0.5 5:0.40000001 6:0.5 7:0.2 8:-0.5 9:0 #
4.6314321795399569e-005 1:0.33333334 2:0 3:0.16666667 4:0.5 5:0.80000001 6:1 7:0.40000001 8:0 9:0.5 #
-2.3157160897699785e-005 1:0.33333334 2:0 3:0.33333334 4:0.5 5:0.40000001 6:0.5 7:0.2 8:-0.5 9:0 #
-2.3157160897699785e-005 1:0.33333334 2:0 3:0.33333334 4:0.5 5:0.40000001 6:0.5 7:0.2 8:-0.5 9:0 #
-2.3157160897699785e-005 1:0.11111111 2:0.25 3:0.5 4:0.5 5:0.40000001 6:0.40000001 7:0.2 8:-0.75 9:0 #
4.6314321795399569e-005 1:0.11111111 2:0.25 3:0.33333334 4:0.5 5:0.60000002 6:0.60000002 7:0.30000001 8:-0.5 9:0.25 #
-2.3157160897699785e-005 1:0.11111111 2:0.25 3:0.16666667 4:0.5 5:1 6:1 7:0.5 8:0 9:0.75 #
2.3157160897699785e-005 1:0 2:0.75 3:0.16666667 4:0.33333334 5:0.60000002 6:1 7:0.2 8:0 9:0 #
-2.3157160897699785e-005 1:0 2:0.75 3:0.16666667 4:0.33333334 5:0.60000002 6:1 7:0.2 8:0 9:0 #
-2.3157160897699785e-005 1:0.33333334 2:0 3:0.33333334 4:0.5 5:0.60000002 6:0.75 7:0.2 8:-0.25 9:0 #
-2.3157160897699785e-005 1:0.33333334 2:0 3:0.33333334 4:0.5 5:0.60000002 6:0.75 7:0.2 8:-0.25 9:0 #
4.6314321795399569e-005 1:0.33333334 2:0 3:0.16666667 4:0.5 5:0.80000001 6:1 7:0.26666668 8:0 9:0.25 #
2.3157160897699785e-005 1:0.22222222 2:0.25 3:0.16666667 4:0.33333334 5:0.80000001 6:1 7:0.2 8:0 9:0 #
-2.3157160897699785e-005 1:0.22222222 2:0.25 3:0.16666667 4:0.33333334 5:0.80000001 6:1 7:0.2 8:0 9:0 #
-2.3157160897699785e-005 1:0.11111111 2:0.5 3:0.16666667 4:0.33333334 5:1 6:1 7:0.25 8:0 9:0.25 #
2.3157160897699785e-005 1:0.11111111 2:0.5 3:0.33333334 4:0.33333334 5:0.80000001 6:0.80000001 7:0.2 8:-0.25 9:0 #
-2.3157160897699785e-005 1:0.44444445 2:0 3:0.33333334 4:0.5 5:0.60000002 6:0.75 7:0.2 8:-0.25 9:0 #
-2.3157160897699785e-005 1:0.44444445 2:0 3:0.33333334 4:0.5 5:0.60000002 6:0.75 7:0.2 8:-0.25 9:0 #
4.6314321795399569e-005 1:0.44444445 2:0 3:0.16666667 4:0.5 5:0.80000001 6:1 7:0.26666668 8:0 9:0.25 #
2.3157160897699785e-005 1:0.33333334 2:0.25 3:0.16666667 4:0.33333334 5:0.80000001 6:1 7:0.2 8:0 9:0 #
-2.3157160897699785e-005 1:0.33333334 2:0.25 3:0.16666667 4:0.33333334 5:0.80000001 6:1 7:0.2 8:0 9:0 #
-2.3157160897699785e-005 1:0.22222222 2:0.5 3:0.16666667 4:0.33333334 5:1 6:1 7:0.25 8:0 9:0.25 #
2.3157160897699785e-005 1:0.22222222 2:0.5 3:0.33333334 4:0.33333334 5:0.80000001 6:0.80000001 7:0.2 8:-0.25 9:0 #
2.3157160897699785e-005 1:0.11111111 2:0.75 3:0.33333334 4:0.33333334 5:0.40000001 6:0.40000001 7:0.2 8:-0.75 9:0 #
-2.3157160897699785e-005 1:0.11111111 2:0.75 3:0.16666667 4:0.33333334 5:1 6:1 7:0.5 8:0 9:0.75 #
9.5969435805146408e-006 1:0 2:1 3:0.16666667 4:0.33333334 5:0.60000002 6:1 7:0.30000001 8:0 9:0.25 #
-9.5969435805146408e-006 1:0 2:1 3:0.33333334 4:0.33333334 5:0.40000001 6:0.66666669 7:0.2 8:-0.25 9:0 #
4.6314321795399569e-005 1:0.44444445 2:0 3:0.16666667 4:0.5 5:0.80000001 6:1 7:0.40000001 8:0 9:0.5 #
-2.3157160897699785e-005 1:0.44444445 2:0 3:0.33333334 4:0.5 5:0.40000001 6:0.5 7:0.2 8:-0.5 9:0 #
-2.3157160897699785e-005 1:0.44444445 2:0 3:0.33333334 4:0.5 5:0.40000001 6:0.5 7:0.2 8:-0.5 9:0 #
-2.3157160897699785e-005 1:0.22222222 2:0.25 3:0.5 4:0.5 5:0.40000001 6:0.40000001 7:0.2 8:-0.75 9:0 #
4.6314321795399569e-005 1:0.22222222 2:0.25 3:0.33333334 4:0.5 5:0.60000002 6:0.60000002 7:0.30000001 8:-0.5 9:0.25 #
-2.3157160897699785e-005 1:0.22222222 2:0.25 3:0.16666667 4:0.5 5:1 6:1 7:0.5 8:0 9:0.75 #
-2.3157160897699785e-005 1:0.11111111 2:0.75 3:0.16666667 4:0.33333334 5:0.60000002 6:1 7:0.2 8:0 9:0 #
2.3157160897699785e-005 1:0.11111111 2:0.75 3:0.16666667 4:0.33333334 5:0.60000002 6:1 7:0.2 8:0 9:0 #
-2.3157160897699785e-005 1:0.55555558 2:0 3:0.33333334 4:0.5 5:0.60000002 6:0.75 7:0.2 8:-0.25 9:0 #
-2.3157160897699785e-005 1:0.55555558 2:0 3:0.33333334 4:0.5 5:0.60000002 6:0.75 7:0.2 8:-0.25 9:0 #
4.6314321795399569e-005 1:0.55555558 2:0 3:0.16666667 4:0.5 5:0.80000001 6:1 7:0.26666668 8:0 9:0.25 #
2.3157160897699785e-005 1:0.44444445 2:0.25 3:0.16666667 4:0.33333334 5:0.80000001 6:1 7:0.2 8:0 9:0 #
-2.3157160897699785e-005 1:0.44444445 2:0.25 3:0.16666667 4:0.33333334 5:0.80000001 6:1 7:0.2 8:0 9:0 #
2.3157160897699785e-005 1:0.33333334 2:0.5 3:0.16666667 4:0.33333334 5:1 6:1 7:0.25 8:0 9:0.25 #
-2.3157160897699785e-005 1:0.33333334 2:0.5 3:0.33333334 4:0.33333334 5:0.80000001 6:0.80000001 7:0.2 8:-0.25 9:0 #
4.6314321795399569e-005 1:0.55555558 2:0 3:0.16666667 4:0.5 5:0.80000001 6:1 7:0.40000001 8:0 9:0.5 #
-2.3157160897699785e-005 1:0.55555558 2:0 3:0.33333334 4:0.5 5:0.40000001 6:0.5 7:0.2 8:-0.5 9:0 #
-2.3157160897699785e-005 1:0.55555558 2:0 3:0.33333334 4:0.5 5:0.40000001 6:0.5 7:0.2 8:-0.5 9:0 #
-2.3157160897699785e-005 1:0.33333334 2:0.25 3:0.5 4:0.5 5:0.40000001 6:0.40000001 7:0.2 8:-0.75 9:0 #
4.6314321795399569e-005 1:0.33333334 2:0.25 3:0.33333334 4:0.5 5:0.60000002 6:0.60000002 7:0.30000001 8:-0.5 9:0.25 #
-2.3157160897699785e-005 1:0.33333334 2:0.25 3:0.16666667 4:0.5 5:1 6:1 7:0.5 8:0 9:0.75 #
2.3157160897699785e-005 1:0.22222222 2:0.75 3:0.16666667 4:0.33333334 5:0.60000002 6:1 7:0.2 8:0 9:0 #
-2.3157160897699785e-005 1:0.22222222 2:0.75 3:0.16666667 4:0.33333334 5:0.60000002 6:1 7:0.2 8:0 9:0 #
-2.3157160897699785e-005 1:0.11111111 2:1 3:0.16666667 4:0.33333334 5:0.80000001 6:1 7:0.26666668 8:0 9:0.25 #
2.3157160897699785e-005 1:0.11111111 2:1 3:0.33333334 4:0.33333334 5:0.60000002 6:0.75 7:0.2 8:-0.25 9:0 #
-2.3157160897699785e-005 1:0 2:0 3:0.33333334 4:0.33333334 5:0.60000002 6:0.75 7:0.2 8:-0.25 9:0 #
2.3157160897699785e-005 1:0 2:0 3:0.16666667 4:0.33333334 5:0.80000001 6:1 7:0.26666668 8:0 9:0.25 #
9.1674184806525752e-006 1:0 2:0.25 3:0.16666667 4:0.33333334 5:0.80000001 6:1 7:0.80000001 8:0 9:0.75 #
-9.1674184806525752e-006 1:0 2:0.25 3:0.33333334 4:0.33333334 5:0.2 6:0.25 7:0.2 8:-0.75 9:0 #
-2.3157160897699785e-005 1:0.22222222 2:0 3:0.16666667 4:0.33333334 5:0.80000001 6:1 7:0.26666668 8:0 9:0.25 #
2.3157160897699785e-005 1:0.22222222 2:0 3:0.33333334 4:0.33333334 5:0.60000002 6:0.75 7:0.2 8:-0.25 9:0 #
-1.8822385361755327e-005 1:0.11111111 2:0.25 3:0.5 4:1 5:0.60000002 6:0.75 7:0.2 8:-0.25 9:0 #
-2.3157160897699785e-005 1:0.11111111 2:0.25 3:0.5 4:1 5:0.60000002 6:0.75 7:0.2 8:-0.25 9:0 #
9.2509682280677435e-005 1:0.11111111 2:0.25 3:0.16666667 4:1 5:0.80000001 6:1 7:0.26666668 8:0 9:0.25 #
-2.3157160897699785e-005 1:0.11111111 2:0.25 3:0.16666667 4:1 5:0.80000001 6:1 7:0.26666668 8:0 9:0.25 #
-4.4824320334778156e-006 1:0.11111111 2:0.25 3:0.5 4:1 5:0.60000002 6:0.75 7:0.2 8:-0.25 9:0 #
-2.2890543090044737e-005 1:0.11111111 2:0.25 3:0.5 4:1 5:0.60000002 6:0.75 7:0.2 8:-0.25 9:0 #
2.3157160897699785e-005 1:0 2:1 3:0.16666667 4:0.83333331 5:0.80000001 6:1 7:0.80000001 8:0 9:0.75 #
-2.3157160897699785e-005 1:0 2:1 3:0.16666667 4:0.83333331 5:0.80000001 6:1 7:0.80000001 8:0 9:0.75 #
-2.3157160897699785e-005 1:0.11111111 2:0 3:0.33333334 4:0.33333334 5:0.60000002 6:0.75 7:0.2 8:-0.25 9:0 #
2.3157160897699785e-005 1:0.11111111 2:0 3:0.16666667 4:0.33333334 5:0.80000001 6:1 7:0.26666668 8:0 9:0.25 #
-2.3157160897699785e-005 1:0.11111111 2:0.25 3:0.16666667 4:0.33333334 5:0.80000001 6:1 7:0.80000001 8:0 9:0.75 #
2.3157160897699785e-005 1:0.11111111 2:0.25 3:0.33333334 4:0.33333334 5:0.2 6:0.25 7:0.2 8:-0.75 9:0 #
-2.3157160897699785e-005 1:0.66666669 2:0 3:0.33333334 4:0.5 5:0.60000002 6:0.75 7:0.2 8:-0.25 9:0 #
-2.3157160897699785e-005 1:0.66666669 2:0 3:0.33333334 4:0.5 5:0.60000002 6:0.75 7:0.2 8:-0.25 9:0 #
4.6314321795399569e-005 1:0.66666669 2:0 3:0.16666667 4:0.5 5:0.80000001 6:1 7:0.26666668 8:0 9:0.25 #
-2.3157160897699785e-005 1:0.55555558 2:0.25 3:0.16666667 4:0.33333334 5:0.80000001 6:1 7:0.2 8:0 9:0 #
2.3157160897699785e-005 1:0.55555558 2:0.25 3:0.16666667 4:0.33333334 5:0.80000001 6:1 7:0.2 8:0 9:0 #
4.6314321795399569e-005 1:0.11111111 2:0.5 3:0.16666667 4:0.5 5:0.80000001 6:1 7:0.26666668 8:0 9:0.25 #
-2.3157160897699785e-005 1:0.11111111 2:0.5 3:0.5 4:0.5 5:0.60000002 6:0.75 7:0.2 8:-0.25 9:0 #
-2.3157160897699785e-005 1:0.11111111 2:0.5 3:0.16666667 4:0.5 5:0.80000001 6:1 7:0.26666668 8:0 9:0.25 #
-2.3157160897699785e-005 1:0.33333334 2:0 3:0.16666667 4:0.33333334 5:0.80000001 6:1 7:0.26666668 8:0 9:0.25 #
2.3157160897699785e-005 1:0.33333334 2:0 3:0.33333334 4:0.33333334 5:0.60000002 6:0.75 7:0.2 8:-0.25 9:0 #
0.00011578580448849892 1:0.22222222 2:0.25 3:0.5 4:1 5:0.60000002 6:0.75 7:0.2 8:-0.25 9:0 #
-2.3157160897699785e-005 1:0.22222222 2:0.25 3:0.5 4:1 5:0.60000002 6:0.75 7:0.2 8:-0.25 9:0 #
-2.3157160897699785e-005 1:0.22222222 2:0.25 3:0.16666667 4:1 5:0.80000001 6:1 7:0.26666668 8:0 9:0.25 #
-2.3157160897699785e-005 1:0.22222222 2:0.25 3:0.16666667 4:1 5:0.80000001 6:1 7:0.26666668 8:0 9:0.25 #
-2.3157160897699785e-005 1:0.22222222 2:0.25 3:0.5 4:1 5:0.60000002 6:0.75 7:0.2 8:-0.25 9:0 #
-2.3157160897699785e-005 1:0.22222222 2:0.25 3:0.5 4:1 5:0.60000002 6:0.75 7:0.2 8:-0.25 9:0 #
-2.3157160897699785e-005 1:0 2:0.5 3:0.16666667 4:0.33333334 5:0.60000002 6:1 7:0.2 8:0 9:0 #
2.3157160897699785e-005 1:0 2:0.5 3:0.16666667 4:0.33333334 5:0.60000002 6:1 7:0.2 8:0 9:0 #
-2.3157160897699785e-005 1:0 2:0 3:0.16666667 4:0.5 5:0.80000001 6:1 7:0.26666668 8:0 9:0.25 #
2.3157160897699785e-005 1:0 2:0 3:0.16666667 4:0.5 5:0.80000001 6:1 7:0.26666668 8:0 9:0.25 #
-2.3157160897699785e-005 1:0 2:0.25 3:0.16666667 4:0.33333334 5:0.80000001 6:1 7:0.2 8:0 9:0 #
2.3157160897699785e-005 1:0 2:0.25 3:0.16666667 4:0.33333334 5:0.80000001 6:1 7:0.2 8:0 9:0 #
-2.3157160897699785e-005 1:0 2:0.5 3:0.16666667 4:0.5 5:1 6:1 7:0.33333331 8:0 9:0.5 #
4.6314321795399569e-005 1:0 2:0.5 3:0.33333334 4:0.5 5:0.80000001 6:0.80000001 7:0.26666668 8:-0.25 9:0.25 #
-2.3157160897699785e-005 1:0 2:0.5 3:0.5 4:0.5 5:0.60000002 6:0.60000002 7:0.2 8:-0.5 9:0 #
-2.3157160897699785e-005 1:0 2:1 3:0.16666667 4:0.33333334 5:0.80000001 6:1 7:0.2 8:0 9:0 #
2.3157160897699785e-005 1:0 2:1 3:0.16666667 4:0.33333334 5:0.80000001 6:1 7:0.2 8:0 9:0 #
-2.3157160897699785e-005 1:0 2:0 3:0.16666667 4:0.33333334 5:0.80000001 6:1 7:0.2 8:0 9:0 #
2.3157160897699785e-005 1:0 2:0 3:0.16666667 4:0.33333334 5:0.80000001 6:1 7:0.2 8:0 9:0 #
-2.3157160897699785e-005 1:0 2:0.25 3:0.16666667 4:1 5:0.80000001 6:1 7:0.40000001 8:0 9:0.5 #
2.3157160897699785e-005 1:0 2:0.25 3:0.16666667 4:1 5:0.80000001 6:1 7:0.40000001 8:0 9:0.5 #
-2.3157160897699785e-005 1:0 2:0.5 3:0.16666667 4:0.33333334 5:0.80000001 6:1 7:0.2 8:0 9:0 #
2.3157160897699785e-005 1:0 2:0.5 3:0.16666667 4:0.33333334 5:0.80000001 6:1 7:0.2 8:0 9:0 #
-2.3157160897699785e-005 1:0 2:0 3:0.16666667 4:0.33333334 5:0.80000001 6:1 7:0.2 8:0 9:0 #
2.3157160897699785e-005 1:0 2:0 3:0.16666667 4:0.33333334 5:0.80000001 6:1 7:0.2 8:0 9:0 #
-2.3157160897699785e-005 1:0 2:0.25 3:0.16666667 4:0.33333334 5:0.80000001 6:1 7:0.2 8:0 9:0 #
2.3157160897699785e-005 1:0 2:0.25 3:0.16666667 4:0.33333334 5:0.80000001 6:1 7:0.2 8:0 9:0 #
-2.3157160897699785e-005 1:0 2:1 3:0.16666667 4:0.33333334 5:0.80000001 6:1 7:0.2 8:0 9:0 #
2.3157160897699785e-005 1:0 2:1 3:0.16666667 4:0.33333334 5:0.80000001 6:1 7:0.2 8:0 9:0 #
-2.3157160897699785e-005 1:0.11111111 2:0 3:0.16666667 4:0.5 5:0.80000001 6:1 7:0.26666668 8:0 9:0.25 #
4.6314321795399569e-005 1:0.11111111 2:0 3:0.5 4:0.5 5:0.60000002 6:0.75 7:0.2 8:-0.25 9:0 #
-2.3157160897699785e-005 1:0.11111111 2:0 3:0.16666667 4:0.5 5:0.80000001 6:1 7:0.26666668 8:0 9:0.25 #
2.3157160897699785e-005 1:0 2:0.5 3:0.16666667 4:0.33333334 5:0.80000001 6:1 7:0.2 8:0 9:0 #
-2.3157160897699785e-005 1:0 2:0.5 3:0.16666667 4:0.33333334 5:0.80000001 6:1 7:0.2 8:0 9:0 #
4.6314321795399569e-005 1:0 2:0 3:0.16666667 4:0.5 5:0.60000002 6:1 7:0.2 8:0 9:0 #
-2.3157160897699785e-005 1:0 2:0 3:0.16666667 4:0.5 5:0.60000002 6:1 7:0.2 8:0 9:0 #
-2.3157160897699785e-005 1:0 2:0 3:0.16666667 4:0.5 5:0.60000002 6:1 7:0.2 8:0 9:0 #
2.3157160897699785e-005 1:0 2:0.25 3:0.16666667 4:0.5 5:1 6:1 7:0.33333331 8:0 9:0.5 #
-2.3157160897699785e-005 1:0 2:0.25 3:0.33333334 4:0.5 5:0.80000001 6:0.80000001 7:0.26666668 8:-0.25 9:0.25 #
-2.3157160897699785e-005 1:0 2:0.5 3:0.33333334 4:0.33333334 5:0.60000002 6:0.75 7:0.2 8:-0.25 9:0 #
2.3157160897699785e-005 1:0 2:0.5 3:0.16666667 4:0.33333334 5:0.80000001 6:1 7:0.26666668 8:0 9:0.25 #
-2.3157160897699785e-005 1:0 2:1 3:0.16666667 4:0.66666669 5:0.80000001 6:1 7:0.26666668 8:0 9:0.25 #
2.3157160897699785e-005 1:0 2:1 3:0.16666667 4:0.66666669 5:0.80000001 6:1 7:0.26666668 8:0 9:0.25 #
-2.3157160897699785e-005 1:0.11111111 2:0 3:0.16666667 4:0.5 5:0.60000002 6:1 7:0.2 8:0 9:0 #
-2.3157160897699785e-005 1:0.11111111 2:0 3:0.16666667 4:0.5 5:0.60000002 6:1 7:0.2 8:0 9:0 #
4.6314321795399569e-005 1:0.11111111 2:0 3:0.16666667 4:0.5 5:0.60000002 6:1 7:0.2 8:0 9:0 #
-2.3157160897699785e-005 1:0 2:0.5 3:0.16666667 4:0.5 5:0.80000001 6:1 7:0.40000001 8:0 9:0.5 #
2.3157160897699785e-005 1:0 2:0.5 3:0.16666667 4:0.5 5:0.80000001 6:1 7:0.40000001 8:0 9:0.5 #
2.3157160897699785e-005 1:0 2:1 3:0.16666667 4:0.33333334 5:0.80000001 6:1 7:0.2 8:0 9:0 #
-2.3157160897699785e-005 1:0 2:1 3:0.16666667 4:0.33333334 5:0.80000001 6:1 7:0.2 8:0 9:0 #
-2.3157160897699785e-005 1:0.22222222 2:0 3:0.16666667 4:0.5 5:0.60000002 6:1 7:0.2 8:0 9:0 #
4.6314321795399569e-005 1:0.22222222 2:0 3:0.16666667 4:0.5 5:0.60000002 6:1 7:0.2 8:0 9:0 #
-2.3157160897699785e-005 1:0.22222222 2:0 3:0.16666667 4:0.5 5:0.60000002 6:1 7:0.2 8:0 9:0 #
-2.3157160897699785e-005 1:0 2:0 3:0.16666667 4:0.33333334 5:0.80000001 6:1 7:0.2 8:0 9:0 #
2.3157160897699785e-005 1:0 2:0 3:0.16666667 4:0.33333334 5:0.80000001 6:1 7:0.2 8:0 9:0 #
2.3157160897699785e-005 1:0 2:0.25 3:0.16666667 4:0.33333334 5:0.80000001 6:1 7:0.2 8:0 9:0 #
-2.3157160897699785e-005 1:0 2:0.25 3:0.16666667 4:0.33333334 5:0.80000001 6:1 7:0.2 8:0 9:0 #
-2.3157160897699785e-005 1:0 2:0.5 3:0.16666667 4:0.33333334 5:0.80000001 6:1 7:0.2 8:0 9:0 #
2.3157160897699785e-005 1:0 2:0.5 3:0.16666667 4:0.33333334 5:0.80000001 6:1 7:0.2 8:0 9:0 #
2.3157160897699785e-005 1:0.11111111 2:0 3:0.16666667 4:0.33333334 5:0.80000001 6:1 7:0.2 8:0 9:0 #
-2.3157160897699785e-005 1:0.11111111 2:0 3:0.16666667 4:0.33333334 5:0.80000001 6:1 7:0.2 8:0 9:0 #
-2.3157160897699785e-005 1:0 2:0.25 3:0.16666667 4:0.33333334 5:0.80000001 6:1 7:0.2 8:0 9:0 #
2.3157160897699785e-005 1:0 2:0.25 3:0.16666667 4:0.33333334 5:0.80000001 6:1 7:0.2 8:0 9:0 #
-2.3157160897699785e-005 1:0 2:0.5 3:0.16666667 4:0.66666669 5:0.80000001 6:1 7:0.2 8:0 9:0 #
-2.3157160897699785e-005 1:0 2:0.5 3:0.16666667 4:0.66666669 5:0.80000001 6:1 7:0.2 8:0 9:0 #
-2.3157160897699785e-005 1:0 2:0.5 3:0.16666667 4:0.66666669 5:0.80000001 6:1 7:0.2 8:0 9:0 #
6.9471482693099357e-005 1:0 2:0.5 3:0.16666667 4:0.66666669 5:0.80000001 6:1 7:0.2 8:0 9:0 #
-2.3157160897699785e-005 1:0 2:0.75 3:0.16666667 4:0.5 5:0.80000001 6:1 7:0.2 8:0 9:0 #
-2.3157160897699785e-005 1:0 2:0.75 3:0.16666667 4:0.5 5:0.80000001 6:1 7:0.2 8:0 9:0 #
4.6314321795399569e-005 1:0 2:0.75 3:0.16666667 4:0.5 5:0.80000001 6:1 7:0.2 8:0 9:0 #
-2.3157160897699785e-005 1:0 2:1 3:0.16666667 4:0.33333334 5:0.80000001 6:1 7:0.26666668 8:0 9:0.25 #
2.3157160897699785e-005 1:0 2:1 3:0.33333334 4:0.33333334 5:0.60000002 6:0.75 7:0.2 8:-0.25 9:0 #
2.3157160897699785e-005 1:0.11111111 2:0 3:0.16666667 4:0.33333334 5:0.80000001 6:1 7:0.2 8:0 9:0 #
-2.3157160897699785e-005 1:0.11111111 2:0 3:0.16666667 4:0.33333334 5:0.80000001 6:1 7:0.2 8:0 9:0 #
-2.3157160897699785e-005 1:0 2:0.5 3:0.16666667 4:0.5 5:0.80000001 6:1 7:0.26666668 8:0 9:0.25 #
2.3157160897699785e-005 1:0 2:0.5 3:0.16666667 4:0.5 5:0.80000001 6:1 7:0.26666668 8:0 9:0.25 #
4.6314321795399569e-005 1:0.22222222 2:0 3:0.16666667 4:0.5 5:0.80000001 6:1 7:0.26666668 8:0 9:0.25 #
-2.3157160897699785e-005 1:0.22222222 2:0 3:0.5 4:0.5 5:0.60000002 6:0.75 7:0.2 8:-0.25 9:0 #
-2.3157160897699785e-005 1:0.22222222 2:0 3:0.16666667 4:0.5 5:0.80000001 6:1 7:0.26666668 8:0 9:0.25 #
-2.3157160897699785e-005 1:0 2:0.25 3:0.16666667 4:0.5 5:0.80000001 6:1 7:0.40000001 8:0 9:0.5 #
2.3157160897699785e-005 1:0 2:0.25 3:0.16666667 4:0.5 5:0.80000001 6:1 7:0.40000001 8:0 9:0.5 #
-2.3157160897699785e-005 1:0 2:0.5 3:0.16666667 4:0.33333334 5:0.80000001 6:1 7:0.2 8:0 9:0 #
2.3157160897699785e-005 1:0 2:0.5 3:0.16666667 4:0.33333334 5:0.80000001 6:1 7:0.2 8:0 9:0 #
-2.3157160897699785e-005 1:0 2:0.75 3:0.16666667 4:0.33333334 5:0.80000001 6:1 7:0.2 8:0 9:0 #
2.3157160897699785e-005 1:0 2:0.75 3:0.16666667 4:0.33333334 5:0.80000001 6:1 7:0.2 8:0 9:0 #
-2.3157160897699785e-005 1:0 2:1 3:0.16666667 4:0.5 5:0.80000001 6:1 7:0.2 8:0 9:0 #
4.6314321795399569e-005 1:0 2:1 3:0.16666667 4:0.5 5:0.80000001 6:1 7:0.2 8:0 9:0 #
-2.3157160897699785e-005 1:0 2:1 3:0.16666667 4:0.5 5:0.80000001 6:1 7:0.2 8:0 9:0 #
-2.3157160897699785e-005 1:0.33333334 2:0 3:0.16666667 4:0.5 5:0.80000001 6:1 7:0.26666668 8:0 9:0.25 #
-2.3157160897699785e-005 1:0.33333334 2:0 3:0.5 4:0.5 5:0.60000002 6:0.75 7:0.2 8:-0.25 9:0 #
4.6314321795399569e-005 1:0.33333334 2:0 3:0.16666667 4:0.5 5:0.80000001 6:1 7:0.26666668 8:0 9:0.25 #
-2.3157160897699785e-005 1:0.11111111 2:0.25 3:0.16666667 4:0.33333334 5:0.80000001 6:1 7:0.2 8:0 9:0 #
2.3157160897699785e-005 1:0.11111111 2:0.25 3:0.16666667 4:0.33333334 5:0.80000001 6:1 7:0.2 8:0 9:0 #
4.6314321795399569e-005 1:0.11111111 2:0.5 3:0.16666667 4:0.5 5:1 6:1 7:0.33333331 8:0 9:0.5 #
-2.3157160897699785e-005 1:0.11111111 2:0.5 3:0.33333334 4:0.5 5:0.80000001 6:0.80000001 7:0.26666668 8:-0.25 9:0.25 #
-2.3157160897699785e-005 1:0.11111111 2:0.5 3:0.5 4:0.5 5:0.60000002 6:0.60000002 7:0.2 8:-0.5 9:0 #
-2.3157160897699785e-005 1:0.22222222 2:0 3:0.16666667 4:0.33333334 5:0.80000001 6:1 7:0.2 8:0 9:0 #
2.3157160897699785e-005 1:0.22222222 2:0 3:0.16666667 4:0.33333334 5:0.80000001 6:1 7:0.2 8:0 9:0 #
-2.3157160897699785e-005 1:0.11111111 2:0.25 3:0.5 4:1 5:0.60000002 6:0.75 7:0.30000001 8:-0.25 9:0.25 #
6.9471482693099357e-005 1:0.11111111 2:0.25 3:0.16666667 4:1 5:0.80000001 6:1 7:0.40000001 8:0 9:0.5 #
-2.3157160897699785e-005 1:0.11111111 2:0.25 3:0.16666667 4:1 5:0.80000001 6:1 7:0.40000001 8:0 9:0.5 #
-2.3157160897699785e-005 1:0.11111111 2:0.25 3:0.5 4:1 5:0.60000002 6:0.75 7:0.30000001 8:-0.25 9:0.25 #
-2.3157160897699785e-005 1:0 2:1 3:0.16666667 4:0.83333331 5:0.80000001 6:1 7:0.40000001 8:0 9:0.5 #
2.3157160897699785e-005 1:0 2:1 3:0.16666667 4:0.83333331 5:0.80000001 6:1 7:0.40000001 8:0 9:0.5 #
-2.3157160897699785e-005 1:0.33333334 2:0 3:0.16666667 4:0.33333334 5:0.80000001 6:1 7:0.2 8:0 9:0 #
2.3157160897699785e-005 1:0.33333334 2:0 3:0.16666667 4:0.33333334 5:0.80000001 6:1 7:0.2 8:0 9:0 #
-2.3157160897699785e-005 1:0.22222222 2:0.25 3:0.83333331 4:1 5:0.40000001 6:0.5 7:0.2 8:-0.5 9:0 #
-2.3157160897699785e-005 1:0.22222222 2:0.25 3:0.5 4:1 5:0.60000002 6:0.75 7:0.30000001 8:-0.25 9:0.25 #
0.00011578580448849892 1:0.22222222 2:0.25 3:0.16666667 4:1 5:0.80000001 6:1 7:0.40000001 8:0 9:0.5 #
-2.3157160897699785e-005 1:0.22222222 2:0.25 3:0.16666667 4:1 5:0.80000001 6:1 7:0.40000001 8:0 9:0.5 #
-2.3157160897699785e-005 1:0.22222222 2:0.25 3:0.5 4:1 5:0.60000002 6:0.75 7:0.30000001 8:-0.25 9:0.25 #
-2.3157160897699785e-005 1:0.22222222 2:0.25 3:0.83333331 4:1 5:0.40000001 6:0.5 7:0.2 8:-0.5 9:0 #
2.3157160897699785e-005 1:0.11111111 2:0.5 3:0.33333334 4:0.33333334 5:0.60000002 6:0.60000002 7:0.2 8:-0.5 9:0 #
-2.3157160897699785e-005 1:0.11111111 2:0.5 3:0.16666667 4:0.33333334 5:1 6:1 7:0.33333331 8:0 9:0.5 #
-2.3157160897699785e-005 1:0 2:0.75 3:0.16666667 4:0.5 5:0.80000001 6:1 7:0.2 8:0 9:0 #
-2.3157160897699785e-005 1:0 2:0.75 3:0.16666667 4:0.5 5:0.80000001 6:1 7:0.2 8:0 9:0 #
4.6314321795399569e-005 1:0 2:0.75 3:0.16666667 4:0.5 5:0.80000001 6:1 7:0.2 8:0 9:0 #
-2.3157160897699785e-005 1:0 2:1 3:0.16666667 4:0.33333334 5:0.80000001 6:1 7:0.2 8:0 9:0 #
2.3157160897699785e-005 1:0 2:1 3:0.16666667 4:0.33333334 5:0.80000001 6:1 7:0.2 8:0 9:0 #
-2.3157160897699785e-005 1:0.22222222 2:0 3:0.16666667 4:0.33333334 5:0.80000001 6:1 7:0.2 8:0 9:0 #
2.3157160897699785e-005 1:0.22222222 2:0 3:0.16666667 4:0.33333334 5:0.80000001 6:1 7:0.2 8:0 9:0 #
2.3157160897699785e-005 1:0.11111111 2:0.25 3:0.16666667 4:0.33333334 5:0.80000001 6:1 7:0.2 8:0 9:0 #
-2.3157160897699785e-005 1:0.11111111 2:0.25 3:0.16666667 4:0.33333334 5:0.80000001 6:1 7:0.2 8:0 9:0 #
-2.3157160897699785e-005 1:0 2:0.5 3:0.16666667 4:0.33333334 5:0.80000001 6:1 7:0.2 8:0 9:0 #
2.3157160897699785e-005 1:0 2:0.5 3:0.16666667 4:0.33333334 5:0.80000001 6:1 7:0.2 8:0 9:0 #
-2.3157160897699785e-005 1:0 2:0.75 3:0.16666667 4:0.33333334 5:0.80000001 6:1 7:0.2 8:0 9:0 #
2.3157160897699785e-005 1:0 2:0.75 3:0.16666667 4:0.33333334 5:0.80000001 6:1 7:0.2 8:0 9:0 #
-2.3157160897699785e-005 1:0.44444445 2:0 3:0.16666667 4:0.5 5:0.80000001 6:1 7:0.26666668 8:0 9:0.25 #
4.6314321795399569e-005 1:0.44444445 2:0 3:0.5 4:0.5 5:0.60000002 6:0.75 7:0.2 8:-0.25 9:0 #
-2.3157160897699785e-005 1:0.44444445 2:0 3:0.16666667 4:0.5 5:0.80000001 6:1 7:0.26666668 8:0 9:0.25 #
2.3157160897699785e-005 1:0.11111111 2:0.25 3:0.33333334 4:0.33333334 5:0.40000001 6:0.5 7:0.2 8:-0.5 9:0 #
-2.3157160897699785e-005 1:0.11111111 2:0.25 3:0.16666667 4:0.33333334 5:0.80000001 6:1 7:0.40000001 8:0 9:0.5 #
4.6314321795399569e-005 1:0.33333334 2:0 3:0.16666667 4:0.5 5:0.60000002 6:1 7:0.2 8:0 9:0 #
-2.3157160897699785e-005 1:0.33333334 2:0 3:0.16666667 4:0.5 5:0.60000002 6:1 7:0.2 8:0 9:0 #
-2.3157160897699785e-005 1:0.33333334 2:0 3:0.16666667 4:0.5 5:0.60000002 6:1 7:0.2 8:0 9:0 #
-2.3157160897699785e-005 1:0.11111111 2:0.25 3:0.16666667 4:0.5 5:1 6:1 7:0.33333331 8:0 9:0.5 #
-2.3157160897699785e-005 1:0.11111111 2:0.25 3:0.33333334 4:0.5 5:0.80000001 6:0.80000001 7:0.26666668 8:-0.25 9:0.25 #
4.6314321795399569e-005 1:0.11111111 2:0.25 3:0.5 4:0.5 5:0.60000002 6:0.60000002 7:0.2 8:-0.5 9:0 #
-2.3157160897699785e-005 1:0 2:0.5 3:0.16666667 4:0.5 5:0.80000001 6:1 7:0.40000001 8:0 9:0.5 #
2.3157160897699785e-005 1:0 2:0.5 3:0.16666667 4:0.5 5:0.80000001 6:1 7:0.40000001 8:0 9:0.5 #
2.3157160897699785e-005 1:0 2:0.75 3:0.16666667 4:0.5 5:0.80000001 6:1 7:0.40000001 8:0 9:0.5 #
-2.3157160897699785e-005 1:0 2:0.75 3:0.16666667 4:0.5 5:0.80000001 6:1 7:0.40000001 8:0 9:0.5 #
4.6314321795399569e-005 1:0 2:1 3:0.16666667 4:0.5 5:0.60000002 6:1 7:0.2 8:0 9:0 #
-2.3157160897699785e-005 1:0 2:1 3:0.16666667 4:0.5 5:0.60000002 6:1 7:0.2 8:0 9:0 #
-2.3157160897699785e-005 1:0 2:1 3:0.16666667 4:0.5 5:0.60000002 6:1 7:0.2 8:0 9:0 #
2.3157160897699785e-005 1:0.11111111 2:0 3:0.16666667 4:0.33333334 5:0.80000001 6:1 7:0.2 8:0 9:0 #
-2.3157160897699785e-005 1:0.11111111 2:0 3:0.16666667 4:0.33333334 5:0.80000001 6:1 7:0.2 8:0 9:0 #
-2.3157160897699785e-005 1:0.55555558 2:0 3:0.16666667 4:0.5 5:0.80000001 6:1 7:0.26666668 8:0 9:0.25 #
-2.3157160897699785e-005 1:0.55555558 2:0 3:0.5 4:0.5 5:0.60000002 6:0.75 7:0.2 8:-0.25 9:0 #
4.6314321795399569e-005 1:0.55555558 2:0 3:0.16666667 4:0.5 5:0.80000001 6:1 7:0.26666668 8:0 9:0.25 #
2.3157160897699785e-005 1:0.22222222 2:0.25 3:0.16666667 4:0.33333334 5:0.80000001 6:1 7:0.2 8:0 9:0 #
-2.3157160897699785e-005 1:0.22222222 2:0.25 3:0.16666667 4:0.33333334 5:0.80000001 6:1 7:0.2 8:0 9:0 #
2.3157160897699785e-005 1:0 2:0.5 3:0.16666667 4:0.33333334 5:0.80000001 6:1 7:0.2 8:0 9:0 #
-2.3157160897699785e-005 1:0 2:0.5 3:0.16666667 4:0.33333334 5:0.80000001 6:1 7:0.2 8:0 9:0 #
2.3157160897699785e-005 1:0 2:0.25 3:0.16666667 4:0.5 5:1 6:1 7:0.5 8:0 9:0.75 #
-2.3157160897699785e-005 1:0 2:0.25 3:0.33333334 4:0.5 5:0.80000001 6:0.80000001 7:0.40000001 8:-0.25 9:0.5 #
2.3157160897699785e-005 1:0 2:0.75 3:0.16666667 4:0.33333334 5:1 6:1 7:0.2 8:0 9:0 #
-2.3157160897699785e-005 1:0 2:0.75 3:0.16666667 4:0.33333334 5:1 6:1 7:0.2 8:0 9:0 #
2.3157160897699785e-005 1:0 2:1 3:0.16666667 4:0.33333334 5:0.80000001 6:1 7:0.2 8:0 9:0 #
-2.3157160897699785e-005 1:0 2:1 3:0.16666667 4:0.33333334 5:0.80000001 6:1 7:0.2 8:0 9:0 #
-2.3157160897699785e-005 1:0 2:0 3:0.16666667 4:0.5 5:0.60000002 6:1 7:0.30000001 8:0 9:0.25 #
-2.3157160897699785e-005 1:0 2:0 3:0.5 4:0.5 5:0.40000001 6:0.66666669 7:0.2 8:-0.25 9:0 #
4.6314321795399569e-005 1:0 2:0 3:0.16666667 4:0.5 5:0.60000002 6:1 7:0.30000001 8:0 9:0.25 #
-2.3157160897699785e-005 1:0 2:0.25 3:0.33333334 4:0.33333334 5:0.80000001 6:0.80000001 7:0.2 8:-0.25 9:0 #
2.3157160897699785e-005 1:0 2:0.25 3:0.16666667 4:0.33333334 5:1 6:1 7:0.25 8:0 9:0.25 #
4.6314321795399569e-005 1:0.11111111 2:0 3:0.16666667 4:0.5 5:1 6:1 7:0.5 8:0 9:0.75 #
-2.3157160897699785e-005 1:0.11111111 2:0 3:0.5 4:0.5 5:0.40000001 6:0.40000001 7:0.2 8:-0.75 9:0 #
-2.3157160897699785e-005 1:0.11111111 2:0 3:0.33333334 4:0.5 5:0.60000002 6:0.60000002 7:0.30000001 8:-0.5 9:0.25 #
-2.3157160897699785e-005 1:0.11111111 2:0.25 3:0.5 4:0.5 5:0.40000001 6:0.40000001 7:0.2 8:-0.75 9:0 #
-2.3157160897699785e-005 1:0.11111111 2:0.25 3:0.16666667 4:0.5 5:1 6:1 7:0.5 8:0 9:0.75 #
4.6314321795399569e-005 1:0.11111111 2:0.25 3:0.33333334 4:0.5 5:0.80000001 6:0.80000001 7:0.40000001 8:-0.25 9:0.5 #
2.928635708853839e-006 1:0 2:0.5 3:0.16666667 4:0.5 5:1 6:1 7:1 8:0 9:1 #
-2.928635708853839e-006 1:0 2:0.5 3:0.33333334 4:0.5 5:0.80000001 6:0.80000001 7:0.80000001 8:-0.25 9:0.75 #
2.3157160897699785e-005 1:0 2:1 3:0.16666667 4:0.33333334 5:0.80000001 6:1 7:0.2 8:0 9:0 #
-2.3157160897699785e-005 1:0 2:1 3:0.16666667 4:0.33333334 5:0.80000001 6:1 7:0.2 8:0 9:0 #
4.6314321795399569e-005 1:0.11111111 2:0 3:0.16666667 4:0.5 5:0.60000002 6:1 7:0.30000001 8:0 9:0.25 #
-2.3157160897699785e-005 1:0.11111111 2:0 3:0.5 4:0.5 5:0.40000001 6:0.66666669 7:0.2 8:-0.25 9:0 #
-2.3157160897699785e-005 1:0.11111111 2:0 3:0.16666667 4:0.5 5:0.60000002 6:1 7:0.30000001 8:0 9:0.25 #
2.3157160897699785e-005 1:0 2:1 3:0.16666667 4:0.33333334 5:0.60000002 6:1 7:0.2 8:0 9:0 #
-2.3157160897699785e-005 1:0 2:1 3:0.16666667 4:0.33333334 5:0.60000002 6:1 7:0.2 8:0 9:0 #
-2.3157160897699785e-005 1:0.22222222 2:0 3:0.16666667 4:0.5 5:1 6:1 7:0.5 8:0 9:0.75 #
-2.3157160897699785e-005 1:0.22222222 2:0 3:0.5 4:0.5 5:0.40000001 6:0.40000001 7:0.2 8:-0.75 9:0 #
4.6314321795399569e-005 1:0.22222222 2:0 3:0.33333334 4:0.5 5:0.60000002 6:0.60000002 7:0.30000001 8:-0.5 9:0.25 #
2.3157160897699785e-005 1:0 2:0 3:0.16666667 4:0.33333334 5:0.80000001 6:1 7:0.26666668 8:0 9:0.25 #
-2.3157160897699785e-005 1:0 2:0 3:0.33333334 4:0.33333334 5:0.60000002 6:0.75 7:0.2 8:-0.25 9:0 #
-2.3157160897699785e-005 1:0 2:0.25 3:0.33333334 4:0.33333334 5:0.60000002 6:0.75 7:0.2 8:-0.25 9:0 #
2.3157160897699785e-005 1:0 2:0.25 3:0.16666667 4:0.33333334 5:0.80000001 6:1 7:0.26666668 8:0 9:0.25 #
2.3796443070101113e-005 1:0 2:0.5 3:0.16666667 4:0.66666669 5:1 6:1 7:0.33333331 8:0 9:0.5 #
-1.7224312221034681e-005 1:0 2:0.5 3:0.33333334 4:0.66666669 5:0.80000001 6:0.80000001 7:0.26666668 8:-0.25 9:0.25 #
-6.5721308490664334e-006 1:0 2:0.5 3:0.33333334 4:0.66666669 5:0.80000001 6:0.80000001 7:0.26666668 8:-0.25 9:0.25 #
-2.3157160897699785e-005 1:0.22222222 2:0 3:0.16666667 4:0.5 5:0.60000002 6:1 7:0.30000001 8:0 9:0.25 #
-2.3157160897699785e-005 1:0.22222222 2:0 3:0.5 4:0.5 5:0.40000001 6:0.66666669 7:0.2 8:-0.25 9:0 #
4.6314321795399569e-005 1:0.22222222 2:0 3:0.16666667 4:0.5 5:0.60000002 6:1 7:0.30000001 8:0 9:0.25 #
2.3157160897699785e-005 1:0.11111111 2:0.25 3:0.33333334 4:0.33333334 5:0.80000001 6:0.80000001 7:0.2 8:-0.25 9:0 #
-2.3157160897699785e-005 1:0.11111111 2:0.25 3:0.16666667 4:0.33333334 5:1 6:1 7:0.25 8:0 9:0.25 #
4.6314321795399569e-005 1:0.33333334 2:0 3:0.16666667 4:0.5 5:1 6:1 7:0.5 8:0 9:0.75 #
-2.3157160897699785e-005 1:0.33333334 2:0 3:0.5 4:0.5 5:0.40000001 6:0.40000001 7:0.2 8:-0.75 9:0 #
-2.3157160897699785e-005 1:0.33333334 2:0 3:0.33333334 4:0.5 5:0.60000002 6:0.60000002 7:0.30000001 8:-0.5 9:0.25 #
-2.3157160897699785e-005 1:0.22222222 2:0.25 3:0.5 4:0.5 5:0.40000001 6:0.40000001 7:0.2 8:-0.75 9:0 #
-2.3157160897699785e-005 1:0.22222222 2:0.25 3:0.16666667 4:0.5 5:1 6:1 7:0.5 8:0 9:0.75 #
4.6314321795399569e-005 1:0.22222222 2:0.25 3:0.33333334 4:0.5 5:0.80000001 6:0.80000001 7:0.40000001 8:-0.25 9:0.5 #
-2.3157160897699785e-005 1:0.11111111 2:0.5 3:0.16666667 4:0.5 5:1 6:1 7:1 8:0 9:1 #
-2.3157160897699785e-005 1:0.11111111 2:0.5 3:0.5 4:0.5 5:0.2 6:0.2 7:0.2 8:-1 9:0 #
4.6314321795399569e-005 1:0.11111111 2:0.5 3:0.33333334 4:0.5 5:0.80000001 6:0.80000001 7:0.80000001 8:-0.25 9:0.75 #
-2.3157160897699785e-005 1:0 2:0.75 3:0.33333334 4:0.5 5:0.80000001 6:0.80000001 7:0.40000001 8:-0.25 9:0.5 #
2.3157160897699785e-005 1:0 2:0.75 3:0.16666667 4:0.5 5:1 6:1 7:0.5 8:0 9:0.75 #
2.3157160897699785e-005 1:0 2:0 3:0.16666667 4:0.33333334 5:0.80000001 6:1 7:0.2 8:0 9:0 #
-2.3157160897699785e-005 1:0 2:0 3:0.16666667 4:0.33333334 5:0.80000001 6:1 7:0.2 8:0 9:0 #
-2.3157160897699785e-005 1:0 2:0.5 3:0.33333334 4:0.5 5:0.80000001 6:0.80000001 7:0.40000001 8:-0.25 9:0.5 #
2.3157160897699785e-005 1:0 2:0.5 3:0.16666667 4:0.5 5:1 6:1 7:0.5 8:0 9:0.75 #
-2.3157160897699785e-005 1:0.11111111 2:0 3:0.16666667 4:0.33333334 5:0.80000001 6:1 7:0.2 8:0 9:0 #
2.3157160897699785e-005 1:0.11111111 2:0 3:0.16666667 4:0.33333334 5:0.80000001 6:1 7:0.2 8:0 9:0 #
6.9471482693099357e-005 1:0 2:0.25 3:0.16666667 4:1 5:0.80000001 6:1 7:0.40000001 8:0 9:0.5 #
-2.3157160897699785e-005 1:0 2:0.25 3:0.16666667 4:1 5:0.80000001 6:1 7:0.40000001 8:0 9:0.5 #
-2.3157160897699785e-005 1:0 2:0.25 3:0.16666667 4:1 5:0.80000001 6:1 7:0.40000001 8:0 9:0.5 #
-2.3157160897699785e-005 1:0 2:0.25 3:0.16666667 4:1 5:0.80000001 6:1 7:0.40000001 8:0 9:0.5 #
-2.3157160897699785e-005 1:0 2:0.5 3:0.16666667 4:0.33333334 5:0.80000001 6:1 7:0.2 8:0 9:0 #
2.3157160897699785e-005 1:0 2:0.5 3:0.16666667 4:0.33333334 5:0.80000001 6:1 7:0.2 8:0 9:0 #
-2.3157160897699785e-005 1:0.22222222 2:0 3:0.16666667 4:0.33333334 5:0.80000001 6:1 7:0.2 8:0 9:0 #
2.3157160897699785e-005 1:0.22222222 2:0 3:0.16666667 4:0.33333334 5:0.80000001 6:1 7:0.2 8:0 9:0 #
-2.3157160897699785e-005 1:0.11111111 2:0.25 3:0.16666667 4:1 5:0.80000001 6:1 7:0.40000001 8:0 9:0.5 #
-2.3157160897699785e-005 1:0.11111111 2:0.25 3:0.16666667 4:1 5:0.80000001 6:1 7:0.40000001 8:0 9:0.5 #
-2.3157160897699785e-005 1:0.11111111 2:0.25 3:0.16666667 4:1 5:0.80000001 6:1 7:0.40000001 8:0 9:0.5 #
9.1196358785258528e-005 1:0.11111111 2:0.25 3:0.16666667 4:1 5:0.80000001 6:1 7:0.40000001 8:0 9:0.5 #
-2.172487609215917e-005 1:0.11111111 2:0.25 3:0.83333331 4:1 5:0.60000002 6:0.75 7:0.30000001 8:-0.25 9:0.25 #
-2.3157160897699785e-005 1:0.11111111 2:0 3:0.16666667 4:0.33333334 5:0.80000001 6:1 7:0.26666668 8:0 9:0.25 #
2.3157160897699785e-005 1:0.11111111 2:0 3:0.33333334 4:0.33333334 5:0.60000002 6:0.75 7:0.2 8:-0.25 9:0 #
2.3157160897699785e-005 1:0 2:0.25 3:0.16666667 4:0.33333334 5:1 6:1 7:0.25 8:0 9:0.25 #
-2.3157160897699785e-005 1:0 2:0.25 3:0.33333334 4:0.33333334 5:0.80000001 6:0.80000001 7:0.2 8:-0.25 9:0 #
-2.3157160897699785e-005 1:0 2:0.5 3:0.33333334 4:0.33333334 5:0.60000002 6:0.75 7:0.2 8:-0.25 9:0 #
2.3157160897699785e-005 1:0 2:0.5 3:0.16666667 4:0.33333334 5:0.80000001 6:1 7:0.26666668 8:0 9:0.25 #
-2.3157160897699785e-005 1:0.22222222 2:0 3:0.16666667 4:0.33333334 5:0.80000001 6:1 7:0.26666668 8:0 9:0.25 #
2.3157160897699785e-005 1:0.22222222 2:0 3:0.33333334 4:0.33333334 5:0.60000002 6:0.75 7:0.2 8:-0.25 9:0 #
2.3157160897699785e-005 1:0.11111111 2:0.25 3:0.16666667 4:0.33333334 5:1 6:1 7:0.25 8:0 9:0.25 #
-2.3157160897699785e-005 1:0.11111111 2:0.25 3:0.33333334 4:0.33333334 5:0.80000001 6:0.80000001 7:0.2 8:-0.25 9:0 #
2.3157160897699785e-005 1:0.11111111 2:0.5 3:0.33333334 4:0.33333334 5:0.60000002 6:0.75 7:0.2 8:-0.25 9:0 #
-2.3157160897699785e-005 1:0.11111111 2:0.5 3:0.16666667 4:0.33333334 5:0.80000001 6:1 7:0.26666668 8:0 9:0.25 #
-2.3157160897699785e-005 1:0.44444445 2:0 3:0.16666667 4:0.5 5:1 6:1 7:0.5 8:0 9:0.75 #
4.6314321795399569e-005 1:0.44444445 2:0 3:0.5 4:0.5 5:0.40000001 6:0.40000001 7:0.2 8:-0.75 9:0 #
-2.3157160897699785e-005 1:0.44444445 2:0 3:0.33333334 4:0.5 5:0.60000002 6:0.60000002 7:0.30000001 8:-0.5 9:0.25 #
-2.3157160897699785e-005 1:0.33333334 2:0 3:0.16666667 4:0.5 5:0.60000002 6:1 7:0.30000001 8:0 9:0.25 #
-2.3157160897699785e-005 1:0.33333334 2:0 3:0.5 4:0.5 5:0.40000001 6:0.66666669 7:0.2 8:-0.25 9:0 #
4.6314321795399569e-005 1:0.33333334 2:0 3:0.16666667 4:0.5 5:0.60000002 6:1 7:0.30000001 8:0 9:0.25 #
2.3157160897699785e-005 1:0.22222222 2:0.25 3:0.33333334 4:0.33333334 5:0.80000001 6:0.80000001 7:0.2 8:-0.25 9:0 #
-2.3157160897699785e-005 1:0.22222222 2:0.25 3:0.16666667 4:0.33333334 5:1 6:1 7:0.25 8:0 9:0.25 #
-2.3157160897699785e-005 1:0.11111111 2:0.5 3:0.16666667 4:0.33333334 5:1 6:1 7:0.25 8:0 9:0.25 #
2.3157160897699785e-005 1:0.11111111 2:0.5 3:0.33333334 4:0.33333334 5:0.80000001 6:0.80000001 7:0.2 8:-0.25 9:0 #
-2.3157160897699785e-005 1:0.44444445 2:0 3:0.16666667 4:0.5 5:0.60000002 6:1 7:0.30000001 8:0 9:0.25 #
-2.3157160897699785e-005 1:0.44444445 2:0 3:0.5 4:0.5 5:0.40000001 6:0.66666669 7:0.2 8:-0.25 9:0 #
4.6314321795399569e-005 1:0.44444445 2:0 3:0.16666667 4:0.5 5:0.60000002 6:1 7:0.30000001 8:0 9:0.25 #
2.3157160897699785e-005 1:0.33333334 2:0.25 3:0.33333334 4:0.33333334 5:0.80000001 6:0.80000001 7:0.2 8:-0.25 9:0 #
-2.3157160897699785e-005 1:0.33333334 2:0.25 3:0.16666667 4:0.33333334 5:1 6:1 7:0.25 8:0 9:0.25 #
-2.3157160897699785e-005 1:0.22222222 2:0.5 3:0.16666667 4:0.33333334 5:1 6:1 7:0.25 8:0 9:0.25 #
2.3157160897699785e-005 1:0.22222222 2:0.5 3:0.33333334 4:0.33333334 5:0.80000001 6:0.80000001 7:0.2 8:-0.25 9:0 #
2.3157160897699785e-005 1:0.11111111 2:0.75 3:0.33333334 4:0.33333334 5:0.80000001 6:0.80000001 7:0.2 8:-0.25 9:0 #
-2.3157160897699785e-005 1:0.11111111 2:0.75 3:0.16666667 4:0.33333334 5:1 6:1 7:0.25 8:0 9:0.25 #
2.3157160897699785e-005 1:0 2:1 3:0.16666667 4:0.33333334 5:0.80000001 6:1 7:0.2 8:0 9:0 #
-2.3157160897699785e-005 1:0 2:1 3:0.16666667 4:0.33333334 5:0.80000001 6:1 7:0.2 8:0 9:0 #
2.3157160897699785e-005 1:0.33333334 2:0 3:0.16666667 4:0.33333334 5:0.80000001 6:1 7:0.26666668 8:0 9:0.25 #
-2.3157160897699785e-005 1:0.33333334 2:0 3:0.33333334 4:0.33333334 5:0.60000002 6:0.75 7:0.2 8:-0.25 9:0 #
2.3157160897699785e-005 1:0.11111111 2:0.25 3:0.33333334 4:0.33333334 5:0.60000002 6:0.75 7:0.2 8:-0.25 9:0 #
-2.3157160897699785e-005 1:0.11111111 2:0.25 3:0.16666667 4:0.33333334 5:0.80000001 6:1 7:0.26666668 8:0 9:0.25 #
-2.3157160897699785e-005 1:0 2:0.5 3:0.16666667 4:0.33333334 5:0.80000001 6:1 7:0.2 8:0 9:0 #
2.3157160897699785e-005 1:0 2:0.5 3:0.16666667 4:0.33333334 5:0.80000001 6:1 7:0.2 8:0 9:0 #
-2.3157160897699785e-005 1:0 2:0.75 3:0.33333334 4:0.5 5:0.80000001 6:0.80000001 7:0.26666668 8:-0.25 9:0.25 #
2.3157160897699785e-005 1:0 2:0.75 3:0.16666667 4:0.5 5:1 6:1 7:0.33333331 8:0 9:0.5 #
-2.3157160897699785e-005 1:0 2:0 3:0.33333334 4:0.33333334 5:0.60000002 6:0.75 7:0.2 8:-0.25 9:0 #
2.3157160897699785e-005 1:0 2:0 3:0.16666667 4:0.33333334 5:0.80000001 6:1 7:0.26666668 8:0 9:0.25 #
4.6314321795399569e-005 1:0.55555558 2:0 3:0.16666667 4:0.5 5:1 6:1 7:0.5 8:0 9:0.75 #
-2.3157160897699785e-005 1:0.55555558 2:0 3:0.5 4:0.5 5:0.40000001 6:0.40000001 7:0.2 8:-0.75 9:0 #
-2.3157160897699785e-005 1:0.55555558 2:0 3:0.33333334 4:0.5 5:0.60000002 6:0.60000002 7:0.30000001 8:-0.5 9:0.25 #
4.6314321795399569e-005 1:0.33333334 2:0.25 3:0.5 4:0.5 5:0.40000001 6:0.40000001 7:0.2 8:-0.75 9:0 #
-2.3157160897699785e-005 1:0.33333334 2:0.25 3:0.16666667 4:0.5 5:1 6:1 7:0.5 8:0 9:0.75 #
-2.3157160897699785e-005 1:0.33333334 2:0.25 3:0.33333334 4:0.5 5:0.80000001 6:0.80000001 7:0.40000001 8:-0.25 9:0.5 #
2.3157160897699785e-005 1:0 2:0.75 3:0.16666667 4:0.5 5:1 6:1 7:0.33333331 8:0 9:0.5 #
-2.3157160897699785e-005 1:0 2:0.75 3:0.33333334 4:0.5 5:0.80000001 6:0.80000001 7:0.26666668 8:-0.25 9:0.25 #
2.3157160897699785e-005 1:0.44444445 2:0 3:0.16666667 4:0.33333334 5:0.80000001 6:1 7:0.26666668 8:0 9:0.25 #
-2.3157160897699785e-005 1:0.44444445 2:0 3:0.33333334 4:0.33333334 5:0.60000002 6:0.75 7:0.2 8:-0.25 9:0 #
