SVM-light Version V6.02
1 # kernel type
8 # kernel parameter -d 
1 # kernel parameter -g 
1 # kernel parameter -s 
1 # kernel parameter -r 
empty# kernel parameter -u 
9 # highest feature index 
4387 # number of training documents 
2903 # number of support vectors plus 1 
0 # threshold b, each following line is a SV (starting with alpha*y)
-2.3091942435977897e-005 1:0 2:0.25 3:0.33333334 4:0.33333334 5:0.60000002 6:0.75 7:0.2 8:-0.25 9:0 #
2.3091942435977897e-005 1:0 2:0.25 3:0.16666667 4:0.33333334 5:0.80000001 6:1 7:0.26666668 8:0 9:0.25 #
-2.3091942435977897e-005 1:0 2:0.25 3:0.33333334 4:1 5:0.80000001 6:0.80000001 7:0.26666668 8:-0.25 9:0.25 #
-2.3091942435977897e-005 1:0 2:0.25 3:0.33333334 4:1 5:0.80000001 6:0.80000001 7:0.26666668 8:-0.25 9:0.25 #
9.2367769743911587e-005 1:0 2:0.25 3:0.16666667 4:1 5:1 6:1 7:0.33333331 8:0 9:0.5 #
-2.3091942435977897e-005 1:0 2:0.25 3:0.33333334 4:1 5:0.80000001 6:0.80000001 7:0.26666668 8:-0.25 9:0.25 #
-2.3091942435977897e-005 1:0 2:0.25 3:0.33333334 4:1 5:0.80000001 6:0.80000001 7:0.26666668 8:-0.25 9:0.25 #
-2.3091942435977897e-005 1:0 2:0.5 3:0.33333334 4:0.33333334 5:0.60000002 6:0.75 7:0.2 8:-0.25 9:0 #
2.3091942435977897e-005 1:0 2:0.5 3:0.16666667 4:0.33333334 5:0.80000001 6:1 7:0.26666668 8:0 9:0.25 #
-2.3091942435977897e-005 1:0.11111111 2:0.25 3:0.33333334 4:1 5:0.80000001 6:0.80000001 7:0.26666668 8:-0.25 9:0.25 #
-2.3091942435977897e-005 1:0.11111111 2:0.25 3:0.33333334 4:1 5:0.80000001 6:0.80000001 7:0.26666668 8:-0.25 9:0.25 #
-2.3091942435977897e-005 1:0.11111111 2:0.25 3:0.16666667 4:1 5:1 6:1 7:0.33333331 8:0 9:0.5 #
-2.3091942435977897e-005 1:0.11111111 2:0.25 3:0.33333334 4:1 5:0.80000001 6:0.80000001 7:0.26666668 8:-0.25 9:0.25 #
9.2367769743911587e-005 1:0.11111111 2:0.25 3:0.33333334 4:1 5:0.80000001 6:0.80000001 7:0.26666668 8:-0.25 9:0.25 #
5.0173921482991385e-006 1:0 2:1 3:0.16666667 4:0.33333334 5:0.80000001 6:1 7:0.26666668 8:0 9:0.25 #
-5.0173921482991385e-006 1:0 2:1 3:0.33333334 4:0.33333334 5:0.60000002 6:0.75 7:0.2 8:-0.25 9:0 #
2.3091942435977897e-005 1:0.22222222 2:0 3:0.33333334 4:0.33333334 5:0.40000001 6:0.5 7:0.2 8:-0.5 9:0 #
-2.3091942435977897e-005 1:0.22222222 2:0 3:0.16666667 4:0.33333334 5:0.80000001 6:1 7:0.40000001 8:0 9:0.5 #
-2.3091942435977897e-005 1:0.33333334 2:0 3:0.33333334 4:0.33333334 5:0.40000001 6:0.5 7:0.2 8:-0.5 9:0 #
2.3091942435977897e-005 1:0.33333334 2:0 3:0.16666667 4:0.33333334 5:0.80000001 6:1 7:0.40000001 8:0 9:0.5 #
-2.3091942435977897e-005 1:0.22222222 2:0.25 3:0.33333334 4:1 5:0.80000001 6:0.80000001 7:0.26666668 8:-0.25 9:0.25 #
9.2367769743911587e-005 1:0.22222222 2:0.25 3:0.33333334 4:1 5:0.80000001 6:0.80000001 7:0.26666668 8:-0.25 9:0.25 #
-2.3091942435977897e-005 1:0.22222222 2:0.25 3:0.16666667 4:1 5:1 6:1 7:0.33333331 8:0 9:0.5 #
-2.3091942435977897e-005 1:0.22222222 2:0.25 3:0.33333334 4:1 5:0.80000001 6:0.80000001 7:0.26666668 8:-0.25 9:0.25 #
-2.3091942435977897e-005 1:0.22222222 2:0.25 3:0.33333334 4:1 5:0.80000001 6:0.80000001 7:0.26666668 8:-0.25 9:0.25 #
2.3091942435977897e-005 1:0 2:0.75 3:0.16666667 4:0.33333334 5:0.60000002 6:1 7:0.2 8:0 9:0 #
-2.3091942435977897e-005 1:0 2:0.75 3:0.16666667 4:0.33333334 5:0.60000002 6:1 7:0.2 8:0 9:0 #
-2.3091942435977897e-005 1:0 2:0.5 3:0.16666667 4:0.5 5:0.60000002 6:1 7:0.30000001 8:0 9:0.25 #
2.3091942435977897e-005 1:0 2:0.5 3:0.16666667 4:0.5 5:0.60000002 6:1 7:0.30000001 8:0 9:0.25 #
4.6183884871955794e-005 1:0 2:0.75 3:0.16666667 4:0.5 5:0.60000002 6:1 7:0.2 8:0 9:0 #
-2.3091942435977897e-005 1:0 2:0.75 3:0.16666667 4:0.5 5:0.60000002 6:1 7:0.2 8:0 9:0 #
-2.3091942435977897e-005 1:0 2:0.75 3:0.16666667 4:0.5 5:0.60000002 6:1 7:0.2 8:0 9:0 #
-2.3091942435977897e-005 1:0.11111111 2:0 3:0.33333334 4:0.5 5:0.60000002 6:0.75 7:0.60000002 8:-0.25 9:0.5 #
2.3091942435977897e-005 1:0.11111111 2:0 3:0.16666667 4:0.5 5:0.80000001 6:1 7:0.80000001 8:0 9:0.75 #
-2.3091942435977897e-005 1:0.11111111 2:0.5 3:0.16666667 4:0.5 5:0.60000002 6:1 7:0.30000001 8:0 9:0.25 #
4.6183884871955794e-005 1:0.11111111 2:0.5 3:0.16666667 4:0.5 5:0.60000002 6:1 7:0.30000001 8:0 9:0.25 #
-2.3091942435977897e-005 1:0.11111111 2:0.5 3:0.5 4:0.5 5:0.40000001 6:0.66666669 7:0.2 8:-0.25 9:0 #
-2.3091942435977897e-005 1:0.11111111 2:0.75 3:0.16666667 4:0.5 5:0.60000002 6:1 7:0.2 8:0 9:0 #
4.6183884871955794e-005 1:0.11111111 2:0.75 3:0.16666667 4:0.5 5:0.60000002 6:1 7:0.2 8:0 9:0 #
-2.3091942435977897e-005 1:0.11111111 2:0.75 3:0.16666667 4:0.5 5:0.60000002 6:1 7:0.2 8:0 9:0 #
-2.3091942435977897e-005 1:0 2:0 3:0.33333334 4:0.33333334 5:0.40000001 6:0.66666669 7:0.2 8:-0.25 9:0 #
2.3091942435977897e-005 1:0 2:0 3:0.16666667 4:0.33333334 5:0.60000002 6:1 7:0.30000001 8:0 9:0.25 #
-2.3091942435977897e-005 1:0 2:0.25 3:0.16666667 4:0.33333334 5:0.60000002 6:1 7:0.2 8:0 9:0 #
2.3091942435977897e-005 1:0 2:0.25 3:0.16666667 4:0.33333334 5:0.60000002 6:1 7:0.2 8:0 9:0 #
-2.3091942435977897e-005 1:0 2:0.75 3:0.16666667 4:0.33333334 5:0.40000001 6:1 7:0.2 8:0 9:0 #
2.3091942435977897e-005 1:0 2:0.75 3:0.16666667 4:0.33333334 5:0.40000001 6:1 7:0.2 8:0 9:0 #
2.3091942435977897e-005 1:0 2:0 3:0.16666667 4:0.33333334 5:0.60000002 6:1 7:0.2 8:0 9:0 #
-2.3091942435977897e-005 1:0 2:0 3:0.16666667 4:0.33333334 5:0.60000002 6:1 7:0.2 8:0 9:0 #
2.3091942435977897e-005 1:0 2:0.25 3:0.16666667 4:0.33333334 5:0.80000001 6:1 7:0.26666668 8:0 9:0.25 #
-2.3091942435977897e-005 1:0 2:0.25 3:0.33333334 4:0.33333334 5:0.60000002 6:0.75 7:0.2 8:-0.25 9:0 #
2.3091942435977897e-005 1:0 2:0.5 3:0.16666667 4:0.33333334 5:0.80000001 6:1 7:0.26666668 8:0 9:0.25 #
-2.3091942435977897e-005 1:0 2:0.5 3:0.33333334 4:0.33333334 5:0.60000002 6:0.75 7:0.2 8:-0.25 9:0 #
-2.3091942435977897e-005 1:0.44444445 2:0 3:0.33333334 4:0.33333334 5:0.40000001 6:0.5 7:0.2 8:-0.5 9:0 #
2.3091942435977897e-005 1:0.44444445 2:0 3:0.16666667 4:0.33333334 5:0.80000001 6:1 7:0.40000001 8:0 9:0.5 #
0.00010928333888166983 1:0.33333334 2:0.25 3:0.33333334 4:1 5:0.80000001 6:0.80000001 7:0.26666668 8:-0.25 9:0.25 #
-2.3091942435977897e-005 1:0.33333334 2:0.25 3:0.33333334 4:1 5:0.80000001 6:0.80000001 7:0.26666668 8:-0.25 9:0.25 #
-1.6915569137758223e-005 1:0.33333334 2:0.25 3:1 4:1 5:0.60000002 6:0.60000002 7:0.2 8:-0.5 9:0 #
-2.3091942435977897e-005 1:0.33333334 2:0.25 3:0.16666667 4:1 5:1 6:1 7:0.33333331 8:0 9:0.5 #
-2.3091942435977897e-005 1:0.33333334 2:0.25 3:0.33333334 4:1 5:0.80000001 6:0.80000001 7:0.26666668 8:-0.25 9:0.25 #
-2.3091942435977897e-005 1:0.33333334 2:0.25 3:0.33333334 4:1 5:0.80000001 6:0.80000001 7:0.26666668 8:-0.25 9:0.25 #
-2.3091942435977897e-005 1:0 2:0.5 3:0.16666667 4:0.33333334 5:0.60000002 6:1 7:0.2 8:0 9:0 #
2.3091942435977897e-005 1:0 2:0.5 3:0.16666667 4:0.33333334 5:0.60000002 6:1 7:0.2 8:0 9:0 #
-2.3091942435977897e-005 1:0.11111111 2:0 3:0.33333334 4:0.33333334 5:0.40000001 6:0.66666669 7:0.2 8:-0.25 9:0 #
2.3091942435977897e-005 1:0.11111111 2:0 3:0.16666667 4:0.33333334 5:0.60000002 6:1 7:0.30000001 8:0 9:0.25 #
2.3091942435977897e-005 1:0.11111111 2:0.25 3:0.16666667 4:0.33333334 5:0.60000002 6:1 7:0.2 8:0 9:0 #
-2.3091942435977897e-005 1:0.11111111 2:0.25 3:0.16666667 4:0.33333334 5:0.60000002 6:1 7:0.2 8:0 9:0 #
2.3091942435977897e-005 1:0.11111111 2:0.25 3:0.33333334 4:0.33333334 5:0.60000002 6:0.75 7:0.2 8:-0.25 9:0 #
-2.3091942435977897e-005 1:0.11111111 2:0.25 3:0.16666667 4:0.33333334 5:0.80000001 6:1 7:0.26666668 8:0 9:0.25 #
-2.3091942435977897e-005 1:0 2:0.75 3:0.16666667 4:0.33333334 5:0.60000002 6:1 7:0.2 8:0 9:0 #
2.3091942435977897e-005 1:0 2:0.75 3:0.16666667 4:0.33333334 5:0.60000002 6:1 7:0.2 8:0 9:0 #
-2.3091942435977897e-005 1:0.22222222 2:0 3:0.5 4:0.5 5:0.2 6:0.25 7:0.2 8:-0.75 9:0 #
-2.3091942435977897e-005 1:0.22222222 2:0 3:0.33333334 4:0.5 5:0.40000001 6:0.5 7:0.40000001 8:-0.5 9:0.25 #
4.6183884871955794e-005 1:0.22222222 2:0 3:0.16666667 4:0.5 5:0.80000001 6:1 7:0.80000001 8:0 9:0.75 #
-2.3091942435977897e-005 1:0.22222222 2:0.25 3:0.33333334 4:0.33333334 5:0.60000002 6:0.75 7:0.2 8:-0.25 9:0 #
2.3091942435977897e-005 1:0.22222222 2:0.25 3:0.16666667 4:0.33333334 5:0.80000001 6:1 7:0.26666668 8:0 9:0.25 #
-2.3091942435977897e-005 1:0.11111111 2:0.5 3:0.16666667 4:0.5 5:0.80000001 6:1 7:0.40000001 8:0 9:0.5 #
4.6183884871955794e-005 1:0.11111111 2:0.5 3:0.33333334 4:0.5 5:0.60000002 6:0.75 7:0.30000001 8:-0.25 9:0.25 #
-2.3091942435977897e-005 1:0.11111111 2:0.5 3:0.5 4:0.5 5:0.40000001 6:0.5 7:0.2 8:-0.5 9:0 #
-2.3091942435977897e-005 1:0 2:0.75 3:0.16666667 4:0.33333334 5:0.60000002 6:1 7:0.2 8:0 9:0 #
2.3091942435977897e-005 1:0 2:0.75 3:0.16666667 4:0.33333334 5:0.60000002 6:1 7:0.2 8:0 9:0 #
8.6116324776773035e-006 1:0 2:1 3:0.16666667 4:0.33333334 5:0.80000001 6:1 7:0.26666668 8:0 9:0.25 #
-8.6116324776773035e-006 1:0 2:1 3:0.33333334 4:0.33333334 5:0.60000002 6:0.75 7:0.2 8:-0.25 9:0 #
4.6183884871955794e-005 1:0.22222222 2:0 3:0.33333334 4:0.5 5:0.60000002 6:0.75 7:0.60000002 8:-0.25 9:0.5 #
-2.3091942435977897e-005 1:0.22222222 2:0 3:0.5 4:0.5 5:0.2 6:0.25 7:0.2 8:-0.75 9:0 #
-2.3091942435977897e-005 1:0.22222222 2:0 3:0.16666667 4:0.5 5:0.80000001 6:1 7:0.80000001 8:0 9:0.75 #
4.6183884871955794e-005 1:0.33333334 2:0 3:0.33333334 4:0.5 5:0.60000002 6:0.75 7:0.60000002 8:-0.25 9:0.5 #
-2.3091942435977897e-005 1:0.33333334 2:0 3:0.5 4:0.5 5:0.2 6:0.25 7:0.2 8:-0.75 9:0 #
-2.3091942435977897e-005 1:0.33333334 2:0 3:0.16666667 4:0.5 5:0.80000001 6:1 7:0.80000001 8:0 9:0.75 #
2.3091942435977897e-005 1:0.11111111 2:0.25 3:0.16666667 4:0.5 5:0.80000001 6:1 7:0.40000001 8:0 9:0.5 #
-2.3091942435977897e-005 1:0.11111111 2:0.25 3:0.33333334 4:0.5 5:0.60000002 6:0.75 7:0.30000001 8:-0.25 9:0.25 #
-2.3091942435977897e-005 1:0.11111111 2:0.5 3:0.33333334 4:0.33333334 5:0.80000001 6:0.80000001 7:0.2 8:-0.25 9:0 #
2.3091942435977897e-005 1:0.11111111 2:0.5 3:0.16666667 4:0.33333334 5:1 6:1 7:0.25 8:0 9:0.25 #
-2.3091942435977897e-005 1:0.11111111 2:1 3:0.66666669 4:0.66666669 5:0.40000001 6:0.5 7:0.2 8:-0.5 9:0 #
6.9275827307933684e-005 1:0.11111111 2:1 3:0.33333334 4:0.66666669 5:0.60000002 6:0.75 7:0.30000001 8:-0.25 9:0.25 #
-2.3091942435977897e-005 1:0.11111111 2:1 3:0.16666667 4:0.66666669 5:0.80000001 6:1 7:0.40000001 8:0 9:0.5 #
-2.3091942435977897e-005 1:0.11111111 2:1 3:0.33333334 4:0.66666669 5:0.60000002 6:0.75 7:0.30000001 8:-0.25 9:0.25 #
2.3091942435977897e-005 1:0.11111111 2:0 3:0.16666667 4:0.33333334 5:0.60000002 6:1 7:0.2 8:0 9:0 #
-2.3091942435977897e-005 1:0.11111111 2:0 3:0.16666667 4:0.33333334 5:0.60000002 6:1 7:0.2 8:0 9:0 #
2.3091942435977897e-005 1:0.11111111 2:0.25 3:0.16666667 4:0.33333334 5:0.80000001 6:1 7:0.26666668 8:0 9:0.25 #
-2.3091942435977897e-005 1:0.11111111 2:0.25 3:0.33333334 4:0.33333334 5:0.60000002 6:0.75 7:0.2 8:-0.25 9:0 #
-2.3091942435977897e-005 1:0.11111111 2:0.5 3:0.16666667 4:0.33333334 5:0.80000001 6:1 7:0.26666668 8:0 9:0.25 #
2.3091942435977897e-005 1:0.11111111 2:0.5 3:0.33333334 4:0.33333334 5:0.60000002 6:0.75 7:0.2 8:-0.25 9:0 #
2.3091942435977897e-005 1:0 2:0.75 3:0.16666667 4:0.5 5:0.80000001 6:1 7:0.40000001 8:0 9:0.5 #
-2.3091942435977897e-005 1:0 2:0.75 3:0.16666667 4:0.5 5:0.80000001 6:1 7:0.40000001 8:0 9:0.5 #
-1.7634599394265105e-005 1:0 2:1 3:0.33333334 4:0.5 5:0.80000001 6:0.80000001 7:0.26666668 8:-0.25 9:0.25 #
1.7634599394265105e-005 1:0 2:1 3:0.16666667 4:0.5 5:1 6:1 7:0.33333331 8:0 9:0.5 #
2.3091942435977897e-005 1:0.22222222 2:0 3:0.33333334 4:0.33333334 5:0.40000001 6:0.66666669 7:0.2 8:-0.25 9:0 #
-2.3091942435977897e-005 1:0.22222222 2:0 3:0.16666667 4:0.33333334 5:0.60000002 6:1 7:0.30000001 8:0 9:0.25 #
-2.3091942435977897e-005 1:0.44444445 2:0.25 3:0.33333334 4:1 5:0.80000001 6:0.80000001 7:0.26666668 8:-0.25 9:0.25 #
-2.3091942435977897e-005 1:0.44444445 2:0.25 3:0.33333334 4:1 5:0.80000001 6:0.80000001 7:0.26666668 8:-0.25 9:0.25 #
-2.3091942435977897e-005 1:0.44444445 2:0.25 3:1 4:1 5:0.60000002 6:0.60000002 7:0.2 8:-0.5 9:0 #
-2.3091942435977897e-005 1:0.44444445 2:0.25 3:0.16666667 4:1 5:1 6:1 7:0.33333331 8:0 9:0.5 #
0.00011545971217988949 1:0.44444445 2:0.25 3:0.33333334 4:1 5:0.80000001 6:0.80000001 7:0.26666668 8:-0.25 9:0.25 #
-2.3091942435977897e-005 1:0.44444445 2:0.25 3:0.33333334 4:1 5:0.80000001 6:0.80000001 7:0.26666668 8:-0.25 9:0.25 #
2.3091942435977897e-005 1:0 2:1 3:0.16666667 4:0.5 5:0.60000002 6:1 7:0.30000001 8:0 9:0.25 #
-2.3091942435977897e-005 1:0 2:1 3:0.16666667 4:0.5 5:0.60000002 6:1 7:0.30000001 8:0 9:0.25 #
-2.3091942435977897e-005 1:0.33333334 2:0 3:0.5 4:0.5 5:0.2 6:0.25 7:0.2 8:-0.75 9:0 #
4.6183884871955794e-005 1:0.33333334 2:0 3:0.33333334 4:0.5 5:0.40000001 6:0.5 7:0.40000001 8:-0.5 9:0.25 #
-2.3091942435977897e-005 1:0.33333334 2:0 3:0.16666667 4:0.5 5:0.80000001 6:1 7:0.80000001 8:0 9:0.75 #
-2.3091942435977897e-005 1:0 2:0.25 3:0.33333334 4:0.33333334 5:0.60000002 6:0.75 7:0.2 8:-0.25 9:0 #
2.3091942435977897e-005 1:0 2:0.25 3:0.16666667 4:0.33333334 5:0.80000001 6:1 7:0.26666668 8:0 9:0.25 #
2.3091942435977897e-005 1:0 2:0.5 3:0.16666667 4:0.33333334 5:0.80000001 6:1 7:0.26666668 8:0 9:0.25 #
-2.3091942435977897e-005 1:0 2:0.5 3:0.33333334 4:0.33333334 5:0.60000002 6:0.75 7:0.2 8:-0.25 9:0 #
4.6183884871955794e-005 1:0.44444445 2:0 3:0.5 4:0.5 5:0.2 6:0.25 7:0.2 8:-0.75 9:0 #
-2.3091942435977897e-005 1:0.44444445 2:0 3:0.33333334 4:0.5 5:0.40000001 6:0.5 7:0.40000001 8:-0.5 9:0.25 #
-2.3091942435977897e-005 1:0.44444445 2:0 3:0.16666667 4:0.5 5:0.80000001 6:1 7:0.80000001 8:0 9:0.75 #
2.3091942435977897e-005 1:0 2:0.25 3:0.16666667 4:1 5:1 6:1 7:1 8:0 9:1 #
-2.3091942435977897e-005 1:0 2:0.25 3:0.16666667 4:1 5:1 6:1 7:1 8:0 9:1 #
-1.9107253076206945e-005 1:0 2:1 3:0.33333334 4:0.33333334 5:0.80000001 6:0.80000001 7:0.2 8:-0.25 9:0 #
1.9107253076206945e-005 1:0 2:1 3:0.16666667 4:0.33333334 5:1 6:1 7:0.25 8:0 9:0.25 #
-2.3091942435977897e-005 1:0 2:0.25 3:0.33333334 4:0.5 5:0.80000001 6:0.80000001 7:0.40000001 8:-0.25 9:0.5 #
2.3091942435977897e-005 1:0 2:0.25 3:0.16666667 4:0.5 5:1 6:1 7:0.5 8:0 9:0.75 #
2.3091942435977897e-005 1:0.11111111 2:0 3:0.33333334 4:0.33333334 5:0.60000002 6:0.60000002 7:0.2 8:-0.5 9:0 #
-2.3091942435977897e-005 1:0.11111111 2:0 3:0.16666667 4:0.33333334 5:1 6:1 7:0.33333331 8:0 9:0.5 #
-2.3091942435977897e-005 1:0 2:0.5 3:0.33333334 4:0.5 5:0.80000001 6:0.80000001 7:0.40000001 8:-0.25 9:0.5 #
2.3091942435977897e-005 1:0 2:0.5 3:0.16666667 4:0.5 5:1 6:1 7:0.5 8:0 9:0.75 #
2.3091942435977897e-005 1:0.22222222 2:0 3:0.33333334 4:0.33333334 5:0.60000002 6:0.60000002 7:0.2 8:-0.5 9:0 #
-2.3091942435977897e-005 1:0.22222222 2:0 3:0.16666667 4:0.33333334 5:1 6:1 7:0.33333331 8:0 9:0.5 #
4.6183884871955794e-005 1:0.11111111 2:0.5 3:0.33333334 4:0.5 5:0.80000001 6:0.80000001 7:0.40000001 8:-0.25 9:0.5 #
-2.3091942435977897e-005 1:0.11111111 2:0.5 3:0.16666667 4:0.5 5:1 6:1 7:0.5 8:0 9:0.75 #
-2.3091942435977897e-005 1:0.11111111 2:0.5 3:0.5 4:0.5 5:0.40000001 6:0.40000001 7:0.2 8:-0.75 9:0 #
2.3091942435977897e-005 1:0 2:0 3:0.16666667 4:0.33333334 5:1 6:1 7:1 8:0 9:1 #
-2.3091942435977897e-005 1:0 2:0 3:0.33333334 4:0.33333334 5:0.2 6:0.2 7:0.2 8:-1 9:0 #
2.3091942435977897e-005 1:0 2:0.25 3:0.16666667 4:0.33333334 5:1 6:1 7:0.25 8:0 9:0.25 #
-2.3091942435977897e-005 1:0 2:0.25 3:0.33333334 4:0.33333334 5:0.80000001 6:0.80000001 7:0.2 8:-0.25 9:0 #
-2.3091942435977897e-005 1:0.11111111 2:0 3:0.16666667 4:0.5 5:1 6:1 7:1 8:0 9:1 #
4.6183884871955794e-005 1:0.11111111 2:0 3:0.33333334 4:0.5 5:0.2 6:0.2 7:0.2 8:-1 9:0 #
-2.3091942435977897e-005 1:0.11111111 2:0 3:0.33333334 4:0.5 5:0.2 6:0.2 7:0.2 8:-1 9:0 #
-2.3091942435977897e-005 1:0.11111111 2:0 3:0.16666667 4:0.33333334 5:1 6:1 7:1 8:0 9:1 #
2.3091942435977897e-005 1:0.11111111 2:0 3:0.33333334 4:0.33333334 5:0.2 6:0.2 7:0.2 8:-1 9:0 #
-2.3091942435977897e-005 1:0 2:0.25 3:0.16666667 4:0.33333334 5:0.60000002 6:1 7:0.2 8:0 9:0 #
2.3091942435977897e-005 1:0 2:0.25 3:0.16666667 4:0.33333334 5:0.60000002 6:1 7:0.2 8:0 9:0 #
2.3091942435977897e-005 1:0 2:0.25 3:0.16666667 4:0.33333334 5:1 6:1 7:0.25 8:0 9:0.25 #
-2.3091942435977897e-005 1:0 2:0.25 3:0.33333334 4:0.33333334 5:0.80000001 6:0.80000001 7:0.2 8:-0.25 9:0 #
7.5721389395519104e-007 1:0 2:1 3:0.16666667 4:0.33333334 5:1 6:1 7:1 8:0 9:1 #
-7.5721389395519104e-007 1:0 2:1 3:0.33333334 4:0.33333334 5:0.2 6:0.2 7:0.2 8:-1 9:0 #
-2.3091942435977897e-005 1:0.22222222 2:0 3:0.16666667 4:0.5 5:1 6:1 7:1 8:0 9:1 #
-2.3091942435977897e-005 1:0.22222222 2:0 3:0.33333334 4:0.5 5:0.2 6:0.2 7:0.2 8:-1 9:0 #
4.6183884871955794e-005 1:0.22222222 2:0 3:0.33333334 4:0.5 5:0.2 6:0.2 7:0.2 8:-1 9:0 #
2.3091942435977897e-005 1:0 2:1 3:0.16666667 4:0.33333334 5:1 6:1 7:0.25 8:0 9:0.25 #
-2.3091942435977897e-005 1:0 2:1 3:0.33333334 4:0.33333334 5:0.80000001 6:0.80000001 7:0.2 8:-0.25 9:0 #
-2.3091942435977897e-005 1:0.33333334 2:0 3:0.33333334 4:0.33333334 5:0.60000002 6:0.60000002 7:0.2 8:-0.5 9:0 #
2.3091942435977897e-005 1:0.33333334 2:0 3:0.16666667 4:0.33333334 5:1 6:1 7:0.33333331 8:0 9:0.5 #
-2.3091942435977897e-005 1:0.11111111 2:0.25 3:0.5 4:1 5:0.80000001 6:0.80000001 7:0.80000001 8:-0.25 9:0.75 #
-2.3091942435977897e-005 1:0.11111111 2:0.25 3:0.16666667 4:1 5:1 6:1 7:1 8:0 9:1 #
-2.3091942435977897e-005 1:0.11111111 2:0.25 3:0.66666669 4:1 5:0.40000001 6:0.40000001 7:0.40000001 8:-0.75 9:0.25 #
-2.3091942435977897e-005 1:0.11111111 2:0.25 3:0.83333331 4:1 5:0.2 6:0.2 7:0.2 8:-1 9:0 #
-2.3091942435977897e-005 1:0.11111111 2:0.25 3:0.16666667 4:1 5:1 6:1 7:1 8:0 9:1 #
0.00011545971217988949 1:0.11111111 2:0.25 3:0.83333331 4:1 5:0.2 6:0.2 7:0.2 8:-1 9:0 #
-2.3091942435977897e-005 1:0.33333334 2:0 3:0.16666667 4:0.5 5:1 6:1 7:1 8:0 9:1 #
-2.3091942435977897e-005 1:0.33333334 2:0 3:0.33333334 4:0.5 5:0.2 6:0.2 7:0.2 8:-1 9:0 #
4.6183884871955794e-005 1:0.33333334 2:0 3:0.33333334 4:0.5 5:0.2 6:0.2 7:0.2 8:-1 9:0 #
-2.3091942435977897e-005 1:0.11111111 2:0.5 3:0.33333334 4:0.5 5:0.2 6:0.2 7:0.2 8:-1 9:0 #
4.6183884871955794e-005 1:0.11111111 2:0.5 3:0.33333334 4:0.5 5:0.2 6:0.2 7:0.2 8:-1 9:0 #
-2.3091942435977897e-005 1:0.11111111 2:0.5 3:0.16666667 4:0.5 5:1 6:1 7:1 8:0 9:1 #
-2.3091942435977897e-005 1:0 2:0.75 3:0.16666667 4:0.5 5:0.60000002 6:1 7:0.2 8:0 9:0 #
-2.3091942435977897e-005 1:0 2:0.75 3:0.16666667 4:0.5 5:0.60000002 6:1 7:0.2 8:0 9:0 #
4.6183884871955794e-005 1:0 2:0.75 3:0.16666667 4:0.5 5:0.60000002 6:1 7:0.2 8:0 9:0 #
-2.3091942435977897e-005 1:0.44444445 2:0 3:0.33333334 4:0.33333334 5:0.60000002 6:0.60000002 7:0.2 8:-0.5 9:0 #
2.3091942435977897e-005 1:0.44444445 2:0 3:0.16666667 4:0.33333334 5:1 6:1 7:0.33333331 8:0 9:0.5 #
5.0107670151264112e-005 1:0.22222222 2:0.25 3:0.5 4:1 5:0.80000001 6:0.80000001 7:0.80000001 8:-0.25 9:0.75 #
-6.6263089258759554e-006 1:0.22222222 2:0.25 3:0.16666667 4:1 5:1 6:1 7:1 8:0 9:1 #
-2.0448334363010354e-005 1:0.22222222 2:0.25 3:0.83333331 4:1 5:0.2 6:0.2 7:0.2 8:-1 9:0 #
-2.3033026862377805e-005 1:0.22222222 2:0.25 3:0.83333331 4:1 5:0.2 6:0.2 7:0.2 8:-1 9:0 #
-2.3091942435977897e-005 1:0.22222222 2:0 3:0.16666667 4:0.33333334 5:1 6:1 7:1 8:0 9:1 #
2.3091942435977897e-005 1:0.22222222 2:0 3:0.33333334 4:0.33333334 5:0.2 6:0.2 7:0.2 8:-1 9:0 #
2.3091942435977897e-005 1:0.11111111 2:0.25 3:0.16666667 4:0.33333334 5:0.60000002 6:1 7:0.2 8:0 9:0 #
-2.3091942435977897e-005 1:0.11111111 2:0.25 3:0.16666667 4:0.33333334 5:0.60000002 6:1 7:0.2 8:0 9:0 #
4.6183884871955794e-005 1:0.44444445 2:0 3:0.16666667 4:0.5 5:1 6:1 7:1 8:0 9:1 #
-2.3091942435977897e-005 1:0.44444445 2:0 3:0.33333334 4:0.5 5:0.2 6:0.2 7:0.2 8:-1 9:0 #
-2.3091942435977897e-005 1:0.44444445 2:0 3:0.33333334 4:0.5 5:0.2 6:0.2 7:0.2 8:-1 9:0 #
-2.3091942435977897e-005 1:0.11111111 2:0.25 3:0.33333334 4:0.5 5:0.80000001 6:0.80000001 7:0.40000001 8:-0.25 9:0.5 #
-2.3091942435977897e-005 1:0.11111111 2:0.25 3:0.16666667 4:0.5 5:1 6:1 7:0.5 8:0 9:0.75 #
4.6183884871955794e-005 1:0.11111111 2:0.25 3:0.5 4:0.5 5:0.40000001 6:0.40000001 7:0.2 8:-0.75 9:0 #
-1.3363602741319553e-005 1:0 2:0.5 3:0.33333334 4:0.5 5:0.80000001 6:0.80000001 7:0.80000001 8:-0.25 9:0.75 #
1.3363602741319553e-005 1:0 2:0.5 3:0.16666667 4:0.5 5:1 6:1 7:1 8:0 9:1 #
2.0952215669402264e-005 1:0 2:0.75 3:0.16666667 4:0.5 5:1 6:1 7:0.33333331 8:0 9:0.5 #
-2.0952215669402264e-005 1:0 2:0.75 3:0.33333334 4:0.5 5:0.80000001 6:0.80000001 7:0.26666668 8:-0.25 9:0.25 #
-2.3091942435977897e-005 1:0.22222222 2:0.25 3:0.33333334 4:0.5 5:0.80000001 6:0.80000001 7:0.40000001 8:-0.25 9:0.5 #
-2.3091942435977897e-005 1:0.22222222 2:0.25 3:0.16666667 4:0.5 5:1 6:1 7:0.5 8:0 9:0.75 #
4.6183884871955794e-005 1:0.22222222 2:0.25 3:0.5 4:0.5 5:0.40000001 6:0.40000001 7:0.2 8:-0.75 9:0 #
-2.3091942435977897e-005 1:0.11111111 2:0.5 3:0.33333334 4:0.5 5:0.80000001 6:0.80000001 7:0.80000001 8:-0.25 9:0.75 #
-2.3091942435977897e-005 1:0.11111111 2:0.5 3:0.5 4:0.5 5:0.2 6:0.2 7:0.2 8:-1 9:0 #
4.6183884871955794e-005 1:0.11111111 2:0.5 3:0.16666667 4:0.5 5:1 6:1 7:1 8:0 9:1 #
-2.3091942435977897e-005 1:0.11111111 2:0.75 3:0.16666667 4:0.5 5:1 6:1 7:0.33333331 8:0 9:0.5 #
-2.3091942435977897e-005 1:0.11111111 2:0.75 3:0.33333334 4:0.5 5:0.80000001 6:0.80000001 7:0.26666668 8:-0.25 9:0.25 #
4.6183884871955794e-005 1:0.11111111 2:0.75 3:0.5 4:0.5 5:0.60000002 6:0.60000002 7:0.2 8:-0.5 9:0 #
-2.1906980311088345e-005 1:0 2:1 3:0.33333334 4:0.33333334 5:0.80000001 6:0.80000001 7:0.2 8:-0.25 9:0 #
2.1906980311088345e-005 1:0 2:1 3:0.16666667 4:0.33333334 5:1 6:1 7:0.25 8:0 9:0.25 #
-2.3091942435977897e-005 1:0.11111111 2:0 3:0.33333334 4:0.5 5:0.80000001 6:0.80000001 7:0.2 8:-0.25 9:0 #
4.6183884871955794e-005 1:0.11111111 2:0 3:0.33333334 4:0.5 5:0.80000001 6:0.80000001 7:0.2 8:-0.25 9:0 #
-2.3091942435977897e-005 1:0.11111111 2:0 3:0.16666667 4:0.5 5:1 6:1 7:0.25 8:0 9:0.25 #
-2.3091942435977897e-005 1:0.55555558 2:0 3:0.33333334 4:0.33333334 5:0.60000002 6:0.60000002 7:0.2 8:-0.5 9:0 #
2.3091942435977897e-005 1:0.55555558 2:0 3:0.16666667 4:0.33333334 5:1 6:1 7:0.33333331 8:0 9:0.5 #
-2.3091942435977897e-005 1:0.33333334 2:0.25 3:0.5 4:1 5:0.80000001 6:0.80000001 7:0.80000001 8:-0.25 9:0.75 #
6.9275827307933684e-005 1:0.33333334 2:0.25 3:0.66666669 4:1 5:0.40000001 6:0.40000001 7:0.40000001 8:-0.75 9:0.25 #
-2.3091942435977897e-005 1:0.33333334 2:0.25 3:0.83333331 4:1 5:0.2 6:0.2 7:0.2 8:-1 9:0 #
-2.3091942435977897e-005 1:0.33333334 2:0.25 3:0.83333331 4:1 5:0.2 6:0.2 7:0.2 8:-1 9:0 #
-2.3091942435977897e-005 1:0 2:1 3:0.16666667 4:0.66666669 5:1 6:1 7:0.33333331 8:0 9:0.5 #
-2.3091942435977897e-005 1:0 2:1 3:0.16666667 4:0.66666669 5:1 6:1 7:0.33333331 8:0 9:0.5 #
4.6183884871955794e-005 1:0 2:1 3:0.16666667 4:0.66666669 5:1 6:1 7:0.33333331 8:0 9:0.5 #
2.3091942435977897e-005 1:0.33333334 2:0 3:0.16666667 4:0.33333334 5:1 6:1 7:1 8:0 9:1 #
-2.3091942435977897e-005 1:0.33333334 2:0 3:0.33333334 4:0.33333334 5:0.2 6:0.2 7:0.2 8:-1 9:0 #
-2.3091942435977897e-005 1:0.11111111 2:0.25 3:0.16666667 4:0.33333334 5:1 6:1 7:0.25 8:0 9:0.25 #
2.3091942435977897e-005 1:0.11111111 2:0.25 3:0.33333334 4:0.33333334 5:0.80000001 6:0.80000001 7:0.2 8:-0.25 9:0 #
2.3091942435977897e-005 1:0 2:0.5 3:0.16666667 4:0.66666669 5:1 6:1 7:0.33333331 8:0 9:0.5 #
-2.3091942435977897e-005 1:0 2:0.5 3:0.16666667 4:0.66666669 5:1 6:1 7:0.33333331 8:0 9:0.5 #
3.8305215174565855e-005 1:0.44444445 2:0.25 3:0.5 4:1 5:0.80000001 6:0.80000001 7:0.80000001 8:-0.25 9:0.75 #
-2.3091942435977897e-005 1:0.44444445 2:0.25 3:0.66666669 4:1 5:0.40000001 6:0.40000001 7:0.40000001 8:-0.75 9:0.25 #
-1.0007733720097214e-005 1:0.44444445 2:0.25 3:0.83333331 4:1 5:0.2 6:0.2 7:0.2 8:-1 9:0 #
-5.205539018490744e-006 1:0.44444445 2:0.25 3:0.83333331 4:1 5:0.2 6:0.2 7:0.2 8:-1 9:0 #
2.3091942435977897e-005 1:0.11111111 2:0.5 3:0.33333334 4:0.33333334 5:0.80000001 6:0.80000001 7:0.2 8:-0.25 9:0 #
-2.3091942435977897e-005 1:0.11111111 2:0.5 3:0.16666667 4:0.33333334 5:1 6:1 7:0.25 8:0 9:0.25 #
2.3091942435977897e-005 1:0 2:0 3:0.16666667 4:0.33333334 5:0.60000002 6:1 7:0.2 8:0 9:0 #
-2.3091942435977897e-005 1:0 2:0 3:0.16666667 4:0.33333334 5:0.60000002 6:1 7:0.2 8:0 9:0 #
4.6183884871955794e-005 1:0 2:0.5 3:0.16666667 4:0.5 5:0.80000001 6:1 7:0.2 8:0 9:0 #
-2.3091942435977897e-005 1:0 2:0.5 3:0.16666667 4:0.5 5:0.80000001 6:1 7:0.2 8:0 9:0 #
-2.3091942435977897e-005 1:0 2:0.5 3:0.16666667 4:0.5 5:0.80000001 6:1 7:0.2 8:0 9:0 #
-2.3091942435977897e-005 1:0 2:0.75 3:0.16666667 4:0.33333334 5:0.80000001 6:1 7:0.2 8:0 9:0 #
2.3091942435977897e-005 1:0 2:0.75 3:0.16666667 4:0.33333334 5:0.80000001 6:1 7:0.2 8:0 9:0 #
2.3091942435977897e-005 1:0.11111111 2:0 3:0.16666667 4:0.33333334 5:0.60000002 6:1 7:0.2 8:0 9:0 #
-2.3091942435977897e-005 1:0.11111111 2:0 3:0.16666667 4:0.33333334 5:0.60000002 6:1 7:0.2 8:0 9:0 #
4.6183884871955794e-005 1:0.11111111 2:0.5 3:0.16666667 4:0.5 5:0.80000001 6:1 7:0.2 8:0 9:0 #
-2.3091942435977897e-005 1:0.11111111 2:0.5 3:0.16666667 4:0.5 5:0.80000001 6:1 7:0.2 8:0 9:0 #
-2.3091942435977897e-005 1:0.11111111 2:0.5 3:0.16666667 4:0.5 5:0.80000001 6:1 7:0.2 8:0 9:0 #
2.3091942435977897e-005 1:0.11111111 2:0.75 3:0.16666667 4:0.33333334 5:0.80000001 6:1 7:0.2 8:0 9:0 #
-2.3091942435977897e-005 1:0.11111111 2:0.75 3:0.16666667 4:0.33333334 5:0.80000001 6:1 7:0.2 8:0 9:0 #
2.3091942435977897e-005 1:0 2:1 3:0.16666667 4:0.33333334 5:0.60000002 6:1 7:0.2 8:0 9:0 #
-2.3091942435977897e-005 1:0 2:1 3:0.16666667 4:0.33333334 5:0.60000002 6:1 7:0.2 8:0 9:0 #
2.3091942435977897e-005 1:0 2:0 3:0.16666667 4:0.33333334 5:0.80000001 6:1 7:0.2 8:0 9:0 #
-2.3091942435977897e-005 1:0 2:0 3:0.16666667 4:0.33333334 5:0.80000001 6:1 7:0.2 8:0 9:0 #
2.3091942435977897e-005 1:0 2:0.25 3:0.16666667 4:0.33333334 5:0.80000001 6:1 7:0.2 8:0 9:0 #
-2.3091942435977897e-005 1:0 2:0.25 3:0.16666667 4:0.33333334 5:0.80000001 6:1 7:0.2 8:0 9:0 #
-2.3091942435977897e-005 1:0 2:0.5 3:0.16666667 4:0.33333334 5:0.80000001 6:1 7:0.2 8:0 9:0 #
2.3091942435977897e-005 1:0 2:0.5 3:0.16666667 4:0.33333334 5:0.80000001 6:1 7:0.2 8:0 9:0 #
2.3091942435977897e-005 1:0 2:0.75 3:0.16666667 4:0.5 5:1 6:1 7:0.25 8:0 9:0.25 #
-2.3091942435977897e-005 1:0 2:0.75 3:0.16666667 4:0.5 5:1 6:1 7:0.25 8:0 9:0.25 #
-2.3091942435977897e-005 1:0 2:1 3:0.16666667 4:0.5 5:0.80000001 6:1 7:0.26666668 8:0 9:0.25 #
2.3091942435977897e-005 1:0 2:1 3:0.16666667 4:0.5 5:0.80000001 6:1 7:0.26666668 8:0 9:0.25 #
2.3091942435977897e-005 1:0.22222222 2:0 3:0.16666667 4:0.33333334 5:0.60000002 6:1 7:0.2 8:0 9:0 #
-2.3091942435977897e-005 1:0.22222222 2:0 3:0.16666667 4:0.33333334 5:0.60000002 6:1 7:0.2 8:0 9:0 #
-2.3091942435977897e-005 1:0.22222222 2:0.5 3:0.16666667 4:0.5 5:0.80000001 6:1 7:0.2 8:0 9:0 #
4.6183884871955794e-005 1:0.22222222 2:0.5 3:0.16666667 4:0.5 5:0.80000001 6:1 7:0.2 8:0 9:0 #
-2.3091942435977897e-005 1:0.22222222 2:0.5 3:0.16666667 4:0.5 5:0.80000001 6:1 7:0.2 8:0 9:0 #
2.3091942435977897e-005 1:0.33333334 2:0 3:0.16666667 4:0.33333334 5:0.60000002 6:1 7:0.2 8:0 9:0 #
-2.3091942435977897e-005 1:0.33333334 2:0 3:0.16666667 4:0.33333334 5:0.60000002 6:1 7:0.2 8:0 9:0 #
-2.3091942435977897e-005 1:0.33333334 2:0.5 3:0.16666667 4:0.5 5:0.80000001 6:1 7:0.2 8:0 9:0 #
-2.3091942435977897e-005 1:0.33333334 2:0.5 3:0.16666667 4:0.5 5:0.80000001 6:1 7:0.2 8:0 9:0 #
4.6183884871955794e-005 1:0.33333334 2:0.5 3:0.16666667 4:0.5 5:0.80000001 6:1 7:0.2 8:0 9:0 #
-2.3091942435977897e-005 1:0 2:0.75 3:0.33333334 4:0.5 5:0.40000001 6:0.66666669 7:0.2 8:-0.25 9:0 #
4.6183884871955794e-005 1:0 2:0.75 3:0.33333334 4:0.5 5:0.40000001 6:0.66666669 7:0.2 8:-0.25 9:0 #
-2.3091942435977897e-005 1:0 2:0.75 3:0.16666667 4:0.5 5:0.60000002 6:1 7:0.30000001 8:0 9:0.25 #
-2.3091942435977897e-005 1:0 2:1 3:0.16666667 4:0.5 5:0.60000002 6:1 7:0.2 8:0 9:0 #
-2.3091942435977897e-005 1:0 2:1 3:0.16666667 4:0.5 5:0.60000002 6:1 7:0.2 8:0 9:0 #
4.6183884871955794e-005 1:0 2:1 3:0.16666667 4:0.5 5:0.60000002 6:1 7:0.2 8:0 9:0 #
-2.3091942435977897e-005 1:0.11111111 2:0 3:0.16666667 4:0.33333334 5:0.80000001 6:1 7:0.2 8:0 9:0 #
2.3091942435977897e-005 1:0.11111111 2:0 3:0.16666667 4:0.33333334 5:0.80000001 6:1 7:0.2 8:0 9:0 #
-2.3091942435977897e-005 1:0 2:0.25 3:0.16666667 4:0.33333334 5:0.60000002 6:1 7:0.2 8:0 9:0 #
2.3091942435977897e-005 1:0 2:0.25 3:0.16666667 4:0.33333334 5:0.60000002 6:1 7:0.2 8:0 9:0 #
-2.3091942435977897e-005 1:0 2:1 3:0.16666667 4:0.33333334 5:0.60000002 6:1 7:0.2 8:0 9:0 #
2.3091942435977897e-005 1:0 2:1 3:0.16666667 4:0.33333334 5:0.60000002 6:1 7:0.2 8:0 9:0 #
-2.3091942435977897e-005 1:0 2:0 3:0.16666667 4:0.33333334 5:0.60000002 6:1 7:0.2 8:0 9:0 #
2.3091942435977897e-005 1:0 2:0 3:0.16666667 4:0.33333334 5:0.60000002 6:1 7:0.2 8:0 9:0 #
2.3091942435977897e-005 1:0 2:0.25 3:0.16666667 4:0.33333334 5:0.80000001 6:1 7:0.2 8:0 9:0 #
-2.3091942435977897e-005 1:0 2:0.25 3:0.16666667 4:0.33333334 5:0.80000001 6:1 7:0.2 8:0 9:0 #
-2.3091942435977897e-005 1:0 2:0.5 3:0.16666667 4:0.33333334 5:1 6:1 7:0.2 8:0 9:0 #
2.3091942435977897e-005 1:0 2:0.5 3:0.16666667 4:0.33333334 5:1 6:1 7:0.2 8:0 9:0 #
4.6183884871955794e-005 1:0 2:0 3:0.16666667 4:0.5 5:0.60000002 6:1 7:0.2 8:0 9:0 #
-2.3091942435977897e-005 1:0 2:0 3:0.16666667 4:0.5 5:0.60000002 6:1 7:0.2 8:0 9:0 #
-2.3091942435977897e-005 1:0 2:0 3:0.16666667 4:0.5 5:0.60000002 6:1 7:0.2 8:0 9:0 #
4.6183884871955794e-005 1:0 2:0.25 3:0.16666667 4:0.5 5:0.60000002 6:1 7:0.2 8:0 9:0 #
-2.3091942435977897e-005 1:0 2:0.25 3:0.16666667 4:0.5 5:0.60000002 6:1 7:0.2 8:0 9:0 #
-2.3091942435977897e-005 1:0 2:0.25 3:0.16666667 4:0.5 5:0.60000002 6:1 7:0.2 8:0 9:0 #
-2.3091942435977897e-005 1:0 2:0.5 3:0.16666667 4:0.33333334 5:0.60000002 6:1 7:0.2 8:0 9:0 #
2.3091942435977897e-005 1:0 2:0.5 3:0.16666667 4:0.33333334 5:0.60000002 6:1 7:0.2 8:0 9:0 #
6.9275827307933684e-005 1:0 2:1 3:0.16666667 4:0.66666669 5:0.60000002 6:1 7:0.2 8:0 9:0 #
-2.3091942435977897e-005 1:0 2:1 3:0.16666667 4:0.66666669 5:0.60000002 6:1 7:0.2 8:0 9:0 #
-2.3091942435977897e-005 1:0 2:1 3:0.16666667 4:0.66666669 5:0.60000002 6:1 7:0.2 8:0 9:0 #
-2.3091942435977897e-005 1:0 2:1 3:0.16666667 4:0.66666669 5:0.60000002 6:1 7:0.2 8:0 9:0 #
-2.3091942435977897e-005 1:0.44444445 2:0 3:0.16666667 4:0.33333334 5:0.60000002 6:1 7:0.2 8:0 9:0 #
2.3091942435977897e-005 1:0.44444445 2:0 3:0.16666667 4:0.33333334 5:0.60000002 6:1 7:0.2 8:0 9:0 #
2.3091942435977897e-005 1:0 2:0.25 3:0.16666667 4:1 5:0.80000001 6:1 7:0.80000001 8:0 9:0.75 #
-2.3091942435977897e-005 1:0 2:0.25 3:0.16666667 4:1 5:0.80000001 6:1 7:0.80000001 8:0 9:0.75 #
-2.3091942435977897e-005 1:0 2:0.5 3:0.16666667 4:0.33333334 5:0.80000001 6:1 7:0.2 8:0 9:0 #
2.3091942435977897e-005 1:0 2:0.5 3:0.16666667 4:0.33333334 5:0.80000001 6:1 7:0.2 8:0 9:0 #
-2.3091942435977897e-005 1:0.11111111 2:0 3:0.16666667 4:0.33333334 5:0.60000002 6:1 7:0.2 8:0 9:0 #
2.3091942435977897e-005 1:0.11111111 2:0 3:0.16666667 4:0.33333334 5:0.60000002 6:1 7:0.2 8:0 9:0 #
-2.3091942435977897e-005 1:0.11111111 2:0.25 3:0.16666667 4:0.33333334 5:0.80000001 6:1 7:0.2 8:0 9:0 #
2.3091942435977897e-005 1:0.11111111 2:0.25 3:0.16666667 4:0.33333334 5:0.80000001 6:1 7:0.2 8:0 9:0 #
2.3091942435977897e-005 1:0 2:1 3:0.16666667 4:0.33333334 5:0.60000002 6:1 7:0.2 8:0 9:0 #
-2.3091942435977897e-005 1:0 2:1 3:0.16666667 4:0.33333334 5:0.60000002 6:1 7:0.2 8:0 9:0 #
-2.3091942435977897e-005 1:0.55555558 2:0 3:0.16666667 4:0.33333334 5:0.60000002 6:1 7:0.2 8:0 9:0 #
2.3091942435977897e-005 1:0.55555558 2:0 3:0.16666667 4:0.33333334 5:0.60000002 6:1 7:0.2 8:0 9:0 #
-2.3091942435977897e-005 1:0.11111111 2:0.25 3:0.16666667 4:1 5:0.80000001 6:1 7:0.80000001 8:0 9:0.75 #
-2.3091942435977897e-005 1:0.11111111 2:0.25 3:0.66666669 4:1 5:0.2 6:0.25 7:0.2 8:-0.75 9:0 #
-2.3091942435977897e-005 1:0.11111111 2:0.25 3:0.5 4:1 5:0.40000001 6:0.5 7:0.40000001 8:-0.5 9:0.25 #
0.00011545971217988949 1:0.11111111 2:0.25 3:0.16666667 4:1 5:0.80000001 6:1 7:0.80000001 8:0 9:0.75 #
-2.3091942435977897e-005 1:0.11111111 2:0.25 3:0.66666669 4:1 5:0.2 6:0.25 7:0.2 8:-0.75 9:0 #
-2.3091942435977897e-005 1:0.11111111 2:0.25 3:0.66666669 4:1 5:0.2 6:0.25 7:0.2 8:-0.75 9:0 #
2.3091942435977897e-005 1:0 2:0.5 3:0.16666667 4:0.33333334 5:0.60000002 6:1 7:0.2 8:0 9:0 #
-2.3091942435977897e-005 1:0 2:0.5 3:0.16666667 4:0.33333334 5:0.60000002 6:1 7:0.2 8:0 9:0 #
2.3091942435977897e-005 1:0.22222222 2:0 3:0.16666667 4:0.33333334 5:0.60000002 6:1 7:0.2 8:0 9:0 #
-2.3091942435977897e-005 1:0.22222222 2:0 3:0.16666667 4:0.33333334 5:0.60000002 6:1 7:0.2 8:0 9:0 #
-2.3091942435977897e-005 1:0.11111111 2:0 3:0.16666667 4:0.5 5:0.60000002 6:1 7:0.2 8:0 9:0 #
4.6183884871955794e-005 1:0.11111111 2:0 3:0.16666667 4:0.5 5:0.60000002 6:1 7:0.2 8:0 9:0 #
-2.3091942435977897e-005 1:0.11111111 2:0 3:0.16666667 4:0.5 5:0.60000002 6:1 7:0.2 8:0 9:0 #
-2.3091942435977897e-005 1:0.66666669 2:0 3:0.16666667 4:0.33333334 5:0.60000002 6:1 7:0.2 8:0 9:0 #
2.3091942435977897e-005 1:0.66666669 2:0 3:0.16666667 4:0.33333334 5:0.60000002 6:1 7:0.2 8:0 9:0 #
-2.3091942435977897e-005 1:0.22222222 2:0.25 3:0.16666667 4:1 5:0.80000001 6:1 7:0.80000001 8:0 9:0.75 #
-2.3091942435977897e-005 1:0.22222222 2:0.25 3:0.66666669 4:1 5:0.2 6:0.25 7:0.2 8:-0.75 9:0 #
-2.3091942435977897e-005 1:0.22222222 2:0.25 3:0.5 4:1 5:0.40000001 6:0.5 7:0.40000001 8:-0.5 9:0.25 #
-2.3091942435977897e-005 1:0.22222222 2:0.25 3:0.16666667 4:1 5:0.80000001 6:1 7:0.80000001 8:0 9:0.75 #
-2.3091942435977897e-005 1:0.22222222 2:0.25 3:0.66666669 4:1 5:0.2 6:0.25 7:0.2 8:-0.75 9:0 #
0.00011545971217988949 1:0.22222222 2:0.25 3:0.66666669 4:1 5:0.2 6:0.25 7:0.2 8:-0.75 9:0 #
2.3091942435977897e-005 1:0 2:0.75 3:0.16666667 4:0.33333334 5:0.60000002 6:1 7:0.2 8:0 9:0 #
-2.3091942435977897e-005 1:0 2:0.75 3:0.16666667 4:0.33333334 5:0.60000002 6:1 7:0.2 8:0 9:0 #
-2.3091942435977897e-005 1:0.22222222 2:0 3:0.16666667 4:0.5 5:0.60000002 6:1 7:0.2 8:0 9:0 #
-2.3091942435977897e-005 1:0.22222222 2:0 3:0.16666667 4:0.5 5:0.60000002 6:1 7:0.2 8:0 9:0 #
4.6183884871955794e-005 1:0.22222222 2:0 3:0.16666667 4:0.5 5:0.60000002 6:1 7:0.2 8:0 9:0 #
-2.3091942435977897e-005 1:0 2:0.5 3:0.16666667 4:0.5 5:0.60000002 6:1 7:0.2 8:0 9:0 #
-2.3091942435977897e-005 1:0 2:0.5 3:0.16666667 4:0.5 5:0.60000002 6:1 7:0.2 8:0 9:0 #
4.6183884871955794e-005 1:0 2:0.5 3:0.16666667 4:0.5 5:0.60000002 6:1 7:0.2 8:0 9:0 #
2.3091942435977897e-005 1:0 2:1 3:0.16666667 4:0.33333334 5:0.60000002 6:1 7:0.2 8:0 9:0 #
-2.3091942435977897e-005 1:0 2:1 3:0.16666667 4:0.33333334 5:0.60000002 6:1 7:0.2 8:0 9:0 #
-2.3091942435977897e-005 1:0.33333334 2:0 3:0.16666667 4:0.5 5:0.60000002 6:1 7:0.2 8:0 9:0 #
-2.3091942435977897e-005 1:0.33333334 2:0 3:0.16666667 4:0.5 5:0.60000002 6:1 7:0.2 8:0 9:0 #
4.6183884871955794e-005 1:0.33333334 2:0 3:0.16666667 4:0.5 5:0.60000002 6:1 7:0.2 8:0 9:0 #
4.6183884871955794e-005 1:0.11111111 2:0.5 3:0.16666667 4:0.5 5:0.60000002 6:1 7:0.2 8:0 9:0 #
-2.3091942435977897e-005 1:0.11111111 2:0.5 3:0.16666667 4:0.5 5:0.60000002 6:1 7:0.2 8:0 9:0 #
-2.3091942435977897e-005 1:0.11111111 2:0.5 3:0.16666667 4:0.5 5:0.60000002 6:1 7:0.2 8:0 9:0 #
-2.3091942435977897e-005 1:0 2:0 3:0.16666667 4:0.5 5:0.60000002 6:1 7:0.2 8:0 9:0 #
-2.3091942435977897e-005 1:0 2:0 3:0.16666667 4:0.5 5:0.60000002 6:1 7:0.2 8:0 9:0 #
4.6183884871955794e-005 1:0 2:0 3:0.16666667 4:0.5 5:0.60000002 6:1 7:0.2 8:0 9:0 #
-2.3091942435977897e-005 1:0 2:0.25 3:0.16666667 4:0.33333334 5:0.80000001 6:1 7:0.2 8:0 9:0 #
2.3091942435977897e-005 1:0 2:0.25 3:0.16666667 4:0.33333334 5:0.80000001 6:1 7:0.2 8:0 9:0 #
4.6183884871955794e-005 1:0 2:0.5 3:0.16666667 4:0.5 5:0.60000002 6:1 7:0.2 8:0 9:0 #
-2.3091942435977897e-005 1:0 2:0.5 3:0.16666667 4:0.5 5:0.60000002 6:1 7:0.2 8:0 9:0 #
-2.3091942435977897e-005 1:0 2:0.5 3:0.16666667 4:0.5 5:0.60000002 6:1 7:0.2 8:0 9:0 #
2.3091942435977897e-005 1:0 2:1 3:0.16666667 4:0.33333334 5:0.60000002 6:1 7:0.2 8:0 9:0 #
-2.3091942435977897e-005 1:0 2:1 3:0.16666667 4:0.33333334 5:0.60000002 6:1 7:0.2 8:0 9:0 #
2.3091942435977897e-005 1:0.22222222 2:0 3:0.16666667 4:0.33333334 5:0.80000001 6:1 7:0.2 8:0 9:0 #
-2.3091942435977897e-005 1:0.22222222 2:0 3:0.16666667 4:0.33333334 5:0.80000001 6:1 7:0.2 8:0 9:0 #
-2.3091942435977897e-005 1:0.11111111 2:0.25 3:0.16666667 4:0.33333334 5:0.80000001 6:1 7:0.2 8:0 9:0 #
2.3091942435977897e-005 1:0.11111111 2:0.25 3:0.16666667 4:0.33333334 5:0.80000001 6:1 7:0.2 8:0 9:0 #
-2.3091942435977897e-005 1:0 2:0.5 3:0.16666667 4:0.66666669 5:0.80000001 6:1 7:0.2 8:0 9:0 #
-2.3091942435977897e-005 1:0 2:0.5 3:0.16666667 4:0.66666669 5:0.80000001 6:1 7:0.2 8:0 9:0 #
6.9275827307933684e-005 1:0 2:0.5 3:0.16666667 4:0.66666669 5:0.80000001 6:1 7:0.2 8:0 9:0 #
-2.3091942435977897e-005 1:0 2:0.5 3:0.16666667 4:0.66666669 5:0.80000001 6:1 7:0.2 8:0 9:0 #
2.3091942435977897e-005 1:0.33333334 2:0 3:0.16666667 4:0.33333334 5:0.60000002 6:1 7:0.2 8:0 9:0 #
-2.3091942435977897e-005 1:0.33333334 2:0 3:0.16666667 4:0.33333334 5:0.60000002 6:1 7:0.2 8:0 9:0 #
-2.3091942435977897e-005 1:0.44444445 2:0 3:0.16666667 4:0.33333334 5:0.60000002 6:1 7:0.2 8:0 9:0 #
2.3091942435977897e-005 1:0.44444445 2:0 3:0.16666667 4:0.33333334 5:0.60000002 6:1 7:0.2 8:0 9:0 #
2.3091942435977897e-005 1:0.22222222 2:0.25 3:0.16666667 4:0.33333334 5:0.80000001 6:1 7:0.2 8:0 9:0 #
-2.3091942435977897e-005 1:0.22222222 2:0.25 3:0.16666667 4:0.33333334 5:0.80000001 6:1 7:0.2 8:0 9:0 #
2.3091942435977897e-005 1:0.11111111 2:0.5 3:0.16666667 4:0.33333334 5:1 6:1 7:0.2 8:0 9:0 #
-2.3091942435977897e-005 1:0.11111111 2:0.5 3:0.16666667 4:0.33333334 5:1 6:1 7:0.2 8:0 9:0 #
2.3091942435977897e-005 1:0 2:0.75 3:0.16666667 4:0.33333334 5:0.60000002 6:1 7:0.2 8:0 9:0 #
-2.3091942435977897e-005 1:0 2:0.75 3:0.16666667 4:0.33333334 5:0.60000002 6:1 7:0.2 8:0 9:0 #
-2.3091942435977897e-005 1:0 2:0 3:0.5 4:0.5 5:0.2 6:0.2 7:0.2 8:-1 9:0 #
4.6183884871955794e-005 1:0 2:0 3:0.33333334 4:0.5 5:0.80000001 6:0.80000001 7:0.80000001 8:-0.25 9:0.75 #
-2.3091942435977897e-005 1:0 2:0 3:0.16666667 4:0.5 5:1 6:1 7:1 8:0 9:1 #
2.3091942435977897e-005 1:0 2:0.5 3:0.16666667 4:0.33333334 5:0.80000001 6:1 7:0.2 8:0 9:0 #
-2.3091942435977897e-005 1:0 2:0.5 3:0.16666667 4:0.33333334 5:0.80000001 6:1 7:0.2 8:0 9:0 #
4.6183884871955794e-005 1:0.11111111 2:0 3:0.5 4:0.5 5:0.2 6:0.2 7:0.2 8:-1 9:0 #
-2.3091942435977897e-005 1:0.11111111 2:0 3:0.33333334 4:0.5 5:0.80000001 6:0.80000001 7:0.80000001 8:-0.25 9:0.75 #
-2.3091942435977897e-005 1:0.11111111 2:0 3:0.16666667 4:0.5 5:1 6:1 7:1 8:0 9:1 #
4.6183884871955794e-005 1:0.22222222 2:0 3:0.5 4:0.5 5:0.2 6:0.2 7:0.2 8:-1 9:0 #
-2.3091942435977897e-005 1:0.22222222 2:0 3:0.33333334 4:0.5 5:0.80000001 6:0.80000001 7:0.80000001 8:-0.25 9:0.75 #
-2.3091942435977897e-005 1:0.22222222 2:0 3:0.16666667 4:0.5 5:1 6:1 7:1 8:0 9:1 #
4.6183884871955794e-005 1:0.11111111 2:0.25 3:0.33333334 4:0.5 5:0.40000001 6:0.5 7:0.2 8:-0.5 9:0 #
-2.3091942435977897e-005 1:0.11111111 2:0.25 3:0.16666667 4:0.5 5:0.80000001 6:1 7:0.40000001 8:0 9:0.5 #
-2.3091942435977897e-005 1:0.11111111 2:0.25 3:0.33333334 4:0.5 5:0.40000001 6:0.5 7:0.2 8:-0.5 9:0 #
-2.3091942435977897e-005 1:0.11111111 2:0 3:0.33333334 4:0.5 5:0.40000001 6:0.5 7:0.2 8:-0.5 9:0 #
4.6183884871955794e-005 1:0.11111111 2:0 3:0.33333334 4:0.5 5:0.40000001 6:0.5 7:0.2 8:-0.5 9:0 #
-2.3091942435977897e-005 1:0.11111111 2:0 3:0.16666667 4:0.5 5:0.80000001 6:1 7:0.40000001 8:0 9:0.5 #
-1.6192170511346684e-005 1:0.22222222 2:0 3:0.33333334 4:0.5 5:0.40000001 6:0.5 7:0.2 8:-0.5 9:0 #
1.6192170511346684e-005 1:0.22222222 2:0 3:0.16666667 4:0.5 5:0.80000001 6:1 7:0.40000001 8:0 9:0.5 #
2.3091942435977897e-005 1:0.11111111 2:0.25 3:0.16666667 4:0.33333334 5:0.80000001 6:1 7:0.80000001 8:0 9:0.75 #
-2.3091942435977897e-005 1:0.11111111 2:0.25 3:0.33333334 4:0.33333334 5:0.2 6:0.25 7:0.2 8:-0.75 9:0 #
-2.3091942435977897e-005 1:0.11111111 2:0.5 3:0.16666667 4:0.33333334 5:0.80000001 6:1 7:0.2 8:0 9:0 #
2.3091942435977897e-005 1:0.11111111 2:0.5 3:0.16666667 4:0.33333334 5:0.80000001 6:1 7:0.2 8:0 9:0 #
4.6183884871955794e-005 1:0.33333334 2:0 3:0.33333334 4:0.5 5:0.40000001 6:0.5 7:0.2 8:-0.5 9:0 #
-2.3091942435977897e-005 1:0.33333334 2:0 3:0.33333334 4:0.5 5:0.40000001 6:0.5 7:0.2 8:-0.5 9:0 #
-2.3091942435977897e-005 1:0.33333334 2:0 3:0.16666667 4:0.5 5:0.80000001 6:1 7:0.40000001 8:0 9:0.5 #
-2.3091942435977897e-005 1:0.11111111 2:0.5 3:0.33333334 4:0.66666669 5:0.60000002 6:0.75 7:0.30000001 8:-0.25 9:0.25 #
4.6183884871955794e-005 1:0.11111111 2:0.5 3:0.16666667 4:0.66666669 5:0.80000001 6:1 7:0.40000001 8:0 9:0.5 #
-2.3091942435977897e-005 1:0.11111111 2:0.5 3:0.33333334 4:0.66666669 5:0.60000002 6:0.75 7:0.30000001 8:-0.25 9:0.25 #
-1.9246559708511442e-006 1:0 2:0 3:0.33333334 4:0.33333334 5:0.40000001 6:0.40000001 7:0.2 8:-0.75 9:0 #
1.9246559708511442e-006 1:0 2:0 3:0.16666667 4:0.33333334 5:1 6:1 7:0.5 8:0 9:0.75 #
-2.3091942435977897e-005 1:0 2:0.25 3:0.33333334 4:1 5:0.80000001 6:0.80000001 7:0.40000001 8:-0.25 9:0.5 #
2.3091942435977897e-005 1:0 2:0.25 3:0.16666667 4:1 5:1 6:1 7:0.5 8:0 9:0.75 #
4.6183884871955794e-005 1:0.33333334 2:0 3:0.5 4:0.5 5:0.2 6:0.2 7:0.2 8:-1 9:0 #
-2.3091942435977897e-005 1:0.33333334 2:0 3:0.33333334 4:0.5 5:0.80000001 6:0.80000001 7:0.80000001 8:-0.25 9:0.75 #
-2.3091942435977897e-005 1:0.33333334 2:0 3:0.16666667 4:0.5 5:1 6:1 7:1 8:0 9:1 #
4.6183884871955794e-005 1:0.22222222 2:0.25 3:0.33333334 4:0.5 5:0.40000001 6:0.5 7:0.2 8:-0.5 9:0 #
-2.3091942435977897e-005 1:0.22222222 2:0.25 3:0.16666667 4:0.5 5:0.80000001 6:1 7:0.40000001 8:0 9:0.5 #
-2.3091942435977897e-005 1:0.22222222 2:0.25 3:0.33333334 4:0.5 5:0.40000001 6:0.5 7:0.2 8:-0.5 9:0 #
-2.3091942435977897e-005 1:0.11111111 2:0.5 3:0.33333334 4:0.33333334 5:0.40000001 6:0.5 7:0.2 8:-0.5 9:0 #
2.3091942435977897e-005 1:0.11111111 2:0.5 3:0.16666667 4:0.33333334 5:0.80000001 6:1 7:0.40000001 8:0 9:0.5 #
-7.9573635062854296e-006 1:0.11111111 2:1 3:0.5 4:0.66666669 5:0.40000001 6:0.5 7:0.2 8:-0.5 9:0 #
5.4141248362666556e-005 1:0.11111111 2:1 3:0.16666667 4:0.66666669 5:0.80000001 6:1 7:0.40000001 8:0 9:0.5 #
-2.3091942435977897e-005 1:0.11111111 2:1 3:0.33333334 4:0.66666669 5:0.60000002 6:0.75 7:0.30000001 8:-0.25 9:0.25 #
-2.3091942420403231e-005 1:0.11111111 2:1 3:0.5 4:0.66666669 5:0.40000001 6:0.5 7:0.2 8:-0.5 9:0 #
-2.3091942435977897e-005 1:0.44444445 2:0 3:0.33333334 4:0.5 5:0.40000001 6:0.5 7:0.2 8:-0.5 9:0 #
-2.3091942435977897e-005 1:0.44444445 2:0 3:0.33333334 4:0.5 5:0.40000001 6:0.5 7:0.2 8:-0.5 9:0 #
4.6183884871955794e-005 1:0.44444445 2:0 3:0.16666667 4:0.5 5:0.80000001 6:1 7:0.40000001 8:0 9:0.5 #
2.3091942435977897e-005 1:0.22222222 2:0.25 3:0.16666667 4:0.33333334 5:0.80000001 6:1 7:0.80000001 8:0 9:0.75 #
-2.3091942435977897e-005 1:0.22222222 2:0.25 3:0.33333334 4:0.33333334 5:0.2 6:0.25 7:0.2 8:-0.75 9:0 #
2.3091942435977897e-005 1:0.22222222 2:0.5 3:0.16666667 4:0.33333334 5:0.80000001 6:1 7:0.2 8:0 9:0 #
-2.3091942435977897e-005 1:0.22222222 2:0.5 3:0.16666667 4:0.33333334 5:0.80000001 6:1 7:0.2 8:0 9:0 #
-2.3091942435977897e-005 1:0.22222222 2:0 3:0.16666667 4:0.33333334 5:0.80000001 6:1 7:0.40000001 8:0 9:0.5 #
2.3091942435977897e-005 1:0.22222222 2:0 3:0.33333334 4:0.33333334 5:0.40000001 6:0.5 7:0.2 8:-0.5 9:0 #
2.3091942435977897e-005 1:0.33333334 2:0 3:0.16666667 4:0.33333334 5:0.80000001 6:1 7:0.40000001 8:0 9:0.5 #
-2.3091942435977897e-005 1:0.33333334 2:0 3:0.33333334 4:0.33333334 5:0.40000001 6:0.5 7:0.2 8:-0.5 9:0 #
2.3091942435977897e-005 1:0.22222222 2:0.25 3:0.33333334 4:0.33333334 5:0.40000001 6:0.5 7:0.2 8:-0.5 9:0 #
-2.3091942435977897e-005 1:0.22222222 2:0.25 3:0.16666667 4:0.33333334 5:0.80000001 6:1 7:0.40000001 8:0 9:0.5 #
2.3091942435977897e-005 1:0.11111111 2:0 3:0.33333334 4:0.33333334 5:0.40000001 6:0.40000001 7:0.2 8:-0.75 9:0 #
-2.3091942435977897e-005 1:0.11111111 2:0 3:0.16666667 4:0.33333334 5:1 6:1 7:0.5 8:0 9:0.75 #
-1.4705959497786901e-005 1:0.55555558 2:0 3:0.33333334 4:0.5 5:0.40000001 6:0.5 7:0.2 8:-0.5 9:0 #
-9.6011768551836876e-006 1:0.55555558 2:0 3:0.33333334 4:0.5 5:0.40000001 6:0.5 7:0.2 8:-0.5 9:0 #
2.4307136352970591e-005 1:0.55555558 2:0 3:0.16666667 4:0.5 5:0.80000001 6:1 7:0.40000001 8:0 9:0.5 #
2.3091942435977897e-005 1:0.33333334 2:0.25 3:0.16666667 4:0.33333334 5:0.80000001 6:1 7:0.80000001 8:0 9:0.75 #
-2.3091942435977897e-005 1:0.33333334 2:0.25 3:0.33333334 4:0.33333334 5:0.2 6:0.25 7:0.2 8:-0.75 9:0 #
-2.3091942435977897e-005 1:0.33333334 2:0.5 3:0.16666667 4:0.33333334 5:0.80000001 6:1 7:0.2 8:0 9:0 #
2.3091942435977897e-005 1:0.33333334 2:0.5 3:0.16666667 4:0.33333334 5:0.80000001 6:1 7:0.2 8:0 9:0 #
-2.3091942435977897e-005 1:0.11111111 2:0.75 3:0.16666667 4:0.33333334 5:0.80000001 6:1 7:0.40000001 8:0 9:0.5 #
2.3091942435977897e-005 1:0.11111111 2:0.75 3:0.33333334 4:0.33333334 5:0.40000001 6:0.5 7:0.2 8:-0.5 9:0 #
2.3091942435977897e-005 1:0.44444445 2:0.25 3:0.16666667 4:0.33333334 5:0.80000001 6:1 7:0.80000001 8:0 9:0.75 #
-2.3091942435977897e-005 1:0.44444445 2:0.25 3:0.33333334 4:0.33333334 5:0.2 6:0.25 7:0.2 8:-0.75 9:0 #
2.3091942435977897e-005 1:0.44444445 2:0.5 3:0.16666667 4:0.33333334 5:0.80000001 6:1 7:0.2 8:0 9:0 #
-2.3091942435977897e-005 1:0.44444445 2:0.5 3:0.16666667 4:0.33333334 5:0.80000001 6:1 7:0.2 8:0 9:0 #
2.3091942435977897e-005 1:0.44444445 2:0 3:0.16666667 4:0.33333334 5:0.80000001 6:1 7:0.40000001 8:0 9:0.5 #
-2.3091942435977897e-005 1:0.44444445 2:0 3:0.33333334 4:0.33333334 5:0.40000001 6:0.5 7:0.2 8:-0.5 9:0 #
-2.3091942435977897e-005 1:0.33333334 2:0.25 3:0.33333334 4:0.33333334 5:0.40000001 6:0.5 7:0.2 8:-0.5 9:0 #
2.3091942435977897e-005 1:0.33333334 2:0.25 3:0.16666667 4:0.33333334 5:0.80000001 6:1 7:0.40000001 8:0 9:0.5 #
-2.3091942435977897e-005 1:0.22222222 2:0.5 3:0.33333334 4:0.66666669 5:0.60000002 6:0.75 7:0.30000001 8:-0.25 9:0.25 #
-2.3091942435977897e-005 1:0.22222222 2:0.5 3:0.16666667 4:0.66666669 5:0.80000001 6:1 7:0.40000001 8:0 9:0.5 #
-2.3091942435977897e-005 1:0.22222222 2:0.5 3:0.33333334 4:0.66666669 5:0.60000002 6:0.75 7:0.30000001 8:-0.25 9:0.25 #
6.9275827307933684e-005 1:0.22222222 2:0.5 3:0.66666669 4:0.66666669 5:0.40000001 6:0.5 7:0.2 8:-0.5 9:0 #
-2.3091942435977897e-005 1:0.22222222 2:0 3:0.33333334 4:0.33333334 5:0.40000001 6:0.40000001 7:0.2 8:-0.75 9:0 #
2.3091942435977897e-005 1:0.22222222 2:0 3:0.16666667 4:0.33333334 5:1 6:1 7:0.5 8:0 9:0.75 #
0.00011545971217988949 1:0.11111111 2:0.25 3:0.66666669 4:1 5:0.40000001 6:0.40000001 7:0.2 8:-0.75 9:0 #
-2.3091942435977897e-005 1:0.11111111 2:0.25 3:0.66666669 4:1 5:0.40000001 6:0.40000001 7:0.2 8:-0.75 9:0 #
-2.3091942435977897e-005 1:0.11111111 2:0.25 3:0.66666669 4:1 5:0.40000001 6:0.40000001 7:0.2 8:-0.75 9:0 #
-2.3091942435977897e-005 1:0.11111111 2:0.25 3:0.5 4:1 5:0.60000002 6:0.60000002 7:0.30000001 8:-0.5 9:0.25 #
-2.3091942435977897e-005 1:0.11111111 2:0.25 3:0.33333334 4:1 5:0.80000001 6:0.80000001 7:0.40000001 8:-0.25 9:0.5 #
-2.3091942435977897e-005 1:0.11111111 2:0.25 3:0.16666667 4:1 5:1 6:1 7:0.5 8:0 9:0.75 #
-2.3091942435977897e-005 1:0.33333334 2:0 3:0.33333334 4:0.33333334 5:0.40000001 6:0.40000001 7:0.2 8:-0.75 9:0 #
2.3091942435977897e-005 1:0.33333334 2:0 3:0.16666667 4:0.33333334 5:1 6:1 7:0.5 8:0 9:0.75 #
-2.3091942435977897e-005 1:0.22222222 2:0.25 3:0.66666669 4:1 5:0.40000001 6:0.40000001 7:0.2 8:-0.75 9:0 #
0.00011545971217988949 1:0.22222222 2:0.25 3:0.66666669 4:1 5:0.40000001 6:0.40000001 7:0.2 8:-0.75 9:0 #
-2.3091942435977897e-005 1:0.22222222 2:0.25 3:0.66666669 4:1 5:0.40000001 6:0.40000001 7:0.2 8:-0.75 9:0 #
-2.3091942435977897e-005 1:0.22222222 2:0.25 3:0.5 4:1 5:0.60000002 6:0.60000002 7:0.30000001 8:-0.5 9:0.25 #
-2.3091942435977897e-005 1:0.22222222 2:0.25 3:0.33333334 4:1 5:0.80000001 6:0.80000001 7:0.40000001 8:-0.25 9:0.5 #
-2.3091942435977897e-005 1:0.22222222 2:0.25 3:0.16666667 4:1 5:1 6:1 7:0.5 8:0 9:0.75 #
4.6183884871955794e-005 1:0 2:0 3:0.16666667 4:0.5 5:0.60000002 6:1 7:0.30000001 8:0 9:0.25 #
-2.3091942435977897e-005 1:0 2:0 3:0.33333334 4:0.5 5:0.40000001 6:0.66666669 7:0.2 8:-0.25 9:0 #
-2.3091942435977897e-005 1:0 2:0 3:0.33333334 4:0.5 5:0.40000001 6:0.66666669 7:0.2 8:-0.25 9:0 #
-2.3091942435977897e-005 1:0 2:0 3:0.33333334 4:0.5 5:0.60000002 6:0.75 7:0.30000001 8:-0.25 9:0.25 #
2.3091942435977897e-005 1:0 2:0 3:0.16666667 4:0.5 5:0.80000001 6:1 7:0.40000001 8:0 9:0.5 #
-2.3091942435977897e-005 1:0 2:1 3:0.16666667 4:0.33333334 5:0.80000001 6:1 7:0.2 8:0 9:0 #
2.3091942435977897e-005 1:0 2:1 3:0.16666667 4:0.33333334 5:0.80000001 6:1 7:0.2 8:0 9:0 #
-2.3091942435977897e-005 1:0.11111111 2:0 3:0.16666667 4:0.5 5:0.60000002 6:1 7:0.30000001 8:0 9:0.25 #
4.6183884871955794e-005 1:0.11111111 2:0 3:0.33333334 4:0.5 5:0.40000001 6:0.66666669 7:0.2 8:-0.25 9:0 #
-2.3091942435977897e-005 1:0.11111111 2:0 3:0.33333334 4:0.5 5:0.40000001 6:0.66666669 7:0.2 8:-0.25 9:0 #
-2.3091942435977897e-005 1:0.22222222 2:0 3:0.16666667 4:0.5 5:0.60000002 6:1 7:0.30000001 8:0 9:0.25 #
-2.3091942435977897e-005 1:0.22222222 2:0 3:0.33333334 4:0.5 5:0.40000001 6:0.66666669 7:0.2 8:-0.25 9:0 #
4.6183884871955794e-005 1:0.22222222 2:0 3:0.33333334 4:0.5 5:0.40000001 6:0.66666669 7:0.2 8:-0.25 9:0 #
-2.3091942435977897e-005 1:0 2:0.5 3:0.16666667 4:0.5 5:0.80000001 6:1 7:0.26666668 8:0 9:0.25 #
2.3091942435977897e-005 1:0 2:0.5 3:0.16666667 4:0.5 5:0.80000001 6:1 7:0.26666668 8:0 9:0.25 #
-2.3091942435977897e-005 1:0.11111111 2:0 3:0.33333334 4:0.5 5:0.60000002 6:0.75 7:0.30000001 8:-0.25 9:0.25 #
-2.3091942435977897e-005 1:0.11111111 2:0 3:0.16666667 4:0.5 5:0.80000001 6:1 7:0.40000001 8:0 9:0.5 #
4.6183884871955794e-005 1:0.11111111 2:0 3:0.5 4:0.5 5:0.40000001 6:0.5 7:0.2 8:-0.5 9:0 #
-2.3091942435977897e-005 1:0 2:0.25 3:0.33333334 4:0.33333334 5:0.60000002 6:0.75 7:0.2 8:-0.25 9:0 #
2.3091942435977897e-005 1:0 2:0.25 3:0.16666667 4:0.33333334 5:0.80000001 6:1 7:0.26666668 8:0 9:0.25 #
2.3091942435977897e-005 1:0 2:0.5 3:0.16666667 4:0.5 5:1 6:1 7:0.5 8:0 9:0.75 #
-2.3091942435977897e-005 1:0 2:0.5 3:0.33333334 4:0.5 5:0.80000001 6:0.80000001 7:0.40000001 8:-0.25 9:0.5 #
-2.3091942435977897e-005 1:0 2:1 3:0.33333334 4:0.33333334 5:0.60000002 6:0.75 7:0.2 8:-0.25 9:0 #
2.3091942435977897e-005 1:0 2:1 3:0.16666667 4:0.33333334 5:0.80000001 6:1 7:0.26666668 8:0 9:0.25 #
4.6183884871955794e-005 1:0.22222222 2:0 3:0.33333334 4:0.5 5:0.60000002 6:0.75 7:0.30000001 8:-0.25 9:0.25 #
-2.3091942435977897e-005 1:0.22222222 2:0 3:0.16666667 4:0.5 5:0.80000001 6:1 7:0.40000001 8:0 9:0.5 #
-2.3091942435977897e-005 1:0.22222222 2:0 3:0.5 4:0.5 5:0.40000001 6:0.5 7:0.2 8:-0.5 9:0 #
1.7893850628324847e-005 1:0 2:1 3:0.16666667 4:0.33333334 5:1 6:1 7:0.25 8:0 9:0.25 #
-1.7893850628324847e-005 1:0 2:1 3:0.33333334 4:0.33333334 5:0.80000001 6:0.80000001 7:0.2 8:-0.25 9:0 #
-2.3091942435977897e-005 1:0 2:0 3:0.33333334 4:0.33333334 5:0.60000002 6:0.75 7:0.2 8:-0.25 9:0 #
2.3091942435977897e-005 1:0 2:0 3:0.16666667 4:0.33333334 5:0.80000001 6:1 7:0.26666668 8:0 9:0.25 #
2.3091942435977897e-005 1:0 2:0.25 3:0.16666667 4:0.33333334 5:1 6:1 7:0.25 8:0 9:0.25 #
-2.3091942435977897e-005 1:0 2:0.25 3:0.33333334 4:0.33333334 5:0.80000001 6:0.80000001 7:0.2 8:-0.25 9:0 #
2.3091942435977897e-005 1:0.11111111 2:0 3:0.33333334 4:0.33333334 5:0.60000002 6:0.75 7:0.2 8:-0.25 9:0 #
-2.3091942435977897e-005 1:0.11111111 2:0 3:0.16666667 4:0.33333334 5:0.80000001 6:1 7:0.26666668 8:0 9:0.25 #
-2.3091942435977897e-005 1:0 2:0.5 3:0.16666667 4:0.66666669 5:1 6:1 7:0.25 8:0 9:0.25 #
2.3091942435977897e-005 1:0 2:0.5 3:0.16666667 4:0.66666669 5:1 6:1 7:0.25 8:0 9:0.25 #
-2.3091942435977897e-005 1:0.33333334 2:0 3:0.33333334 4:0.5 5:0.60000002 6:0.75 7:0.30000001 8:-0.25 9:0.25 #
4.6183884871955794e-005 1:0.33333334 2:0 3:0.16666667 4:0.5 5:0.80000001 6:1 7:0.40000001 8:0 9:0.5 #
-2.3091942435977897e-005 1:0.33333334 2:0 3:0.5 4:0.5 5:0.40000001 6:0.5 7:0.2 8:-0.5 9:0 #
-2.3091942435977897e-005 1:0.11111111 2:0.25 3:0.33333334 4:0.33333334 5:0.2 6:0.25 7:0.2 8:-0.75 9:0 #
2.3091942435977897e-005 1:0.11111111 2:0.25 3:0.16666667 4:0.33333334 5:0.80000001 6:1 7:0.80000001 8:0 9:0.75 #
-2.3091942435977897e-005 1:0.11111111 2:0.5 3:0.16666667 4:0.33333334 5:1 6:1 7:0.25 8:0 9:0.25 #
2.3091942435977897e-005 1:0.11111111 2:0.5 3:0.33333334 4:0.33333334 5:0.80000001 6:0.80000001 7:0.2 8:-0.25 9:0 #
2.3091942435977897e-005 1:0 2:0 3:0.16666667 4:0.33333334 5:1 6:1 7:0.25 8:0 9:0.25 #
-2.3091942435977897e-005 1:0 2:0 3:0.33333334 4:0.33333334 5:0.80000001 6:0.80000001 7:0.2 8:-0.25 9:0 #
-2.3091942435977897e-005 1:0.44444445 2:0 3:0.33333334 4:0.5 5:0.60000002 6:0.75 7:0.30000001 8:-0.25 9:0.25 #
4.6183884871955794e-005 1:0.44444445 2:0 3:0.16666667 4:0.5 5:0.80000001 6:1 7:0.40000001 8:0 9:0.5 #
-2.3091942435977897e-005 1:0.44444445 2:0 3:0.5 4:0.5 5:0.40000001 6:0.5 7:0.2 8:-0.5 9:0 #
2.3091942435977897e-005 1:0.22222222 2:0.25 3:0.33333334 4:0.33333334 5:0.2 6:0.25 7:0.2 8:-0.75 9:0 #
-2.3091942435977897e-005 1:0.22222222 2:0.25 3:0.16666667 4:0.33333334 5:0.80000001 6:1 7:0.80000001 8:0 9:0.75 #
-2.3091942435977897e-005 1:0.55555558 2:0 3:0.33333334 4:0.5 5:0.60000002 6:0.75 7:0.30000001 8:-0.25 9:0.25 #
2.3091942435977897e-005 1:0.55555558 2:0 3:0.16666667 4:0.5 5:0.80000001 6:1 7:0.40000001 8:0 9:0.5 #
-2.3091942435977897e-005 1:0.33333334 2:0.25 3:0.33333334 4:0.33333334 5:0.2 6:0.25 7:0.2 8:-0.75 9:0 #
2.3091942435977897e-005 1:0.33333334 2:0.25 3:0.16666667 4:0.33333334 5:0.80000001 6:1 7:0.80000001 8:0 9:0.75 #
2.3091942435977897e-005 1:0.22222222 2:0.5 3:0.16666667 4:0.33333334 5:1 6:1 7:0.25 8:0 9:0.25 #
-2.3091942435977897e-005 1:0.22222222 2:0.5 3:0.33333334 4:0.33333334 5:0.80000001 6:0.80000001 7:0.2 8:-0.25 9:0 #
2.3091942435977897e-005 1:0.11111111 2:1 3:0.16666667 4:0.33333334 5:0.80000001 6:1 7:0.2 8:0 9:0 #
-2.3091942435977897e-005 1:0.11111111 2:1 3:0.16666667 4:0.33333334 5:0.80000001 6:1 7:0.2 8:0 9:0 #
-2.3091942435977897e-005 1:0.11111111 2:0 3:0.16666667 4:0.33333334 5:1 6:1 7:0.25 8:0 9:0.25 #
2.3091942435977897e-005 1:0.11111111 2:0 3:0.33333334 4:0.33333334 5:0.80000001 6:0.80000001 7:0.2 8:-0.25 9:0 #
-2.3091942435977897e-005 1:0 2:0.25 3:0.16666667 4:1 5:1 6:1 7:0.5 8:0 9:0.75 #
-2.3091942435977897e-005 1:0 2:0.25 3:0.66666669 4:1 5:0.80000001 6:0.80000001 7:0.40000001 8:-0.25 9:0.5 #
-2.3091942435977897e-005 1:0 2:0.25 3:0.16666667 4:1 5:1 6:1 7:0.5 8:0 9:0.75 #
6.9275827307933684e-005 1:0 2:0.25 3:0.16666667 4:1 5:1 6:1 7:0.5 8:0 9:0.75 #
-2.3091942435977897e-005 1:0.66666669 2:0 3:0.33333334 4:0.5 5:0.60000002 6:0.75 7:0.30000001 8:-0.25 9:0.25 #
-2.3091942435977897e-005 1:0.66666669 2:0 3:0.16666667 4:0.5 5:0.80000001 6:1 7:0.40000001 8:0 9:0.5 #
4.6183884871955794e-005 1:0.66666669 2:0 3:0.5 4:0.5 5:0.40000001 6:0.5 7:0.2 8:-0.5 9:0 #
2.3091942435977897e-005 1:0.11111111 2:0.25 3:0.33333334 4:0.33333334 5:0.60000002 6:0.75 7:0.2 8:-0.25 9:0 #
-2.3091942435977897e-005 1:0.11111111 2:0.25 3:0.16666667 4:0.33333334 5:0.80000001 6:1 7:0.26666668 8:0 9:0.25 #
2.3091942435977897e-005 1:0.22222222 2:0 3:0.16666667 4:0.33333334 5:1 6:1 7:0.25 8:0 9:0.25 #
-2.3091942435977897e-005 1:0.22222222 2:0 3:0.33333334 4:0.33333334 5:0.80000001 6:0.80000001 7:0.2 8:-0.25 9:0 #
-2.3091942435977897e-005 1:0.11111111 2:0.5 3:0.33333334 4:0.5 5:0.2 6:0.25 7:0.2 8:-0.75 9:0 #
-2.3091942435977897e-005 1:0.11111111 2:0.5 3:0.16666667 4:0.5 5:0.80000001 6:1 7:0.80000001 8:0 9:0.75 #
4.6183884871955794e-005 1:0.11111111 2:0.5 3:0.33333334 4:0.5 5:0.2 6:0.25 7:0.2 8:-0.75 9:0 #
-2.3091942435977897e-005 1:0 2:0.75 3:0.33333334 4:0.5 5:0.80000001 6:0.80000001 7:0.40000001 8:-0.25 9:0.5 #
2.3091942435977897e-005 1:0 2:0.75 3:0.16666667 4:0.5 5:1 6:1 7:0.5 8:0 9:0.75 #
-2.3091942435977897e-005 1:0 2:1 3:0.33333334 4:0.5 5:0.80000001 6:0.80000001 7:0.40000001 8:-0.25 9:0.5 #
2.3091942435977897e-005 1:0 2:1 3:0.16666667 4:0.5 5:1 6:1 7:0.5 8:0 9:0.75 #
-2.3091942435977897e-005 1:0.22222222 2:0 3:0.33333334 4:0.33333334 5:0.60000002 6:0.75 7:0.2 8:-0.25 9:0 #
2.3091942435977897e-005 1:0.22222222 2:0 3:0.16666667 4:0.33333334 5:0.80000001 6:1 7:0.26666668 8:0 9:0.25 #
-2.3091942435977897e-005 1:0.11111111 2:0.25 3:0.16666667 4:0.33333334 5:1 6:1 7:0.25 8:0 9:0.25 #
2.3091942435977897e-005 1:0.11111111 2:0.25 3:0.33333334 4:0.33333334 5:0.80000001 6:0.80000001 7:0.2 8:-0.25 9:0 #
-2.3091942435977897e-005 1:0 2:1 3:0.16666667 4:0.33333334 5:0.80000001 6:1 7:0.2 8:0 9:0 #
2.3091942435977897e-005 1:0 2:1 3:0.16666667 4:0.33333334 5:0.80000001 6:1 7:0.2 8:0 9:0 #
-2.3091942435977897e-005 1:0.33333334 2:0 3:0.16666667 4:0.33333334 5:1 6:1 7:0.25 8:0 9:0.25 #
2.3091942435977897e-005 1:0.33333334 2:0 3:0.33333334 4:0.33333334 5:0.80000001 6:0.80000001 7:0.2 8:-0.25 9:0 #
0.00011545971217988949 1:0.11111111 2:0.25 3:0.16666667 4:1 5:1 6:1 7:0.5 8:0 9:0.75 #
-2.3091942435977897e-005 1:0.11111111 2:0.25 3:0.66666669 4:1 5:0.80000001 6:0.80000001 7:0.40000001 8:-0.25 9:0.5 #
-2.3091942435977897e-005 1:0.11111111 2:0.25 3:0.16666667 4:1 5:1 6:1 7:0.5 8:0 9:0.75 #
-2.3091942435977897e-005 1:0.11111111 2:0.25 3:0.16666667 4:1 5:1 6:1 7:0.5 8:0 9:0.75 #
-2.3091942435977897e-005 1:0.11111111 2:0.25 3:0.83333331 4:1 5:0.40000001 6:0.40000001 7:0.2 8:-0.75 9:0 #
-2.3091942435977897e-005 1:0.11111111 2:0.25 3:0.83333331 4:1 5:0.40000001 6:0.40000001 7:0.2 8:-0.75 9:0 #
-2.3091942435977897e-005 1:0 2:0.5 3:0.16666667 4:0.33333334 5:0.80000001 6:1 7:0.2 8:0 9:0 #
2.3091942435977897e-005 1:0 2:0.5 3:0.16666667 4:0.33333334 5:0.80000001 6:1 7:0.2 8:0 9:0 #
4.6183884871955794e-005 1:0.33333334 2:0 3:0.16666667 4:0.5 5:0.60000002 6:1 7:0.30000001 8:0 9:0.25 #
-2.3091942435977897e-005 1:0.33333334 2:0 3:0.33333334 4:0.5 5:0.40000001 6:0.66666669 7:0.2 8:-0.25 9:0 #
-2.3091942435977897e-005 1:0.33333334 2:0 3:0.33333334 4:0.5 5:0.40000001 6:0.66666669 7:0.2 8:-0.25 9:0 #
-2.3091942435977897e-005 1:0.11111111 2:0.25 3:0.5 4:0.5 5:0.40000001 6:0.5 7:0.2 8:-0.5 9:0 #
-2.3091942435977897e-005 1:0.11111111 2:0.25 3:0.16666667 4:0.5 5:0.80000001 6:1 7:0.40000001 8:0 9:0.5 #
4.6183884871955794e-005 1:0.11111111 2:0.25 3:0.33333334 4:0.5 5:0.60000002 6:0.75 7:0.30000001 8:-0.25 9:0.25 #
2.3091942435977897e-005 1:0 2:0.75 3:0.16666667 4:0.33333334 5:0.80000001 6:1 7:0.2 8:0 9:0 #
-2.3091942435977897e-005 1:0 2:0.75 3:0.16666667 4:0.33333334 5:0.80000001 6:1 7:0.2 8:0 9:0 #
-2.3091942435977897e-005 1:0.44444445 2:0 3:0.16666667 4:0.33333334 5:1 6:1 7:0.25 8:0 9:0.25 #
2.3091942435977897e-005 1:0.44444445 2:0 3:0.33333334 4:0.33333334 5:0.80000001 6:0.80000001 7:0.2 8:-0.25 9:0 #
-7.1827152785957128e-006 1:0.22222222 2:0.25 3:0.16666667 4:1 5:1 6:1 7:0.5 8:0 9:0.75 #
5.3466303353292653e-005 1:0.22222222 2:0.25 3:0.66666669 4:1 5:0.80000001 6:0.80000001 7:0.40000001 8:-0.25 9:0.5 #
-9.9703202741147338e-008 1:0.22222222 2:0.25 3:0.16666667 4:1 5:1 6:1 7:0.5 8:0 9:0.75 #
-2.3091942435977897e-005 1:0.22222222 2:0.25 3:0.83333331 4:1 5:0.40000001 6:0.40000001 7:0.2 8:-0.75 9:0 #
-2.3091942435977897e-005 1:0.22222222 2:0.25 3:0.83333331 4:1 5:0.40000001 6:0.40000001 7:0.2 8:-0.75 9:0 #
5.2009945892152171e-007 1:0 2:1 3:0.16666667 4:0.33333334 5:1 6:1 7:0.25 8:0 9:0.25 #
-5.2009945892152171e-007 1:0 2:1 3:0.33333334 4:0.33333334 5:0.80000001 6:0.80000001 7:0.2 8:-0.25 9:0 #
-2.3091942435977897e-005 1:0.77777779 2:0 3:0.33333334 4:0.5 5:0.60000002 6:0.75 7:0.30000001 8:-0.25 9:0.25 #
-2.3091942435977897e-005 1:0.77777779 2:0 3:0.16666667 4:0.5 5:0.80000001 6:1 7:0.40000001 8:0 9:0.5 #
4.6183884871955794e-005 1:0.77777779 2:0 3:0.5 4:0.5 5:0.40000001 6:0.5 7:0.2 8:-0.5 9:0 #
2.3091942435977897e-005 1:0.22222222 2:0.25 3:0.33333334 4:0.33333334 5:0.60000002 6:0.75 7:0.2 8:-0.25 9:0 #
-2.3091942435977897e-005 1:0.22222222 2:0.25 3:0.16666667 4:0.33333334 5:0.80000001 6:1 7:0.26666668 8:0 9:0.25 #
-2.3091942435977897e-005 1:0.11111111 2:0.5 3:0.16666667 4:0.33333334 5:1 6:1 7:0.25 8:0 9:0.25 #
2.3091942435977897e-005 1:0.11111111 2:0.5 3:0.33333334 4:0.33333334 5:0.80000001 6:0.80000001 7:0.2 8:-0.25 9:0 #
-2.3091942435977897e-005 1:0 2:0 3:0.33333334 4:0.5 5:0.80000001 6:0.80000001 7:0.2 8:-0.25 9:0 #
-2.3091942435977897e-005 1:0 2:0 3:0.16666667 4:0.5 5:1 6:1 7:0.25 8:0 9:0.25 #
4.6183884871955794e-005 1:0 2:0 3:0.33333334 4:0.5 5:0.80000001 6:0.80000001 7:0.2 8:-0.25 9:0 #
-2.3091942435977873e-005 1:0 2:0.5 3:0.33333334 4:0.33333334 5:0.60000002 6:0.75 7:0.2 8:-0.25 9:0 #
2.3091942435977873e-005 1:0 2:0.5 3:0.16666667 4:0.33333334 5:0.80000001 6:1 7:0.26666668 8:0 9:0.25 #
-2.3091942435977897e-005 1:0.11111111 2:0 3:0.33333334 4:0.5 5:0.80000001 6:0.80000001 7:0.2 8:-0.25 9:0 #
4.6183884871955794e-005 1:0.11111111 2:0 3:0.16666667 4:0.5 5:1 6:1 7:0.25 8:0 9:0.25 #
-2.3091942435977897e-005 1:0.11111111 2:0 3:0.33333334 4:0.5 5:0.80000001 6:0.80000001 7:0.2 8:-0.25 9:0 #
-4.7724671427932752e-006 1:0 2:1 3:0.33333334 4:0.33333334 5:0.60000002 6:0.75 7:0.2 8:-0.25 9:0 #
4.7724671427932752e-006 1:0 2:1 3:0.16666667 4:0.33333334 5:0.80000001 6:1 7:0.26666668 8:0 9:0.25 #
-2.8996156991109304e-006 1:0 2:0.25 3:0.33333334 4:0.5 5:0.60000002 6:0.75 7:0.60000002 8:-0.25 9:0.5 #
2.8996156991109304e-006 1:0 2:0.25 3:0.16666667 4:0.5 5:0.80000001 6:1 7:0.80000001 8:0 9:0.75 #
-2.3091942435977897e-005 1:0.22222222 2:0 3:0.33333334 4:0.5 5:0.80000001 6:0.80000001 7:0.2 8:-0.25 9:0 #
-2.3091942435977897e-005 1:0.22222222 2:0 3:0.16666667 4:0.5 5:1 6:1 7:0.25 8:0 9:0.25 #
4.6183884871955794e-005 1:0.22222222 2:0 3:0.33333334 4:0.5 5:0.80000001 6:0.80000001 7:0.2 8:-0.25 9:0 #
2.3091942435977897e-005 1:0.11111111 2:0.5 3:0.33333334 4:0.33333334 5:0.60000002 6:0.75 7:0.2 8:-0.25 9:0 #
-2.3091942435977897e-005 1:0.11111111 2:0.5 3:0.16666667 4:0.33333334 5:0.80000001 6:1 7:0.26666668 8:0 9:0.25 #
2.3091942435977897e-005 1:0 2:0.25 3:0.16666667 4:1 5:0.80000001 6:1 7:0.80000001 8:0 9:0.75 #
-2.3091942435977897e-005 1:0 2:0.25 3:0.16666667 4:1 5:0.80000001 6:1 7:0.80000001 8:0 9:0.75 #
2.3091942435977897e-005 1:0 2:0.5 3:0.16666667 4:0.33333334 5:0.80000001 6:1 7:0.2 8:0 9:0 #
-2.3091942435977897e-005 1:0 2:0.5 3:0.16666667 4:0.33333334 5:0.80000001 6:1 7:0.2 8:0 9:0 #
-2.3091942435977897e-005 1:0.11111111 2:0 3:0.16666667 4:0.33333334 5:1 6:1 7:0.33333331 8:0 9:0.5 #
2.3091942435977897e-005 1:0.11111111 2:0 3:0.33333334 4:0.33333334 5:0.60000002 6:0.60000002 7:0.2 8:-0.5 9:0 #
2.3091942435977897e-005 1:0 2:0.25 3:0.16666667 4:0.33333334 5:0.80000001 6:1 7:0.26666668 8:0 9:0.25 #
-2.3091942435977897e-005 1:0 2:0.25 3:0.33333334 4:0.33333334 5:0.60000002 6:0.75 7:0.2 8:-0.25 9:0 #
-2.3091942435977897e-005 1:0.11111111 2:0.25 3:0.16666667 4:1 5:0.80000001 6:1 7:0.80000001 8:0 9:0.75 #
-2.3091942435977897e-005 1:0.11111111 2:0.25 3:0.5 4:1 5:0.60000002 6:0.75 7:0.60000002 8:-0.25 9:0.5 #
-2.3091942435977897e-005 1:0.11111111 2:0.25 3:0.5 4:1 5:0.60000002 6:0.75 7:0.60000002 8:-0.25 9:0.5 #
6.9275827307933684e-005 1:0.11111111 2:0.25 3:0.16666667 4:1 5:0.80000001 6:1 7:0.80000001 8:0 9:0.75 #
-2.3091942435977897e-005 1:0 2:0.75 3:0.33333334 4:0.5 5:0.60000002 6:0.75 7:0.60000002 8:-0.25 9:0.5 #
2.3091942435977897e-005 1:0 2:0.75 3:0.16666667 4:0.5 5:0.80000001 6:1 7:0.80000001 8:0 9:0.75 #
-2.3091942435977897e-005 1:0 2:1 3:0.16666667 4:0.5 5:0.80000001 6:1 7:0.40000001 8:0 9:0.5 #
2.3091942435977897e-005 1:0 2:1 3:0.16666667 4:0.5 5:0.80000001 6:1 7:0.40000001 8:0 9:0.5 #
-2.3091942435977897e-005 1:0.33333334 2:0 3:0.33333334 4:0.5 5:0.80000001 6:0.80000001 7:0.2 8:-0.25 9:0 #
-2.3091942435977897e-005 1:0.33333334 2:0 3:0.16666667 4:0.5 5:1 6:1 7:0.25 8:0 9:0.25 #
4.6183884871955794e-005 1:0.33333334 2:0 3:0.33333334 4:0.5 5:0.80000001 6:0.80000001 7:0.2 8:-0.25 9:0 #
-2.3091942435977897e-005 1:0.22222222 2:0.25 3:0.16666667 4:0.33333334 5:0.80000001 6:1 7:0.40000001 8:0 9:0.5 #
2.3091942435977897e-005 1:0.22222222 2:0.25 3:0.33333334 4:0.33333334 5:0.40000001 6:0.5 7:0.2 8:-0.5 9:0 #
4.6183884871955794e-005 1:0.44444445 2:0 3:0.33333334 4:0.5 5:0.80000001 6:0.80000001 7:0.2 8:-0.25 9:0 #
-2.3091942435977897e-005 1:0.44444445 2:0 3:0.16666667 4:0.5 5:1 6:1 7:0.25 8:0 9:0.25 #
-2.3091942435977897e-005 1:0.44444445 2:0 3:0.33333334 4:0.5 5:0.80000001 6:0.80000001 7:0.2 8:-0.25 9:0 #
2.3091942435977897e-005 1:0 2:0.25 3:0.16666667 4:0.5 5:0.80000001 6:1 7:0.26666668 8:0 9:0.25 #
-2.3091942435977897e-005 1:0 2:0.25 3:0.16666667 4:0.5 5:0.80000001 6:1 7:0.26666668 8:0 9:0.25 #
4.6183884871955794e-005 1:0.11111111 2:0 3:0.16666667 4:0.5 5:1 6:1 7:0.5 8:0 9:0.75 #
-2.3091942435977897e-005 1:0.11111111 2:0 3:0.5 4:0.5 5:0.40000001 6:0.40000001 7:0.2 8:-0.75 9:0 #
-2.3091942435977897e-005 1:0.11111111 2:0 3:0.33333334 4:0.5 5:0.60000002 6:0.60000002 7:0.30000001 8:-0.5 9:0.25 #
-2.3091942435977897e-005 1:0.11111111 2:0.25 3:0.5 4:0.5 5:0.2 6:0.25 7:0.2 8:-0.75 9:0 #
4.6183884871955794e-005 1:0.11111111 2:0.25 3:0.33333334 4:0.5 5:0.60000002 6:0.75 7:0.60000002 8:-0.25 9:0.5 #
-2.3091942435977897e-005 1:0.11111111 2:0.25 3:0.16666667 4:0.5 5:0.80000001 6:1 7:0.80000001 8:0 9:0.75 #
2.3091942435977897e-005 1:0 2:0.75 3:0.16666667 4:0.33333334 5:0.80000001 6:1 7:0.2 8:0 9:0 #
-2.3091942435977897e-005 1:0 2:0.75 3:0.16666667 4:0.33333334 5:0.80000001 6:1 7:0.2 8:0 9:0 #
4.6183884871955794e-005 1:0.55555558 2:0 3:0.33333334 4:0.5 5:0.80000001 6:0.80000001 7:0.2 8:-0.25 9:0 #
-2.3091942435977897e-005 1:0.55555558 2:0 3:0.16666667 4:0.5 5:1 6:1 7:0.25 8:0 9:0.25 #
-2.3091942435977897e-005 1:0.55555558 2:0 3:0.33333334 4:0.5 5:0.80000001 6:0.80000001 7:0.2 8:-0.25 9:0 #
-2.3091942435977897e-005 1:0.11111111 2:0.25 3:0.16666667 4:0.5 5:0.80000001 6:1 7:0.26666668 8:0 9:0.25 #
-2.3091942435977897e-005 1:0.11111111 2:0.25 3:0.5 4:0.5 5:0.60000002 6:0.75 7:0.2 8:-0.25 9:0 #
4.6183884871955794e-005 1:0.11111111 2:0.25 3:0.16666667 4:0.5 5:0.80000001 6:1 7:0.26666668 8:0 9:0.25 #
-2.3091942435977897e-005 1:0.66666669 2:0 3:0.33333334 4:0.5 5:0.80000001 6:0.80000001 7:0.2 8:-0.25 9:0 #
-2.3091942435977897e-005 1:0.66666669 2:0 3:0.16666667 4:0.5 5:1 6:1 7:0.25 8:0 9:0.25 #
4.6183884871955794e-005 1:0.66666669 2:0 3:0.33333334 4:0.5 5:0.80000001 6:0.80000001 7:0.2 8:-0.25 9:0 #
2.3091942435977897e-005 1:0.33333334 2:0.25 3:0.16666667 4:0.33333334 5:0.80000001 6:1 7:0.40000001 8:0 9:0.5 #
-2.3091942435977897e-005 1:0.33333334 2:0.25 3:0.33333334 4:0.33333334 5:0.40000001 6:0.5 7:0.2 8:-0.5 9:0 #
-2.3091942435977897e-005 1:0.22222222 2:0.5 3:0.33333334 4:0.33333334 5:0.60000002 6:0.75 7:0.2 8:-0.25 9:0 #
2.3091942435977897e-005 1:0.22222222 2:0.5 3:0.16666667 4:0.33333334 5:0.80000001 6:1 7:0.26666668 8:0 9:0.25 #
2.3091942435977897e-005 1:0.11111111 2:0.75 3:0.33333334 4:0.33333334 5:0.40000001 6:0.5 7:0.2 8:-0.5 9:0 #
-2.3091942435977897e-005 1:0.11111111 2:0.75 3:0.16666667 4:0.33333334 5:0.80000001 6:1 7:0.40000001 8:0 9:0.5 #
2.3091942435977897e-005 1:0 2:1 3:0.16666667 4:0.33333334 5:0.80000001 6:1 7:0.2 8:0 9:0 #
-2.3091942435977897e-005 1:0 2:1 3:0.16666667 4:0.33333334 5:0.80000001 6:1 7:0.2 8:0 9:0 #
-2.3091942435977897e-005 1:0.77777779 2:0 3:0.33333334 4:0.5 5:0.80000001 6:0.80000001 7:0.2 8:-0.25 9:0 #
-2.3091942435977897e-005 1:0.77777779 2:0 3:0.16666667 4:0.5 5:1 6:1 7:0.25 8:0 9:0.25 #
4.6183884871955794e-005 1:0.77777779 2:0 3:0.33333334 4:0.5 5:0.80000001 6:0.80000001 7:0.2 8:-0.25 9:0 #
2.3091942435977897e-005 1:0.44444445 2:0.25 3:0.16666667 4:0.33333334 5:0.80000001 6:1 7:0.40000001 8:0 9:0.5 #
-2.3091942435977897e-005 1:0.44444445 2:0.25 3:0.33333334 4:0.33333334 5:0.40000001 6:0.5 7:0.2 8:-0.5 9:0 #
-2.3091942435977897e-005 1:0.33333334 2:0.5 3:0.33333334 4:0.33333334 5:0.60000002 6:0.75 7:0.2 8:-0.25 9:0 #
2.3091942435977897e-005 1:0.33333334 2:0.5 3:0.16666667 4:0.33333334 5:0.80000001 6:1 7:0.26666668 8:0 9:0.25 #
2.3091942435977897e-005 1:0.22222222 2:0.75 3:0.33333334 4:0.33333334 5:0.40000001 6:0.5 7:0.2 8:-0.5 9:0 #
-2.3091942435977897e-005 1:0.22222222 2:0.75 3:0.16666667 4:0.33333334 5:0.80000001 6:1 7:0.40000001 8:0 9:0.5 #
-2.3091942435977897e-005 1:0.11111111 2:1 3:0.16666667 4:0.33333334 5:0.80000001 6:1 7:0.2 8:0 9:0 #
2.3091942435977897e-005 1:0.11111111 2:1 3:0.16666667 4:0.33333334 5:0.80000001 6:1 7:0.2 8:0 9:0 #
-2.3091942435977897e-005 1:0.22222222 2:0 3:0.16666667 4:0.5 5:1 6:1 7:0.5 8:0 9:0.75 #
-2.3091942435977897e-005 1:0.22222222 2:0 3:0.5 4:0.5 5:0.40000001 6:0.40000001 7:0.2 8:-0.75 9:0 #
4.6183884871955794e-005 1:0.22222222 2:0 3:0.33333334 4:0.5 5:0.60000002 6:0.60000002 7:0.30000001 8:-0.5 9:0.25 #
2.3091942435977897e-005 1:0 2:0.75 3:0.16666667 4:0.5 5:1 6:1 7:0.33333331 8:0 9:0.5 #
-2.3091942435977897e-005 1:0 2:0.75 3:0.33333334 4:0.5 5:0.80000001 6:0.80000001 7:0.26666668 8:-0.25 9:0.25 #
2.3091942435977897e-005 1:0.22222222 2:0 3:0.33333334 4:0.33333334 5:0.60000002 6:0.60000002 7:0.2 8:-0.5 9:0 #
-2.3091942435977897e-005 1:0.22222222 2:0 3:0.16666667 4:0.33333334 5:1 6:1 7:0.33333331 8:0 9:0.5 #
1.5019359986340167e-005 1:0 2:0.5 3:0.16666667 4:0.5 5:1 6:1 7:1 8:0 9:1 #
-1.5019359986340167e-005 1:0 2:0.5 3:0.33333334 4:0.5 5:0.80000001 6:0.80000001 7:0.80000001 8:-0.25 9:0.75 #
-2.3091942435977897e-005 1:0.11111111 2:0.25 3:0.16666667 4:0.33333334 5:1 6:1 7:0.33333331 8:0 9:0.5 #
2.3091942435977897e-005 1:0.11111111 2:0.25 3:0.33333334 4:0.33333334 5:0.60000002 6:0.60000002 7:0.2 8:-0.5 9:0 #
-2.3091942435977897e-005 1:0 2:0.5 3:0.33333334 4:0.66666669 5:0.60000002 6:0.75 7:0.30000001 8:-0.25 9:0.25 #
-2.3091942435977897e-005 1:0 2:0.5 3:0.16666667 4:0.66666669 5:0.80000001 6:1 7:0.40000001 8:0 9:0.5 #
-2.3091942435977897e-005 1:0 2:0.5 3:0.66666669 4:0.66666669 5:0.40000001 6:0.5 7:0.2 8:-0.5 9:0 #
6.9275827307933684e-005 1:0 2:0.5 3:0.33333334 4:0.66666669 5:0.60000002 6:0.75 7:0.30000001 8:-0.25 9:0.25 #
2.3091942435977897e-005 1:0 2:0.75 3:0.16666667 4:0.5 5:0.80000001 6:1 7:0.26666668 8:0 9:0.25 #
-2.3091942435977897e-005 1:0 2:0.75 3:0.16666667 4:0.5 5:0.80000001 6:1 7:0.26666668 8:0 9:0.25 #
2.3091942435977897e-005 1:0.22222222 2:0 3:0.16666667 4:0.33333334 5:0.80000001 6:1 7:0.40000001 8:0 9:0.5 #
-2.3091942435977897e-005 1:0.22222222 2:0 3:0.33333334 4:0.33333334 5:0.40000001 6:0.5 7:0.2 8:-0.5 9:0 #
-2.3091942435977897e-005 1:0.22222222 2:0.25 3:0.16666667 4:0.33333334 5:1 6:1 7:0.33333331 8:0 9:0.5 #
2.3091942435977897e-005 1:0.22222222 2:0.25 3:0.33333334 4:0.33333334 5:0.60000002 6:0.60000002 7:0.2 8:-0.5 9:0 #
6.9275827307933684e-005 1:0.11111111 2:0.5 3:0.33333334 4:0.66666669 5:0.60000002 6:0.75 7:0.30000001 8:-0.25 9:0.25 #
-2.3091942435977897e-005 1:0.11111111 2:0.5 3:0.16666667 4:0.66666669 5:0.80000001 6:1 7:0.40000001 8:0 9:0.5 #
-2.3091942435977897e-005 1:0.11111111 2:0.5 3:0.66666669 4:0.66666669 5:0.40000001 6:0.5 7:0.2 8:-0.5 9:0 #
-2.3091942435977897e-005 1:0.11111111 2:0.5 3:0.33333334 4:0.66666669 5:0.60000002 6:0.75 7:0.30000001 8:-0.25 9:0.25 #
2.3091942435977897e-005 1:0.33333334 2:0 3:0.33333334 4:0.33333334 5:0.60000002 6:0.60000002 7:0.2 8:-0.5 9:0 #
-2.3091942435977897e-005 1:0.33333334 2:0 3:0.16666667 4:0.33333334 5:1 6:1 7:0.33333331 8:0 9:0.5 #
-2.3091942435977897e-005 1:0.11111111 2:0.5 3:0.16666667 4:0.5 5:1 6:1 7:1 8:0 9:1 #
4.6183884871955794e-005 1:0.11111111 2:0.5 3:0.33333334 4:0.5 5:0.80000001 6:0.80000001 7:0.80000001 8:-0.25 9:0.75 #
-2.3091942435977897e-005 1:0.11111111 2:0.5 3:0.5 4:0.5 5:0.2 6:0.2 7:0.2 8:-1 9:0 #
2.3091942435977897e-005 1:0 2:0.5 3:0.16666667 4:0.33333334 5:0.80000001 6:1 7:0.26666668 8:0 9:0.25 #
-2.3091942435977897e-005 1:0 2:0.5 3:0.33333334 4:0.33333334 5:0.60000002 6:0.75 7:0.2 8:-0.25 9:0 #
2.3091942435977897e-005 1:0 2:0 3:0.16666667 4:0.5 5:0.80000001 6:1 7:0.40000001 8:0 9:0.5 #
-2.3091942435977897e-005 1:0 2:0 3:0.33333334 4:0.5 5:0.60000002 6:0.75 7:0.30000001 8:-0.25 9:0.25 #
-2.3091942435977897e-005 1:0 2:0 3:0.33333334 4:0.33333334 5:0.60000002 6:0.75 7:0.2 8:-0.25 9:0 #
2.3091942435977897e-005 1:0 2:0 3:0.16666667 4:0.33333334 5:0.80000001 6:1 7:0.26666668 8:0 9:0.25 #
2.3091942435977897e-005 1:0 2:0.5 3:0.16666667 4:0.33333334 5:0.80000001 6:1 7:0.26666668 8:0 9:0.25 #
-2.3091942435977897e-005 1:0 2:0.5 3:0.33333334 4:0.33333334 5:0.60000002 6:0.75 7:0.2 8:-0.25 9:0 #
-2.3091942435977897e-005 1:0.11111111 2:0 3:0.16666667 4:0.5 5:0.80000001 6:1 7:0.40000001 8:0 9:0.5 #
4.6183884871955794e-005 1:0.11111111 2:0 3:0.33333334 4:0.5 5:0.60000002 6:0.75 7:0.30000001 8:-0.25 9:0.25 #
-2.3091942435977897e-005 1:0.11111111 2:0 3:0.5 4:0.5 5:0.40000001 6:0.5 7:0.2 8:-0.5 9:0 #
-2.3091942435977897e-005 1:0 2:0.5 3:0.5 4:0.5 5:0.60000002 6:0.60000002 7:0.2 8:-0.5 9:0 #
4.6183884871955794e-005 1:0 2:0.5 3:0.33333334 4:0.5 5:0.80000001 6:0.80000001 7:0.26666668 8:-0.25 9:0.25 #
-2.3091942435977897e-005 1:0 2:0.5 3:0.16666667 4:0.5 5:1 6:1 7:0.33333331 8:0 9:0.5 #
-2.3091942435977897e-005 1:0.22222222 2:0 3:0.16666667 4:0.5 5:0.80000001 6:1 7:0.40000001 8:0 9:0.5 #
-2.3091942435977897e-005 1:0.22222222 2:0 3:0.33333334 4:0.5 5:0.60000002 6:0.75 7:0.30000001 8:-0.25 9:0.25 #
4.6183884871955794e-005 1:0.22222222 2:0 3:0.5 4:0.5 5:0.40000001 6:0.5 7:0.2 8:-0.5 9:0 #
-2.3091942435977897e-005 1:0.33333334 2:0 3:0.16666667 4:0.5 5:0.80000001 6:1 7:0.40000001 8:0 9:0.5 #
-2.3091942435977897e-005 1:0.33333334 2:0 3:0.33333334 4:0.5 5:0.60000002 6:0.75 7:0.30000001 8:-0.25 9:0.25 #
4.6183884871955794e-005 1:0.33333334 2:0 3:0.5 4:0.5 5:0.40000001 6:0.5 7:0.2 8:-0.5 9:0 #
4.6183884871955794e-005 1:0.11111111 2:0.5 3:0.33333334 4:0.5 5:0.60000002 6:0.75 7:0.30000001 8:-0.25 9:0.25 #
-2.3091942435977897e-005 1:0.11111111 2:0.5 3:0.16666667 4:0.5 5:0.80000001 6:1 7:0.40000001 8:0 9:0.5 #
-2.3091942435977897e-005 1:0.11111111 2:0.5 3:0.5 4:0.5 5:0.40000001 6:0.5 7:0.2 8:-0.5 9:0 #
-2.3091942435977897e-005 1:0.11111111 2:0 3:0.16666667 4:0.33333334 5:0.80000001 6:1 7:0.40000001 8:0 9:0.5 #
2.3091942435977897e-005 1:0.11111111 2:0 3:0.33333334 4:0.33333334 5:0.40000001 6:0.5 7:0.2 8:-0.5 9:0 #
-2.3091942435977897e-005 1:0 2:0.25 3:0.83333331 4:1 5:0.40000001 6:0.5 7:0.2 8:-0.5 9:0 #
-2.3091942435977897e-005 1:0 2:0.25 3:0.5 4:1 5:0.60000002 6:0.75 7:0.30000001 8:-0.25 9:0.25 #
-2.3091942435977897e-005 1:0 2:0.25 3:0.83333331 4:1 5:0.40000001 6:0.5 7:0.2 8:-0.5 9:0 #
-2.3091942435977897e-005 1:0 2:0.25 3:0.16666667 4:1 5:0.80000001 6:1 7:0.40000001 8:0 9:0.5 #
-2.3091942435977897e-005 1:0 2:0.25 3:0.16666667 4:1 5:0.80000001 6:1 7:0.40000001 8:0 9:0.5 #
0.00011545971217988949 1:0 2:0.25 3:0.5 4:1 5:0.60000002 6:0.75 7:0.30000001 8:-0.25 9:0.25 #
2.3091942435977897e-005 1:0.22222222 2:0 3:0.16666667 4:0.33333334 5:0.80000001 6:1 7:0.40000001 8:0 9:0.5 #
-2.3091942435977897e-005 1:0.22222222 2:0 3:0.33333334 4:0.33333334 5:0.40000001 6:0.5 7:0.2 8:-0.5 9:0 #
4.6183884871955794e-005 1:0.11111111 2:0.5 3:0.5 4:0.5 5:0.60000002 6:0.60000002 7:0.2 8:-0.5 9:0 #
-2.3091942435977897e-005 1:0.11111111 2:0.5 3:0.33333334 4:0.5 5:0.80000001 6:0.80000001 7:0.26666668 8:-0.25 9:0.25 #
-2.3091942435977897e-005 1:0.11111111 2:0.5 3:0.16666667 4:0.5 5:1 6:1 7:0.33333331 8:0 9:0.5 #
4.6183884871955794e-005 1:0.11111111 2:0 3:0.5 4:0.5 5:0.2 6:0.25 7:0.2 8:-0.75 9:0 #
-2.3091942435977897e-005 1:0.11111111 2:0 3:0.33333334 4:0.5 5:0.40000001 6:0.5 7:0.40000001 8:-0.5 9:0.25 #
-2.3091942435977897e-005 1:0.11111111 2:0 3:0.16666667 4:0.5 5:0.80000001 6:1 7:0.80000001 8:0 9:0.75 #
2.3091942435977897e-005 1:0 2:0.5 3:0.16666667 4:0.33333334 5:0.80000001 6:1 7:0.26666668 8:0 9:0.25 #
-2.3091942435977897e-005 1:0 2:0.5 3:0.33333334 4:0.33333334 5:0.60000002 6:0.75 7:0.2 8:-0.25 9:0 #
-2.3091942435977897e-005 1:0 2:0.75 3:0.16666667 4:0.5 5:0.80000001 6:1 7:0.26666668 8:0 9:0.25 #
2.3091942435977897e-005 1:0 2:0.75 3:0.16666667 4:0.5 5:0.80000001 6:1 7:0.26666668 8:0 9:0.25 #
-2.3091942435977897e-005 1:0.22222222 2:0 3:0.5 4:0.5 5:0.2 6:0.25 7:0.2 8:-0.75 9:0 #
4.6183884871955794e-005 1:0.22222222 2:0 3:0.33333334 4:0.5 5:0.40000001 6:0.5 7:0.40000001 8:-0.5 9:0.25 #
-2.3091942435977897e-005 1:0.22222222 2:0 3:0.16666667 4:0.5 5:0.80000001 6:1 7:0.80000001 8:0 9:0.75 #
-2.3091942435977897e-005 1:0 2:0.25 3:0.33333334 4:0.33333334 5:0.60000002 6:0.75 7:0.2 8:-0.25 9:0 #
2.3091942435977897e-005 1:0 2:0.25 3:0.16666667 4:0.33333334 5:0.80000001 6:1 7:0.26666668 8:0 9:0.25 #
2.3091942435977897e-005 1:0.11111111 2:0 3:0.33333334 4:0.33333334 5:0.60000002 6:0.75 7:0.2 8:-0.25 9:0 #
-2.3091942435977897e-005 1:0.11111111 2:0 3:0.16666667 4:0.33333334 5:0.80000001 6:1 7:0.26666668 8:0 9:0.25 #
-2.3091942435977897e-005 1:0 2:0.25 3:0.33333334 4:0.33333334 5:0.60000002 6:0.75 7:0.2 8:-0.25 9:0 #
2.3091942435977897e-005 1:0 2:0.25 3:0.16666667 4:0.33333334 5:0.80000001 6:1 7:0.26666668 8:0 9:0.25 #
4.6183884871955794e-005 1:0.44444445 2:0 3:0.16666667 4:0.5 5:0.80000001 6:1 7:0.40000001 8:0 9:0.5 #
-2.3091942435977897e-005 1:0.44444445 2:0 3:0.33333334 4:0.5 5:0.60000002 6:0.75 7:0.30000001 8:-0.25 9:0.25 #
-2.3091942435977897e-005 1:0.44444445 2:0 3:0.5 4:0.5 5:0.40000001 6:0.5 7:0.2 8:-0.5 9:0 #
4.6183884871955794e-005 1:0.11111111 2:0.25 3:0.5 4:0.5 5:0.40000001 6:0.5 7:0.2 8:-0.5 9:0 #
-2.3091942435977897e-005 1:0.11111111 2:0.25 3:0.16666667 4:0.5 5:0.80000001 6:1 7:0.40000001 8:0 9:0.5 #
-2.3091942435977897e-005 1:0.11111111 2:0.25 3:0.33333334 4:0.5 5:0.60000002 6:0.75 7:0.30000001 8:-0.25 9:0.25 #
2.3091942435977897e-005 1:0.33333334 2:0 3:0.16666667 4:0.33333334 5:0.80000001 6:1 7:0.40000001 8:0 9:0.5 #
-2.3091942435977897e-005 1:0.33333334 2:0 3:0.33333334 4:0.33333334 5:0.40000001 6:0.5 7:0.2 8:-0.5 9:0 #
-2.3091942435977897e-005 1:0.22222222 2:0.5 3:0.5 4:0.5 5:0.60000002 6:0.60000002 7:0.2 8:-0.5 9:0 #
-2.3091942435977897e-005 1:0.22222222 2:0.5 3:0.33333334 4:0.5 5:0.80000001 6:0.80000001 7:0.26666668 8:-0.25 9:0.25 #
4.6183884871955794e-005 1:0.22222222 2:0.5 3:0.16666667 4:0.5 5:1 6:1 7:0.33333331 8:0 9:0.5 #
2.3091942435977897e-005 1:0 2:0.75 3:0.16666667 4:0.5 5:1 6:1 7:0.33333331 8:0 9:0.5 #
-2.3091942435977897e-005 1:0 2:0.75 3:0.33333334 4:0.5 5:0.80000001 6:0.80000001 7:0.26666668 8:-0.25 9:0.25 #
2.3091942435977897e-005 1:0 2:1 3:0.16666667 4:0.5 5:0.80000001 6:1 7:0.26666668 8:0 9:0.25 #
-2.3091942435977897e-005 1:0 2:1 3:0.16666667 4:0.5 5:0.80000001 6:1 7:0.26666668 8:0 9:0.25 #
2.3091942435977897e-005 1:0.44444445 2:0 3:0.16666667 4:0.33333334 5:0.80000001 6:1 7:0.40000001 8:0 9:0.5 #
-2.3091942435977897e-005 1:0.44444445 2:0 3:0.33333334 4:0.33333334 5:0.40000001 6:0.5 7:0.2 8:-0.5 9:0 #
-2.3091942435977897e-005 1:0.33333334 2:0.5 3:0.5 4:0.5 5:0.60000002 6:0.60000002 7:0.2 8:-0.5 9:0 #
-2.3091942435977897e-005 1:0.33333334 2:0.5 3:0.33333334 4:0.5 5:0.80000001 6:0.80000001 7:0.26666668 8:-0.25 9:0.25 #
4.6183884871955794e-005 1:0.33333334 2:0.5 3:0.16666667 4:0.5 5:1 6:1 7:0.33333331 8:0 9:0.5 #
-2.3091942435977897e-005 1:0.11111111 2:0.75 3:0.5 4:0.5 5:0.60000002 6:0.60000002 7:0.2 8:-0.5 9:0 #
-2.3091942435977897e-005 1:0.11111111 2:0.75 3:0.16666667 4:0.5 5:1 6:1 7:0.33333331 8:0 9:0.5 #
4.6183884871955794e-005 1:0.11111111 2:0.75 3:0.33333334 4:0.5 5:0.80000001 6:0.80000001 7:0.26666668 8:-0.25 9:0.25 #
-2.3091942435977897e-005 1:0.44444445 2:0.5 3:0.5 4:0.5 5:0.60000002 6:0.60000002 7:0.2 8:-0.5 9:0 #
-2.3091942435977897e-005 1:0.44444445 2:0.5 3:0.33333334 4:0.5 5:0.80000001 6:0.80000001 7:0.26666668 8:-0.25 9:0.25 #
4.6183884871955794e-005 1:0.44444445 2:0.5 3:0.16666667 4:0.5 5:1 6:1 7:0.33333331 8:0 9:0.5 #
4.6183884871955794e-005 1:0.22222222 2:0.75 3:0.5 4:0.5 5:0.60000002 6:0.60000002 7:0.2 8:-0.5 9:0 #
-2.3091942435977897e-005 1:0.22222222 2:0.75 3:0.16666667 4:0.5 5:1 6:1 7:0.33333331 8:0 9:0.5 #
-2.3091942435977897e-005 1:0.22222222 2:0.75 3:0.33333334 4:0.5 5:0.80000001 6:0.80000001 7:0.26666668 8:-0.25 9:0.25 #
-2.3091942435977897e-005 1:0.66666669 2:0 3:0.16666667 4:0.33333334 5:0.80000001 6:1 7:0.40000001 8:0 9:0.5 #
2.3091942435977897e-005 1:0.66666669 2:0 3:0.33333334 4:0.33333334 5:0.40000001 6:0.5 7:0.2 8:-0.5 9:0 #
-2.3091942435977897e-005 1:0.11111111 2:0.25 3:0.83333331 4:1 5:0.40000001 6:0.5 7:0.2 8:-0.5 9:0 #
-2.3091942435977897e-005 1:0.11111111 2:0.25 3:0.5 4:1 5:0.60000002 6:0.75 7:0.30000001 8:-0.25 9:0.25 #
0.00011545971217988949 1:0.11111111 2:0.25 3:0.83333331 4:1 5:0.40000001 6:0.5 7:0.2 8:-0.5 9:0 #
-2.3091942435977897e-005 1:0.11111111 2:0.25 3:0.16666667 4:1 5:0.80000001 6:1 7:0.40000001 8:0 9:0.5 #
-2.3091942435977897e-005 1:0.11111111 2:0.25 3:0.16666667 4:1 5:0.80000001 6:1 7:0.40000001 8:0 9:0.5 #
-2.3091942435977897e-005 1:0.11111111 2:0.25 3:0.5 4:1 5:0.60000002 6:0.75 7:0.30000001 8:-0.25 9:0.25 #
-2.3091942435977897e-005 1:0 2:0.5 3:0.33333334 4:0.33333334 5:0.40000001 6:0.66666669 7:0.2 8:-0.25 9:0 #
2.3091942435977897e-005 1:0 2:0.5 3:0.16666667 4:0.33333334 5:0.60000002 6:1 7:0.30000001 8:0 9:0.25 #
2.3091942435977897e-005 1:0.22222222 2:0 3:0.33333334 4:0.33333334 5:0.60000002 6:0.75 7:0.2 8:-0.25 9:0 #
-2.3091942435977897e-005 1:0.22222222 2:0 3:0.16666667 4:0.33333334 5:0.80000001 6:1 7:0.26666668 8:0 9:0.25 #
2.3091942435977897e-005 1:0.11111111 2:0.25 3:0.33333334 4:0.33333334 5:0.60000002 6:0.75 7:0.2 8:-0.25 9:0 #
-2.3091942435977897e-005 1:0.11111111 2:0.25 3:0.16666667 4:0.33333334 5:0.80000001 6:1 7:0.26666668 8:0 9:0.25 #
2.3091942435977897e-005 1:0 2:0.5 3:0.16666667 4:0.33333334 5:0.80000001 6:1 7:0.26666668 8:0 9:0.25 #
-2.3091942435977897e-005 1:0 2:0.5 3:0.33333334 4:0.33333334 5:0.60000002 6:0.75 7:0.2 8:-0.25 9:0 #
-2.3091942435977897e-005 1:0.77777779 2:0 3:0.16666667 4:0.33333334 5:0.80000001 6:1 7:0.40000001 8:0 9:0.5 #
2.3091942435977897e-005 1:0.77777779 2:0 3:0.33333334 4:0.33333334 5:0.40000001 6:0.5 7:0.2 8:-0.5 9:0 #
-2.3091942435977897e-005 1:0.22222222 2:0.25 3:0.83333331 4:1 5:0.40000001 6:0.5 7:0.2 8:-0.5 9:0 #
0.00011545971217988949 1:0.22222222 2:0.25 3:0.5 4:1 5:0.60000002 6:0.75 7:0.30000001 8:-0.25 9:0.25 #
-2.3091942435977897e-005 1:0.22222222 2:0.25 3:0.83333331 4:1 5:0.40000001 6:0.5 7:0.2 8:-0.5 9:0 #
-2.3091942435977897e-005 1:0.22222222 2:0.25 3:0.16666667 4:1 5:0.80000001 6:1 7:0.40000001 8:0 9:0.5 #
-2.3091942435977897e-005 1:0.22222222 2:0.25 3:0.16666667 4:1 5:0.80000001 6:1 7:0.40000001 8:0 9:0.5 #
-2.3091942435977897e-005 1:0.22222222 2:0.25 3:0.5 4:1 5:0.60000002 6:0.75 7:0.30000001 8:-0.25 9:0.25 #
-7.4379907350771543e-006 1:0 2:0 3:0.33333334 4:0.33333334 5:0.40000001 6:0.40000001 7:0.2 8:-0.75 9:0 #
7.4379907350771543e-006 1:0 2:0 3:0.16666667 4:0.33333334 5:1 6:1 7:0.5 8:0 9:0.75 #
2.3091942435977897e-005 1:0 2:0.25 3:0.16666667 4:0.33333334 5:0.80000001 6:1 7:0.26666668 8:0 9:0.25 #
-2.3091942435977897e-005 1:0 2:0.25 3:0.33333334 4:0.33333334 5:0.60000002 6:0.75 7:0.2 8:-0.25 9:0 #
2.3091942435977897e-005 1:0 2:0.25 3:0.16666667 4:0.33333334 5:0.80000001 6:1 7:0.2 8:0 9:0 #
-2.3091942435977897e-005 1:0 2:0.25 3:0.16666667 4:0.33333334 5:0.80000001 6:1 7:0.2 8:0 9:0 #
-2.3091942435977897e-005 1:0.11111111 2:0 3:0.33333334 4:0.5 5:0.60000002 6:0.75 7:0.2 8:-0.25 9:0 #
4.6183884871955794e-005 1:0.11111111 2:0 3:0.33333334 4:0.5 5:0.60000002 6:0.75 7:0.2 8:-0.25 9:0 #
-2.3091942435977897e-005 1:0.11111111 2:0 3:0.16666667 4:0.5 5:0.80000001 6:1 7:0.26666668 8:0 9:0.25 #
2.3091942435977897e-005 1:0 2:0.25 3:0.16666667 4:0.33333334 5:0.80000001 6:1 7:0.2 8:0 9:0 #
-2.3091942435977897e-005 1:0 2:0.25 3:0.16666667 4:0.33333334 5:0.80000001 6:1 7:0.2 8:0 9:0 #
2.3091942435977897e-005 1:0 2:0 3:0.16666667 4:0.33333334 5:0.80000001 6:1 7:0.26666668 8:0 9:0.25 #
-2.3091942435977897e-005 1:0 2:0 3:0.33333334 4:0.33333334 5:0.60000002 6:0.75 7:0.2 8:-0.25 9:0 #
-2.3091942435977897e-005 1:0 2:0.5 3:0.16666667 4:0.5 5:0.80000001 6:1 7:0.40000001 8:0 9:0.5 #
2.3091942435977897e-005 1:0 2:0.5 3:0.16666667 4:0.5 5:0.80000001 6:1 7:0.40000001 8:0 9:0.5 #
-2.3091942435977897e-005 1:0.11111111 2:0 3:0.16666667 4:0.5 5:0.80000001 6:1 7:0.40000001 8:0 9:0.5 #
-2.3091942435977897e-005 1:0.11111111 2:0 3:0.33333334 4:0.5 5:0.40000001 6:0.5 7:0.2 8:-0.5 9:0 #
4.6183884871955794e-005 1:0.11111111 2:0 3:0.33333334 4:0.5 5:0.40000001 6:0.5 7:0.2 8:-0.5 9:0 #
2.3091942435977897e-005 1:0 2:1 3:0.16666667 4:0.33333334 5:0.80000001 6:1 7:0.2 8:0 9:0 #
-2.3091942435977897e-005 1:0 2:1 3:0.16666667 4:0.33333334 5:0.80000001 6:1 7:0.2 8:0 9:0 #
-2.3091942435977897e-005 1:0.22222222 2:0 3:0.33333334 4:0.5 5:0.60000002 6:0.75 7:0.2 8:-0.25 9:0 #
-2.3091942435977897e-005 1:0.22222222 2:0 3:0.33333334 4:0.5 5:0.60000002 6:0.75 7:0.2 8:-0.25 9:0 #
4.6183884871955794e-005 1:0.22222222 2:0 3:0.16666667 4:0.5 5:0.80000001 6:1 7:0.26666668 8:0 9:0.25 #
-2.3091942435977897e-005 1:0.11111111 2:0.25 3:0.16666667 4:0.33333334 5:0.80000001 6:1 7:0.2 8:0 9:0 #
2.3091942435977897e-005 1:0.11111111 2:0.25 3:0.16666667 4:0.33333334 5:0.80000001 6:1 7:0.2 8:0 9:0 #
-2.3091942435977897e-005 1:0 2:0.5 3:0.16666667 4:0.5 5:0.80000001 6:1 7:0.26666668 8:0 9:0.25 #
2.3091942435977897e-005 1:0 2:0.5 3:0.16666667 4:0.5 5:0.80000001 6:1 7:0.26666668 8:0 9:0.25 #
-2.3091942435977897e-005 1:0.11111111 2:0 3:0.16666667 4:0.33333334 5:0.80000001 6:1 7:0.26666668 8:0 9:0.25 #
2.3091942435977897e-005 1:0.11111111 2:0 3:0.33333334 4:0.33333334 5:0.60000002 6:0.75 7:0.2 8:-0.25 9:0 #
-2.3091942435977897e-005 1:0 2:0.25 3:0.16666667 4:1 5:0.80000001 6:1 7:0.26666668 8:0 9:0.25 #
2.3091942435977897e-005 1:0 2:0.25 3:0.16666667 4:1 5:0.80000001 6:1 7:0.26666668 8:0 9:0.25 #
2.3091942435977897e-005 1:0 2:0.5 3:0.16666667 4:0.33333334 5:0.60000002 6:1 7:0.2 8:0 9:0 #
-2.3091942435977897e-005 1:0 2:0.5 3:0.16666667 4:0.33333334 5:0.60000002 6:1 7:0.2 8:0 9:0 #
-2.3091942435977897e-005 1:0.22222222 2:0 3:0.16666667 4:0.5 5:0.80000001 6:1 7:0.40000001 8:0 9:0.5 #
4.6183884871955794e-005 1:0.22222222 2:0 3:0.33333334 4:0.5 5:0.40000001 6:0.5 7:0.2 8:-0.5 9:0 #
-2.3091942435977897e-005 1:0.22222222 2:0 3:0.33333334 4:0.5 5:0.40000001 6:0.5 7:0.2 8:-0.5 9:0 #
4.6183884871955794e-005 1:0.33333334 2:0 3:0.16666667 4:0.5 5:0.80000001 6:1 7:0.40000001 8:0 9:0.5 #
-2.3091942435977897e-005 1:0.33333334 2:0 3:0.33333334 4:0.5 5:0.40000001 6:0.5 7:0.2 8:-0.5 9:0 #
-2.3091942435977897e-005 1:0.33333334 2:0 3:0.33333334 4:0.5 5:0.40000001 6:0.5 7:0.2 8:-0.5 9:0 #
-2.3091942435977897e-005 1:0.11111111 2:0.25 3:0.5 4:0.5 5:0.40000001 6:0.40000001 7:0.2 8:-0.75 9:0 #
4.6183884871955794e-005 1:0.11111111 2:0.25 3:0.33333334 4:0.5 5:0.60000002 6:0.60000002 7:0.30000001 8:-0.5 9:0.25 #
-2.3091942435977897e-005 1:0.11111111 2:0.25 3:0.16666667 4:0.5 5:1 6:1 7:0.5 8:0 9:0.75 #
2.3091942435977897e-005 1:0 2:0.75 3:0.16666667 4:0.33333334 5:0.60000002 6:1 7:0.2 8:0 9:0 #
-2.3091942435977897e-005 1:0 2:0.75 3:0.16666667 4:0.33333334 5:0.60000002 6:1 7:0.2 8:0 9:0 #
-2.3091942435977897e-005 1:0.33333334 2:0 3:0.33333334 4:0.5 5:0.60000002 6:0.75 7:0.2 8:-0.25 9:0 #
-2.3091942435977897e-005 1:0.33333334 2:0 3:0.33333334 4:0.5 5:0.60000002 6:0.75 7:0.2 8:-0.25 9:0 #
4.6183884871955794e-005 1:0.33333334 2:0 3:0.16666667 4:0.5 5:0.80000001 6:1 7:0.26666668 8:0 9:0.25 #
2.3091942435977897e-005 1:0.22222222 2:0.25 3:0.16666667 4:0.33333334 5:0.80000001 6:1 7:0.2 8:0 9:0 #
-2.3091942435977897e-005 1:0.22222222 2:0.25 3:0.16666667 4:0.33333334 5:0.80000001 6:1 7:0.2 8:0 9:0 #
-2.3091942435977897e-005 1:0.11111111 2:0.5 3:0.16666667 4:0.33333334 5:1 6:1 7:0.25 8:0 9:0.25 #
2.3091942435977897e-005 1:0.11111111 2:0.5 3:0.33333334 4:0.33333334 5:0.80000001 6:0.80000001 7:0.2 8:-0.25 9:0 #
-2.3091942435977897e-005 1:0.44444445 2:0 3:0.33333334 4:0.5 5:0.60000002 6:0.75 7:0.2 8:-0.25 9:0 #
-2.3091942435977897e-005 1:0.44444445 2:0 3:0.33333334 4:0.5 5:0.60000002 6:0.75 7:0.2 8:-0.25 9:0 #
4.6183884871955794e-005 1:0.44444445 2:0 3:0.16666667 4:0.5 5:0.80000001 6:1 7:0.26666668 8:0 9:0.25 #
2.3091942435977897e-005 1:0.33333334 2:0.25 3:0.16666667 4:0.33333334 5:0.80000001 6:1 7:0.2 8:0 9:0 #
-2.3091942435977897e-005 1:0.33333334 2:0.25 3:0.16666667 4:0.33333334 5:0.80000001 6:1 7:0.2 8:0 9:0 #
-2.3091942435977897e-005 1:0.22222222 2:0.5 3:0.16666667 4:0.33333334 5:1 6:1 7:0.25 8:0 9:0.25 #
2.3091942435977897e-005 1:0.22222222 2:0.5 3:0.33333334 4:0.33333334 5:0.80000001 6:0.80000001 7:0.2 8:-0.25 9:0 #
2.3091942435977897e-005 1:0.11111111 2:0.75 3:0.33333334 4:0.33333334 5:0.40000001 6:0.40000001 7:0.2 8:-0.75 9:0 #
-2.3091942435977897e-005 1:0.11111111 2:0.75 3:0.16666667 4:0.33333334 5:1 6:1 7:0.5 8:0 9:0.75 #
4.6183884871955794e-005 1:0.44444445 2:0 3:0.16666667 4:0.5 5:0.80000001 6:1 7:0.40000001 8:0 9:0.5 #
-2.3091942435977897e-005 1:0.44444445 2:0 3:0.33333334 4:0.5 5:0.40000001 6:0.5 7:0.2 8:-0.5 9:0 #
-2.3091942435977897e-005 1:0.44444445 2:0 3:0.33333334 4:0.5 5:0.40000001 6:0.5 7:0.2 8:-0.5 9:0 #
-2.3091942435977897e-005 1:0.22222222 2:0.25 3:0.5 4:0.5 5:0.40000001 6:0.40000001 7:0.2 8:-0.75 9:0 #
4.6183884871955794e-005 1:0.22222222 2:0.25 3:0.33333334 4:0.5 5:0.60000002 6:0.60000002 7:0.30000001 8:-0.5 9:0.25 #
-2.3091942435977897e-005 1:0.22222222 2:0.25 3:0.16666667 4:0.5 5:1 6:1 7:0.5 8:0 9:0.75 #
-2.3091942435977897e-005 1:0.11111111 2:0.75 3:0.16666667 4:0.33333334 5:0.60000002 6:1 7:0.2 8:0 9:0 #
2.3091942435977897e-005 1:0.11111111 2:0.75 3:0.16666667 4:0.33333334 5:0.60000002 6:1 7:0.2 8:0 9:0 #
-2.3091942435977897e-005 1:0.55555558 2:0 3:0.33333334 4:0.5 5:0.60000002 6:0.75 7:0.2 8:-0.25 9:0 #
-2.3091942435977897e-005 1:0.55555558 2:0 3:0.33333334 4:0.5 5:0.60000002 6:0.75 7:0.2 8:-0.25 9:0 #
4.6183884871955794e-005 1:0.55555558 2:0 3:0.16666667 4:0.5 5:0.80000001 6:1 7:0.26666668 8:0 9:0.25 #
2.3091942435977897e-005 1:0.44444445 2:0.25 3:0.16666667 4:0.33333334 5:0.80000001 6:1 7:0.2 8:0 9:0 #
-2.3091942435977897e-005 1:0.44444445 2:0.25 3:0.16666667 4:0.33333334 5:0.80000001 6:1 7:0.2 8:0 9:0 #
2.3091942435977897e-005 1:0.33333334 2:0.5 3:0.16666667 4:0.33333334 5:1 6:1 7:0.25 8:0 9:0.25 #
-2.3091942435977897e-005 1:0.33333334 2:0.5 3:0.33333334 4:0.33333334 5:0.80000001 6:0.80000001 7:0.2 8:-0.25 9:0 #
5.6899916777566756e-006 1:0.55555558 2:0 3:0.16666667 4:0.5 5:0.80000001 6:1 7:0.40000001 8:0 9:0.5 #
-5.6899916777566756e-006 1:0.55555558 2:0 3:0.33333334 4:0.5 5:0.40000001 6:0.5 7:0.2 8:-0.5 9:0 #
-2.3091942435977897e-005 1:0.33333334 2:0.25 3:0.5 4:0.5 5:0.40000001 6:0.40000001 7:0.2 8:-0.75 9:0 #
4.6183884871955794e-005 1:0.33333334 2:0.25 3:0.33333334 4:0.5 5:0.60000002 6:0.60000002 7:0.30000001 8:-0.5 9:0.25 #
-2.3091942435977897e-005 1:0.33333334 2:0.25 3:0.16666667 4:0.5 5:1 6:1 7:0.5 8:0 9:0.75 #
2.3091942435977897e-005 1:0.22222222 2:0.75 3:0.16666667 4:0.33333334 5:0.60000002 6:1 7:0.2 8:0 9:0 #
-2.3091942435977897e-005 1:0.22222222 2:0.75 3:0.16666667 4:0.33333334 5:0.60000002 6:1 7:0.2 8:0 9:0 #
-2.3091942435977897e-005 1:0.11111111 2:1 3:0.16666667 4:0.33333334 5:0.80000001 6:1 7:0.26666668 8:0 9:0.25 #
2.3091942435977897e-005 1:0.11111111 2:1 3:0.33333334 4:0.33333334 5:0.60000002 6:0.75 7:0.2 8:-0.25 9:0 #
-2.3091942435977897e-005 1:0 2:0 3:0.33333334 4:0.33333334 5:0.60000002 6:0.75 7:0.2 8:-0.25 9:0 #
2.3091942435977897e-005 1:0 2:0 3:0.16666667 4:0.33333334 5:0.80000001 6:1 7:0.26666668 8:0 9:0.25 #
-2.3091942435977897e-005 1:0.22222222 2:0 3:0.16666667 4:0.33333334 5:0.80000001 6:1 7:0.26666668 8:0 9:0.25 #
2.3091942435977897e-005 1:0.22222222 2:0 3:0.33333334 4:0.33333334 5:0.60000002 6:0.75 7:0.2 8:-0.25 9:0 #
-2.3091942435977897e-005 1:0.11111111 2:0.25 3:0.5 4:1 5:0.60000002 6:0.75 7:0.2 8:-0.25 9:0 #
-2.3091942435977897e-005 1:0.11111111 2:0.25 3:0.5 4:1 5:0.60000002 6:0.75 7:0.2 8:-0.25 9:0 #
0.00011545971217988949 1:0.11111111 2:0.25 3:0.16666667 4:1 5:0.80000001 6:1 7:0.26666668 8:0 9:0.25 #
-2.3091942435977897e-005 1:0.11111111 2:0.25 3:0.16666667 4:1 5:0.80000001 6:1 7:0.26666668 8:0 9:0.25 #
-2.3091942435977897e-005 1:0.11111111 2:0.25 3:0.5 4:1 5:0.60000002 6:0.75 7:0.2 8:-0.25 9:0 #
-2.3091942435977897e-005 1:0.11111111 2:0.25 3:0.5 4:1 5:0.60000002 6:0.75 7:0.2 8:-0.25 9:0 #
2.3091942435977897e-005 1:0 2:1 3:0.16666667 4:0.83333331 5:0.80000001 6:1 7:0.80000001 8:0 9:0.75 #
-2.3091942435977897e-005 1:0 2:1 3:0.16666667 4:0.83333331 5:0.80000001 6:1 7:0.80000001 8:0 9:0.75 #
-2.3091942435977897e-005 1:0.11111111 2:0 3:0.33333334 4:0.33333334 5:0.60000002 6:0.75 7:0.2 8:-0.25 9:0 #
2.3091942435977897e-005 1:0.11111111 2:0 3:0.16666667 4:0.33333334 5:0.80000001 6:1 7:0.26666668 8:0 9:0.25 #
-2.3091942435977897e-005 1:0.11111111 2:0.25 3:0.16666667 4:0.33333334 5:0.80000001 6:1 7:0.80000001 8:0 9:0.75 #
2.3091942435977897e-005 1:0.11111111 2:0.25 3:0.33333334 4:0.33333334 5:0.2 6:0.25 7:0.2 8:-0.75 9:0 #
-2.3091942435977897e-005 1:0.66666669 2:0 3:0.33333334 4:0.5 5:0.60000002 6:0.75 7:0.2 8:-0.25 9:0 #
-2.3091942435977897e-005 1:0.66666669 2:0 3:0.33333334 4:0.5 5:0.60000002 6:0.75 7:0.2 8:-0.25 9:0 #
4.6183884871955794e-005 1:0.66666669 2:0 3:0.16666667 4:0.5 5:0.80000001 6:1 7:0.26666668 8:0 9:0.25 #
-2.3091942435977897e-005 1:0.55555558 2:0.25 3:0.16666667 4:0.33333334 5:0.80000001 6:1 7:0.2 8:0 9:0 #
2.3091942435977897e-005 1:0.55555558 2:0.25 3:0.16666667 4:0.33333334 5:0.80000001 6:1 7:0.2 8:0 9:0 #
4.6183884871955794e-005 1:0.11111111 2:0.5 3:0.16666667 4:0.5 5:0.80000001 6:1 7:0.26666668 8:0 9:0.25 #
-2.3091942435977897e-005 1:0.11111111 2:0.5 3:0.5 4:0.5 5:0.60000002 6:0.75 7:0.2 8:-0.25 9:0 #
-2.3091942435977897e-005 1:0.11111111 2:0.5 3:0.16666667 4:0.5 5:0.80000001 6:1 7:0.26666668 8:0 9:0.25 #
-1.0748293273512613e-005 1:0 2:1 3:0.33333334 4:0.33333334 5:0.60000002 6:0.75 7:0.2 8:-0.25 9:0 #
1.0748293273512613e-005 1:0 2:1 3:0.16666667 4:0.33333334 5:0.80000001 6:1 7:0.26666668 8:0 9:0.25 #
-2.3091942435977897e-005 1:0.33333334 2:0 3:0.16666667 4:0.33333334 5:0.80000001 6:1 7:0.26666668 8:0 9:0.25 #
2.3091942435977897e-005 1:0.33333334 2:0 3:0.33333334 4:0.33333334 5:0.60000002 6:0.75 7:0.2 8:-0.25 9:0 #
0.00011545971217988949 1:0.22222222 2:0.25 3:0.5 4:1 5:0.60000002 6:0.75 7:0.2 8:-0.25 9:0 #
-2.3091942435977897e-005 1:0.22222222 2:0.25 3:0.5 4:1 5:0.60000002 6:0.75 7:0.2 8:-0.25 9:0 #
-2.3091942435977897e-005 1:0.22222222 2:0.25 3:0.16666667 4:1 5:0.80000001 6:1 7:0.26666668 8:0 9:0.25 #
-2.3091942435977897e-005 1:0.22222222 2:0.25 3:0.16666667 4:1 5:0.80000001 6:1 7:0.26666668 8:0 9:0.25 #
-2.3091942435977897e-005 1:0.22222222 2:0.25 3:0.5 4:1 5:0.60000002 6:0.75 7:0.2 8:-0.25 9:0 #
-2.3091942435977897e-005 1:0.22222222 2:0.25 3:0.5 4:1 5:0.60000002 6:0.75 7:0.2 8:-0.25 9:0 #
-2.3091942435977897e-005 1:0 2:0.5 3:0.16666667 4:0.33333334 5:0.60000002 6:1 7:0.2 8:0 9:0 #
2.3091942435977897e-005 1:0 2:0.5 3:0.16666667 4:0.33333334 5:0.60000002 6:1 7:0.2 8:0 9:0 #
-2.3091942435977897e-005 1:0 2:0 3:0.16666667 4:0.5 5:0.80000001 6:1 7:0.26666668 8:0 9:0.25 #
2.3091942435977897e-005 1:0 2:0 3:0.16666667 4:0.5 5:0.80000001 6:1 7:0.26666668 8:0 9:0.25 #
-2.3091942435977897e-005 1:0 2:0.25 3:0.16666667 4:0.33333334 5:0.80000001 6:1 7:0.2 8:0 9:0 #
2.3091942435977897e-005 1:0 2:0.25 3:0.16666667 4:0.33333334 5:0.80000001 6:1 7:0.2 8:0 9:0 #
-2.3091942435977897e-005 1:0 2:0.5 3:0.16666667 4:0.5 5:1 6:1 7:0.33333331 8:0 9:0.5 #
4.6183884871955794e-005 1:0 2:0.5 3:0.33333334 4:0.5 5:0.80000001 6:0.80000001 7:0.26666668 8:-0.25 9:0.25 #
-2.3091942435977897e-005 1:0 2:0.5 3:0.5 4:0.5 5:0.60000002 6:0.60000002 7:0.2 8:-0.5 9:0 #
-2.3091942435977897e-005 1:0 2:1 3:0.16666667 4:0.33333334 5:0.80000001 6:1 7:0.2 8:0 9:0 #
2.3091942435977897e-005 1:0 2:1 3:0.16666667 4:0.33333334 5:0.80000001 6:1 7:0.2 8:0 9:0 #
-2.3091942435977897e-005 1:0 2:0 3:0.16666667 4:0.33333334 5:0.80000001 6:1 7:0.2 8:0 9:0 #
2.3091942435977897e-005 1:0 2:0 3:0.16666667 4:0.33333334 5:0.80000001 6:1 7:0.2 8:0 9:0 #
-2.3091942435977897e-005 1:0 2:0.25 3:0.16666667 4:1 5:0.80000001 6:1 7:0.40000001 8:0 9:0.5 #
2.3091942435977897e-005 1:0 2:0.25 3:0.16666667 4:1 5:0.80000001 6:1 7:0.40000001 8:0 9:0.5 #
-2.3091942435977897e-005 1:0 2:0.5 3:0.16666667 4:0.33333334 5:0.80000001 6:1 7:0.2 8:0 9:0 #
2.3091942435977897e-005 1:0 2:0.5 3:0.16666667 4:0.33333334 5:0.80000001 6:1 7:0.2 8:0 9:0 #
-2.3091942435977897e-005 1:0 2:0 3:0.16666667 4:0.33333334 5:0.80000001 6:1 7:0.2 8:0 9:0 #
2.3091942435977897e-005 1:0 2:0 3:0.16666667 4:0.33333334 5:0.80000001 6:1 7:0.2 8:0 9:0 #
-2.3091942435977897e-005 1:0 2:0.25 3:0.16666667 4:0.33333334 5:0.80000001 6:1 7:0.2 8:0 9:0 #
2.3091942435977897e-005 1:0 2:0.25 3:0.16666667 4:0.33333334 5:0.80000001 6:1 7:0.2 8:0 9:0 #
-2.3091942435977897e-005 1:0 2:1 3:0.16666667 4:0.33333334 5:0.80000001 6:1 7:0.2 8:0 9:0 #
2.3091942435977897e-005 1:0 2:1 3:0.16666667 4:0.33333334 5:0.80000001 6:1 7:0.2 8:0 9:0 #
-2.3091942435977897e-005 1:0.11111111 2:0 3:0.16666667 4:0.5 5:0.80000001 6:1 7:0.26666668 8:0 9:0.25 #
4.6183884871955794e-005 1:0.11111111 2:0 3:0.5 4:0.5 5:0.60000002 6:0.75 7:0.2 8:-0.25 9:0 #
-2.3091942435977897e-005 1:0.11111111 2:0 3:0.16666667 4:0.5 5:0.80000001 6:1 7:0.26666668 8:0 9:0.25 #
2.3091942435977897e-005 1:0 2:0.5 3:0.16666667 4:0.33333334 5:0.80000001 6:1 7:0.2 8:0 9:0 #
-2.3091942435977897e-005 1:0 2:0.5 3:0.16666667 4:0.33333334 5:0.80000001 6:1 7:0.2 8:0 9:0 #
4.6183884871955794e-005 1:0 2:0 3:0.16666667 4:0.5 5:0.60000002 6:1 7:0.2 8:0 9:0 #
-2.3091942435977897e-005 1:0 2:0 3:0.16666667 4:0.5 5:0.60000002 6:1 7:0.2 8:0 9:0 #
-2.3091942435977897e-005 1:0 2:0 3:0.16666667 4:0.5 5:0.60000002 6:1 7:0.2 8:0 9:0 #
2.3091942435977897e-005 1:0 2:0.25 3:0.16666667 4:0.5 5:1 6:1 7:0.33333331 8:0 9:0.5 #
-2.3091942435977897e-005 1:0 2:0.25 3:0.33333334 4:0.5 5:0.80000001 6:0.80000001 7:0.26666668 8:-0.25 9:0.25 #
-2.3091942435977897e-005 1:0 2:0.5 3:0.33333334 4:0.33333334 5:0.60000002 6:0.75 7:0.2 8:-0.25 9:0 #
2.3091942435977897e-005 1:0 2:0.5 3:0.16666667 4:0.33333334 5:0.80000001 6:1 7:0.26666668 8:0 9:0.25 #
-2.3091942435977897e-005 1:0 2:1 3:0.16666667 4:0.66666669 5:0.80000001 6:1 7:0.26666668 8:0 9:0.25 #
2.3091942435977897e-005 1:0 2:1 3:0.16666667 4:0.66666669 5:0.80000001 6:1 7:0.26666668 8:0 9:0.25 #
-2.3091942435977897e-005 1:0.11111111 2:0 3:0.16666667 4:0.5 5:0.60000002 6:1 7:0.2 8:0 9:0 #
-2.3091942435977897e-005 1:0.11111111 2:0 3:0.16666667 4:0.5 5:0.60000002 6:1 7:0.2 8:0 9:0 #
4.6183884871955794e-005 1:0.11111111 2:0 3:0.16666667 4:0.5 5:0.60000002 6:1 7:0.2 8:0 9:0 #
-2.3091942435977897e-005 1:0 2:0.5 3:0.16666667 4:0.5 5:0.80000001 6:1 7:0.40000001 8:0 9:0.5 #
2.3091942435977897e-005 1:0 2:0.5 3:0.16666667 4:0.5 5:0.80000001 6:1 7:0.40000001 8:0 9:0.5 #
2.3091942435977897e-005 1:0 2:1 3:0.16666667 4:0.33333334 5:0.80000001 6:1 7:0.2 8:0 9:0 #
-2.3091942435977897e-005 1:0 2:1 3:0.16666667 4:0.33333334 5:0.80000001 6:1 7:0.2 8:0 9:0 #
-2.3091942435977897e-005 1:0.22222222 2:0 3:0.16666667 4:0.5 5:0.60000002 6:1 7:0.2 8:0 9:0 #
4.6183884871955794e-005 1:0.22222222 2:0 3:0.16666667 4:0.5 5:0.60000002 6:1 7:0.2 8:0 9:0 #
-2.3091942435977897e-005 1:0.22222222 2:0 3:0.16666667 4:0.5 5:0.60000002 6:1 7:0.2 8:0 9:0 #
-2.3091942435977897e-005 1:0 2:0 3:0.16666667 4:0.33333334 5:0.80000001 6:1 7:0.2 8:0 9:0 #
2.3091942435977897e-005 1:0 2:0 3:0.16666667 4:0.33333334 5:0.80000001 6:1 7:0.2 8:0 9:0 #
2.3091942435977897e-005 1:0 2:0.25 3:0.16666667 4:0.33333334 5:0.80000001 6:1 7:0.2 8:0 9:0 #
-2.3091942435977897e-005 1:0 2:0.25 3:0.16666667 4:0.33333334 5:0.80000001 6:1 7:0.2 8:0 9:0 #
-2.3091942435977897e-005 1:0 2:0.5 3:0.16666667 4:0.33333334 5:0.80000001 6:1 7:0.2 8:0 9:0 #
2.3091942435977897e-005 1:0 2:0.5 3:0.16666667 4:0.33333334 5:0.80000001 6:1 7:0.2 8:0 9:0 #
2.3091942435977897e-005 1:0.11111111 2:0 3:0.16666667 4:0.33333334 5:0.80000001 6:1 7:0.2 8:0 9:0 #
-2.3091942435977897e-005 1:0.11111111 2:0 3:0.16666667 4:0.33333334 5:0.80000001 6:1 7:0.2 8:0 9:0 #
-2.3091942435977897e-005 1:0 2:0.25 3:0.16666667 4:0.33333334 5:0.80000001 6:1 7:0.2 8:0 9:0 #
2.3091942435977897e-005 1:0 2:0.25 3:0.16666667 4:0.33333334 5:0.80000001 6:1 7:0.2 8:0 9:0 #
-2.3091942435977897e-005 1:0 2:0.5 3:0.16666667 4:0.66666669 5:0.80000001 6:1 7:0.2 8:0 9:0 #
-2.3091942435977897e-005 1:0 2:0.5 3:0.16666667 4:0.66666669 5:0.80000001 6:1 7:0.2 8:0 9:0 #
-2.3091942435977897e-005 1:0 2:0.5 3:0.16666667 4:0.66666669 5:0.80000001 6:1 7:0.2 8:0 9:0 #
6.9275827307933684e-005 1:0 2:0.5 3:0.16666667 4:0.66666669 5:0.80000001 6:1 7:0.2 8:0 9:0 #
-2.3091942435977897e-005 1:0 2:0.75 3:0.16666667 4:0.5 5:0.80000001 6:1 7:0.2 8:0 9:0 #
-2.3091942435977897e-005 1:0 2:0.75 3:0.16666667 4:0.5 5:0.80000001 6:1 7:0.2 8:0 9:0 #
4.6183884871955794e-005 1:0 2:0.75 3:0.16666667 4:0.5 5:0.80000001 6:1 7:0.2 8:0 9:0 #
-2.3091942435977897e-005 1:0 2:1 3:0.16666667 4:0.33333334 5:0.80000001 6:1 7:0.26666668 8:0 9:0.25 #
2.3091942435977897e-005 1:0 2:1 3:0.33333334 4:0.33333334 5:0.60000002 6:0.75 7:0.2 8:-0.25 9:0 #
2.3091942435977897e-005 1:0.11111111 2:0 3:0.16666667 4:0.33333334 5:0.80000001 6:1 7:0.2 8:0 9:0 #
-2.3091942435977897e-005 1:0.11111111 2:0 3:0.16666667 4:0.33333334 5:0.80000001 6:1 7:0.2 8:0 9:0 #
-2.3091942435977897e-005 1:0 2:0.5 3:0.16666667 4:0.5 5:0.80000001 6:1 7:0.26666668 8:0 9:0.25 #
