SVM-light Version V6.02
1 # kernel type
8 # kernel parameter -d 
1 # kernel parameter -g 
1 # kernel parameter -s 
1 # kernel parameter -r 
empty# kernel parameter -u 
9 # highest feature index 
4012 # number of training documents 
2683 # number of support vectors plus 1 
0 # threshold b, each following line is a SV (starting with alpha*y)
-2.0662255805429898e-005 1:0 2:0.5 3:0.5 4:0.5 5:0.2 6:0.25 7:0.2 8:-0.75 9:0 #
4.1324511610859796e-005 1:0 2:0.5 3:0.33333334 4:0.5 5:0.60000002 6:0.75 7:0.60000002 8:-0.25 9:0.5 #
-2.0662255805429898e-005 1:0 2:0.5 3:0.16666667 4:0.5 5:0.80000001 6:1 7:0.80000001 8:0 9:0.75 #
2.0662255805429898e-005 1:0.11111111 2:0 3:0.16666667 4:0.33333334 5:1 6:1 7:0.33333331 8:0 9:0.5 #
-2.0662255805429898e-005 1:0.11111111 2:0 3:0.33333334 4:0.33333334 5:0.60000002 6:0.60000002 7:0.2 8:-0.5 9:0 #
-2.0662255805429898e-005 1:0.11111111 2:0.5 3:0.5 4:0.5 5:0.2 6:0.25 7:0.2 8:-0.75 9:0 #
4.1324511610859796e-005 1:0.11111111 2:0.5 3:0.33333334 4:0.5 5:0.60000002 6:0.75 7:0.60000002 8:-0.25 9:0.5 #
-2.0662255805429898e-005 1:0.11111111 2:0.5 3:0.16666667 4:0.5 5:0.80000001 6:1 7:0.80000001 8:0 9:0.75 #
-2.0662255805429898e-005 1:0 2:0 3:0.33333334 4:0.33333334 5:0.60000002 6:0.75 7:0.2 8:-0.25 9:0 #
2.0662255805429898e-005 1:0 2:0 3:0.16666667 4:0.33333334 5:0.80000001 6:1 7:0.26666668 8:0 9:0.25 #
-2.0662255805429898e-005 1:0 2:0.25 3:0.33333334 4:0.33333334 5:0.60000002 6:0.75 7:0.2 8:-0.25 9:0 #
2.0662255805429898e-005 1:0 2:0.25 3:0.16666667 4:0.33333334 5:0.80000001 6:1 7:0.26666668 8:0 9:0.25 #
-2.0662255805429898e-005 1:0 2:0 3:0.33333334 4:0.5 5:0.60000002 6:0.75 7:0.30000001 8:-0.25 9:0.25 #
2.0662255805429898e-005 1:0 2:0 3:0.16666667 4:0.5 5:0.80000001 6:1 7:0.40000001 8:0 9:0.5 #
2.0662255805429898e-005 1:0.22222222 2:0 3:0.16666667 4:0.33333334 5:1 6:1 7:0.33333331 8:0 9:0.5 #
-2.0662255805429898e-005 1:0.22222222 2:0 3:0.33333334 4:0.33333334 5:0.60000002 6:0.60000002 7:0.2 8:-0.5 9:0 #
4.1324511610859796e-005 1:0.22222222 2:0.5 3:0.5 4:0.5 5:0.2 6:0.25 7:0.2 8:-0.75 9:0 #
-2.0662255805429898e-005 1:0.22222222 2:0.5 3:0.33333334 4:0.5 5:0.60000002 6:0.75 7:0.60000002 8:-0.25 9:0.5 #
-2.0662255805429898e-005 1:0.22222222 2:0.5 3:0.16666667 4:0.5 5:0.80000001 6:1 7:0.80000001 8:0 9:0.75 #
-2.0662255805429898e-005 1:0 2:0.25 3:0.33333334 4:0.33333334 5:0.60000002 6:0.75 7:0.2 8:-0.25 9:0 #
2.0662255805429898e-005 1:0 2:0.25 3:0.16666667 4:0.33333334 5:0.80000001 6:1 7:0.26666668 8:0 9:0.25 #
-2.0662255805429898e-005 1:0 2:0.5 3:0.16666667 4:0.5 5:0.80000001 6:1 7:0.26666668 8:0 9:0.25 #
2.0662255805429898e-005 1:0 2:0.5 3:0.16666667 4:0.5 5:0.80000001 6:1 7:0.26666668 8:0 9:0.25 #
4.1324511610859796e-005 1:0.11111111 2:0 3:0.33333334 4:0.5 5:0.60000002 6:0.75 7:0.30000001 8:-0.25 9:0.25 #
-2.0662255805429898e-005 1:0.11111111 2:0 3:0.5 4:0.5 5:0.40000001 6:0.5 7:0.2 8:-0.5 9:0 #
-2.0662255805429898e-005 1:0.11111111 2:0 3:0.16666667 4:0.5 5:0.80000001 6:1 7:0.40000001 8:0 9:0.5 #
-2.0662255805429898e-005 1:0 2:0.25 3:0.16666667 4:0.5 5:0.80000001 6:1 7:0.40000001 8:0 9:0.5 #
2.0662255805429898e-005 1:0 2:0.25 3:0.16666667 4:0.5 5:0.80000001 6:1 7:0.40000001 8:0 9:0.5 #
2.0662255805429898e-005 1:0 2:0.75 3:0.16666667 4:0.33333334 5:0.80000001 6:1 7:0.2 8:0 9:0 #
-2.0662255805429898e-005 1:0 2:0.75 3:0.16666667 4:0.33333334 5:0.80000001 6:1 7:0.2 8:0 9:0 #
2.0662255805429898e-005 1:0.11111111 2:0 3:0.33333334 4:0.33333334 5:0.60000002 6:0.75 7:0.2 8:-0.25 9:0 #
-2.0662255805429898e-005 1:0.11111111 2:0 3:0.16666667 4:0.33333334 5:0.80000001 6:1 7:0.26666668 8:0 9:0.25 #
2.0662255805429898e-005 1:0.33333334 2:0 3:0.16666667 4:0.33333334 5:1 6:1 7:0.33333331 8:0 9:0.5 #
-2.0662255805429898e-005 1:0.33333334 2:0 3:0.33333334 4:0.33333334 5:0.60000002 6:0.60000002 7:0.2 8:-0.5 9:0 #
4.1324511610859796e-005 1:0.33333334 2:0.5 3:0.5 4:0.5 5:0.2 6:0.25 7:0.2 8:-0.75 9:0 #
-2.0662255805429898e-005 1:0.33333334 2:0.5 3:0.33333334 4:0.5 5:0.60000002 6:0.75 7:0.60000002 8:-0.25 9:0.5 #
-2.0662255805429898e-005 1:0.33333334 2:0.5 3:0.16666667 4:0.5 5:0.80000001 6:1 7:0.80000001 8:0 9:0.75 #
2.0662255805429898e-005 1:0.11111111 2:0.75 3:0.16666667 4:0.33333334 5:0.80000001 6:1 7:0.40000001 8:0 9:0.5 #
-2.0662255805429898e-005 1:0.11111111 2:0.75 3:0.33333334 4:0.33333334 5:0.40000001 6:0.5 7:0.2 8:-0.5 9:0 #
-5.0856168743348906e-006 1:0.11111111 2:1 3:0.33333334 4:0.33333334 5:0.2 6:0.2 7:0.2 8:-1 9:0 #
5.0856168743348906e-006 1:0.11111111 2:1 3:0.16666667 4:0.33333334 5:1 6:1 7:1 8:0 9:1 #
2.0662255805429898e-005 1:0.22222222 2:0 3:0.33333334 4:0.33333334 5:0.60000002 6:0.75 7:0.2 8:-0.25 9:0 #
-2.0662255805429898e-005 1:0.22222222 2:0 3:0.16666667 4:0.33333334 5:0.80000001 6:1 7:0.26666668 8:0 9:0.25 #
-2.0662255805429898e-005 1:0.44444445 2:0 3:0.16666667 4:0.33333334 5:1 6:1 7:0.33333331 8:0 9:0.5 #
2.0662255805429898e-005 1:0.44444445 2:0 3:0.33333334 4:0.33333334 5:0.60000002 6:0.60000002 7:0.2 8:-0.5 9:0 #
-2.0662255805429898e-005 1:0 2:0.25 3:0.16666667 4:1 5:0.80000001 6:1 7:0.26666668 8:0 9:0.25 #
-2.0662255805429898e-005 1:0 2:0.25 3:0.16666667 4:1 5:0.80000001 6:1 7:0.26666668 8:0 9:0.25 #
4.1324511610859796e-005 1:0 2:0.25 3:0.16666667 4:1 5:0.80000001 6:1 7:0.26666668 8:0 9:0.25 #
2.0662255805429898e-005 1:0 2:0.5 3:0.16666667 4:0.33333334 5:0.80000001 6:1 7:0.26666668 8:0 9:0.25 #
-2.0662255805429898e-005 1:0 2:0.5 3:0.33333334 4:0.33333334 5:0.60000002 6:0.75 7:0.2 8:-0.25 9:0 #
-2.0662255805429898e-005 1:0.22222222 2:0 3:0.33333334 4:0.5 5:0.60000002 6:0.75 7:0.30000001 8:-0.25 9:0.25 #
4.1324511610859796e-005 1:0.22222222 2:0 3:0.5 4:0.5 5:0.40000001 6:0.5 7:0.2 8:-0.5 9:0 #
-2.0662255805429898e-005 1:0.22222222 2:0 3:0.16666667 4:0.5 5:0.80000001 6:1 7:0.40000001 8:0 9:0.5 #
2.0662255805429898e-005 1:0.11111111 2:0.25 3:0.33333334 4:0.33333334 5:0.40000001 6:0.5 7:0.2 8:-0.5 9:0 #
-2.0662255805429898e-005 1:0.11111111 2:0.25 3:0.16666667 4:0.33333334 5:0.80000001 6:1 7:0.40000001 8:0 9:0.5 #
1.2925827132160185e-007 1:0 2:0.5 3:0.16666667 4:0.33333334 5:1 6:1 7:0.5 8:0 9:0.75 #
-1.2925827132160185e-007 1:0 2:0.5 3:0.33333334 4:0.33333334 5:0.40000001 6:0.40000001 7:0.2 8:-0.75 9:0 #
1.6864950422160782e-005 1:0 2:0.75 3:0.16666667 4:0.33333334 5:1 6:1 7:0.5 8:0 9:0.75 #
-1.6864950422160782e-005 1:0 2:0.75 3:0.33333334 4:0.33333334 5:0.40000001 6:0.40000001 7:0.2 8:-0.75 9:0 #
-2.0662255805429898e-005 1:0.55555558 2:0 3:0.16666667 4:0.33333334 5:1 6:1 7:0.33333331 8:0 9:0.5 #
2.0662255805429898e-005 1:0.55555558 2:0 3:0.33333334 4:0.33333334 5:0.60000002 6:0.60000002 7:0.2 8:-0.5 9:0 #
-2.0662255805429898e-005 1:0.11111111 2:0.25 3:0.16666667 4:1 5:0.80000001 6:1 7:0.26666668 8:0 9:0.25 #
-1.9577858366371626e-005 1:0.11111111 2:0.25 3:0.66666669 4:1 5:0.60000002 6:0.75 7:0.2 8:-0.25 9:0 #
9.1046196716615892e-005 1:0.11111111 2:0.25 3:0.16666667 4:1 5:0.80000001 6:1 7:0.26666668 8:0 9:0.25 #
-2.0662255805429898e-005 1:0.11111111 2:0.25 3:0.16666667 4:1 5:0.80000001 6:1 7:0.26666668 8:0 9:0.25 #
-1.3223765549490069e-005 1:0.11111111 2:0.25 3:0.66666669 4:1 5:0.60000002 6:0.75 7:0.2 8:-0.25 9:0 #
-1.6920061189894403e-005 1:0.11111111 2:0.25 3:0.66666669 4:1 5:0.60000002 6:0.75 7:0.2 8:-0.25 9:0 #
-2.0662255805429898e-005 1:0 2:0.5 3:0.33333334 4:0.33333334 5:0.60000002 6:0.75 7:0.2 8:-0.25 9:0 #
2.0662255805429898e-005 1:0 2:0.5 3:0.16666667 4:0.33333334 5:0.80000001 6:1 7:0.26666668 8:0 9:0.25 #
2.0662255805429898e-005 1:0 2:1 3:0.16666667 4:0.83333331 5:0.80000001 6:1 7:0.80000001 8:0 9:0.75 #
-2.0662255805429898e-005 1:0 2:1 3:0.16666667 4:0.83333331 5:0.80000001 6:1 7:0.80000001 8:0 9:0.75 #
-2.0662255805429898e-005 1:0.66666669 2:0 3:0.16666667 4:0.33333334 5:1 6:1 7:0.33333331 8:0 9:0.5 #
2.0662255805429898e-005 1:0.66666669 2:0 3:0.33333334 4:0.33333334 5:0.60000002 6:0.60000002 7:0.2 8:-0.5 9:0 #
-2.0662255805429898e-005 1:0.22222222 2:0.25 3:0.16666667 4:1 5:0.80000001 6:1 7:0.26666668 8:0 9:0.25 #
0.00010331127902714949 1:0.22222222 2:0.25 3:0.66666669 4:1 5:0.60000002 6:0.75 7:0.2 8:-0.25 9:0 #
-2.0662255805429898e-005 1:0.22222222 2:0.25 3:0.16666667 4:1 5:0.80000001 6:1 7:0.26666668 8:0 9:0.25 #
-2.0662255805429898e-005 1:0.22222222 2:0.25 3:0.16666667 4:1 5:0.80000001 6:1 7:0.26666668 8:0 9:0.25 #
-2.0662255805429898e-005 1:0.22222222 2:0.25 3:0.66666669 4:1 5:0.60000002 6:0.75 7:0.2 8:-0.25 9:0 #
-2.0662255805429898e-005 1:0.22222222 2:0.25 3:0.66666669 4:1 5:0.60000002 6:0.75 7:0.2 8:-0.25 9:0 #
2.0662255805429898e-005 1:0 2:0.75 3:0.16666667 4:0.33333334 5:0.80000001 6:1 7:0.2 8:0 9:0 #
-2.0662255805429898e-005 1:0 2:0.75 3:0.16666667 4:0.33333334 5:0.80000001 6:1 7:0.2 8:0 9:0 #
4.1324511610859796e-005 1:0.33333334 2:0 3:0.33333334 4:0.5 5:0.60000002 6:0.75 7:0.30000001 8:-0.25 9:0.25 #
-2.0662255805429898e-005 1:0.33333334 2:0 3:0.5 4:0.5 5:0.40000001 6:0.5 7:0.2 8:-0.5 9:0 #
-2.0662255805429898e-005 1:0.33333334 2:0 3:0.16666667 4:0.5 5:0.80000001 6:1 7:0.40000001 8:0 9:0.5 #
2.0662255805429898e-005 1:0.11111111 2:0.25 3:0.16666667 4:0.5 5:0.80000001 6:1 7:0.40000001 8:0 9:0.5 #
-2.0662255805429898e-005 1:0.11111111 2:0.25 3:0.16666667 4:0.5 5:0.80000001 6:1 7:0.40000001 8:0 9:0.5 #
-2.0662255805429898e-005 1:0 2:0.5 3:0.33333334 4:0.33333334 5:0.60000002 6:0.75 7:0.2 8:-0.25 9:0 #
2.0662255805429898e-005 1:0 2:0.5 3:0.16666667 4:0.33333334 5:0.80000001 6:1 7:0.26666668 8:0 9:0.25 #
2.0662255805429898e-005 1:0 2:1 3:0.16666667 4:0.66666669 5:0.80000001 6:1 7:0.40000001 8:0 9:0.5 #
-2.0662255805429898e-005 1:0 2:1 3:0.16666667 4:0.66666669 5:0.80000001 6:1 7:0.40000001 8:0 9:0.5 #
4.1324511610859796e-005 1:0.11111111 2:0 3:0.33333334 4:0.5 5:0.60000002 6:0.75 7:0.2 8:-0.25 9:0 #
-2.0662255805429898e-005 1:0.11111111 2:0 3:0.33333334 4:0.5 5:0.60000002 6:0.75 7:0.2 8:-0.25 9:0 #
-2.0662255805429898e-005 1:0.11111111 2:0 3:0.16666667 4:0.5 5:0.80000001 6:1 7:0.26666668 8:0 9:0.25 #
-2.0662255805429898e-005 1:0.44444445 2:0 3:0.33333334 4:0.5 5:0.60000002 6:0.75 7:0.30000001 8:-0.25 9:0.25 #
-2.0662255805429898e-005 1:0.44444445 2:0 3:0.5 4:0.5 5:0.40000001 6:0.5 7:0.2 8:-0.5 9:0 #
4.1324511610859796e-005 1:0.44444445 2:0 3:0.16666667 4:0.5 5:0.80000001 6:1 7:0.40000001 8:0 9:0.5 #
-2.0662255805429898e-005 1:0.11111111 2:0.5 3:0.5 4:0.5 5:0.40000001 6:0.5 7:0.2 8:-0.5 9:0 #
4.1324511610859796e-005 1:0.11111111 2:0.5 3:0.33333334 4:0.5 5:0.60000002 6:0.75 7:0.30000001 8:-0.25 9:0.25 #
-2.0662255805429898e-005 1:0.11111111 2:0.5 3:0.16666667 4:0.5 5:0.80000001 6:1 7:0.40000001 8:0 9:0.5 #
4.1324511610859796e-005 1:0 2:0.75 3:0.16666667 4:0.5 5:0.80000001 6:1 7:0.2 8:0 9:0 #
-2.0662255805429898e-005 1:0 2:0.75 3:0.16666667 4:0.5 5:0.80000001 6:1 7:0.2 8:0 9:0 #
-2.0662255805429898e-005 1:0 2:0.75 3:0.16666667 4:0.5 5:0.80000001 6:1 7:0.2 8:0 9:0 #
2.0662255805429898e-005 1:0.22222222 2:0 3:0.33333334 4:0.33333334 5:0.40000001 6:0.5 7:0.2 8:-0.5 9:0 #
-2.0662255805429898e-005 1:0.22222222 2:0 3:0.16666667 4:0.33333334 5:0.80000001 6:1 7:0.40000001 8:0 9:0.5 #
2.0662255805429898e-005 1:0 2:0.25 3:0.16666667 4:0.33333334 5:0.60000002 6:1 7:0.2 8:0 9:0 #
-2.0662255805429898e-005 1:0 2:0.25 3:0.16666667 4:0.33333334 5:0.60000002 6:1 7:0.2 8:0 9:0 #
-2.0662255805429898e-005 1:0 2:0.5 3:0.33333334 4:0.33333334 5:0.60000002 6:0.75 7:0.2 8:-0.25 9:0 #
2.0662255805429898e-005 1:0 2:0.5 3:0.16666667 4:0.33333334 5:0.80000001 6:1 7:0.26666668 8:0 9:0.25 #
-2.0662255805429898e-005 1:0 2:0.25 3:0.33333334 4:0.33333334 5:0.60000002 6:0.75 7:0.2 8:-0.25 9:0 #
2.0662255805429898e-005 1:0 2:0.25 3:0.16666667 4:0.33333334 5:0.80000001 6:1 7:0.26666668 8:0 9:0.25 #
-2.0662255805429898e-005 1:0 2:0.25 3:0.33333334 4:1 5:0.80000001 6:0.80000001 7:0.26666668 8:-0.25 9:0.25 #
-2.0662255805429898e-005 1:0 2:0.25 3:0.33333334 4:1 5:0.80000001 6:0.80000001 7:0.26666668 8:-0.25 9:0.25 #
8.2649023221719592e-005 1:0 2:0.25 3:0.16666667 4:1 5:1 6:1 7:0.33333331 8:0 9:0.5 #
-2.0662255805429898e-005 1:0 2:0.25 3:0.33333334 4:1 5:0.80000001 6:0.80000001 7:0.26666668 8:-0.25 9:0.25 #
-2.0662255805429898e-005 1:0 2:0.25 3:0.33333334 4:1 5:0.80000001 6:0.80000001 7:0.26666668 8:-0.25 9:0.25 #
-2.0662255805429898e-005 1:0 2:0.5 3:0.33333334 4:0.33333334 5:0.60000002 6:0.75 7:0.2 8:-0.25 9:0 #
2.0662255805429898e-005 1:0 2:0.5 3:0.16666667 4:0.33333334 5:0.80000001 6:1 7:0.26666668 8:0 9:0.25 #
-2.0662255805429898e-005 1:0.11111111 2:0.25 3:0.33333334 4:1 5:0.80000001 6:0.80000001 7:0.26666668 8:-0.25 9:0.25 #
-2.0662255805429898e-005 1:0.11111111 2:0.25 3:0.33333334 4:1 5:0.80000001 6:0.80000001 7:0.26666668 8:-0.25 9:0.25 #
-2.0662255805429898e-005 1:0.11111111 2:0.25 3:0.16666667 4:1 5:1 6:1 7:0.33333331 8:0 9:0.5 #
-2.0662255805429898e-005 1:0.11111111 2:0.25 3:0.33333334 4:1 5:0.80000001 6:0.80000001 7:0.26666668 8:-0.25 9:0.25 #
8.2649023221719592e-005 1:0.11111111 2:0.25 3:0.33333334 4:1 5:0.80000001 6:0.80000001 7:0.26666668 8:-0.25 9:0.25 #
2.0662255805429898e-005 1:0.22222222 2:0 3:0.33333334 4:0.33333334 5:0.40000001 6:0.5 7:0.2 8:-0.5 9:0 #
-2.0662255805429898e-005 1:0.22222222 2:0 3:0.16666667 4:0.33333334 5:0.80000001 6:1 7:0.40000001 8:0 9:0.5 #
-2.0662255805429898e-005 1:0.33333334 2:0 3:0.33333334 4:0.33333334 5:0.40000001 6:0.5 7:0.2 8:-0.5 9:0 #
2.0662255805429898e-005 1:0.33333334 2:0 3:0.16666667 4:0.33333334 5:0.80000001 6:1 7:0.40000001 8:0 9:0.5 #
-2.0662255805429898e-005 1:0.22222222 2:0.25 3:0.33333334 4:1 5:0.80000001 6:0.80000001 7:0.26666668 8:-0.25 9:0.25 #
0.00010331127902714949 1:0.22222222 2:0.25 3:0.33333334 4:1 5:0.80000001 6:0.80000001 7:0.26666668 8:-0.25 9:0.25 #
-2.0662255805429898e-005 1:0.22222222 2:0.25 3:1 4:1 5:0.60000002 6:0.60000002 7:0.2 8:-0.5 9:0 #
-2.0662255805429898e-005 1:0.22222222 2:0.25 3:0.16666667 4:1 5:1 6:1 7:0.33333331 8:0 9:0.5 #
-2.0662255805429898e-005 1:0.22222222 2:0.25 3:0.33333334 4:1 5:0.80000001 6:0.80000001 7:0.26666668 8:-0.25 9:0.25 #
-2.0662255805429898e-005 1:0.22222222 2:0.25 3:0.33333334 4:1 5:0.80000001 6:0.80000001 7:0.26666668 8:-0.25 9:0.25 #
2.0662255805429898e-005 1:0 2:0.75 3:0.16666667 4:0.33333334 5:0.60000002 6:1 7:0.2 8:0 9:0 #
-2.0662255805429898e-005 1:0 2:0.75 3:0.16666667 4:0.33333334 5:0.60000002 6:1 7:0.2 8:0 9:0 #
-2.0662255805429898e-005 1:0 2:0 3:0.33333334 4:0.5 5:0.60000002 6:0.75 7:0.60000002 8:-0.25 9:0.5 #
2.0662255805429898e-005 1:0 2:0 3:0.16666667 4:0.5 5:0.80000001 6:1 7:0.80000001 8:0 9:0.75 #
-2.0662255805429898e-005 1:0 2:0.5 3:0.16666667 4:0.5 5:0.60000002 6:1 7:0.30000001 8:0 9:0.25 #
2.0662255805429898e-005 1:0 2:0.5 3:0.16666667 4:0.5 5:0.60000002 6:1 7:0.30000001 8:0 9:0.25 #
4.1324511610859796e-005 1:0 2:0.75 3:0.16666667 4:0.5 5:0.60000002 6:1 7:0.2 8:0 9:0 #
-2.0662255805429898e-005 1:0 2:0.75 3:0.16666667 4:0.5 5:0.60000002 6:1 7:0.2 8:0 9:0 #
-2.0662255805429898e-005 1:0 2:0.75 3:0.16666667 4:0.5 5:0.60000002 6:1 7:0.2 8:0 9:0 #
-2.0662255805429898e-005 1:0.11111111 2:0 3:0.33333334 4:0.5 5:0.60000002 6:0.75 7:0.60000002 8:-0.25 9:0.5 #
2.0662255805429898e-005 1:0.11111111 2:0 3:0.16666667 4:0.5 5:0.80000001 6:1 7:0.80000001 8:0 9:0.75 #
-2.0662255805429898e-005 1:0.11111111 2:0.5 3:0.16666667 4:0.5 5:0.60000002 6:1 7:0.30000001 8:0 9:0.25 #
4.1324511610859796e-005 1:0.11111111 2:0.5 3:0.16666667 4:0.5 5:0.60000002 6:1 7:0.30000001 8:0 9:0.25 #
-2.0662255805429898e-005 1:0.11111111 2:0.5 3:0.5 4:0.5 5:0.40000001 6:0.66666669 7:0.2 8:-0.25 9:0 #
-2.0662255805429898e-005 1:0.11111111 2:0.75 3:0.16666667 4:0.5 5:0.60000002 6:1 7:0.2 8:0 9:0 #
4.1324511610859796e-005 1:0.11111111 2:0.75 3:0.16666667 4:0.5 5:0.60000002 6:1 7:0.2 8:0 9:0 #
-2.0662255805429898e-005 1:0.11111111 2:0.75 3:0.16666667 4:0.5 5:0.60000002 6:1 7:0.2 8:0 9:0 #
-2.0662255805429898e-005 1:0 2:0 3:0.33333334 4:0.33333334 5:0.40000001 6:0.66666669 7:0.2 8:-0.25 9:0 #
2.0662255805429898e-005 1:0 2:0 3:0.16666667 4:0.33333334 5:0.60000002 6:1 7:0.30000001 8:0 9:0.25 #
-2.0662255805429898e-005 1:0 2:0.25 3:0.16666667 4:0.33333334 5:0.60000002 6:1 7:0.2 8:0 9:0 #
2.0662255805429898e-005 1:0 2:0.25 3:0.16666667 4:0.33333334 5:0.60000002 6:1 7:0.2 8:0 9:0 #
-2.0662255805429898e-005 1:0 2:0.75 3:0.16666667 4:0.33333334 5:0.40000001 6:1 7:0.2 8:0 9:0 #
2.0662255805429898e-005 1:0 2:0.75 3:0.16666667 4:0.33333334 5:0.40000001 6:1 7:0.2 8:0 9:0 #
2.0662255805429898e-005 1:0 2:0 3:0.16666667 4:0.33333334 5:0.60000002 6:1 7:0.2 8:0 9:0 #
-2.0662255805429898e-005 1:0 2:0 3:0.16666667 4:0.33333334 5:0.60000002 6:1 7:0.2 8:0 9:0 #
2.0662255805429898e-005 1:0 2:0.25 3:0.16666667 4:0.33333334 5:0.80000001 6:1 7:0.26666668 8:0 9:0.25 #
-2.0662255805429898e-005 1:0 2:0.25 3:0.33333334 4:0.33333334 5:0.60000002 6:0.75 7:0.2 8:-0.25 9:0 #
2.0662255805429898e-005 1:0 2:0.5 3:0.16666667 4:0.33333334 5:0.80000001 6:1 7:0.26666668 8:0 9:0.25 #
-2.0662255805429898e-005 1:0 2:0.5 3:0.33333334 4:0.33333334 5:0.60000002 6:0.75 7:0.2 8:-0.25 9:0 #
-2.0662255805429898e-005 1:0.44444445 2:0 3:0.33333334 4:0.33333334 5:0.40000001 6:0.5 7:0.2 8:-0.5 9:0 #
2.0662255805429898e-005 1:0.44444445 2:0 3:0.16666667 4:0.33333334 5:0.80000001 6:1 7:0.40000001 8:0 9:0.5 #
0.00010331127902714949 1:0.33333334 2:0.25 3:0.33333334 4:1 5:0.80000001 6:0.80000001 7:0.26666668 8:-0.25 9:0.25 #
-2.0662255805429898e-005 1:0.33333334 2:0.25 3:0.33333334 4:1 5:0.80000001 6:0.80000001 7:0.26666668 8:-0.25 9:0.25 #
-2.0662255805429898e-005 1:0.33333334 2:0.25 3:1 4:1 5:0.60000002 6:0.60000002 7:0.2 8:-0.5 9:0 #
-2.0662255805429898e-005 1:0.33333334 2:0.25 3:0.16666667 4:1 5:1 6:1 7:0.33333331 8:0 9:0.5 #
-2.0662255805429898e-005 1:0.33333334 2:0.25 3:0.33333334 4:1 5:0.80000001 6:0.80000001 7:0.26666668 8:-0.25 9:0.25 #
-2.0662255805429898e-005 1:0.33333334 2:0.25 3:0.33333334 4:1 5:0.80000001 6:0.80000001 7:0.26666668 8:-0.25 9:0.25 #
-2.0662255805429898e-005 1:0 2:0.5 3:0.16666667 4:0.33333334 5:0.60000002 6:1 7:0.2 8:0 9:0 #
2.0662255805429898e-005 1:0 2:0.5 3:0.16666667 4:0.33333334 5:0.60000002 6:1 7:0.2 8:0 9:0 #
-2.0662255805429898e-005 1:0.11111111 2:0 3:0.33333334 4:0.33333334 5:0.40000001 6:0.66666669 7:0.2 8:-0.25 9:0 #
2.0662255805429898e-005 1:0.11111111 2:0 3:0.16666667 4:0.33333334 5:0.60000002 6:1 7:0.30000001 8:0 9:0.25 #
2.0662255805429898e-005 1:0.11111111 2:0.25 3:0.16666667 4:0.33333334 5:0.60000002 6:1 7:0.2 8:0 9:0 #
-2.0662255805429898e-005 1:0.11111111 2:0.25 3:0.16666667 4:0.33333334 5:0.60000002 6:1 7:0.2 8:0 9:0 #
2.0662255805429898e-005 1:0.11111111 2:0.25 3:0.33333334 4:0.33333334 5:0.60000002 6:0.75 7:0.2 8:-0.25 9:0 #
-2.0662255805429898e-005 1:0.11111111 2:0.25 3:0.16666667 4:0.33333334 5:0.80000001 6:1 7:0.26666668 8:0 9:0.25 #
-2.0662255805429898e-005 1:0 2:0.75 3:0.16666667 4:0.33333334 5:0.60000002 6:1 7:0.2 8:0 9:0 #
2.0662255805429898e-005 1:0 2:0.75 3:0.16666667 4:0.33333334 5:0.60000002 6:1 7:0.2 8:0 9:0 #
-2.0662255805429898e-005 1:0.22222222 2:0 3:0.5 4:0.5 5:0.2 6:0.25 7:0.2 8:-0.75 9:0 #
-2.0662255805429898e-005 1:0.22222222 2:0 3:0.33333334 4:0.5 5:0.40000001 6:0.5 7:0.40000001 8:-0.5 9:0.25 #
4.1324511610859796e-005 1:0.22222222 2:0 3:0.16666667 4:0.5 5:0.80000001 6:1 7:0.80000001 8:0 9:0.75 #
-2.0662255805429898e-005 1:0.22222222 2:0.25 3:0.33333334 4:0.33333334 5:0.60000002 6:0.75 7:0.2 8:-0.25 9:0 #
2.0662255805429898e-005 1:0.22222222 2:0.25 3:0.16666667 4:0.33333334 5:0.80000001 6:1 7:0.26666668 8:0 9:0.25 #
-2.0662255805429898e-005 1:0.11111111 2:0.5 3:0.16666667 4:0.5 5:0.80000001 6:1 7:0.40000001 8:0 9:0.5 #
4.1324511610859796e-005 1:0.11111111 2:0.5 3:0.33333334 4:0.5 5:0.60000002 6:0.75 7:0.30000001 8:-0.25 9:0.25 #
-2.0662255805429898e-005 1:0.11111111 2:0.5 3:0.5 4:0.5 5:0.40000001 6:0.5 7:0.2 8:-0.5 9:0 #
-2.0662255805429898e-005 1:0 2:0.75 3:0.16666667 4:0.33333334 5:0.60000002 6:1 7:0.2 8:0 9:0 #
2.0662255805429898e-005 1:0 2:0.75 3:0.16666667 4:0.33333334 5:0.60000002 6:1 7:0.2 8:0 9:0 #
4.1324511610859796e-005 1:0.22222222 2:0 3:0.33333334 4:0.5 5:0.60000002 6:0.75 7:0.60000002 8:-0.25 9:0.5 #
-2.0662255805429898e-005 1:0.22222222 2:0 3:0.5 4:0.5 5:0.2 6:0.25 7:0.2 8:-0.75 9:0 #
-2.0662255805429898e-005 1:0.22222222 2:0 3:0.16666667 4:0.5 5:0.80000001 6:1 7:0.80000001 8:0 9:0.75 #
4.1324511610859796e-005 1:0.33333334 2:0 3:0.33333334 4:0.5 5:0.60000002 6:0.75 7:0.60000002 8:-0.25 9:0.5 #
-2.0662255805429898e-005 1:0.33333334 2:0 3:0.5 4:0.5 5:0.2 6:0.25 7:0.2 8:-0.75 9:0 #
-2.0662255805429898e-005 1:0.33333334 2:0 3:0.16666667 4:0.5 5:0.80000001 6:1 7:0.80000001 8:0 9:0.75 #
2.0662255805429898e-005 1:0.11111111 2:0.25 3:0.16666667 4:0.5 5:0.80000001 6:1 7:0.40000001 8:0 9:0.5 #
-2.0662255805429898e-005 1:0.11111111 2:0.25 3:0.33333334 4:0.5 5:0.60000002 6:0.75 7:0.30000001 8:-0.25 9:0.25 #
-2.0662255805429898e-005 1:0.11111111 2:0.5 3:0.33333334 4:0.33333334 5:0.80000001 6:0.80000001 7:0.2 8:-0.25 9:0 #
2.0662255805429898e-005 1:0.11111111 2:0.5 3:0.16666667 4:0.33333334 5:1 6:1 7:0.25 8:0 9:0.25 #
-2.0662255805429898e-005 1:0.11111111 2:1 3:0.66666669 4:0.66666669 5:0.40000001 6:0.5 7:0.2 8:-0.5 9:0 #
6.1986767416289694e-005 1:0.11111111 2:1 3:0.33333334 4:0.66666669 5:0.60000002 6:0.75 7:0.30000001 8:-0.25 9:0.25 #
-2.0662255805429898e-005 1:0.11111111 2:1 3:0.16666667 4:0.66666669 5:0.80000001 6:1 7:0.40000001 8:0 9:0.5 #
-2.0662255805429898e-005 1:0.11111111 2:1 3:0.33333334 4:0.66666669 5:0.60000002 6:0.75 7:0.30000001 8:-0.25 9:0.25 #
2.0662255805429898e-005 1:0.11111111 2:0 3:0.16666667 4:0.33333334 5:0.60000002 6:1 7:0.2 8:0 9:0 #
-2.0662255805429898e-005 1:0.11111111 2:0 3:0.16666667 4:0.33333334 5:0.60000002 6:1 7:0.2 8:0 9:0 #
2.0662255805429898e-005 1:0.11111111 2:0.25 3:0.16666667 4:0.33333334 5:0.80000001 6:1 7:0.26666668 8:0 9:0.25 #
-2.0662255805429898e-005 1:0.11111111 2:0.25 3:0.33333334 4:0.33333334 5:0.60000002 6:0.75 7:0.2 8:-0.25 9:0 #
-2.0662255805429898e-005 1:0.11111111 2:0.5 3:0.16666667 4:0.33333334 5:0.80000001 6:1 7:0.26666668 8:0 9:0.25 #
2.0662255805429898e-005 1:0.11111111 2:0.5 3:0.33333334 4:0.33333334 5:0.60000002 6:0.75 7:0.2 8:-0.25 9:0 #
2.0662255805429898e-005 1:0 2:0.75 3:0.16666667 4:0.5 5:0.80000001 6:1 7:0.40000001 8:0 9:0.5 #
-2.0662255805429898e-005 1:0 2:0.75 3:0.16666667 4:0.5 5:0.80000001 6:1 7:0.40000001 8:0 9:0.5 #
-2.0530168114196648e-005 1:0 2:1 3:0.33333334 4:0.5 5:0.80000001 6:0.80000001 7:0.26666668 8:-0.25 9:0.25 #
2.0530168114196648e-005 1:0 2:1 3:0.16666667 4:0.5 5:1 6:1 7:0.33333331 8:0 9:0.5 #
2.0662255805429898e-005 1:0.22222222 2:0 3:0.33333334 4:0.33333334 5:0.40000001 6:0.66666669 7:0.2 8:-0.25 9:0 #
-2.0662255805429898e-005 1:0.22222222 2:0 3:0.16666667 4:0.33333334 5:0.60000002 6:1 7:0.30000001 8:0 9:0.25 #
-2.0662255805429898e-005 1:0.44444445 2:0.25 3:0.33333334 4:1 5:0.80000001 6:0.80000001 7:0.26666668 8:-0.25 9:0.25 #
-2.0662255805429898e-005 1:0.44444445 2:0.25 3:0.33333334 4:1 5:0.80000001 6:0.80000001 7:0.26666668 8:-0.25 9:0.25 #
-2.0662255805429898e-005 1:0.44444445 2:0.25 3:1 4:1 5:0.60000002 6:0.60000002 7:0.2 8:-0.5 9:0 #
8.2649023221719592e-005 1:0.44444445 2:0.25 3:0.33333334 4:1 5:0.80000001 6:0.80000001 7:0.26666668 8:-0.25 9:0.25 #
-2.0662255805429898e-005 1:0.44444445 2:0.25 3:0.33333334 4:1 5:0.80000001 6:0.80000001 7:0.26666668 8:-0.25 9:0.25 #
2.0662255805429898e-005 1:0 2:1 3:0.16666667 4:0.5 5:0.60000002 6:1 7:0.30000001 8:0 9:0.25 #
-2.0662255805429898e-005 1:0 2:1 3:0.16666667 4:0.5 5:0.60000002 6:1 7:0.30000001 8:0 9:0.25 #
-2.0662255805429898e-005 1:0.33333334 2:0 3:0.5 4:0.5 5:0.2 6:0.25 7:0.2 8:-0.75 9:0 #
4.1324511610859796e-005 1:0.33333334 2:0 3:0.33333334 4:0.5 5:0.40000001 6:0.5 7:0.40000001 8:-0.5 9:0.25 #
-2.0662255805429898e-005 1:0.33333334 2:0 3:0.16666667 4:0.5 5:0.80000001 6:1 7:0.80000001 8:0 9:0.75 #
-2.0662255805429898e-005 1:0 2:0.25 3:0.33333334 4:0.33333334 5:0.60000002 6:0.75 7:0.2 8:-0.25 9:0 #
2.0662255805429898e-005 1:0 2:0.25 3:0.16666667 4:0.33333334 5:0.80000001 6:1 7:0.26666668 8:0 9:0.25 #
2.0662255805429898e-005 1:0 2:0.5 3:0.16666667 4:0.33333334 5:0.80000001 6:1 7:0.26666668 8:0 9:0.25 #
-2.0662255805429898e-005 1:0 2:0.5 3:0.33333334 4:0.33333334 5:0.60000002 6:0.75 7:0.2 8:-0.25 9:0 #
4.1324511610859796e-005 1:0.44444445 2:0 3:0.5 4:0.5 5:0.2 6:0.25 7:0.2 8:-0.75 9:0 #
-2.0662255805429898e-005 1:0.44444445 2:0 3:0.33333334 4:0.5 5:0.40000001 6:0.5 7:0.40000001 8:-0.5 9:0.25 #
-2.0662255805429898e-005 1:0.44444445 2:0 3:0.16666667 4:0.5 5:0.80000001 6:1 7:0.80000001 8:0 9:0.75 #
-6.4453930566940169e-008 1:0 2:0.25 3:0.5 4:1 5:0.80000001 6:0.80000001 7:0.80000001 8:-0.25 9:0.75 #
2.0726709735996839e-005 1:0 2:0.25 3:0.16666667 4:1 5:1 6:1 7:1 8:0 9:1 #
-2.0662255805429898e-005 1:0 2:0.25 3:0.16666667 4:1 5:1 6:1 7:1 8:0 9:1 #
-1.2651220957129898e-005 1:0 2:1 3:0.33333334 4:0.33333334 5:0.80000001 6:0.80000001 7:0.2 8:-0.25 9:0 #
1.2651220957129898e-005 1:0 2:1 3:0.16666667 4:0.33333334 5:1 6:1 7:0.25 8:0 9:0.25 #
1.6502552558895871e-005 1:0 2:0 3:0.16666667 4:0.5 5:1 6:1 7:1 8:0 9:1 #
-1.6502552558895871e-005 1:0 2:0 3:0.33333334 4:0.5 5:0.2 6:0.2 7:0.2 8:-1 9:0 #
-2.0662255805429898e-005 1:0 2:0.25 3:0.33333334 4:0.5 5:0.80000001 6:0.80000001 7:0.40000001 8:-0.25 9:0.5 #
2.0662255805429898e-005 1:0 2:0.25 3:0.16666667 4:0.5 5:1 6:1 7:0.5 8:0 9:0.75 #
2.0662255805429898e-005 1:0.11111111 2:0 3:0.33333334 4:0.33333334 5:0.60000002 6:0.60000002 7:0.2 8:-0.5 9:0 #
-2.0662255805429898e-005 1:0.11111111 2:0 3:0.16666667 4:0.33333334 5:1 6:1 7:0.33333331 8:0 9:0.5 #
-2.0662255805429898e-005 1:0 2:0.5 3:0.33333334 4:0.5 5:0.80000001 6:0.80000001 7:0.40000001 8:-0.25 9:0.5 #
2.0662255805429898e-005 1:0 2:0.5 3:0.16666667 4:0.5 5:1 6:1 7:0.5 8:0 9:0.75 #
2.0662255805429898e-005 1:0.22222222 2:0 3:0.33333334 4:0.33333334 5:0.60000002 6:0.60000002 7:0.2 8:-0.5 9:0 #
-2.0662255805429898e-005 1:0.22222222 2:0 3:0.16666667 4:0.33333334 5:1 6:1 7:0.33333331 8:0 9:0.5 #
4.1324511610859796e-005 1:0.11111111 2:0.5 3:0.33333334 4:0.5 5:0.80000001 6:0.80000001 7:0.40000001 8:-0.25 9:0.5 #
-2.0662255805429898e-005 1:0.11111111 2:0.5 3:0.16666667 4:0.5 5:1 6:1 7:0.5 8:0 9:0.75 #
-2.0662255805429898e-005 1:0.11111111 2:0.5 3:0.5 4:0.5 5:0.40000001 6:0.40000001 7:0.2 8:-0.75 9:0 #
2.0662255805429898e-005 1:0 2:0 3:0.16666667 4:0.33333334 5:1 6:1 7:1 8:0 9:1 #
-2.0662255805429898e-005 1:0 2:0 3:0.33333334 4:0.33333334 5:0.2 6:0.2 7:0.2 8:-1 9:0 #
1.1825344164081299e-005 1:0 2:0.25 3:0.16666667 4:0.33333334 5:1 6:1 7:0.25 8:0 9:0.25 #
-1.1825344164081299e-005 1:0 2:0.25 3:0.33333334 4:0.33333334 5:0.80000001 6:0.80000001 7:0.2 8:-0.25 9:0 #
-2.0662255805429898e-005 1:0.11111111 2:0 3:0.16666667 4:0.5 5:1 6:1 7:1 8:0 9:1 #
4.1324511610859796e-005 1:0.11111111 2:0 3:0.33333334 4:0.5 5:0.2 6:0.2 7:0.2 8:-1 9:0 #
-2.0662255805429898e-005 1:0.11111111 2:0 3:0.33333334 4:0.5 5:0.2 6:0.2 7:0.2 8:-1 9:0 #
-2.0662255805429898e-005 1:0.11111111 2:0 3:0.16666667 4:0.33333334 5:1 6:1 7:1 8:0 9:1 #
2.0662255805429898e-005 1:0.11111111 2:0 3:0.33333334 4:0.33333334 5:0.2 6:0.2 7:0.2 8:-1 9:0 #
-2.0662255805429898e-005 1:0 2:0.25 3:0.16666667 4:0.33333334 5:0.60000002 6:1 7:0.2 8:0 9:0 #
2.0662255805429898e-005 1:0 2:0.25 3:0.16666667 4:0.33333334 5:0.60000002 6:1 7:0.2 8:0 9:0 #
2.0662255805429898e-005 1:0 2:0.25 3:0.16666667 4:0.33333334 5:1 6:1 7:0.25 8:0 9:0.25 #
-2.0662255805429898e-005 1:0 2:0.25 3:0.33333334 4:0.33333334 5:0.80000001 6:0.80000001 7:0.2 8:-0.25 9:0 #
-2.0662255805429898e-005 1:0.22222222 2:0 3:0.16666667 4:0.5 5:1 6:1 7:1 8:0 9:1 #
-2.0662255805429898e-005 1:0.22222222 2:0 3:0.33333334 4:0.5 5:0.2 6:0.2 7:0.2 8:-1 9:0 #
4.1324511610859796e-005 1:0.22222222 2:0 3:0.33333334 4:0.5 5:0.2 6:0.2 7:0.2 8:-1 9:0 #
2.0662255805429898e-005 1:0 2:1 3:0.16666667 4:0.33333334 5:1 6:1 7:0.25 8:0 9:0.25 #
-2.0662255805429898e-005 1:0 2:1 3:0.33333334 4:0.33333334 5:0.80000001 6:0.80000001 7:0.2 8:-0.25 9:0 #
-2.0662255805429898e-005 1:0.33333334 2:0 3:0.33333334 4:0.33333334 5:0.60000002 6:0.60000002 7:0.2 8:-0.5 9:0 #
2.0662255805429898e-005 1:0.33333334 2:0 3:0.16666667 4:0.33333334 5:1 6:1 7:0.33333331 8:0 9:0.5 #
-2.0662255805429898e-005 1:0.11111111 2:0.25 3:0.5 4:1 5:0.80000001 6:0.80000001 7:0.80000001 8:-0.25 9:0.75 #
-2.0662255805429898e-005 1:0.11111111 2:0.25 3:0.16666667 4:1 5:1 6:1 7:1 8:0 9:1 #
-2.0662255805429898e-005 1:0.11111111 2:0.25 3:0.66666669 4:1 5:0.40000001 6:0.40000001 7:0.40000001 8:-0.75 9:0.25 #
-2.0662255805429898e-005 1:0.11111111 2:0.25 3:0.83333331 4:1 5:0.2 6:0.2 7:0.2 8:-1 9:0 #
-2.0662255805429898e-005 1:0.11111111 2:0.25 3:0.16666667 4:1 5:1 6:1 7:1 8:0 9:1 #
0.00010331127902714949 1:0.11111111 2:0.25 3:0.83333331 4:1 5:0.2 6:0.2 7:0.2 8:-1 9:0 #
-2.0662255805429898e-005 1:0.33333334 2:0 3:0.16666667 4:0.5 5:1 6:1 7:1 8:0 9:1 #
-2.0662255805429898e-005 1:0.33333334 2:0 3:0.33333334 4:0.5 5:0.2 6:0.2 7:0.2 8:-1 9:0 #
4.1324511610859796e-005 1:0.33333334 2:0 3:0.33333334 4:0.5 5:0.2 6:0.2 7:0.2 8:-1 9:0 #
-2.0662255805429898e-005 1:0.11111111 2:0.5 3:0.33333334 4:0.5 5:0.2 6:0.2 7:0.2 8:-1 9:0 #
4.1324511610859796e-005 1:0.11111111 2:0.5 3:0.33333334 4:0.5 5:0.2 6:0.2 7:0.2 8:-1 9:0 #
-2.0662255805429898e-005 1:0.11111111 2:0.5 3:0.16666667 4:0.5 5:1 6:1 7:1 8:0 9:1 #
-2.0662255805429898e-005 1:0 2:0.75 3:0.16666667 4:0.5 5:0.60000002 6:1 7:0.2 8:0 9:0 #
-2.0662255805429898e-005 1:0 2:0.75 3:0.16666667 4:0.5 5:0.60000002 6:1 7:0.2 8:0 9:0 #
4.1324511610859796e-005 1:0 2:0.75 3:0.16666667 4:0.5 5:0.60000002 6:1 7:0.2 8:0 9:0 #
-2.0662255805429898e-005 1:0.44444445 2:0 3:0.33333334 4:0.33333334 5:0.60000002 6:0.60000002 7:0.2 8:-0.5 9:0 #
2.0662255805429898e-005 1:0.44444445 2:0 3:0.16666667 4:0.33333334 5:1 6:1 7:0.33333331 8:0 9:0.5 #
6.1986767416289694e-005 1:0.22222222 2:0.25 3:0.5 4:1 5:0.80000001 6:0.80000001 7:0.80000001 8:-0.25 9:0.75 #
-2.0662255805429898e-005 1:0.22222222 2:0.25 3:0.66666669 4:1 5:0.40000001 6:0.40000001 7:0.40000001 8:-0.75 9:0.25 #
-2.0662255805429898e-005 1:0.22222222 2:0.25 3:0.83333331 4:1 5:0.2 6:0.2 7:0.2 8:-1 9:0 #
-2.0662255805429898e-005 1:0.22222222 2:0.25 3:0.83333331 4:1 5:0.2 6:0.2 7:0.2 8:-1 9:0 #
-2.0662255805429898e-005 1:0.22222222 2:0 3:0.16666667 4:0.33333334 5:1 6:1 7:1 8:0 9:1 #
2.0662255805429898e-005 1:0.22222222 2:0 3:0.33333334 4:0.33333334 5:0.2 6:0.2 7:0.2 8:-1 9:0 #
2.0662255805429898e-005 1:0.11111111 2:0.25 3:0.16666667 4:0.33333334 5:0.60000002 6:1 7:0.2 8:0 9:0 #
-2.0662255805429898e-005 1:0.11111111 2:0.25 3:0.16666667 4:0.33333334 5:0.60000002 6:1 7:0.2 8:0 9:0 #
4.1324511610859796e-005 1:0.44444445 2:0 3:0.16666667 4:0.5 5:1 6:1 7:1 8:0 9:1 #
-2.0662255805429898e-005 1:0.44444445 2:0 3:0.33333334 4:0.5 5:0.2 6:0.2 7:0.2 8:-1 9:0 #
-2.0662255805429898e-005 1:0.44444445 2:0 3:0.33333334 4:0.5 5:0.2 6:0.2 7:0.2 8:-1 9:0 #
-2.0662255805429898e-005 1:0.11111111 2:0.25 3:0.33333334 4:0.5 5:0.80000001 6:0.80000001 7:0.40000001 8:-0.25 9:0.5 #
-2.0662255805429898e-005 1:0.11111111 2:0.25 3:0.16666667 4:0.5 5:1 6:1 7:0.5 8:0 9:0.75 #
4.1324511610859796e-005 1:0.11111111 2:0.25 3:0.5 4:0.5 5:0.40000001 6:0.40000001 7:0.2 8:-0.75 9:0 #
2.0662255805429898e-005 1:0 2:0.75 3:0.16666667 4:0.5 5:1 6:1 7:0.33333331 8:0 9:0.5 #
-2.0662255805429898e-005 1:0 2:0.75 3:0.33333334 4:0.5 5:0.80000001 6:0.80000001 7:0.26666668 8:-0.25 9:0.25 #
-2.0662255805429898e-005 1:0.22222222 2:0.25 3:0.33333334 4:0.5 5:0.80000001 6:0.80000001 7:0.40000001 8:-0.25 9:0.5 #
-2.0662255805429898e-005 1:0.22222222 2:0.25 3:0.16666667 4:0.5 5:1 6:1 7:0.5 8:0 9:0.75 #
4.1324511610859796e-005 1:0.22222222 2:0.25 3:0.5 4:0.5 5:0.40000001 6:0.40000001 7:0.2 8:-0.75 9:0 #
-2.0662255805429898e-005 1:0.11111111 2:0.5 3:0.33333334 4:0.5 5:0.80000001 6:0.80000001 7:0.80000001 8:-0.25 9:0.75 #
-2.0662255805429898e-005 1:0.11111111 2:0.5 3:0.5 4:0.5 5:0.2 6:0.2 7:0.2 8:-1 9:0 #
4.1324511610859796e-005 1:0.11111111 2:0.5 3:0.16666667 4:0.5 5:1 6:1 7:1 8:0 9:1 #
-2.0662255805429898e-005 1:0.11111111 2:0.75 3:0.16666667 4:0.5 5:1 6:1 7:0.33333331 8:0 9:0.5 #
-2.0662255805429898e-005 1:0.11111111 2:0.75 3:0.33333334 4:0.5 5:0.80000001 6:0.80000001 7:0.26666668 8:-0.25 9:0.25 #
4.1324511610859796e-005 1:0.11111111 2:0.75 3:0.5 4:0.5 5:0.60000002 6:0.60000002 7:0.2 8:-0.5 9:0 #
-2.0662255805429898e-005 1:0.11111111 2:0 3:0.33333334 4:0.5 5:0.80000001 6:0.80000001 7:0.2 8:-0.25 9:0 #
4.1324511610859796e-005 1:0.11111111 2:0 3:0.33333334 4:0.5 5:0.80000001 6:0.80000001 7:0.2 8:-0.25 9:0 #
-2.0662255805429898e-005 1:0.11111111 2:0 3:0.16666667 4:0.5 5:1 6:1 7:0.25 8:0 9:0.25 #
-2.0662255805429898e-005 1:0.55555558 2:0 3:0.33333334 4:0.33333334 5:0.60000002 6:0.60000002 7:0.2 8:-0.5 9:0 #
2.0662255805429898e-005 1:0.55555558 2:0 3:0.16666667 4:0.33333334 5:1 6:1 7:0.33333331 8:0 9:0.5 #
-2.0662255805429898e-005 1:0.33333334 2:0.25 3:0.5 4:1 5:0.80000001 6:0.80000001 7:0.80000001 8:-0.25 9:0.75 #
6.1986767416289694e-005 1:0.33333334 2:0.25 3:0.66666669 4:1 5:0.40000001 6:0.40000001 7:0.40000001 8:-0.75 9:0.25 #
-2.0662255805429898e-005 1:0.33333334 2:0.25 3:0.83333331 4:1 5:0.2 6:0.2 7:0.2 8:-1 9:0 #
-2.0662255805429898e-005 1:0.33333334 2:0.25 3:0.83333331 4:1 5:0.2 6:0.2 7:0.2 8:-1 9:0 #
-2.0662255805429898e-005 1:0 2:1 3:0.16666667 4:0.66666669 5:1 6:1 7:0.33333331 8:0 9:0.5 #
-2.0662255805429898e-005 1:0 2:1 3:0.16666667 4:0.66666669 5:1 6:1 7:0.33333331 8:0 9:0.5 #
4.1324511610859796e-005 1:0 2:1 3:0.16666667 4:0.66666669 5:1 6:1 7:0.33333331 8:0 9:0.5 #
2.0662255805429898e-005 1:0.33333334 2:0 3:0.16666667 4:0.33333334 5:1 6:1 7:1 8:0 9:1 #
-2.0662255805429898e-005 1:0.33333334 2:0 3:0.33333334 4:0.33333334 5:0.2 6:0.2 7:0.2 8:-1 9:0 #
-2.0662255805429898e-005 1:0.11111111 2:0.25 3:0.16666667 4:0.33333334 5:1 6:1 7:0.25 8:0 9:0.25 #
2.0662255805429898e-005 1:0.11111111 2:0.25 3:0.33333334 4:0.33333334 5:0.80000001 6:0.80000001 7:0.2 8:-0.25 9:0 #
2.0662255805429898e-005 1:0 2:0.5 3:0.16666667 4:0.66666669 5:1 6:1 7:0.33333331 8:0 9:0.5 #
-2.0662255805429898e-005 1:0 2:0.5 3:0.16666667 4:0.66666669 5:1 6:1 7:0.33333331 8:0 9:0.5 #
-2.0662255805429898e-005 1:0.66666669 2:0 3:0.33333334 4:0.33333334 5:0.60000002 6:0.60000002 7:0.2 8:-0.5 9:0 #
2.0662255805429898e-005 1:0.66666669 2:0 3:0.16666667 4:0.33333334 5:1 6:1 7:0.33333331 8:0 9:0.5 #
5.9745227297135708e-005 1:0.44444445 2:0.25 3:0.5 4:1 5:0.80000001 6:0.80000001 7:0.80000001 8:-0.25 9:0.75 #
-2.0662255805429898e-005 1:0.44444445 2:0.25 3:0.66666669 4:1 5:0.40000001 6:0.40000001 7:0.40000001 8:-0.75 9:0.25 #
-1.8865534930316944e-005 1:0.44444445 2:0.25 3:0.83333331 4:1 5:0.2 6:0.2 7:0.2 8:-1 9:0 #
-2.0217436561388869e-005 1:0.44444445 2:0.25 3:0.83333331 4:1 5:0.2 6:0.2 7:0.2 8:-1 9:0 #
2.0662255805429898e-005 1:0.11111111 2:0.5 3:0.33333334 4:0.33333334 5:0.80000001 6:0.80000001 7:0.2 8:-0.25 9:0 #
-2.0662255805429898e-005 1:0.11111111 2:0.5 3:0.16666667 4:0.33333334 5:1 6:1 7:0.25 8:0 9:0.25 #
2.0662255805429898e-005 1:0 2:0 3:0.16666667 4:0.33333334 5:0.60000002 6:1 7:0.2 8:0 9:0 #
-2.0662255805429898e-005 1:0 2:0 3:0.16666667 4:0.33333334 5:0.60000002 6:1 7:0.2 8:0 9:0 #
4.1324511610859796e-005 1:0 2:0.5 3:0.16666667 4:0.5 5:0.80000001 6:1 7:0.2 8:0 9:0 #
-2.0662255805429898e-005 1:0 2:0.5 3:0.16666667 4:0.5 5:0.80000001 6:1 7:0.2 8:0 9:0 #
-2.0662255805429898e-005 1:0 2:0.5 3:0.16666667 4:0.5 5:0.80000001 6:1 7:0.2 8:0 9:0 #
-2.0662255805429898e-005 1:0 2:0.75 3:0.16666667 4:0.33333334 5:0.80000001 6:1 7:0.2 8:0 9:0 #
2.0662255805429898e-005 1:0 2:0.75 3:0.16666667 4:0.33333334 5:0.80000001 6:1 7:0.2 8:0 9:0 #
2.0662255805429898e-005 1:0.11111111 2:0 3:0.16666667 4:0.33333334 5:0.60000002 6:1 7:0.2 8:0 9:0 #
-2.0662255805429898e-005 1:0.11111111 2:0 3:0.16666667 4:0.33333334 5:0.60000002 6:1 7:0.2 8:0 9:0 #
4.1324511610859796e-005 1:0.11111111 2:0.5 3:0.16666667 4:0.5 5:0.80000001 6:1 7:0.2 8:0 9:0 #
-2.0662255805429898e-005 1:0.11111111 2:0.5 3:0.16666667 4:0.5 5:0.80000001 6:1 7:0.2 8:0 9:0 #
-2.0662255805429898e-005 1:0.11111111 2:0.5 3:0.16666667 4:0.5 5:0.80000001 6:1 7:0.2 8:0 9:0 #
2.0662255805429898e-005 1:0.11111111 2:0.75 3:0.16666667 4:0.33333334 5:0.80000001 6:1 7:0.2 8:0 9:0 #
-2.0662255805429898e-005 1:0.11111111 2:0.75 3:0.16666667 4:0.33333334 5:0.80000001 6:1 7:0.2 8:0 9:0 #
2.0662255805429898e-005 1:0 2:1 3:0.16666667 4:0.33333334 5:0.60000002 6:1 7:0.2 8:0 9:0 #
-2.0662255805429898e-005 1:0 2:1 3:0.16666667 4:0.33333334 5:0.60000002 6:1 7:0.2 8:0 9:0 #
2.0662255805429898e-005 1:0 2:0 3:0.16666667 4:0.33333334 5:0.80000001 6:1 7:0.2 8:0 9:0 #
-2.0662255805429898e-005 1:0 2:0 3:0.16666667 4:0.33333334 5:0.80000001 6:1 7:0.2 8:0 9:0 #
2.0662255805429898e-005 1:0 2:0.25 3:0.16666667 4:0.33333334 5:0.80000001 6:1 7:0.2 8:0 9:0 #
-2.0662255805429898e-005 1:0 2:0.25 3:0.16666667 4:0.33333334 5:0.80000001 6:1 7:0.2 8:0 9:0 #
-2.0662255805429898e-005 1:0 2:0.5 3:0.16666667 4:0.33333334 5:0.80000001 6:1 7:0.2 8:0 9:0 #
2.0662255805429898e-005 1:0 2:0.5 3:0.16666667 4:0.33333334 5:0.80000001 6:1 7:0.2 8:0 9:0 #
2.0662255805429898e-005 1:0 2:0.75 3:0.16666667 4:0.5 5:1 6:1 7:0.25 8:0 9:0.25 #
-2.0662255805429898e-005 1:0 2:0.75 3:0.16666667 4:0.5 5:1 6:1 7:0.25 8:0 9:0.25 #
-2.0662255805429898e-005 1:0 2:1 3:0.16666667 4:0.5 5:0.80000001 6:1 7:0.26666668 8:0 9:0.25 #
2.0662255805429898e-005 1:0 2:1 3:0.16666667 4:0.5 5:0.80000001 6:1 7:0.26666668 8:0 9:0.25 #
2.0662255805429898e-005 1:0.22222222 2:0 3:0.16666667 4:0.33333334 5:0.60000002 6:1 7:0.2 8:0 9:0 #
-2.0662255805429898e-005 1:0.22222222 2:0 3:0.16666667 4:0.33333334 5:0.60000002 6:1 7:0.2 8:0 9:0 #
-2.0662255805429898e-005 1:0.22222222 2:0.5 3:0.16666667 4:0.5 5:0.80000001 6:1 7:0.2 8:0 9:0 #
4.1324511610859796e-005 1:0.22222222 2:0.5 3:0.16666667 4:0.5 5:0.80000001 6:1 7:0.2 8:0 9:0 #
-2.0662255805429898e-005 1:0.22222222 2:0.5 3:0.16666667 4:0.5 5:0.80000001 6:1 7:0.2 8:0 9:0 #
2.0662255805429898e-005 1:0.33333334 2:0 3:0.16666667 4:0.33333334 5:0.60000002 6:1 7:0.2 8:0 9:0 #
-2.0662255805429898e-005 1:0.33333334 2:0 3:0.16666667 4:0.33333334 5:0.60000002 6:1 7:0.2 8:0 9:0 #
-2.0662255805429898e-005 1:0.33333334 2:0.5 3:0.16666667 4:0.5 5:0.80000001 6:1 7:0.2 8:0 9:0 #
-2.0662255805429898e-005 1:0.33333334 2:0.5 3:0.16666667 4:0.5 5:0.80000001 6:1 7:0.2 8:0 9:0 #
4.1324511610859796e-005 1:0.33333334 2:0.5 3:0.16666667 4:0.5 5:0.80000001 6:1 7:0.2 8:0 9:0 #
-2.0662255805429898e-005 1:0 2:0.75 3:0.33333334 4:0.5 5:0.40000001 6:0.66666669 7:0.2 8:-0.25 9:0 #
4.1324511610859796e-005 1:0 2:0.75 3:0.33333334 4:0.5 5:0.40000001 6:0.66666669 7:0.2 8:-0.25 9:0 #
-2.0662255805429898e-005 1:0 2:0.75 3:0.16666667 4:0.5 5:0.60000002 6:1 7:0.30000001 8:0 9:0.25 #
-2.0662255805429898e-005 1:0 2:1 3:0.16666667 4:0.5 5:0.60000002 6:1 7:0.2 8:0 9:0 #
-2.0662255805429898e-005 1:0 2:1 3:0.16666667 4:0.5 5:0.60000002 6:1 7:0.2 8:0 9:0 #
4.1324511610859796e-005 1:0 2:1 3:0.16666667 4:0.5 5:0.60000002 6:1 7:0.2 8:0 9:0 #
-2.0662255805429898e-005 1:0.11111111 2:0 3:0.16666667 4:0.33333334 5:0.80000001 6:1 7:0.2 8:0 9:0 #
2.0662255805429898e-005 1:0.11111111 2:0 3:0.16666667 4:0.33333334 5:0.80000001 6:1 7:0.2 8:0 9:0 #
-2.0662255805429898e-005 1:0 2:0.25 3:0.16666667 4:0.33333334 5:0.60000002 6:1 7:0.2 8:0 9:0 #
2.0662255805429898e-005 1:0 2:0.25 3:0.16666667 4:0.33333334 5:0.60000002 6:1 7:0.2 8:0 9:0 #
-2.0662255805429898e-005 1:0 2:1 3:0.16666667 4:0.33333334 5:0.60000002 6:1 7:0.2 8:0 9:0 #
2.0662255805429898e-005 1:0 2:1 3:0.16666667 4:0.33333334 5:0.60000002 6:1 7:0.2 8:0 9:0 #
-2.0662255805429898e-005 1:0 2:0 3:0.16666667 4:0.33333334 5:0.60000002 6:1 7:0.2 8:0 9:0 #
2.0662255805429898e-005 1:0 2:0 3:0.16666667 4:0.33333334 5:0.60000002 6:1 7:0.2 8:0 9:0 #
2.0662255805429898e-005 1:0 2:0.25 3:0.16666667 4:0.33333334 5:0.80000001 6:1 7:0.2 8:0 9:0 #
-2.0662255805429898e-005 1:0 2:0.25 3:0.16666667 4:0.33333334 5:0.80000001 6:1 7:0.2 8:0 9:0 #
-2.0662255805429898e-005 1:0 2:0.5 3:0.16666667 4:0.33333334 5:1 6:1 7:0.2 8:0 9:0 #
2.0662255805429898e-005 1:0 2:0.5 3:0.16666667 4:0.33333334 5:1 6:1 7:0.2 8:0 9:0 #
4.1324511610859796e-005 1:0 2:0 3:0.16666667 4:0.5 5:0.60000002 6:1 7:0.2 8:0 9:0 #
-2.0662255805429898e-005 1:0 2:0 3:0.16666667 4:0.5 5:0.60000002 6:1 7:0.2 8:0 9:0 #
-2.0662255805429898e-005 1:0 2:0 3:0.16666667 4:0.5 5:0.60000002 6:1 7:0.2 8:0 9:0 #
4.1324511610859796e-005 1:0 2:0.25 3:0.16666667 4:0.5 5:0.60000002 6:1 7:0.2 8:0 9:0 #
-2.0662255805429898e-005 1:0 2:0.25 3:0.16666667 4:0.5 5:0.60000002 6:1 7:0.2 8:0 9:0 #
-2.0662255805429898e-005 1:0 2:0.25 3:0.16666667 4:0.5 5:0.60000002 6:1 7:0.2 8:0 9:0 #
-2.0662255805429898e-005 1:0 2:0.5 3:0.16666667 4:0.33333334 5:0.60000002 6:1 7:0.2 8:0 9:0 #
2.0662255805429898e-005 1:0 2:0.5 3:0.16666667 4:0.33333334 5:0.60000002 6:1 7:0.2 8:0 9:0 #
6.1986767416289694e-005 1:0 2:1 3:0.16666667 4:0.66666669 5:0.60000002 6:1 7:0.2 8:0 9:0 #
-2.0662255805429898e-005 1:0 2:1 3:0.16666667 4:0.66666669 5:0.60000002 6:1 7:0.2 8:0 9:0 #
-2.0662255805429898e-005 1:0 2:1 3:0.16666667 4:0.66666669 5:0.60000002 6:1 7:0.2 8:0 9:0 #
-2.0662255805429898e-005 1:0 2:1 3:0.16666667 4:0.66666669 5:0.60000002 6:1 7:0.2 8:0 9:0 #
-2.0662255805429898e-005 1:0.44444445 2:0 3:0.16666667 4:0.33333334 5:0.60000002 6:1 7:0.2 8:0 9:0 #
2.0662255805429898e-005 1:0.44444445 2:0 3:0.16666667 4:0.33333334 5:0.60000002 6:1 7:0.2 8:0 9:0 #
2.0662255805429898e-005 1:0 2:0.25 3:0.16666667 4:1 5:0.80000001 6:1 7:0.80000001 8:0 9:0.75 #
-2.0662255805429898e-005 1:0 2:0.25 3:0.16666667 4:1 5:0.80000001 6:1 7:0.80000001 8:0 9:0.75 #
-2.0662255805429898e-005 1:0 2:0.5 3:0.16666667 4:0.33333334 5:0.80000001 6:1 7:0.2 8:0 9:0 #
2.0662255805429898e-005 1:0 2:0.5 3:0.16666667 4:0.33333334 5:0.80000001 6:1 7:0.2 8:0 9:0 #
-2.0662255805429898e-005 1:0.11111111 2:0 3:0.16666667 4:0.33333334 5:0.60000002 6:1 7:0.2 8:0 9:0 #
2.0662255805429898e-005 1:0.11111111 2:0 3:0.16666667 4:0.33333334 5:0.60000002 6:1 7:0.2 8:0 9:0 #
-2.0662255805429898e-005 1:0.11111111 2:0.25 3:0.16666667 4:0.33333334 5:0.80000001 6:1 7:0.2 8:0 9:0 #
2.0662255805429898e-005 1:0.11111111 2:0.25 3:0.16666667 4:0.33333334 5:0.80000001 6:1 7:0.2 8:0 9:0 #
2.0662255805429898e-005 1:0 2:1 3:0.16666667 4:0.33333334 5:0.60000002 6:1 7:0.2 8:0 9:0 #
-2.0662255805429898e-005 1:0 2:1 3:0.16666667 4:0.33333334 5:0.60000002 6:1 7:0.2 8:0 9:0 #
-2.0662255805429898e-005 1:0.55555558 2:0 3:0.16666667 4:0.33333334 5:0.60000002 6:1 7:0.2 8:0 9:0 #
2.0662255805429898e-005 1:0.55555558 2:0 3:0.16666667 4:0.33333334 5:0.60000002 6:1 7:0.2 8:0 9:0 #
-2.0662255805429898e-005 1:0.11111111 2:0.25 3:0.16666667 4:1 5:0.80000001 6:1 7:0.80000001 8:0 9:0.75 #
-2.0662255805429898e-005 1:0.11111111 2:0.25 3:0.66666669 4:1 5:0.2 6:0.25 7:0.2 8:-0.75 9:0 #
-2.0662255805429898e-005 1:0.11111111 2:0.25 3:0.5 4:1 5:0.40000001 6:0.5 7:0.40000001 8:-0.5 9:0.25 #
0.00010331127902714949 1:0.11111111 2:0.25 3:0.16666667 4:1 5:0.80000001 6:1 7:0.80000001 8:0 9:0.75 #
-2.0662255805429898e-005 1:0.11111111 2:0.25 3:0.66666669 4:1 5:0.2 6:0.25 7:0.2 8:-0.75 9:0 #
-2.0662255805429898e-005 1:0.11111111 2:0.25 3:0.66666669 4:1 5:0.2 6:0.25 7:0.2 8:-0.75 9:0 #
2.0662255805429898e-005 1:0 2:0.5 3:0.16666667 4:0.33333334 5:0.60000002 6:1 7:0.2 8:0 9:0 #
-2.0662255805429898e-005 1:0 2:0.5 3:0.16666667 4:0.33333334 5:0.60000002 6:1 7:0.2 8:0 9:0 #
2.0662255805429898e-005 1:0.22222222 2:0 3:0.16666667 4:0.33333334 5:0.60000002 6:1 7:0.2 8:0 9:0 #
-2.0662255805429898e-005 1:0.22222222 2:0 3:0.16666667 4:0.33333334 5:0.60000002 6:1 7:0.2 8:0 9:0 #
-2.0662255805429898e-005 1:0.11111111 2:0 3:0.16666667 4:0.5 5:0.60000002 6:1 7:0.2 8:0 9:0 #
4.1324511610859796e-005 1:0.11111111 2:0 3:0.16666667 4:0.5 5:0.60000002 6:1 7:0.2 8:0 9:0 #
-2.0662255805429898e-005 1:0.11111111 2:0 3:0.16666667 4:0.5 5:0.60000002 6:1 7:0.2 8:0 9:0 #
-2.0662255805429898e-005 1:0.66666669 2:0 3:0.16666667 4:0.33333334 5:0.60000002 6:1 7:0.2 8:0 9:0 #
2.0662255805429898e-005 1:0.66666669 2:0 3:0.16666667 4:0.33333334 5:0.60000002 6:1 7:0.2 8:0 9:0 #
-2.0662255805429898e-005 1:0.22222222 2:0.25 3:0.16666667 4:1 5:0.80000001 6:1 7:0.80000001 8:0 9:0.75 #
-2.0662255805429898e-005 1:0.22222222 2:0.25 3:0.66666669 4:1 5:0.2 6:0.25 7:0.2 8:-0.75 9:0 #
-2.0662255805429898e-005 1:0.22222222 2:0.25 3:0.5 4:1 5:0.40000001 6:0.5 7:0.40000001 8:-0.5 9:0.25 #
-2.0662255805429898e-005 1:0.22222222 2:0.25 3:0.16666667 4:1 5:0.80000001 6:1 7:0.80000001 8:0 9:0.75 #
-2.0662255805429898e-005 1:0.22222222 2:0.25 3:0.66666669 4:1 5:0.2 6:0.25 7:0.2 8:-0.75 9:0 #
0.00010331127902714949 1:0.22222222 2:0.25 3:0.66666669 4:1 5:0.2 6:0.25 7:0.2 8:-0.75 9:0 #
2.0662255805429898e-005 1:0 2:0.75 3:0.16666667 4:0.33333334 5:0.60000002 6:1 7:0.2 8:0 9:0 #
-2.0662255805429898e-005 1:0 2:0.75 3:0.16666667 4:0.33333334 5:0.60000002 6:1 7:0.2 8:0 9:0 #
-2.0662255805429898e-005 1:0.22222222 2:0 3:0.16666667 4:0.5 5:0.60000002 6:1 7:0.2 8:0 9:0 #
-2.0662255805429898e-005 1:0.22222222 2:0 3:0.16666667 4:0.5 5:0.60000002 6:1 7:0.2 8:0 9:0 #
4.1324511610859796e-005 1:0.22222222 2:0 3:0.16666667 4:0.5 5:0.60000002 6:1 7:0.2 8:0 9:0 #
-2.0662255805429898e-005 1:0 2:0.5 3:0.16666667 4:0.5 5:0.60000002 6:1 7:0.2 8:0 9:0 #
-2.0662255805429898e-005 1:0 2:0.5 3:0.16666667 4:0.5 5:0.60000002 6:1 7:0.2 8:0 9:0 #
4.1324511610859796e-005 1:0 2:0.5 3:0.16666667 4:0.5 5:0.60000002 6:1 7:0.2 8:0 9:0 #
2.0662255805429898e-005 1:0 2:1 3:0.16666667 4:0.33333334 5:0.60000002 6:1 7:0.2 8:0 9:0 #
-2.0662255805429898e-005 1:0 2:1 3:0.16666667 4:0.33333334 5:0.60000002 6:1 7:0.2 8:0 9:0 #
-2.0662255805429898e-005 1:0.33333334 2:0 3:0.16666667 4:0.5 5:0.60000002 6:1 7:0.2 8:0 9:0 #
-2.0662255805429898e-005 1:0.33333334 2:0 3:0.16666667 4:0.5 5:0.60000002 6:1 7:0.2 8:0 9:0 #
4.1324511610859796e-005 1:0.33333334 2:0 3:0.16666667 4:0.5 5:0.60000002 6:1 7:0.2 8:0 9:0 #
4.1324511610859796e-005 1:0.11111111 2:0.5 3:0.16666667 4:0.5 5:0.60000002 6:1 7:0.2 8:0 9:0 #
-2.0662255805429898e-005 1:0.11111111 2:0.5 3:0.16666667 4:0.5 5:0.60000002 6:1 7:0.2 8:0 9:0 #
-2.0662255805429898e-005 1:0.11111111 2:0.5 3:0.16666667 4:0.5 5:0.60000002 6:1 7:0.2 8:0 9:0 #
-2.0662255805429898e-005 1:0 2:0 3:0.16666667 4:0.5 5:0.60000002 6:1 7:0.2 8:0 9:0 #
-2.0662255805429898e-005 1:0 2:0 3:0.16666667 4:0.5 5:0.60000002 6:1 7:0.2 8:0 9:0 #
4.1324511610859796e-005 1:0 2:0 3:0.16666667 4:0.5 5:0.60000002 6:1 7:0.2 8:0 9:0 #
-2.0662255805429898e-005 1:0 2:0.25 3:0.16666667 4:0.33333334 5:0.80000001 6:1 7:0.2 8:0 9:0 #
2.0662255805429898e-005 1:0 2:0.25 3:0.16666667 4:0.33333334 5:0.80000001 6:1 7:0.2 8:0 9:0 #
4.1324511610859796e-005 1:0 2:0.5 3:0.16666667 4:0.5 5:0.60000002 6:1 7:0.2 8:0 9:0 #
-2.0662255805429898e-005 1:0 2:0.5 3:0.16666667 4:0.5 5:0.60000002 6:1 7:0.2 8:0 9:0 #
-2.0662255805429898e-005 1:0 2:0.5 3:0.16666667 4:0.5 5:0.60000002 6:1 7:0.2 8:0 9:0 #
2.0662255805429898e-005 1:0 2:1 3:0.16666667 4:0.33333334 5:0.60000002 6:1 7:0.2 8:0 9:0 #
-2.0662255805429898e-005 1:0 2:1 3:0.16666667 4:0.33333334 5:0.60000002 6:1 7:0.2 8:0 9:0 #
2.0662255805429898e-005 1:0.22222222 2:0 3:0.16666667 4:0.33333334 5:0.80000001 6:1 7:0.2 8:0 9:0 #
-2.0662255805429898e-005 1:0.22222222 2:0 3:0.16666667 4:0.33333334 5:0.80000001 6:1 7:0.2 8:0 9:0 #
-2.0662255805429898e-005 1:0.11111111 2:0.25 3:0.16666667 4:0.33333334 5:0.80000001 6:1 7:0.2 8:0 9:0 #
2.0662255805429898e-005 1:0.11111111 2:0.25 3:0.16666667 4:0.33333334 5:0.80000001 6:1 7:0.2 8:0 9:0 #
-2.0662255805429898e-005 1:0 2:0.5 3:0.16666667 4:0.66666669 5:0.80000001 6:1 7:0.2 8:0 9:0 #
-2.0662255805429898e-005 1:0 2:0.5 3:0.16666667 4:0.66666669 5:0.80000001 6:1 7:0.2 8:0 9:0 #
6.1986767416289694e-005 1:0 2:0.5 3:0.16666667 4:0.66666669 5:0.80000001 6:1 7:0.2 8:0 9:0 #
-2.0662255805429898e-005 1:0 2:0.5 3:0.16666667 4:0.66666669 5:0.80000001 6:1 7:0.2 8:0 9:0 #
2.0662255805429898e-005 1:0.33333334 2:0 3:0.16666667 4:0.33333334 5:0.60000002 6:1 7:0.2 8:0 9:0 #
-2.0662255805429898e-005 1:0.33333334 2:0 3:0.16666667 4:0.33333334 5:0.60000002 6:1 7:0.2 8:0 9:0 #
-2.0662255805429898e-005 1:0.44444445 2:0 3:0.16666667 4:0.33333334 5:0.60000002 6:1 7:0.2 8:0 9:0 #
2.0662255805429898e-005 1:0.44444445 2:0 3:0.16666667 4:0.33333334 5:0.60000002 6:1 7:0.2 8:0 9:0 #
2.0662255805429898e-005 1:0.22222222 2:0.25 3:0.16666667 4:0.33333334 5:0.80000001 6:1 7:0.2 8:0 9:0 #
-2.0662255805429898e-005 1:0.22222222 2:0.25 3:0.16666667 4:0.33333334 5:0.80000001 6:1 7:0.2 8:0 9:0 #
2.0662255805429898e-005 1:0.11111111 2:0.5 3:0.16666667 4:0.33333334 5:1 6:1 7:0.2 8:0 9:0 #
-2.0662255805429898e-005 1:0.11111111 2:0.5 3:0.16666667 4:0.33333334 5:1 6:1 7:0.2 8:0 9:0 #
2.0662255805429898e-005 1:0 2:0.75 3:0.16666667 4:0.33333334 5:0.60000002 6:1 7:0.2 8:0 9:0 #
-2.0662255805429898e-005 1:0 2:0.75 3:0.16666667 4:0.33333334 5:0.60000002 6:1 7:0.2 8:0 9:0 #
-2.0662255805429898e-005 1:0 2:0 3:0.5 4:0.5 5:0.2 6:0.2 7:0.2 8:-1 9:0 #
4.1324511610859796e-005 1:0 2:0 3:0.33333334 4:0.5 5:0.80000001 6:0.80000001 7:0.80000001 8:-0.25 9:0.75 #
-2.0662255805429898e-005 1:0 2:0 3:0.16666667 4:0.5 5:1 6:1 7:1 8:0 9:1 #
2.0662255805429898e-005 1:0 2:0.5 3:0.16666667 4:0.33333334 5:0.80000001 6:1 7:0.2 8:0 9:0 #
-2.0662255805429898e-005 1:0 2:0.5 3:0.16666667 4:0.33333334 5:0.80000001 6:1 7:0.2 8:0 9:0 #
4.1324511610859796e-005 1:0.11111111 2:0 3:0.5 4:0.5 5:0.2 6:0.2 7:0.2 8:-1 9:0 #
-2.0662255805429898e-005 1:0.11111111 2:0 3:0.33333334 4:0.5 5:0.80000001 6:0.80000001 7:0.80000001 8:-0.25 9:0.75 #
-2.0662255805429898e-005 1:0.11111111 2:0 3:0.16666667 4:0.5 5:1 6:1 7:1 8:0 9:1 #
4.1324511610859796e-005 1:0.22222222 2:0 3:0.5 4:0.5 5:0.2 6:0.2 7:0.2 8:-1 9:0 #
-2.0662255805429898e-005 1:0.22222222 2:0 3:0.33333334 4:0.5 5:0.80000001 6:0.80000001 7:0.80000001 8:-0.25 9:0.75 #
-2.0662255805429898e-005 1:0.22222222 2:0 3:0.16666667 4:0.5 5:1 6:1 7:1 8:0 9:1 #
4.1324511610859796e-005 1:0.11111111 2:0.25 3:0.33333334 4:0.5 5:0.40000001 6:0.5 7:0.2 8:-0.5 9:0 #
-2.0662255805429898e-005 1:0.11111111 2:0.25 3:0.16666667 4:0.5 5:0.80000001 6:1 7:0.40000001 8:0 9:0.5 #
-2.0662255805429898e-005 1:0.11111111 2:0.25 3:0.33333334 4:0.5 5:0.40000001 6:0.5 7:0.2 8:-0.5 9:0 #
-2.0662255805429898e-005 1:0.11111111 2:0 3:0.33333334 4:0.5 5:0.40000001 6:0.5 7:0.2 8:-0.5 9:0 #
4.1324511610859796e-005 1:0.11111111 2:0 3:0.33333334 4:0.5 5:0.40000001 6:0.5 7:0.2 8:-0.5 9:0 #
-2.0662255805429898e-005 1:0.11111111 2:0 3:0.16666667 4:0.5 5:0.80000001 6:1 7:0.40000001 8:0 9:0.5 #
-2.0662255805429898e-005 1:0.22222222 2:0 3:0.33333334 4:0.5 5:0.40000001 6:0.5 7:0.2 8:-0.5 9:0 #
-2.0662255805429898e-005 1:0.22222222 2:0 3:0.33333334 4:0.5 5:0.40000001 6:0.5 7:0.2 8:-0.5 9:0 #
4.1324511610859796e-005 1:0.22222222 2:0 3:0.16666667 4:0.5 5:0.80000001 6:1 7:0.40000001 8:0 9:0.5 #
2.0662255805429898e-005 1:0.11111111 2:0.25 3:0.16666667 4:0.33333334 5:0.80000001 6:1 7:0.80000001 8:0 9:0.75 #
-2.0662255805429898e-005 1:0.11111111 2:0.25 3:0.33333334 4:0.33333334 5:0.2 6:0.25 7:0.2 8:-0.75 9:0 #
-2.0662255805429898e-005 1:0.11111111 2:0.5 3:0.16666667 4:0.33333334 5:0.80000001 6:1 7:0.2 8:0 9:0 #
2.0662255805429898e-005 1:0.11111111 2:0.5 3:0.16666667 4:0.33333334 5:0.80000001 6:1 7:0.2 8:0 9:0 #
4.1324511610859796e-005 1:0.33333334 2:0 3:0.33333334 4:0.5 5:0.40000001 6:0.5 7:0.2 8:-0.5 9:0 #
-2.0662255805429898e-005 1:0.33333334 2:0 3:0.33333334 4:0.5 5:0.40000001 6:0.5 7:0.2 8:-0.5 9:0 #
-2.0662255805429898e-005 1:0.33333334 2:0 3:0.16666667 4:0.5 5:0.80000001 6:1 7:0.40000001 8:0 9:0.5 #
-2.0662255805429898e-005 1:0.11111111 2:0.25 3:0.33333334 4:0.33333334 5:0.40000001 6:0.5 7:0.2 8:-0.5 9:0 #
2.0662255805429898e-005 1:0.11111111 2:0.25 3:0.16666667 4:0.33333334 5:0.80000001 6:1 7:0.40000001 8:0 9:0.5 #
-2.0662255805429898e-005 1:0.11111111 2:0.5 3:0.33333334 4:0.66666669 5:0.60000002 6:0.75 7:0.30000001 8:-0.25 9:0.25 #
4.1324511610859796e-005 1:0.11111111 2:0.5 3:0.16666667 4:0.66666669 5:0.80000001 6:1 7:0.40000001 8:0 9:0.5 #
-2.0662255805429898e-005 1:0.11111111 2:0.5 3:0.33333334 4:0.66666669 5:0.60000002 6:0.75 7:0.30000001 8:-0.25 9:0.25 #
-1.9566519145414871e-005 1:0 2:0 3:0.33333334 4:0.33333334 5:0.40000001 6:0.40000001 7:0.2 8:-0.75 9:0 #
1.9566519145414871e-005 1:0 2:0 3:0.16666667 4:0.33333334 5:1 6:1 7:0.5 8:0 9:0.75 #
-2.0662255805429898e-005 1:0 2:0.25 3:0.33333334 4:1 5:0.80000001 6:0.80000001 7:0.40000001 8:-0.25 9:0.5 #
2.0662255805429898e-005 1:0 2:0.25 3:0.16666667 4:1 5:1 6:1 7:0.5 8:0 9:0.75 #
4.1324511610859796e-005 1:0.33333334 2:0 3:0.5 4:0.5 5:0.2 6:0.2 7:0.2 8:-1 9:0 #
-2.0662255805429898e-005 1:0.33333334 2:0 3:0.33333334 4:0.5 5:0.80000001 6:0.80000001 7:0.80000001 8:-0.25 9:0.75 #
-2.0662255805429898e-005 1:0.33333334 2:0 3:0.16666667 4:0.5 5:1 6:1 7:1 8:0 9:1 #
4.1324511610859796e-005 1:0.22222222 2:0.25 3:0.33333334 4:0.5 5:0.40000001 6:0.5 7:0.2 8:-0.5 9:0 #
-2.0662255805429898e-005 1:0.22222222 2:0.25 3:0.16666667 4:0.5 5:0.80000001 6:1 7:0.40000001 8:0 9:0.5 #
-2.0662255805429898e-005 1:0.22222222 2:0.25 3:0.33333334 4:0.5 5:0.40000001 6:0.5 7:0.2 8:-0.5 9:0 #
-2.0662255805429898e-005 1:0.11111111 2:0.5 3:0.33333334 4:0.33333334 5:0.40000001 6:0.5 7:0.2 8:-0.5 9:0 #
2.0662255805429898e-005 1:0.11111111 2:0.5 3:0.16666667 4:0.33333334 5:0.80000001 6:1 7:0.40000001 8:0 9:0.5 #
-2.0124829313540376e-005 1:0.11111111 2:1 3:0.5 4:0.66666669 5:0.40000001 6:0.5 7:0.2 8:-0.5 9:0 #
6.1288190361625999e-005 1:0.11111111 2:1 3:0.16666667 4:0.66666669 5:0.80000001 6:1 7:0.40000001 8:0 9:0.5 #
-2.0662255805429898e-005 1:0.11111111 2:1 3:0.33333334 4:0.66666669 5:0.60000002 6:0.75 7:0.30000001 8:-0.25 9:0.25 #
-2.0501105242655718e-005 1:0.11111111 2:1 3:0.5 4:0.66666669 5:0.40000001 6:0.5 7:0.2 8:-0.5 9:0 #
-2.0662255805429898e-005 1:0.44444445 2:0 3:0.33333334 4:0.5 5:0.40000001 6:0.5 7:0.2 8:-0.5 9:0 #
-2.0662255805429898e-005 1:0.44444445 2:0 3:0.33333334 4:0.5 5:0.40000001 6:0.5 7:0.2 8:-0.5 9:0 #
4.1324511610859796e-005 1:0.44444445 2:0 3:0.16666667 4:0.5 5:0.80000001 6:1 7:0.40000001 8:0 9:0.5 #
2.0662255805429898e-005 1:0.22222222 2:0.25 3:0.16666667 4:0.33333334 5:0.80000001 6:1 7:0.80000001 8:0 9:0.75 #
-2.0662255805429898e-005 1:0.22222222 2:0.25 3:0.33333334 4:0.33333334 5:0.2 6:0.25 7:0.2 8:-0.75 9:0 #
2.0662255805429898e-005 1:0.22222222 2:0.5 3:0.16666667 4:0.33333334 5:0.80000001 6:1 7:0.2 8:0 9:0 #
-2.0662255805429898e-005 1:0.22222222 2:0.5 3:0.16666667 4:0.33333334 5:0.80000001 6:1 7:0.2 8:0 9:0 #
-2.0662255805429898e-005 1:0.22222222 2:0 3:0.16666667 4:0.33333334 5:0.80000001 6:1 7:0.40000001 8:0 9:0.5 #
2.0662255805429898e-005 1:0.22222222 2:0 3:0.33333334 4:0.33333334 5:0.40000001 6:0.5 7:0.2 8:-0.5 9:0 #
2.0662255805429898e-005 1:0.33333334 2:0 3:0.16666667 4:0.33333334 5:0.80000001 6:1 7:0.40000001 8:0 9:0.5 #
-2.0662255805429898e-005 1:0.33333334 2:0 3:0.33333334 4:0.33333334 5:0.40000001 6:0.5 7:0.2 8:-0.5 9:0 #
2.0662255805429898e-005 1:0.22222222 2:0.25 3:0.33333334 4:0.33333334 5:0.40000001 6:0.5 7:0.2 8:-0.5 9:0 #
-2.0662255805429898e-005 1:0.22222222 2:0.25 3:0.16666667 4:0.33333334 5:0.80000001 6:1 7:0.40000001 8:0 9:0.5 #
2.0662255805429898e-005 1:0.11111111 2:0 3:0.33333334 4:0.33333334 5:0.40000001 6:0.40000001 7:0.2 8:-0.75 9:0 #
-2.0662255805429898e-005 1:0.11111111 2:0 3:0.16666667 4:0.33333334 5:1 6:1 7:0.5 8:0 9:0.75 #
-2.0662255805429898e-005 1:0.55555558 2:0 3:0.33333334 4:0.5 5:0.40000001 6:0.5 7:0.2 8:-0.5 9:0 #
-2.0662255805429898e-005 1:0.55555558 2:0 3:0.33333334 4:0.5 5:0.40000001 6:0.5 7:0.2 8:-0.5 9:0 #
4.1324511610859796e-005 1:0.55555558 2:0 3:0.16666667 4:0.5 5:0.80000001 6:1 7:0.40000001 8:0 9:0.5 #
2.0662255805429898e-005 1:0.33333334 2:0.25 3:0.16666667 4:0.33333334 5:0.80000001 6:1 7:0.80000001 8:0 9:0.75 #
-2.0662255805429898e-005 1:0.33333334 2:0.25 3:0.33333334 4:0.33333334 5:0.2 6:0.25 7:0.2 8:-0.75 9:0 #
-2.0662255805429898e-005 1:0.33333334 2:0.5 3:0.16666667 4:0.33333334 5:0.80000001 6:1 7:0.2 8:0 9:0 #
2.0662255805429898e-005 1:0.33333334 2:0.5 3:0.16666667 4:0.33333334 5:0.80000001 6:1 7:0.2 8:0 9:0 #
-2.0662255805429898e-005 1:0.11111111 2:0.75 3:0.16666667 4:0.33333334 5:0.80000001 6:1 7:0.40000001 8:0 9:0.5 #
2.0662255805429898e-005 1:0.11111111 2:0.75 3:0.33333334 4:0.33333334 5:0.40000001 6:0.5 7:0.2 8:-0.5 9:0 #
2.0662255805429898e-005 1:0.44444445 2:0.25 3:0.16666667 4:0.33333334 5:0.80000001 6:1 7:0.80000001 8:0 9:0.75 #
-2.0662255805429898e-005 1:0.44444445 2:0.25 3:0.33333334 4:0.33333334 5:0.2 6:0.25 7:0.2 8:-0.75 9:0 #
2.0662255805429898e-005 1:0.44444445 2:0.5 3:0.16666667 4:0.33333334 5:0.80000001 6:1 7:0.2 8:0 9:0 #
-2.0662255805429898e-005 1:0.44444445 2:0.5 3:0.16666667 4:0.33333334 5:0.80000001 6:1 7:0.2 8:0 9:0 #
2.0662255805429898e-005 1:0.44444445 2:0 3:0.16666667 4:0.33333334 5:0.80000001 6:1 7:0.40000001 8:0 9:0.5 #
-2.0662255805429898e-005 1:0.44444445 2:0 3:0.33333334 4:0.33333334 5:0.40000001 6:0.5 7:0.2 8:-0.5 9:0 #
-2.0662255805429898e-005 1:0.33333334 2:0.25 3:0.33333334 4:0.33333334 5:0.40000001 6:0.5 7:0.2 8:-0.5 9:0 #
2.0662255805429898e-005 1:0.33333334 2:0.25 3:0.16666667 4:0.33333334 5:0.80000001 6:1 7:0.40000001 8:0 9:0.5 #
-2.0662255805429898e-005 1:0.22222222 2:0.5 3:0.33333334 4:0.66666669 5:0.60000002 6:0.75 7:0.30000001 8:-0.25 9:0.25 #
-2.0662255805429898e-005 1:0.22222222 2:0.5 3:0.16666667 4:0.66666669 5:0.80000001 6:1 7:0.40000001 8:0 9:0.5 #
-2.0662255805429898e-005 1:0.22222222 2:0.5 3:0.33333334 4:0.66666669 5:0.60000002 6:0.75 7:0.30000001 8:-0.25 9:0.25 #
6.1986767416289694e-005 1:0.22222222 2:0.5 3:0.66666669 4:0.66666669 5:0.40000001 6:0.5 7:0.2 8:-0.5 9:0 #
-2.0662255805429898e-005 1:0.22222222 2:0 3:0.33333334 4:0.33333334 5:0.40000001 6:0.40000001 7:0.2 8:-0.75 9:0 #
2.0662255805429898e-005 1:0.22222222 2:0 3:0.16666667 4:0.33333334 5:1 6:1 7:0.5 8:0 9:0.75 #
0.00010331127902714949 1:0.11111111 2:0.25 3:0.66666669 4:1 5:0.40000001 6:0.40000001 7:0.2 8:-0.75 9:0 #
-2.0662255805429898e-005 1:0.11111111 2:0.25 3:0.66666669 4:1 5:0.40000001 6:0.40000001 7:0.2 8:-0.75 9:0 #
-2.0662255805429898e-005 1:0.11111111 2:0.25 3:0.66666669 4:1 5:0.40000001 6:0.40000001 7:0.2 8:-0.75 9:0 #
-2.0662255805429898e-005 1:0.11111111 2:0.25 3:0.5 4:1 5:0.60000002 6:0.60000002 7:0.30000001 8:-0.5 9:0.25 #
-2.0662255805429898e-005 1:0.11111111 2:0.25 3:0.33333334 4:1 5:0.80000001 6:0.80000001 7:0.40000001 8:-0.25 9:0.5 #
-2.0662255805429898e-005 1:0.11111111 2:0.25 3:0.16666667 4:1 5:1 6:1 7:0.5 8:0 9:0.75 #
-2.0662255805429898e-005 1:0.33333334 2:0 3:0.33333334 4:0.33333334 5:0.40000001 6:0.40000001 7:0.2 8:-0.75 9:0 #
2.0662255805429898e-005 1:0.33333334 2:0 3:0.16666667 4:0.33333334 5:1 6:1 7:0.5 8:0 9:0.75 #
-2.0662255805429898e-005 1:0.22222222 2:0.25 3:0.66666669 4:1 5:0.40000001 6:0.40000001 7:0.2 8:-0.75 9:0 #
8.2649023221719592e-005 1:0.22222222 2:0.25 3:0.66666669 4:1 5:0.40000001 6:0.40000001 7:0.2 8:-0.75 9:0 #
-2.0662255805429898e-005 1:0.22222222 2:0.25 3:0.66666669 4:1 5:0.40000001 6:0.40000001 7:0.2 8:-0.75 9:0 #
-2.0662255805429898e-005 1:0.22222222 2:0.25 3:0.5 4:1 5:0.60000002 6:0.60000002 7:0.30000001 8:-0.5 9:0.25 #
-2.0662255805429898e-005 1:0.22222222 2:0.25 3:0.33333334 4:1 5:0.80000001 6:0.80000001 7:0.40000001 8:-0.25 9:0.5 #
4.1324511610859796e-005 1:0 2:0 3:0.16666667 4:0.5 5:0.60000002 6:1 7:0.30000001 8:0 9:0.25 #
-2.0662255805429898e-005 1:0 2:0 3:0.33333334 4:0.5 5:0.40000001 6:0.66666669 7:0.2 8:-0.25 9:0 #
-2.0662255805429898e-005 1:0 2:0 3:0.33333334 4:0.5 5:0.40000001 6:0.66666669 7:0.2 8:-0.25 9:0 #
-2.0662255805429898e-005 1:0 2:0 3:0.33333334 4:0.5 5:0.60000002 6:0.75 7:0.30000001 8:-0.25 9:0.25 #
2.0662255805429898e-005 1:0 2:0 3:0.16666667 4:0.5 5:0.80000001 6:1 7:0.40000001 8:0 9:0.5 #
-2.0662255805429898e-005 1:0 2:1 3:0.16666667 4:0.33333334 5:0.80000001 6:1 7:0.2 8:0 9:0 #
2.0662255805429898e-005 1:0 2:1 3:0.16666667 4:0.33333334 5:0.80000001 6:1 7:0.2 8:0 9:0 #
-2.0662255805429898e-005 1:0.11111111 2:0 3:0.16666667 4:0.5 5:0.60000002 6:1 7:0.30000001 8:0 9:0.25 #
4.1324511610859796e-005 1:0.11111111 2:0 3:0.33333334 4:0.5 5:0.40000001 6:0.66666669 7:0.2 8:-0.25 9:0 #
-2.0662255805429898e-005 1:0.11111111 2:0 3:0.33333334 4:0.5 5:0.40000001 6:0.66666669 7:0.2 8:-0.25 9:0 #
-2.0662255805429898e-005 1:0.22222222 2:0 3:0.16666667 4:0.5 5:0.60000002 6:1 7:0.30000001 8:0 9:0.25 #
-2.0662255805429898e-005 1:0.22222222 2:0 3:0.33333334 4:0.5 5:0.40000001 6:0.66666669 7:0.2 8:-0.25 9:0 #
4.1324511610859796e-005 1:0.22222222 2:0 3:0.33333334 4:0.5 5:0.40000001 6:0.66666669 7:0.2 8:-0.25 9:0 #
-2.0662255805429898e-005 1:0 2:0.5 3:0.16666667 4:0.5 5:0.80000001 6:1 7:0.26666668 8:0 9:0.25 #
2.0662255805429898e-005 1:0 2:0.5 3:0.16666667 4:0.5 5:0.80000001 6:1 7:0.26666668 8:0 9:0.25 #
-2.0662255805429898e-005 1:0.11111111 2:0 3:0.33333334 4:0.5 5:0.60000002 6:0.75 7:0.30000001 8:-0.25 9:0.25 #
-2.0662255805429898e-005 1:0.11111111 2:0 3:0.16666667 4:0.5 5:0.80000001 6:1 7:0.40000001 8:0 9:0.5 #
4.1324511610859796e-005 1:0.11111111 2:0 3:0.5 4:0.5 5:0.40000001 6:0.5 7:0.2 8:-0.5 9:0 #
-2.0662255805429898e-005 1:0 2:0.25 3:0.33333334 4:0.33333334 5:0.60000002 6:0.75 7:0.2 8:-0.25 9:0 #
2.0662255805429898e-005 1:0 2:0.25 3:0.16666667 4:0.33333334 5:0.80000001 6:1 7:0.26666668 8:0 9:0.25 #
2.0662255805429898e-005 1:0 2:0.5 3:0.16666667 4:0.5 5:1 6:1 7:0.5 8:0 9:0.75 #
-2.0662255805429898e-005 1:0 2:0.5 3:0.33333334 4:0.5 5:0.80000001 6:0.80000001 7:0.40000001 8:-0.25 9:0.5 #
4.1324511610859796e-005 1:0.22222222 2:0 3:0.33333334 4:0.5 5:0.60000002 6:0.75 7:0.30000001 8:-0.25 9:0.25 #
-2.0662255805429898e-005 1:0.22222222 2:0 3:0.16666667 4:0.5 5:0.80000001 6:1 7:0.40000001 8:0 9:0.5 #
-2.0662255805429898e-005 1:0.22222222 2:0 3:0.5 4:0.5 5:0.40000001 6:0.5 7:0.2 8:-0.5 9:0 #
8.4796822228064622e-006 1:0 2:1 3:0.16666667 4:0.33333334 5:1 6:1 7:0.25 8:0 9:0.25 #
-8.4796822228064622e-006 1:0 2:1 3:0.33333334 4:0.33333334 5:0.80000001 6:0.80000001 7:0.2 8:-0.25 9:0 #
-2.0662255805429898e-005 1:0 2:0 3:0.33333334 4:0.33333334 5:0.60000002 6:0.75 7:0.2 8:-0.25 9:0 #
2.0662255805429898e-005 1:0 2:0 3:0.16666667 4:0.33333334 5:0.80000001 6:1 7:0.26666668 8:0 9:0.25 #
2.0540038075088451e-005 1:0 2:0.25 3:0.16666667 4:0.33333334 5:1 6:1 7:0.25 8:0 9:0.25 #
-2.0540038075088451e-005 1:0 2:0.25 3:0.33333334 4:0.33333334 5:0.80000001 6:0.80000001 7:0.2 8:-0.25 9:0 #
2.0662255805429898e-005 1:0.11111111 2:0 3:0.33333334 4:0.33333334 5:0.60000002 6:0.75 7:0.2 8:-0.25 9:0 #
-2.0662255805429898e-005 1:0.11111111 2:0 3:0.16666667 4:0.33333334 5:0.80000001 6:1 7:0.26666668 8:0 9:0.25 #
-2.0662255805429898e-005 1:0 2:0.5 3:0.16666667 4:0.66666669 5:1 6:1 7:0.25 8:0 9:0.25 #
2.0662255805429898e-005 1:0 2:0.5 3:0.16666667 4:0.66666669 5:1 6:1 7:0.25 8:0 9:0.25 #
-2.0662255805429898e-005 1:0.33333334 2:0 3:0.33333334 4:0.5 5:0.60000002 6:0.75 7:0.30000001 8:-0.25 9:0.25 #
4.1324511610859796e-005 1:0.33333334 2:0 3:0.16666667 4:0.5 5:0.80000001 6:1 7:0.40000001 8:0 9:0.5 #
-2.0662255805429898e-005 1:0.33333334 2:0 3:0.5 4:0.5 5:0.40000001 6:0.5 7:0.2 8:-0.5 9:0 #
-2.0662255805429898e-005 1:0.11111111 2:0.25 3:0.33333334 4:0.33333334 5:0.2 6:0.25 7:0.2 8:-0.75 9:0 #
2.0662255805429898e-005 1:0.11111111 2:0.25 3:0.16666667 4:0.33333334 5:0.80000001 6:1 7:0.80000001 8:0 9:0.75 #
-2.0662255805429898e-005 1:0.11111111 2:0.5 3:0.16666667 4:0.33333334 5:1 6:1 7:0.25 8:0 9:0.25 #
2.0662255805429898e-005 1:0.11111111 2:0.5 3:0.33333334 4:0.33333334 5:0.80000001 6:0.80000001 7:0.2 8:-0.25 9:0 #
2.0662255805429898e-005 1:0 2:0 3:0.16666667 4:0.33333334 5:1 6:1 7:0.25 8:0 9:0.25 #
-2.0662255805429898e-005 1:0 2:0 3:0.33333334 4:0.33333334 5:0.80000001 6:0.80000001 7:0.2 8:-0.25 9:0 #
-2.0662255805429898e-005 1:0.44444445 2:0 3:0.33333334 4:0.5 5:0.60000002 6:0.75 7:0.30000001 8:-0.25 9:0.25 #
4.1324511610859796e-005 1:0.44444445 2:0 3:0.16666667 4:0.5 5:0.80000001 6:1 7:0.40000001 8:0 9:0.5 #
-2.0662255805429898e-005 1:0.44444445 2:0 3:0.5 4:0.5 5:0.40000001 6:0.5 7:0.2 8:-0.5 9:0 #
2.0662255805429898e-005 1:0.22222222 2:0.25 3:0.33333334 4:0.33333334 5:0.2 6:0.25 7:0.2 8:-0.75 9:0 #
-2.0662255805429898e-005 1:0.22222222 2:0.25 3:0.16666667 4:0.33333334 5:0.80000001 6:1 7:0.80000001 8:0 9:0.75 #
-2.0662255805429898e-005 1:0.55555558 2:0 3:0.33333334 4:0.5 5:0.60000002 6:0.75 7:0.30000001 8:-0.25 9:0.25 #
4.1324511610859796e-005 1:0.55555558 2:0 3:0.16666667 4:0.5 5:0.80000001 6:1 7:0.40000001 8:0 9:0.5 #
-2.0662255805429898e-005 1:0.55555558 2:0 3:0.5 4:0.5 5:0.40000001 6:0.5 7:0.2 8:-0.5 9:0 #
-2.0662255805429898e-005 1:0.33333334 2:0.25 3:0.33333334 4:0.33333334 5:0.2 6:0.25 7:0.2 8:-0.75 9:0 #
2.0662255805429898e-005 1:0.33333334 2:0.25 3:0.16666667 4:0.33333334 5:0.80000001 6:1 7:0.80000001 8:0 9:0.75 #
2.0662255805429898e-005 1:0.22222222 2:0.5 3:0.16666667 4:0.33333334 5:1 6:1 7:0.25 8:0 9:0.25 #
-2.0662255805429898e-005 1:0.22222222 2:0.5 3:0.33333334 4:0.33333334 5:0.80000001 6:0.80000001 7:0.2 8:-0.25 9:0 #
2.0662255805429898e-005 1:0.11111111 2:1 3:0.16666667 4:0.33333334 5:0.80000001 6:1 7:0.2 8:0 9:0 #
-2.0662255805429898e-005 1:0.11111111 2:1 3:0.16666667 4:0.33333334 5:0.80000001 6:1 7:0.2 8:0 9:0 #
-2.0662255805429898e-005 1:0.11111111 2:0 3:0.16666667 4:0.33333334 5:1 6:1 7:0.25 8:0 9:0.25 #
2.0662255805429898e-005 1:0.11111111 2:0 3:0.33333334 4:0.33333334 5:0.80000001 6:0.80000001 7:0.2 8:-0.25 9:0 #
-2.0662255805429898e-005 1:0 2:0.25 3:0.16666667 4:1 5:1 6:1 7:0.5 8:0 9:0.75 #
-2.0662255805429898e-005 1:0 2:0.25 3:0.66666669 4:1 5:0.80000001 6:0.80000001 7:0.40000001 8:-0.25 9:0.5 #
-2.0662255805429898e-005 1:0 2:0.25 3:0.16666667 4:1 5:1 6:1 7:0.5 8:0 9:0.75 #
6.1986767416289694e-005 1:0 2:0.25 3:0.16666667 4:1 5:1 6:1 7:0.5 8:0 9:0.75 #
-2.0662255805429898e-005 1:0.66666669 2:0 3:0.33333334 4:0.5 5:0.60000002 6:0.75 7:0.30000001 8:-0.25 9:0.25 #
-2.0662255805429898e-005 1:0.66666669 2:0 3:0.16666667 4:0.5 5:0.80000001 6:1 7:0.40000001 8:0 9:0.5 #
4.1324511610859796e-005 1:0.66666669 2:0 3:0.5 4:0.5 5:0.40000001 6:0.5 7:0.2 8:-0.5 9:0 #
2.0662255805429898e-005 1:0.11111111 2:0.25 3:0.33333334 4:0.33333334 5:0.60000002 6:0.75 7:0.2 8:-0.25 9:0 #
-2.0662255805429898e-005 1:0.11111111 2:0.25 3:0.16666667 4:0.33333334 5:0.80000001 6:1 7:0.26666668 8:0 9:0.25 #
2.0662255805429898e-005 1:0.22222222 2:0 3:0.16666667 4:0.33333334 5:1 6:1 7:0.25 8:0 9:0.25 #
-2.0662255805429898e-005 1:0.22222222 2:0 3:0.33333334 4:0.33333334 5:0.80000001 6:0.80000001 7:0.2 8:-0.25 9:0 #
-2.0662255805429898e-005 1:0.11111111 2:0.5 3:0.33333334 4:0.5 5:0.2 6:0.25 7:0.2 8:-0.75 9:0 #
-2.0662255805429898e-005 1:0.11111111 2:0.5 3:0.16666667 4:0.5 5:0.80000001 6:1 7:0.80000001 8:0 9:0.75 #
4.1324511610859796e-005 1:0.11111111 2:0.5 3:0.33333334 4:0.5 5:0.2 6:0.25 7:0.2 8:-0.75 9:0 #
-2.0662255805429898e-005 1:0 2:0.75 3:0.33333334 4:0.5 5:0.80000001 6:0.80000001 7:0.40000001 8:-0.25 9:0.5 #
2.0662255805429898e-005 1:0 2:0.75 3:0.16666667 4:0.5 5:1 6:1 7:0.5 8:0 9:0.75 #
-2.0662255805429898e-005 1:0 2:1 3:0.33333334 4:0.5 5:0.80000001 6:0.80000001 7:0.40000001 8:-0.25 9:0.5 #
2.0662255805429898e-005 1:0 2:1 3:0.16666667 4:0.5 5:1 6:1 7:0.5 8:0 9:0.75 #
-2.0662255805429898e-005 1:0.22222222 2:0 3:0.33333334 4:0.33333334 5:0.60000002 6:0.75 7:0.2 8:-0.25 9:0 #
2.0662255805429898e-005 1:0.22222222 2:0 3:0.16666667 4:0.33333334 5:0.80000001 6:1 7:0.26666668 8:0 9:0.25 #
-2.0662255805429898e-005 1:0.11111111 2:0.25 3:0.16666667 4:0.33333334 5:1 6:1 7:0.25 8:0 9:0.25 #
2.0662255805429898e-005 1:0.11111111 2:0.25 3:0.33333334 4:0.33333334 5:0.80000001 6:0.80000001 7:0.2 8:-0.25 9:0 #
-2.0662255805429898e-005 1:0 2:1 3:0.16666667 4:0.33333334 5:0.80000001 6:1 7:0.2 8:0 9:0 #
2.0662255805429898e-005 1:0 2:1 3:0.16666667 4:0.33333334 5:0.80000001 6:1 7:0.2 8:0 9:0 #
-2.0662255805429898e-005 1:0.33333334 2:0 3:0.16666667 4:0.33333334 5:1 6:1 7:0.25 8:0 9:0.25 #
2.0662255805429898e-005 1:0.33333334 2:0 3:0.33333334 4:0.33333334 5:0.80000001 6:0.80000001 7:0.2 8:-0.25 9:0 #
0.00010331127902714949 1:0.11111111 2:0.25 3:0.16666667 4:1 5:1 6:1 7:0.5 8:0 9:0.75 #
-2.0662255805429898e-005 1:0.11111111 2:0.25 3:0.66666669 4:1 5:0.80000001 6:0.80000001 7:0.40000001 8:-0.25 9:0.5 #
-2.0662255805429898e-005 1:0.11111111 2:0.25 3:0.16666667 4:1 5:1 6:1 7:0.5 8:0 9:0.75 #
-2.0662255805429898e-005 1:0.11111111 2:0.25 3:0.16666667 4:1 5:1 6:1 7:0.5 8:0 9:0.75 #
-2.0662255805429898e-005 1:0.11111111 2:0.25 3:0.83333331 4:1 5:0.40000001 6:0.40000001 7:0.2 8:-0.75 9:0 #
-2.0662255805429898e-005 1:0.11111111 2:0.25 3:0.83333331 4:1 5:0.40000001 6:0.40000001 7:0.2 8:-0.75 9:0 #
-2.0662255805429898e-005 1:0 2:0.5 3:0.16666667 4:0.33333334 5:0.80000001 6:1 7:0.2 8:0 9:0 #
2.0662255805429898e-005 1:0 2:0.5 3:0.16666667 4:0.33333334 5:0.80000001 6:1 7:0.2 8:0 9:0 #
4.1324511610859796e-005 1:0.33333334 2:0 3:0.16666667 4:0.5 5:0.60000002 6:1 7:0.30000001 8:0 9:0.25 #
-2.0662255805429898e-005 1:0.33333334 2:0 3:0.33333334 4:0.5 5:0.40000001 6:0.66666669 7:0.2 8:-0.25 9:0 #
-2.0662255805429898e-005 1:0.33333334 2:0 3:0.33333334 4:0.5 5:0.40000001 6:0.66666669 7:0.2 8:-0.25 9:0 #
-2.0662255805429898e-005 1:0.11111111 2:0.25 3:0.5 4:0.5 5:0.40000001 6:0.5 7:0.2 8:-0.5 9:0 #
-2.0662255805429898e-005 1:0.11111111 2:0.25 3:0.16666667 4:0.5 5:0.80000001 6:1 7:0.40000001 8:0 9:0.5 #
4.1324511610859796e-005 1:0.11111111 2:0.25 3:0.33333334 4:0.5 5:0.60000002 6:0.75 7:0.30000001 8:-0.25 9:0.25 #
2.0662255805429898e-005 1:0 2:0.75 3:0.16666667 4:0.33333334 5:0.80000001 6:1 7:0.2 8:0 9:0 #
-2.0662255805429898e-005 1:0 2:0.75 3:0.16666667 4:0.33333334 5:0.80000001 6:1 7:0.2 8:0 9:0 #
-2.0662255805429898e-005 1:0.44444445 2:0 3:0.16666667 4:0.33333334 5:1 6:1 7:0.25 8:0 9:0.25 #
2.0662255805429898e-005 1:0.44444445 2:0 3:0.33333334 4:0.33333334 5:0.80000001 6:0.80000001 7:0.2 8:-0.25 9:0 #
-9.8230295710515759e-007 1:0.22222222 2:0.25 3:0.16666667 4:1 5:1 6:1 7:0.5 8:0 9:0.75 #
8.0097665827831769e-005 1:0.22222222 2:0.25 3:0.66666669 4:1 5:0.80000001 6:0.80000001 7:0.40000001 8:-0.25 9:0.5 #
-1.9763077870051441e-005 1:0.22222222 2:0.25 3:0.16666667 4:1 5:1 6:1 7:0.5 8:0 9:0.75 #
-1.8027773389815377e-005 1:0.22222222 2:0.25 3:0.16666667 4:1 5:1 6:1 7:0.5 8:0 9:0.75 #
-2.0662255805429898e-005 1:0.22222222 2:0.25 3:0.83333331 4:1 5:0.40000001 6:0.40000001 7:0.2 8:-0.75 9:0 #
-2.0662255805429898e-005 1:0.22222222 2:0.25 3:0.83333331 4:1 5:0.40000001 6:0.40000001 7:0.2 8:-0.75 9:0 #
-2.0662255805429898e-005 1:0.77777779 2:0 3:0.33333334 4:0.5 5:0.60000002 6:0.75 7:0.30000001 8:-0.25 9:0.25 #
-2.0662255805429898e-005 1:0.77777779 2:0 3:0.16666667 4:0.5 5:0.80000001 6:1 7:0.40000001 8:0 9:0.5 #
4.1324511610859796e-005 1:0.77777779 2:0 3:0.5 4:0.5 5:0.40000001 6:0.5 7:0.2 8:-0.5 9:0 #
2.0662255805429898e-005 1:0.22222222 2:0.25 3:0.33333334 4:0.33333334 5:0.60000002 6:0.75 7:0.2 8:-0.25 9:0 #
-2.0662255805429898e-005 1:0.22222222 2:0.25 3:0.16666667 4:0.33333334 5:0.80000001 6:1 7:0.26666668 8:0 9:0.25 #
-2.0662255805429898e-005 1:0.11111111 2:0.5 3:0.16666667 4:0.33333334 5:1 6:1 7:0.25 8:0 9:0.25 #
2.0662255805429898e-005 1:0.11111111 2:0.5 3:0.33333334 4:0.33333334 5:0.80000001 6:0.80000001 7:0.2 8:-0.25 9:0 #
-2.0662255805429898e-005 1:0 2:0 3:0.33333334 4:0.5 5:0.80000001 6:0.80000001 7:0.2 8:-0.25 9:0 #
-2.0662255805429898e-005 1:0 2:0 3:0.16666667 4:0.5 5:1 6:1 7:0.25 8:0 9:0.25 #
4.1324511610859796e-005 1:0 2:0 3:0.33333334 4:0.5 5:0.80000001 6:0.80000001 7:0.2 8:-0.25 9:0 #
-2.0662255805429898e-005 1:0 2:0.5 3:0.33333334 4:0.33333334 5:0.60000002 6:0.75 7:0.2 8:-0.25 9:0 #
2.0662255805429898e-005 1:0 2:0.5 3:0.16666667 4:0.33333334 5:0.80000001 6:1 7:0.26666668 8:0 9:0.25 #
-2.0662255805429898e-005 1:0.11111111 2:0 3:0.33333334 4:0.5 5:0.80000001 6:0.80000001 7:0.2 8:-0.25 9:0 #
4.1324511610859796e-005 1:0.11111111 2:0 3:0.16666667 4:0.5 5:1 6:1 7:0.25 8:0 9:0.25 #
-2.0662255805429898e-005 1:0.11111111 2:0 3:0.33333334 4:0.5 5:0.80000001 6:0.80000001 7:0.2 8:-0.25 9:0 #
-2.0662255805429898e-005 1:0.22222222 2:0 3:0.33333334 4:0.5 5:0.80000001 6:0.80000001 7:0.2 8:-0.25 9:0 #
-2.0662255805429898e-005 1:0.22222222 2:0 3:0.16666667 4:0.5 5:1 6:1 7:0.25 8:0 9:0.25 #
4.1324511610859796e-005 1:0.22222222 2:0 3:0.33333334 4:0.5 5:0.80000001 6:0.80000001 7:0.2 8:-0.25 9:0 #
2.0662255805429898e-005 1:0.11111111 2:0.25 3:0.16666667 4:0.33333334 5:0.80000001 6:1 7:0.40000001 8:0 9:0.5 #
-2.0662255805429898e-005 1:0.11111111 2:0.25 3:0.33333334 4:0.33333334 5:0.40000001 6:0.5 7:0.2 8:-0.5 9:0 #
2.0662255805429898e-005 1:0.11111111 2:0.5 3:0.33333334 4:0.33333334 5:0.60000002 6:0.75 7:0.2 8:-0.25 9:0 #
-2.0662255805429898e-005 1:0.11111111 2:0.5 3:0.16666667 4:0.33333334 5:0.80000001 6:1 7:0.26666668 8:0 9:0.25 #
2.0662255805429898e-005 1:0 2:0.25 3:0.16666667 4:1 5:0.80000001 6:1 7:0.80000001 8:0 9:0.75 #
-2.0662255805429898e-005 1:0 2:0.25 3:0.16666667 4:1 5:0.80000001 6:1 7:0.80000001 8:0 9:0.75 #
2.0662255805429898e-005 1:0 2:0.5 3:0.16666667 4:0.33333334 5:0.80000001 6:1 7:0.2 8:0 9:0 #
-2.0662255805429898e-005 1:0 2:0.5 3:0.16666667 4:0.33333334 5:0.80000001 6:1 7:0.2 8:0 9:0 #
-2.0662255805429898e-005 1:0.11111111 2:0 3:0.16666667 4:0.33333334 5:1 6:1 7:0.33333331 8:0 9:0.5 #
2.0662255805429898e-005 1:0.11111111 2:0 3:0.33333334 4:0.33333334 5:0.60000002 6:0.60000002 7:0.2 8:-0.5 9:0 #
2.0662255805429898e-005 1:0 2:0.25 3:0.16666667 4:0.33333334 5:0.80000001 6:1 7:0.26666668 8:0 9:0.25 #
-2.0662255805429898e-005 1:0 2:0.25 3:0.33333334 4:0.33333334 5:0.60000002 6:0.75 7:0.2 8:-0.25 9:0 #
-2.0662255805429898e-005 1:0.11111111 2:0 3:0.33333334 4:0.33333334 5:0.60000002 6:0.60000002 7:0.2 8:-0.5 9:0 #
2.0662255805429898e-005 1:0.11111111 2:0 3:0.16666667 4:0.33333334 5:1 6:1 7:0.33333331 8:0 9:0.5 #
-2.0662255805429898e-005 1:0.11111111 2:0.25 3:0.16666667 4:1 5:0.80000001 6:1 7:0.80000001 8:0 9:0.75 #
-2.0662255805429898e-005 1:0.11111111 2:0.25 3:0.5 4:1 5:0.60000002 6:0.75 7:0.60000002 8:-0.25 9:0.5 #
-2.0662255805429898e-005 1:0.11111111 2:0.25 3:0.5 4:1 5:0.60000002 6:0.75 7:0.60000002 8:-0.25 9:0.5 #
-2.0662255805429898e-005 1:0.11111111 2:0.25 3:0.83333331 4:1 5:0.40000001 6:0.5 7:0.40000001 8:-0.5 9:0.25 #
9.1667969991660373e-005 1:0.11111111 2:0.25 3:0.16666667 4:1 5:0.80000001 6:1 7:0.80000001 8:0 9:0.75 #
-9.0189467699407774e-006 1:0.11111111 2:0.25 3:1 4:1 5:0.2 6:0.25 7:0.2 8:-0.75 9:0 #
-2.0662255805429898e-005 1:0 2:1 3:0.16666667 4:0.5 5:0.80000001 6:1 7:0.40000001 8:0 9:0.5 #
2.0662255805429898e-005 1:0 2:1 3:0.16666667 4:0.5 5:0.80000001 6:1 7:0.40000001 8:0 9:0.5 #
-2.0662255805429898e-005 1:0.33333334 2:0 3:0.33333334 4:0.5 5:0.80000001 6:0.80000001 7:0.2 8:-0.25 9:0 #
-2.0662255805429898e-005 1:0.33333334 2:0 3:0.16666667 4:0.5 5:1 6:1 7:0.25 8:0 9:0.25 #
4.1324511610859796e-005 1:0.33333334 2:0 3:0.33333334 4:0.5 5:0.80000001 6:0.80000001 7:0.2 8:-0.25 9:0 #
-2.0662255805429898e-005 1:0.22222222 2:0.25 3:0.16666667 4:0.33333334 5:0.80000001 6:1 7:0.40000001 8:0 9:0.5 #
2.0662255805429898e-005 1:0.22222222 2:0.25 3:0.33333334 4:0.33333334 5:0.40000001 6:0.5 7:0.2 8:-0.5 9:0 #
4.1324511610859796e-005 1:0.44444445 2:0 3:0.33333334 4:0.5 5:0.80000001 6:0.80000001 7:0.2 8:-0.25 9:0 #
-2.0662255805429898e-005 1:0.44444445 2:0 3:0.16666667 4:0.5 5:1 6:1 7:0.25 8:0 9:0.25 #
-2.0662255805429898e-005 1:0.44444445 2:0 3:0.33333334 4:0.5 5:0.80000001 6:0.80000001 7:0.2 8:-0.25 9:0 #
2.0662255805429898e-005 1:0 2:0.25 3:0.16666667 4:0.5 5:0.80000001 6:1 7:0.26666668 8:0 9:0.25 #
-2.0662255805429898e-005 1:0 2:0.25 3:0.16666667 4:0.5 5:0.80000001 6:1 7:0.26666668 8:0 9:0.25 #
4.1324511610859796e-005 1:0.11111111 2:0 3:0.16666667 4:0.5 5:1 6:1 7:0.5 8:0 9:0.75 #
-2.0662255805429898e-005 1:0.11111111 2:0 3:0.5 4:0.5 5:0.40000001 6:0.40000001 7:0.2 8:-0.75 9:0 #
-2.0662255805429898e-005 1:0.11111111 2:0 3:0.33333334 4:0.5 5:0.60000002 6:0.60000002 7:0.30000001 8:-0.5 9:0.25 #
-2.0662255805429898e-005 1:0.11111111 2:0.25 3:0.5 4:0.5 5:0.2 6:0.25 7:0.2 8:-0.75 9:0 #
4.1324511610859796e-005 1:0.11111111 2:0.25 3:0.33333334 4:0.5 5:0.60000002 6:0.75 7:0.60000002 8:-0.25 9:0.5 #
-2.0662255805429898e-005 1:0.11111111 2:0.25 3:0.16666667 4:0.5 5:0.80000001 6:1 7:0.80000001 8:0 9:0.75 #
2.0662255805429898e-005 1:0 2:0.75 3:0.16666667 4:0.33333334 5:0.80000001 6:1 7:0.2 8:0 9:0 #
-2.0662255805429898e-005 1:0 2:0.75 3:0.16666667 4:0.33333334 5:0.80000001 6:1 7:0.2 8:0 9:0 #
4.1324511610859796e-005 1:0.55555558 2:0 3:0.33333334 4:0.5 5:0.80000001 6:0.80000001 7:0.2 8:-0.25 9:0 #
-2.0662255805429898e-005 1:0.55555558 2:0 3:0.16666667 4:0.5 5:1 6:1 7:0.25 8:0 9:0.25 #
-2.0662255805429898e-005 1:0.55555558 2:0 3:0.33333334 4:0.5 5:0.80000001 6:0.80000001 7:0.2 8:-0.25 9:0 #
-2.0662255805429898e-005 1:0.11111111 2:0.25 3:0.16666667 4:0.5 5:0.80000001 6:1 7:0.26666668 8:0 9:0.25 #
-2.0662255805429898e-005 1:0.11111111 2:0.25 3:0.5 4:0.5 5:0.60000002 6:0.75 7:0.2 8:-0.25 9:0 #
4.1324511610859796e-005 1:0.11111111 2:0.25 3:0.16666667 4:0.5 5:0.80000001 6:1 7:0.26666668 8:0 9:0.25 #
-2.0662255805429898e-005 1:0.66666669 2:0 3:0.33333334 4:0.5 5:0.80000001 6:0.80000001 7:0.2 8:-0.25 9:0 #
-2.0662255805429898e-005 1:0.66666669 2:0 3:0.16666667 4:0.5 5:1 6:1 7:0.25 8:0 9:0.25 #
4.1324511610859796e-005 1:0.66666669 2:0 3:0.33333334 4:0.5 5:0.80000001 6:0.80000001 7:0.2 8:-0.25 9:0 #
2.0662255805429898e-005 1:0.33333334 2:0.25 3:0.16666667 4:0.33333334 5:0.80000001 6:1 7:0.40000001 8:0 9:0.5 #
-2.0662255805429898e-005 1:0.33333334 2:0.25 3:0.33333334 4:0.33333334 5:0.40000001 6:0.5 7:0.2 8:-0.5 9:0 #
-2.0662255805429898e-005 1:0.22222222 2:0.5 3:0.33333334 4:0.33333334 5:0.60000002 6:0.75 7:0.2 8:-0.25 9:0 #
2.0662255805429898e-005 1:0.22222222 2:0.5 3:0.16666667 4:0.33333334 5:0.80000001 6:1 7:0.26666668 8:0 9:0.25 #
2.0662255805429898e-005 1:0.11111111 2:0.75 3:0.33333334 4:0.33333334 5:0.40000001 6:0.5 7:0.2 8:-0.5 9:0 #
-2.0662255805429898e-005 1:0.11111111 2:0.75 3:0.16666667 4:0.33333334 5:0.80000001 6:1 7:0.40000001 8:0 9:0.5 #
2.0662255805429898e-005 1:0 2:1 3:0.16666667 4:0.33333334 5:0.80000001 6:1 7:0.2 8:0 9:0 #
-2.0662255805429898e-005 1:0 2:1 3:0.16666667 4:0.33333334 5:0.80000001 6:1 7:0.2 8:0 9:0 #
-2.0662255805429898e-005 1:0.77777779 2:0 3:0.33333334 4:0.5 5:0.80000001 6:0.80000001 7:0.2 8:-0.25 9:0 #
-2.0662255805429898e-005 1:0.77777779 2:0 3:0.16666667 4:0.5 5:1 6:1 7:0.25 8:0 9:0.25 #
4.1324511610859796e-005 1:0.77777779 2:0 3:0.33333334 4:0.5 5:0.80000001 6:0.80000001 7:0.2 8:-0.25 9:0 #
2.0662255805429898e-005 1:0.44444445 2:0.25 3:0.16666667 4:0.33333334 5:0.80000001 6:1 7:0.40000001 8:0 9:0.5 #
-2.0662255805429898e-005 1:0.44444445 2:0.25 3:0.33333334 4:0.33333334 5:0.40000001 6:0.5 7:0.2 8:-0.5 9:0 #
-2.0662255805429898e-005 1:0.33333334 2:0.5 3:0.33333334 4:0.33333334 5:0.60000002 6:0.75 7:0.2 8:-0.25 9:0 #
2.0662255805429898e-005 1:0.33333334 2:0.5 3:0.16666667 4:0.33333334 5:0.80000001 6:1 7:0.26666668 8:0 9:0.25 #
2.0662255805429898e-005 1:0.22222222 2:0.75 3:0.33333334 4:0.33333334 5:0.40000001 6:0.5 7:0.2 8:-0.5 9:0 #
-2.0662255805429898e-005 1:0.22222222 2:0.75 3:0.16666667 4:0.33333334 5:0.80000001 6:1 7:0.40000001 8:0 9:0.5 #
-2.0662255805429898e-005 1:0.11111111 2:1 3:0.16666667 4:0.33333334 5:0.80000001 6:1 7:0.2 8:0 9:0 #
2.0662255805429898e-005 1:0.11111111 2:1 3:0.16666667 4:0.33333334 5:0.80000001 6:1 7:0.2 8:0 9:0 #
-2.0662255805429898e-005 1:0.22222222 2:0 3:0.16666667 4:0.5 5:1 6:1 7:0.5 8:0 9:0.75 #
-2.0662255805429898e-005 1:0.22222222 2:0 3:0.5 4:0.5 5:0.40000001 6:0.40000001 7:0.2 8:-0.75 9:0 #
4.1324511610859796e-005 1:0.22222222 2:0 3:0.33333334 4:0.5 5:0.60000002 6:0.60000002 7:0.30000001 8:-0.5 9:0.25 #
2.0662255805429898e-005 1:0 2:0.75 3:0.16666667 4:0.5 5:1 6:1 7:0.33333331 8:0 9:0.5 #
-2.0662255805429898e-005 1:0 2:0.75 3:0.33333334 4:0.5 5:0.80000001 6:0.80000001 7:0.26666668 8:-0.25 9:0.25 #
2.0662255805429898e-005 1:0.22222222 2:0 3:0.33333334 4:0.33333334 5:0.60000002 6:0.60000002 7:0.2 8:-0.5 9:0 #
-2.0662255805429898e-005 1:0.22222222 2:0 3:0.16666667 4:0.33333334 5:1 6:1 7:0.33333331 8:0 9:0.5 #
-2.0662255805429898e-005 1:0.11111111 2:0.25 3:0.16666667 4:0.33333334 5:1 6:1 7:0.33333331 8:0 9:0.5 #
2.0662255805429898e-005 1:0.11111111 2:0.25 3:0.33333334 4:0.33333334 5:0.60000002 6:0.60000002 7:0.2 8:-0.5 9:0 #
-2.0662255805429898e-005 1:0 2:0.5 3:0.33333334 4:0.66666669 5:0.60000002 6:0.75 7:0.30000001 8:-0.25 9:0.25 #
-2.0662255805429898e-005 1:0 2:0.5 3:0.16666667 4:0.66666669 5:0.80000001 6:1 7:0.40000001 8:0 9:0.5 #
-2.0662255805429898e-005 1:0 2:0.5 3:0.66666669 4:0.66666669 5:0.40000001 6:0.5 7:0.2 8:-0.5 9:0 #
6.1986767416289694e-005 1:0 2:0.5 3:0.33333334 4:0.66666669 5:0.60000002 6:0.75 7:0.30000001 8:-0.25 9:0.25 #
2.0662255805429898e-005 1:0 2:0.75 3:0.16666667 4:0.5 5:0.80000001 6:1 7:0.26666668 8:0 9:0.25 #
-2.0662255805429898e-005 1:0 2:0.75 3:0.16666667 4:0.5 5:0.80000001 6:1 7:0.26666668 8:0 9:0.25 #
2.0662255805429898e-005 1:0.22222222 2:0 3:0.16666667 4:0.33333334 5:0.80000001 6:1 7:0.40000001 8:0 9:0.5 #
-2.0662255805429898e-005 1:0.22222222 2:0 3:0.33333334 4:0.33333334 5:0.40000001 6:0.5 7:0.2 8:-0.5 9:0 #
-2.0662255805429898e-005 1:0.22222222 2:0.25 3:0.16666667 4:0.33333334 5:1 6:1 7:0.33333331 8:0 9:0.5 #
2.0662255805429898e-005 1:0.22222222 2:0.25 3:0.33333334 4:0.33333334 5:0.60000002 6:0.60000002 7:0.2 8:-0.5 9:0 #
6.1986767416289694e-005 1:0.11111111 2:0.5 3:0.33333334 4:0.66666669 5:0.60000002 6:0.75 7:0.30000001 8:-0.25 9:0.25 #
-2.0662255805429898e-005 1:0.11111111 2:0.5 3:0.16666667 4:0.66666669 5:0.80000001 6:1 7:0.40000001 8:0 9:0.5 #
-2.0662255805429898e-005 1:0.11111111 2:0.5 3:0.66666669 4:0.66666669 5:0.40000001 6:0.5 7:0.2 8:-0.5 9:0 #
-2.0662255805429898e-005 1:0.11111111 2:0.5 3:0.33333334 4:0.66666669 5:0.60000002 6:0.75 7:0.30000001 8:-0.25 9:0.25 #
2.0662255805429898e-005 1:0.33333334 2:0 3:0.33333334 4:0.33333334 5:0.60000002 6:0.60000002 7:0.2 8:-0.5 9:0 #
-2.0662255805429898e-005 1:0.33333334 2:0 3:0.16666667 4:0.33333334 5:1 6:1 7:0.33333331 8:0 9:0.5 #
-2.0662255805429898e-005 1:0.11111111 2:0.5 3:0.16666667 4:0.5 5:1 6:1 7:1 8:0 9:1 #
4.1324511610859796e-005 1:0.11111111 2:0.5 3:0.33333334 4:0.5 5:0.80000001 6:0.80000001 7:0.80000001 8:-0.25 9:0.75 #
-2.0662255805429898e-005 1:0.11111111 2:0.5 3:0.5 4:0.5 5:0.2 6:0.2 7:0.2 8:-1 9:0 #
2.0662255805429898e-005 1:0 2:0.5 3:0.16666667 4:0.33333334 5:0.80000001 6:1 7:0.26666668 8:0 9:0.25 #
-2.0662255805429898e-005 1:0 2:0.5 3:0.33333334 4:0.33333334 5:0.60000002 6:0.75 7:0.2 8:-0.25 9:0 #
9.7064690559012416e-006 1:0 2:0 3:0.16666667 4:0.5 5:0.80000001 6:1 7:0.40000001 8:0 9:0.5 #
-9.7064690559012416e-006 1:0 2:0 3:0.33333334 4:0.5 5:0.60000002 6:0.75 7:0.30000001 8:-0.25 9:0.25 #
-2.0662255805429898e-005 1:0 2:0 3:0.33333334 4:0.33333334 5:0.60000002 6:0.75 7:0.2 8:-0.25 9:0 #
2.0662255805429898e-005 1:0 2:0 3:0.16666667 4:0.33333334 5:0.80000001 6:1 7:0.26666668 8:0 9:0.25 #
2.0662255805429898e-005 1:0 2:0.5 3:0.16666667 4:0.33333334 5:0.80000001 6:1 7:0.26666668 8:0 9:0.25 #
-2.0662255805429898e-005 1:0 2:0.5 3:0.33333334 4:0.33333334 5:0.60000002 6:0.75 7:0.2 8:-0.25 9:0 #
-2.0662255805429898e-005 1:0.11111111 2:0 3:0.16666667 4:0.5 5:0.80000001 6:1 7:0.40000001 8:0 9:0.5 #
4.1324511610859796e-005 1:0.11111111 2:0 3:0.33333334 4:0.5 5:0.60000002 6:0.75 7:0.30000001 8:-0.25 9:0.25 #
-2.0662255805429898e-005 1:0.11111111 2:0 3:0.5 4:0.5 5:0.40000001 6:0.5 7:0.2 8:-0.5 9:0 #
-2.0662255805429898e-005 1:0 2:0.5 3:0.5 4:0.5 5:0.60000002 6:0.60000002 7:0.2 8:-0.5 9:0 #
4.1324511610859796e-005 1:0 2:0.5 3:0.33333334 4:0.5 5:0.80000001 6:0.80000001 7:0.26666668 8:-0.25 9:0.25 #
-2.0662255805429898e-005 1:0 2:0.5 3:0.16666667 4:0.5 5:1 6:1 7:0.33333331 8:0 9:0.5 #
-2.0662255805429898e-005 1:0.22222222 2:0 3:0.16666667 4:0.5 5:0.80000001 6:1 7:0.40000001 8:0 9:0.5 #
-2.0662255805429898e-005 1:0.22222222 2:0 3:0.33333334 4:0.5 5:0.60000002 6:0.75 7:0.30000001 8:-0.25 9:0.25 #
4.1324511610859796e-005 1:0.22222222 2:0 3:0.5 4:0.5 5:0.40000001 6:0.5 7:0.2 8:-0.5 9:0 #
-2.0662255805429898e-005 1:0.33333334 2:0 3:0.16666667 4:0.5 5:0.80000001 6:1 7:0.40000001 8:0 9:0.5 #
-2.0662255805429898e-005 1:0.33333334 2:0 3:0.33333334 4:0.5 5:0.60000002 6:0.75 7:0.30000001 8:-0.25 9:0.25 #
4.1324511610859796e-005 1:0.33333334 2:0 3:0.5 4:0.5 5:0.40000001 6:0.5 7:0.2 8:-0.5 9:0 #
4.1324511610859796e-005 1:0.11111111 2:0.5 3:0.33333334 4:0.5 5:0.60000002 6:0.75 7:0.30000001 8:-0.25 9:0.25 #
-2.0662255805429898e-005 1:0.11111111 2:0.5 3:0.16666667 4:0.5 5:0.80000001 6:1 7:0.40000001 8:0 9:0.5 #
-2.0662255805429898e-005 1:0.11111111 2:0.5 3:0.5 4:0.5 5:0.40000001 6:0.5 7:0.2 8:-0.5 9:0 #
-2.0662255805429898e-005 1:0.11111111 2:0 3:0.16666667 4:0.33333334 5:0.80000001 6:1 7:0.40000001 8:0 9:0.5 #
2.0662255805429898e-005 1:0.11111111 2:0 3:0.33333334 4:0.33333334 5:0.40000001 6:0.5 7:0.2 8:-0.5 9:0 #
-2.0662255805429898e-005 1:0 2:0.25 3:0.83333331 4:1 5:0.40000001 6:0.5 7:0.2 8:-0.5 9:0 #
-2.0662255805429898e-005 1:0 2:0.25 3:0.5 4:1 5:0.60000002 6:0.75 7:0.30000001 8:-0.25 9:0.25 #
-2.0662255805429898e-005 1:0 2:0.25 3:0.83333331 4:1 5:0.40000001 6:0.5 7:0.2 8:-0.5 9:0 #
-2.0662255805429898e-005 1:0 2:0.25 3:0.16666667 4:1 5:0.80000001 6:1 7:0.40000001 8:0 9:0.5 #
-2.0662255805429898e-005 1:0 2:0.25 3:0.16666667 4:1 5:0.80000001 6:1 7:0.40000001 8:0 9:0.5 #
0.00010331127902714949 1:0 2:0.25 3:0.5 4:1 5:0.60000002 6:0.75 7:0.30000001 8:-0.25 9:0.25 #
2.0662255805429898e-005 1:0.22222222 2:0 3:0.16666667 4:0.33333334 5:0.80000001 6:1 7:0.40000001 8:0 9:0.5 #
-2.0662255805429898e-005 1:0.22222222 2:0 3:0.33333334 4:0.33333334 5:0.40000001 6:0.5 7:0.2 8:-0.5 9:0 #
4.1324511610859796e-005 1:0.11111111 2:0.5 3:0.5 4:0.5 5:0.60000002 6:0.60000002 7:0.2 8:-0.5 9:0 #
-2.0662255805429898e-005 1:0.11111111 2:0.5 3:0.33333334 4:0.5 5:0.80000001 6:0.80000001 7:0.26666668 8:-0.25 9:0.25 #
-2.0662255805429898e-005 1:0.11111111 2:0.5 3:0.16666667 4:0.5 5:1 6:1 7:0.33333331 8:0 9:0.5 #
4.1324511610859796e-005 1:0.11111111 2:0 3:0.5 4:0.5 5:0.2 6:0.25 7:0.2 8:-0.75 9:0 #
-2.0662255805429898e-005 1:0.11111111 2:0 3:0.33333334 4:0.5 5:0.40000001 6:0.5 7:0.40000001 8:-0.5 9:0.25 #
-2.0662255805429898e-005 1:0.11111111 2:0 3:0.16666667 4:0.5 5:0.80000001 6:1 7:0.80000001 8:0 9:0.75 #
2.0662255805429898e-005 1:0 2:0.5 3:0.16666667 4:0.33333334 5:0.80000001 6:1 7:0.26666668 8:0 9:0.25 #
-2.0662255805429898e-005 1:0 2:0.5 3:0.33333334 4:0.33333334 5:0.60000002 6:0.75 7:0.2 8:-0.25 9:0 #
-2.0662255805429898e-005 1:0 2:0.75 3:0.16666667 4:0.5 5:0.80000001 6:1 7:0.26666668 8:0 9:0.25 #
2.0662255805429898e-005 1:0 2:0.75 3:0.16666667 4:0.5 5:0.80000001 6:1 7:0.26666668 8:0 9:0.25 #
-2.0662255805429898e-005 1:0.22222222 2:0 3:0.5 4:0.5 5:0.2 6:0.25 7:0.2 8:-0.75 9:0 #
4.1324511610859796e-005 1:0.22222222 2:0 3:0.33333334 4:0.5 5:0.40000001 6:0.5 7:0.40000001 8:-0.5 9:0.25 #
-2.0662255805429898e-005 1:0.22222222 2:0 3:0.16666667 4:0.5 5:0.80000001 6:1 7:0.80000001 8:0 9:0.75 #
-2.0662255805429898e-005 1:0 2:0.25 3:0.33333334 4:0.33333334 5:0.60000002 6:0.75 7:0.2 8:-0.25 9:0 #
2.0662255805429898e-005 1:0 2:0.25 3:0.16666667 4:0.33333334 5:0.80000001 6:1 7:0.26666668 8:0 9:0.25 #
2.0662255805429898e-005 1:0.11111111 2:0 3:0.33333334 4:0.33333334 5:0.60000002 6:0.75 7:0.2 8:-0.25 9:0 #
-2.0662255805429898e-005 1:0.11111111 2:0 3:0.16666667 4:0.33333334 5:0.80000001 6:1 7:0.26666668 8:0 9:0.25 #
-2.0662255805429898e-005 1:0 2:0.25 3:0.33333334 4:0.33333334 5:0.60000002 6:0.75 7:0.2 8:-0.25 9:0 #
2.0662255805429898e-005 1:0 2:0.25 3:0.16666667 4:0.33333334 5:0.80000001 6:1 7:0.26666668 8:0 9:0.25 #
4.1324511610859796e-005 1:0.44444445 2:0 3:0.16666667 4:0.5 5:0.80000001 6:1 7:0.40000001 8:0 9:0.5 #
-2.0662255805429898e-005 1:0.44444445 2:0 3:0.33333334 4:0.5 5:0.60000002 6:0.75 7:0.30000001 8:-0.25 9:0.25 #
-2.0662255805429898e-005 1:0.44444445 2:0 3:0.5 4:0.5 5:0.40000001 6:0.5 7:0.2 8:-0.5 9:0 #
4.1324511610859796e-005 1:0.11111111 2:0.25 3:0.5 4:0.5 5:0.40000001 6:0.5 7:0.2 8:-0.5 9:0 #
-2.0662255805429898e-005 1:0.11111111 2:0.25 3:0.16666667 4:0.5 5:0.80000001 6:1 7:0.40000001 8:0 9:0.5 #
-2.0662255805429898e-005 1:0.11111111 2:0.25 3:0.33333334 4:0.5 5:0.60000002 6:0.75 7:0.30000001 8:-0.25 9:0.25 #
2.0662255805429898e-005 1:0.33333334 2:0 3:0.16666667 4:0.33333334 5:0.80000001 6:1 7:0.40000001 8:0 9:0.5 #
-2.0662255805429898e-005 1:0.33333334 2:0 3:0.33333334 4:0.33333334 5:0.40000001 6:0.5 7:0.2 8:-0.5 9:0 #
-2.0662255805429898e-005 1:0.22222222 2:0.5 3:0.5 4:0.5 5:0.60000002 6:0.60000002 7:0.2 8:-0.5 9:0 #
-2.0662255805429898e-005 1:0.22222222 2:0.5 3:0.33333334 4:0.5 5:0.80000001 6:0.80000001 7:0.26666668 8:-0.25 9:0.25 #
4.1324511610859796e-005 1:0.22222222 2:0.5 3:0.16666667 4:0.5 5:1 6:1 7:0.33333331 8:0 9:0.5 #
2.0662255805429898e-005 1:0 2:0.75 3:0.16666667 4:0.5 5:1 6:1 7:0.33333331 8:0 9:0.5 #
-2.0662255805429898e-005 1:0 2:0.75 3:0.33333334 4:0.5 5:0.80000001 6:0.80000001 7:0.26666668 8:-0.25 9:0.25 #
2.0662255805429898e-005 1:0 2:1 3:0.16666667 4:0.5 5:0.80000001 6:1 7:0.26666668 8:0 9:0.25 #
-2.0662255805429898e-005 1:0 2:1 3:0.16666667 4:0.5 5:0.80000001 6:1 7:0.26666668 8:0 9:0.25 #
2.0662255805429898e-005 1:0.44444445 2:0 3:0.16666667 4:0.33333334 5:0.80000001 6:1 7:0.40000001 8:0 9:0.5 #
-2.0662255805429898e-005 1:0.44444445 2:0 3:0.33333334 4:0.33333334 5:0.40000001 6:0.5 7:0.2 8:-0.5 9:0 #
-2.0662255805429898e-005 1:0.33333334 2:0.5 3:0.5 4:0.5 5:0.60000002 6:0.60000002 7:0.2 8:-0.5 9:0 #
-2.0662255805429898e-005 1:0.33333334 2:0.5 3:0.33333334 4:0.5 5:0.80000001 6:0.80000001 7:0.26666668 8:-0.25 9:0.25 #
4.1324511610859796e-005 1:0.33333334 2:0.5 3:0.16666667 4:0.5 5:1 6:1 7:0.33333331 8:0 9:0.5 #
-2.0662255805429898e-005 1:0.11111111 2:0.75 3:0.5 4:0.5 5:0.60000002 6:0.60000002 7:0.2 8:-0.5 9:0 #
-2.0662255805429898e-005 1:0.11111111 2:0.75 3:0.16666667 4:0.5 5:1 6:1 7:0.33333331 8:0 9:0.5 #
4.1324511610859796e-005 1:0.11111111 2:0.75 3:0.33333334 4:0.5 5:0.80000001 6:0.80000001 7:0.26666668 8:-0.25 9:0.25 #
-2.0662255805429898e-005 1:0.44444445 2:0.5 3:0.5 4:0.5 5:0.60000002 6:0.60000002 7:0.2 8:-0.5 9:0 #
-2.0662255805429898e-005 1:0.44444445 2:0.5 3:0.33333334 4:0.5 5:0.80000001 6:0.80000001 7:0.26666668 8:-0.25 9:0.25 #
4.1324511610859796e-005 1:0.44444445 2:0.5 3:0.16666667 4:0.5 5:1 6:1 7:0.33333331 8:0 9:0.5 #
4.1324511610859796e-005 1:0.22222222 2:0.75 3:0.5 4:0.5 5:0.60000002 6:0.60000002 7:0.2 8:-0.5 9:0 #
-2.0662255805429898e-005 1:0.22222222 2:0.75 3:0.16666667 4:0.5 5:1 6:1 7:0.33333331 8:0 9:0.5 #
-2.0662255805429898e-005 1:0.22222222 2:0.75 3:0.33333334 4:0.5 5:0.80000001 6:0.80000001 7:0.26666668 8:-0.25 9:0.25 #
-2.0662255805429898e-005 1:0.66666669 2:0 3:0.16666667 4:0.33333334 5:0.80000001 6:1 7:0.40000001 8:0 9:0.5 #
2.0662255805429898e-005 1:0.66666669 2:0 3:0.33333334 4:0.33333334 5:0.40000001 6:0.5 7:0.2 8:-0.5 9:0 #
-2.0662255805429898e-005 1:0.11111111 2:0.25 3:0.83333331 4:1 5:0.40000001 6:0.5 7:0.2 8:-0.5 9:0 #
-2.0662255805429898e-005 1:0.11111111 2:0.25 3:0.5 4:1 5:0.60000002 6:0.75 7:0.30000001 8:-0.25 9:0.25 #
0.00010331127902714949 1:0.11111111 2:0.25 3:0.83333331 4:1 5:0.40000001 6:0.5 7:0.2 8:-0.5 9:0 #
-2.0662255805429898e-005 1:0.11111111 2:0.25 3:0.16666667 4:1 5:0.80000001 6:1 7:0.40000001 8:0 9:0.5 #
-2.0662255805429898e-005 1:0.11111111 2:0.25 3:0.16666667 4:1 5:0.80000001 6:1 7:0.40000001 8:0 9:0.5 #
-2.0662255805429898e-005 1:0.11111111 2:0.25 3:0.5 4:1 5:0.60000002 6:0.75 7:0.30000001 8:-0.25 9:0.25 #
-2.0662255805429898e-005 1:0 2:0.5 3:0.33333334 4:0.33333334 5:0.40000001 6:0.66666669 7:0.2 8:-0.25 9:0 #
2.0662255805429898e-005 1:0 2:0.5 3:0.16666667 4:0.33333334 5:0.60000002 6:1 7:0.30000001 8:0 9:0.25 #
2.0662255805429898e-005 1:0.22222222 2:0 3:0.33333334 4:0.33333334 5:0.60000002 6:0.75 7:0.2 8:-0.25 9:0 #
-2.0662255805429898e-005 1:0.22222222 2:0 3:0.16666667 4:0.33333334 5:0.80000001 6:1 7:0.26666668 8:0 9:0.25 #
2.0662255805429898e-005 1:0.11111111 2:0.25 3:0.33333334 4:0.33333334 5:0.60000002 6:0.75 7:0.2 8:-0.25 9:0 #
-2.0662255805429898e-005 1:0.11111111 2:0.25 3:0.16666667 4:0.33333334 5:0.80000001 6:1 7:0.26666668 8:0 9:0.25 #
2.0662255805429898e-005 1:0 2:0.5 3:0.16666667 4:0.33333334 5:0.80000001 6:1 7:0.26666668 8:0 9:0.25 #
-2.0662255805429898e-005 1:0 2:0.5 3:0.33333334 4:0.33333334 5:0.60000002 6:0.75 7:0.2 8:-0.25 9:0 #
-2.0662255805429898e-005 1:0.77777779 2:0 3:0.16666667 4:0.33333334 5:0.80000001 6:1 7:0.40000001 8:0 9:0.5 #
2.0662255805429898e-005 1:0.77777779 2:0 3:0.33333334 4:0.33333334 5:0.40000001 6:0.5 7:0.2 8:-0.5 9:0 #
-2.0662255805429898e-005 1:0.22222222 2:0.25 3:0.83333331 4:1 5:0.40000001 6:0.5 7:0.2 8:-0.5 9:0 #
0.00010331127902714949 1:0.22222222 2:0.25 3:0.5 4:1 5:0.60000002 6:0.75 7:0.30000001 8:-0.25 9:0.25 #
-2.0662255805429898e-005 1:0.22222222 2:0.25 3:0.83333331 4:1 5:0.40000001 6:0.5 7:0.2 8:-0.5 9:0 #
-2.0662255805429898e-005 1:0.22222222 2:0.25 3:0.16666667 4:1 5:0.80000001 6:1 7:0.40000001 8:0 9:0.5 #
-2.0662255805429898e-005 1:0.22222222 2:0.25 3:0.16666667 4:1 5:0.80000001 6:1 7:0.40000001 8:0 9:0.5 #
-2.0662255805429898e-005 1:0.22222222 2:0.25 3:0.5 4:1 5:0.60000002 6:0.75 7:0.30000001 8:-0.25 9:0.25 #
2.0662255805429898e-005 1:0 2:0.25 3:0.16666667 4:0.33333334 5:0.80000001 6:1 7:0.26666668 8:0 9:0.25 #
-2.0662255805429898e-005 1:0 2:0.25 3:0.33333334 4:0.33333334 5:0.60000002 6:0.75 7:0.2 8:-0.25 9:0 #
2.0662255805429898e-005 1:0 2:0.25 3:0.16666667 4:0.33333334 5:0.80000001 6:1 7:0.2 8:0 9:0 #
-2.0662255805429898e-005 1:0 2:0.25 3:0.16666667 4:0.33333334 5:0.80000001 6:1 7:0.2 8:0 9:0 #
-2.0662255805429898e-005 1:0.11111111 2:0 3:0.33333334 4:0.5 5:0.60000002 6:0.75 7:0.2 8:-0.25 9:0 #
4.1324511610859796e-005 1:0.11111111 2:0 3:0.33333334 4:0.5 5:0.60000002 6:0.75 7:0.2 8:-0.25 9:0 #
-2.0662255805429898e-005 1:0.11111111 2:0 3:0.16666667 4:0.5 5:0.80000001 6:1 7:0.26666668 8:0 9:0.25 #
2.0662255805429898e-005 1:0 2:0.25 3:0.16666667 4:0.33333334 5:0.80000001 6:1 7:0.2 8:0 9:0 #
-2.0662255805429898e-005 1:0 2:0.25 3:0.16666667 4:0.33333334 5:0.80000001 6:1 7:0.2 8:0 9:0 #
2.0662255805429898e-005 1:0 2:0 3:0.16666667 4:0.33333334 5:0.80000001 6:1 7:0.26666668 8:0 9:0.25 #
-2.0662255805429898e-005 1:0 2:0 3:0.33333334 4:0.33333334 5:0.60000002 6:0.75 7:0.2 8:-0.25 9:0 #
-2.0662255805429898e-005 1:0 2:0.5 3:0.16666667 4:0.5 5:0.80000001 6:1 7:0.40000001 8:0 9:0.5 #
2.0662255805429898e-005 1:0 2:0.5 3:0.16666667 4:0.5 5:0.80000001 6:1 7:0.40000001 8:0 9:0.5 #
-2.0662255805429898e-005 1:0.11111111 2:0 3:0.16666667 4:0.5 5:0.80000001 6:1 7:0.40000001 8:0 9:0.5 #
-2.0662255805429898e-005 1:0.11111111 2:0 3:0.33333334 4:0.5 5:0.40000001 6:0.5 7:0.2 8:-0.5 9:0 #
4.1324511610859796e-005 1:0.11111111 2:0 3:0.33333334 4:0.5 5:0.40000001 6:0.5 7:0.2 8:-0.5 9:0 #
2.0662255805429898e-005 1:0 2:1 3:0.16666667 4:0.33333334 5:0.80000001 6:1 7:0.2 8:0 9:0 #
-2.0662255805429898e-005 1:0 2:1 3:0.16666667 4:0.33333334 5:0.80000001 6:1 7:0.2 8:0 9:0 #
-2.0662255805429898e-005 1:0.22222222 2:0 3:0.33333334 4:0.5 5:0.60000002 6:0.75 7:0.2 8:-0.25 9:0 #
-2.0662255805429898e-005 1:0.22222222 2:0 3:0.33333334 4:0.5 5:0.60000002 6:0.75 7:0.2 8:-0.25 9:0 #
4.1324511610859796e-005 1:0.22222222 2:0 3:0.16666667 4:0.5 5:0.80000001 6:1 7:0.26666668 8:0 9:0.25 #
-2.0662255805429898e-005 1:0.11111111 2:0.25 3:0.16666667 4:0.33333334 5:0.80000001 6:1 7:0.2 8:0 9:0 #
2.0662255805429898e-005 1:0.11111111 2:0.25 3:0.16666667 4:0.33333334 5:0.80000001 6:1 7:0.2 8:0 9:0 #
-2.0662255805429898e-005 1:0 2:0.5 3:0.16666667 4:0.5 5:0.80000001 6:1 7:0.26666668 8:0 9:0.25 #
2.0662255805429898e-005 1:0 2:0.5 3:0.16666667 4:0.5 5:0.80000001 6:1 7:0.26666668 8:0 9:0.25 #
-2.0662255805429898e-005 1:0.11111111 2:0 3:0.16666667 4:0.33333334 5:0.80000001 6:1 7:0.26666668 8:0 9:0.25 #
2.0662255805429898e-005 1:0.11111111 2:0 3:0.33333334 4:0.33333334 5:0.60000002 6:0.75 7:0.2 8:-0.25 9:0 #
-2.0662255805429898e-005 1:0 2:0.25 3:0.16666667 4:1 5:0.80000001 6:1 7:0.26666668 8:0 9:0.25 #
2.0662255805429898e-005 1:0 2:0.25 3:0.16666667 4:1 5:0.80000001 6:1 7:0.26666668 8:0 9:0.25 #
2.0662255805429898e-005 1:0 2:0.5 3:0.16666667 4:0.33333334 5:0.60000002 6:1 7:0.2 8:0 9:0 #
-2.0662255805429898e-005 1:0 2:0.5 3:0.16666667 4:0.33333334 5:0.60000002 6:1 7:0.2 8:0 9:0 #
-2.0662255805429898e-005 1:0.22222222 2:0 3:0.16666667 4:0.5 5:0.80000001 6:1 7:0.40000001 8:0 9:0.5 #
4.1324511610859796e-005 1:0.22222222 2:0 3:0.33333334 4:0.5 5:0.40000001 6:0.5 7:0.2 8:-0.5 9:0 #
-2.0662255805429898e-005 1:0.22222222 2:0 3:0.33333334 4:0.5 5:0.40000001 6:0.5 7:0.2 8:-0.5 9:0 #
4.1324511610859796e-005 1:0.33333334 2:0 3:0.16666667 4:0.5 5:0.80000001 6:1 7:0.40000001 8:0 9:0.5 #
-2.0662255805429898e-005 1:0.33333334 2:0 3:0.33333334 4:0.5 5:0.40000001 6:0.5 7:0.2 8:-0.5 9:0 #
-2.0662255805429898e-005 1:0.33333334 2:0 3:0.33333334 4:0.5 5:0.40000001 6:0.5 7:0.2 8:-0.5 9:0 #
-2.0662255805429898e-005 1:0.11111111 2:0.25 3:0.5 4:0.5 5:0.40000001 6:0.40000001 7:0.2 8:-0.75 9:0 #
4.1324511610859796e-005 1:0.11111111 2:0.25 3:0.33333334 4:0.5 5:0.60000002 6:0.60000002 7:0.30000001 8:-0.5 9:0.25 #
-2.0662255805429898e-005 1:0.11111111 2:0.25 3:0.16666667 4:0.5 5:1 6:1 7:0.5 8:0 9:0.75 #
2.0662255805429898e-005 1:0 2:0.75 3:0.16666667 4:0.33333334 5:0.60000002 6:1 7:0.2 8:0 9:0 #
-2.0662255805429898e-005 1:0 2:0.75 3:0.16666667 4:0.33333334 5:0.60000002 6:1 7:0.2 8:0 9:0 #
-2.0662255805429898e-005 1:0.33333334 2:0 3:0.33333334 4:0.5 5:0.60000002 6:0.75 7:0.2 8:-0.25 9:0 #
-2.0662255805429898e-005 1:0.33333334 2:0 3:0.33333334 4:0.5 5:0.60000002 6:0.75 7:0.2 8:-0.25 9:0 #
4.1324511610859796e-005 1:0.33333334 2:0 3:0.16666667 4:0.5 5:0.80000001 6:1 7:0.26666668 8:0 9:0.25 #
2.0662255805429898e-005 1:0.22222222 2:0.25 3:0.16666667 4:0.33333334 5:0.80000001 6:1 7:0.2 8:0 9:0 #
-2.0662255805429898e-005 1:0.22222222 2:0.25 3:0.16666667 4:0.33333334 5:0.80000001 6:1 7:0.2 8:0 9:0 #
-2.0662255805429898e-005 1:0.11111111 2:0.5 3:0.16666667 4:0.33333334 5:1 6:1 7:0.25 8:0 9:0.25 #
2.0662255805429898e-005 1:0.11111111 2:0.5 3:0.33333334 4:0.33333334 5:0.80000001 6:0.80000001 7:0.2 8:-0.25 9:0 #
-3.7428268356799396e-020 1:0 2:0.75 3:0.33333334 4:0.33333334 5:0.40000001 6:0.40000001 7:0.2 8:-0.75 9:0 #
3.7428268356799396e-020 1:0 2:0.75 3:0.16666667 4:0.33333334 5:1 6:1 7:0.5 8:0 9:0.75 #
-2.0662255805429898e-005 1:0.44444445 2:0 3:0.33333334 4:0.5 5:0.60000002 6:0.75 7:0.2 8:-0.25 9:0 #
-2.0662255805429898e-005 1:0.44444445 2:0 3:0.33333334 4:0.5 5:0.60000002 6:0.75 7:0.2 8:-0.25 9:0 #
4.1324511610859796e-005 1:0.44444445 2:0 3:0.16666667 4:0.5 5:0.80000001 6:1 7:0.26666668 8:0 9:0.25 #
2.0662255805429898e-005 1:0.33333334 2:0.25 3:0.16666667 4:0.33333334 5:0.80000001 6:1 7:0.2 8:0 9:0 #
-2.0662255805429898e-005 1:0.33333334 2:0.25 3:0.16666667 4:0.33333334 5:0.80000001 6:1 7:0.2 8:0 9:0 #
-2.0662255805429898e-005 1:0.22222222 2:0.5 3:0.16666667 4:0.33333334 5:1 6:1 7:0.25 8:0 9:0.25 #
2.0662255805429898e-005 1:0.22222222 2:0.5 3:0.33333334 4:0.33333334 5:0.80000001 6:0.80000001 7:0.2 8:-0.25 9:0 #
2.0662255805429898e-005 1:0.11111111 2:0.75 3:0.33333334 4:0.33333334 5:0.40000001 6:0.40000001 7:0.2 8:-0.75 9:0 #
-2.0662255805429898e-005 1:0.11111111 2:0.75 3:0.16666667 4:0.33333334 5:1 6:1 7:0.5 8:0 9:0.75 #
4.1324511610859796e-005 1:0.44444445 2:0 3:0.16666667 4:0.5 5:0.80000001 6:1 7:0.40000001 8:0 9:0.5 #
-2.0662255805429898e-005 1:0.44444445 2:0 3:0.33333334 4:0.5 5:0.40000001 6:0.5 7:0.2 8:-0.5 9:0 #
-2.0662255805429898e-005 1:0.44444445 2:0 3:0.33333334 4:0.5 5:0.40000001 6:0.5 7:0.2 8:-0.5 9:0 #
-2.0662255805429898e-005 1:0.22222222 2:0.25 3:0.5 4:0.5 5:0.40000001 6:0.40000001 7:0.2 8:-0.75 9:0 #
4.1324511610859796e-005 1:0.22222222 2:0.25 3:0.33333334 4:0.5 5:0.60000002 6:0.60000002 7:0.30000001 8:-0.5 9:0.25 #
-2.0662255805429898e-005 1:0.22222222 2:0.25 3:0.16666667 4:0.5 5:1 6:1 7:0.5 8:0 9:0.75 #
-2.0662255805429898e-005 1:0.11111111 2:0.75 3:0.16666667 4:0.33333334 5:0.60000002 6:1 7:0.2 8:0 9:0 #
2.0662255805429898e-005 1:0.11111111 2:0.75 3:0.16666667 4:0.33333334 5:0.60000002 6:1 7:0.2 8:0 9:0 #
-2.0662255805429898e-005 1:0.55555558 2:0 3:0.33333334 4:0.5 5:0.60000002 6:0.75 7:0.2 8:-0.25 9:0 #
-2.0662255805429898e-005 1:0.55555558 2:0 3:0.33333334 4:0.5 5:0.60000002 6:0.75 7:0.2 8:-0.25 9:0 #
4.1324511610859796e-005 1:0.55555558 2:0 3:0.16666667 4:0.5 5:0.80000001 6:1 7:0.26666668 8:0 9:0.25 #
2.0662255805429898e-005 1:0.44444445 2:0.25 3:0.16666667 4:0.33333334 5:0.80000001 6:1 7:0.2 8:0 9:0 #
-2.0662255805429898e-005 1:0.44444445 2:0.25 3:0.16666667 4:0.33333334 5:0.80000001 6:1 7:0.2 8:0 9:0 #
2.0662255805429898e-005 1:0.33333334 2:0.5 3:0.16666667 4:0.33333334 5:1 6:1 7:0.25 8:0 9:0.25 #
-2.0662255805429898e-005 1:0.33333334 2:0.5 3:0.33333334 4:0.33333334 5:0.80000001 6:0.80000001 7:0.2 8:-0.25 9:0 #
4.1324511610859796e-005 1:0.55555558 2:0 3:0.16666667 4:0.5 5:0.80000001 6:1 7:0.40000001 8:0 9:0.5 #
-2.0662255805429898e-005 1:0.55555558 2:0 3:0.33333334 4:0.5 5:0.40000001 6:0.5 7:0.2 8:-0.5 9:0 #
-2.0662255805429898e-005 1:0.55555558 2:0 3:0.33333334 4:0.5 5:0.40000001 6:0.5 7:0.2 8:-0.5 9:0 #
