SVM-light Version V6.02
1 # kernel type
8 # kernel parameter -d 
1 # kernel parameter -g 
1 # kernel parameter -s 
1 # kernel parameter -r 
empty# kernel parameter -u 
9 # highest feature index 
4178 # number of training documents 
2937 # number of support vectors plus 1 
0 # threshold b, each following line is a SV (starting with alpha*y)
-2.581331294342376e-005 1:0 2:0.5 3:0.5 4:0.5 5:0.2 6:0.25 7:0.2 8:-0.75 9:0 #
5.1626625886847521e-005 1:0 2:0.5 3:0.33333334 4:0.5 5:0.60000002 6:0.75 7:0.60000002 8:-0.25 9:0.5 #
-2.581331294342376e-005 1:0 2:0.5 3:0.16666667 4:0.5 5:0.80000001 6:1 7:0.80000001 8:0 9:0.75 #
9.352661730576528e-006 1:0.11111111 2:0 3:0.16666667 4:0.33333334 5:1 6:1 7:0.33333331 8:0 9:0.5 #
-9.352661730576528e-006 1:0.11111111 2:0 3:0.33333334 4:0.33333334 5:0.60000002 6:0.60000002 7:0.2 8:-0.5 9:0 #
-2.581331294342376e-005 1:0.11111111 2:0.5 3:0.5 4:0.5 5:0.2 6:0.25 7:0.2 8:-0.75 9:0 #
5.1626625886847521e-005 1:0.11111111 2:0.5 3:0.33333334 4:0.5 5:0.60000002 6:0.75 7:0.60000002 8:-0.25 9:0.5 #
-2.581331294342376e-005 1:0.11111111 2:0.5 3:0.16666667 4:0.5 5:0.80000001 6:1 7:0.80000001 8:0 9:0.75 #
-2.581331294342376e-005 1:0 2:0 3:0.33333334 4:0.33333334 5:0.60000002 6:0.75 7:0.2 8:-0.25 9:0 #
2.581331294342376e-005 1:0 2:0 3:0.16666667 4:0.33333334 5:0.80000001 6:1 7:0.26666668 8:0 9:0.25 #
-2.581331294342376e-005 1:0 2:0.25 3:0.33333334 4:0.33333334 5:0.60000002 6:0.75 7:0.2 8:-0.25 9:0 #
2.581331294342376e-005 1:0 2:0.25 3:0.16666667 4:0.33333334 5:0.80000001 6:1 7:0.26666668 8:0 9:0.25 #
-2.581331294342376e-005 1:0 2:0.5 3:0.33333334 4:0.5 5:0.60000002 6:0.75 7:0.30000001 8:-0.25 9:0.25 #
2.581331294342376e-005 1:0 2:0.5 3:0.16666667 4:0.5 5:0.80000001 6:1 7:0.40000001 8:0 9:0.5 #
2.581331294342376e-005 1:0.22222222 2:0 3:0.16666667 4:0.33333334 5:1 6:1 7:0.33333331 8:0 9:0.5 #
-2.581331294342376e-005 1:0.22222222 2:0 3:0.33333334 4:0.33333334 5:0.60000002 6:0.60000002 7:0.2 8:-0.5 9:0 #
5.1626625886847521e-005 1:0.22222222 2:0.5 3:0.5 4:0.5 5:0.2 6:0.25 7:0.2 8:-0.75 9:0 #
-2.581331294342376e-005 1:0.22222222 2:0.5 3:0.33333334 4:0.5 5:0.60000002 6:0.75 7:0.60000002 8:-0.25 9:0.5 #
-2.581331294342376e-005 1:0.22222222 2:0.5 3:0.16666667 4:0.5 5:0.80000001 6:1 7:0.80000001 8:0 9:0.75 #
-2.581331294342376e-005 1:0 2:0.25 3:0.33333334 4:0.33333334 5:0.60000002 6:0.75 7:0.2 8:-0.25 9:0 #
2.581331294342376e-005 1:0 2:0.25 3:0.16666667 4:0.33333334 5:0.80000001 6:1 7:0.26666668 8:0 9:0.25 #
-2.581331294342376e-005 1:0 2:0.5 3:0.16666667 4:0.5 5:0.80000001 6:1 7:0.26666668 8:0 9:0.25 #
2.581331294342376e-005 1:0 2:0.5 3:0.16666667 4:0.5 5:0.80000001 6:1 7:0.26666668 8:0 9:0.25 #
5.1626625886847521e-005 1:0.11111111 2:0 3:0.33333334 4:0.5 5:0.60000002 6:0.75 7:0.30000001 8:-0.25 9:0.25 #
-2.581331294342376e-005 1:0.11111111 2:0 3:0.5 4:0.5 5:0.40000001 6:0.5 7:0.2 8:-0.5 9:0 #
-2.581331294342376e-005 1:0.11111111 2:0 3:0.16666667 4:0.5 5:0.80000001 6:1 7:0.40000001 8:0 9:0.5 #
-2.581331294342376e-005 1:0 2:0.25 3:0.16666667 4:0.5 5:0.80000001 6:1 7:0.40000001 8:0 9:0.5 #
2.581331294342376e-005 1:0 2:0.25 3:0.16666667 4:0.5 5:0.80000001 6:1 7:0.40000001 8:0 9:0.5 #
2.581331294342376e-005 1:0 2:0.75 3:0.16666667 4:0.33333334 5:0.80000001 6:1 7:0.2 8:0 9:0 #
-2.581331294342376e-005 1:0 2:0.75 3:0.16666667 4:0.33333334 5:0.80000001 6:1 7:0.2 8:0 9:0 #
2.581331294342376e-005 1:0.11111111 2:0 3:0.33333334 4:0.33333334 5:0.60000002 6:0.75 7:0.2 8:-0.25 9:0 #
-2.581331294342376e-005 1:0.11111111 2:0 3:0.16666667 4:0.33333334 5:0.80000001 6:1 7:0.26666668 8:0 9:0.25 #
2.581331294342376e-005 1:0.33333334 2:0 3:0.16666667 4:0.33333334 5:1 6:1 7:0.33333331 8:0 9:0.5 #
-2.581331294342376e-005 1:0.33333334 2:0 3:0.33333334 4:0.33333334 5:0.60000002 6:0.60000002 7:0.2 8:-0.5 9:0 #
2.581331294342376e-005 1:0.33333334 2:0.5 3:0.5 4:0.5 5:0.2 6:0.25 7:0.2 8:-0.75 9:0 #
-2.581331294342376e-005 1:0.33333334 2:0.5 3:0.33333334 4:0.5 5:0.60000002 6:0.75 7:0.60000002 8:-0.25 9:0.5 #
2.581331294342376e-005 1:0.11111111 2:0.75 3:0.16666667 4:0.33333334 5:0.80000001 6:1 7:0.40000001 8:0 9:0.5 #
-2.581331294342376e-005 1:0.11111111 2:0.75 3:0.33333334 4:0.33333334 5:0.40000001 6:0.5 7:0.2 8:-0.5 9:0 #
-1.7245128951023337e-005 1:0.11111111 2:1 3:0.33333334 4:0.33333334 5:0.2 6:0.2 7:0.2 8:-1 9:0 #
1.7245128951023337e-005 1:0.11111111 2:1 3:0.16666667 4:0.33333334 5:1 6:1 7:1 8:0 9:1 #
2.581331294342376e-005 1:0.22222222 2:0 3:0.33333334 4:0.33333334 5:0.60000002 6:0.75 7:0.2 8:-0.25 9:0 #
-2.581331294342376e-005 1:0.22222222 2:0 3:0.16666667 4:0.33333334 5:0.80000001 6:1 7:0.26666668 8:0 9:0.25 #
-2.581331294342376e-005 1:0.44444445 2:0 3:0.16666667 4:0.33333334 5:1 6:1 7:0.33333331 8:0 9:0.5 #
2.581331294342376e-005 1:0.44444445 2:0 3:0.33333334 4:0.33333334 5:0.60000002 6:0.60000002 7:0.2 8:-0.5 9:0 #
-2.581331294342376e-005 1:0 2:0.25 3:0.16666667 4:1 5:0.80000001 6:1 7:0.26666668 8:0 9:0.25 #
-2.581331294342376e-005 1:0 2:0.25 3:0.16666667 4:1 5:0.80000001 6:1 7:0.26666668 8:0 9:0.25 #
5.1626625886847521e-005 1:0 2:0.25 3:0.16666667 4:1 5:0.80000001 6:1 7:0.26666668 8:0 9:0.25 #
2.581331294342376e-005 1:0 2:0.5 3:0.16666667 4:0.33333334 5:0.80000001 6:1 7:0.26666668 8:0 9:0.25 #
-2.581331294342376e-005 1:0 2:0.5 3:0.33333334 4:0.33333334 5:0.60000002 6:0.75 7:0.2 8:-0.25 9:0 #
-2.581331294342376e-005 1:0.22222222 2:0 3:0.33333334 4:0.5 5:0.60000002 6:0.75 7:0.30000001 8:-0.25 9:0.25 #
5.1626625886847521e-005 1:0.22222222 2:0 3:0.5 4:0.5 5:0.40000001 6:0.5 7:0.2 8:-0.5 9:0 #
-2.581331294342376e-005 1:0.22222222 2:0 3:0.16666667 4:0.5 5:0.80000001 6:1 7:0.40000001 8:0 9:0.5 #
2.581331294342376e-005 1:0.11111111 2:0.25 3:0.33333334 4:0.33333334 5:0.40000001 6:0.5 7:0.2 8:-0.5 9:0 #
-2.581331294342376e-005 1:0.11111111 2:0.25 3:0.16666667 4:0.33333334 5:0.80000001 6:1 7:0.40000001 8:0 9:0.5 #
-2.581331294342376e-005 1:0.55555558 2:0 3:0.16666667 4:0.33333334 5:1 6:1 7:0.33333331 8:0 9:0.5 #
2.581331294342376e-005 1:0.55555558 2:0 3:0.33333334 4:0.33333334 5:0.60000002 6:0.60000002 7:0.2 8:-0.5 9:0 #
-2.581331294342376e-005 1:0.11111111 2:0.25 3:0.16666667 4:1 5:0.80000001 6:1 7:0.26666668 8:0 9:0.25 #
-1.9566904067529521e-006 1:0.11111111 2:0.25 3:0.66666669 4:1 5:0.60000002 6:0.75 7:0.2 8:-0.25 9:0 #
5.4123821044338261e-005 1:0.11111111 2:0.25 3:0.16666667 4:1 5:0.80000001 6:1 7:0.26666668 8:0 9:0.25 #
-2.581331294342376e-005 1:0.11111111 2:0.25 3:0.16666667 4:1 5:0.80000001 6:1 7:0.26666668 8:0 9:0.25 #
-5.4050475073778891e-007 1:0.11111111 2:0.25 3:0.66666669 4:1 5:0.60000002 6:0.75 7:0.2 8:-0.25 9:0 #
-2.581331294342376e-005 1:0 2:0.5 3:0.33333334 4:0.33333334 5:0.60000002 6:0.75 7:0.2 8:-0.25 9:0 #
2.581331294342376e-005 1:0 2:0.5 3:0.16666667 4:0.33333334 5:0.80000001 6:1 7:0.26666668 8:0 9:0.25 #
2.581331294342376e-005 1:0 2:1 3:0.16666667 4:0.83333331 5:0.80000001 6:1 7:0.80000001 8:0 9:0.75 #
-2.581331294342376e-005 1:0 2:1 3:0.16666667 4:0.83333331 5:0.80000001 6:1 7:0.80000001 8:0 9:0.75 #
-2.581331294342376e-005 1:0.66666669 2:0 3:0.16666667 4:0.33333334 5:1 6:1 7:0.33333331 8:0 9:0.5 #
2.581331294342376e-005 1:0.66666669 2:0 3:0.33333334 4:0.33333334 5:0.60000002 6:0.60000002 7:0.2 8:-0.5 9:0 #
-2.581331294342376e-005 1:0.22222222 2:0.25 3:0.16666667 4:1 5:0.80000001 6:1 7:0.26666668 8:0 9:0.25 #
0.0001290665647171188 1:0.22222222 2:0.25 3:0.66666669 4:1 5:0.60000002 6:0.75 7:0.2 8:-0.25 9:0 #
-2.581331294342376e-005 1:0.22222222 2:0.25 3:0.16666667 4:1 5:0.80000001 6:1 7:0.26666668 8:0 9:0.25 #
-2.581331294342376e-005 1:0.22222222 2:0.25 3:0.16666667 4:1 5:0.80000001 6:1 7:0.26666668 8:0 9:0.25 #
-2.581331294342376e-005 1:0.22222222 2:0.25 3:0.66666669 4:1 5:0.60000002 6:0.75 7:0.2 8:-0.25 9:0 #
-2.581331294342376e-005 1:0.22222222 2:0.25 3:0.66666669 4:1 5:0.60000002 6:0.75 7:0.2 8:-0.25 9:0 #
2.581331294342376e-005 1:0 2:0.75 3:0.16666667 4:0.33333334 5:0.80000001 6:1 7:0.2 8:0 9:0 #
-2.581331294342376e-005 1:0 2:0.75 3:0.16666667 4:0.33333334 5:0.80000001 6:1 7:0.2 8:0 9:0 #
-2.581331294342376e-005 1:0 2:1 3:0.33333334 4:0.33333334 5:0.40000001 6:0.66666669 7:0.2 8:-0.25 9:0 #
2.581331294342376e-005 1:0 2:1 3:0.16666667 4:0.33333334 5:0.60000002 6:1 7:0.30000001 8:0 9:0.25 #
5.1626625886847521e-005 1:0.33333334 2:0 3:0.33333334 4:0.5 5:0.60000002 6:0.75 7:0.30000001 8:-0.25 9:0.25 #
-2.581331294342376e-005 1:0.33333334 2:0 3:0.5 4:0.5 5:0.40000001 6:0.5 7:0.2 8:-0.5 9:0 #
-2.581331294342376e-005 1:0.33333334 2:0 3:0.16666667 4:0.5 5:0.80000001 6:1 7:0.40000001 8:0 9:0.5 #
2.581331294342376e-005 1:0.11111111 2:0.25 3:0.16666667 4:0.5 5:0.80000001 6:1 7:0.40000001 8:0 9:0.5 #
-2.581331294342376e-005 1:0.11111111 2:0.25 3:0.16666667 4:0.5 5:0.80000001 6:1 7:0.40000001 8:0 9:0.5 #
-2.581331294342376e-005 1:0 2:0.5 3:0.33333334 4:0.33333334 5:0.60000002 6:0.75 7:0.2 8:-0.25 9:0 #
2.581331294342376e-005 1:0 2:0.5 3:0.16666667 4:0.33333334 5:0.80000001 6:1 7:0.26666668 8:0 9:0.25 #
2.581331294342376e-005 1:0 2:1 3:0.16666667 4:0.66666669 5:0.80000001 6:1 7:0.40000001 8:0 9:0.5 #
-2.581331294342376e-005 1:0 2:1 3:0.16666667 4:0.66666669 5:0.80000001 6:1 7:0.40000001 8:0 9:0.5 #
5.1626625886847521e-005 1:0.11111111 2:0 3:0.33333334 4:0.5 5:0.60000002 6:0.75 7:0.2 8:-0.25 9:0 #
-2.581331294342376e-005 1:0.11111111 2:0 3:0.33333334 4:0.5 5:0.60000002 6:0.75 7:0.2 8:-0.25 9:0 #
-2.581331294342376e-005 1:0.11111111 2:0 3:0.16666667 4:0.5 5:0.80000001 6:1 7:0.26666668 8:0 9:0.25 #
-2.581331294342376e-005 1:0.44444445 2:0 3:0.33333334 4:0.5 5:0.60000002 6:0.75 7:0.30000001 8:-0.25 9:0.25 #
-2.581331294342376e-005 1:0.44444445 2:0 3:0.5 4:0.5 5:0.40000001 6:0.5 7:0.2 8:-0.5 9:0 #
5.1626625886847521e-005 1:0.44444445 2:0 3:0.16666667 4:0.5 5:0.80000001 6:1 7:0.40000001 8:0 9:0.5 #
-2.581331294342376e-005 1:0.11111111 2:0.5 3:0.5 4:0.5 5:0.40000001 6:0.5 7:0.2 8:-0.5 9:0 #
5.1626625886847521e-005 1:0.11111111 2:0.5 3:0.33333334 4:0.5 5:0.60000002 6:0.75 7:0.30000001 8:-0.25 9:0.25 #
-2.581331294342376e-005 1:0.11111111 2:0.5 3:0.16666667 4:0.5 5:0.80000001 6:1 7:0.40000001 8:0 9:0.5 #
5.1626625886847521e-005 1:0 2:0.75 3:0.16666667 4:0.5 5:0.80000001 6:1 7:0.2 8:0 9:0 #
-2.581331294342376e-005 1:0 2:0.75 3:0.16666667 4:0.5 5:0.80000001 6:1 7:0.2 8:0 9:0 #
-2.581331294342376e-005 1:0 2:0.75 3:0.16666667 4:0.5 5:0.80000001 6:1 7:0.2 8:0 9:0 #
2.581331294342376e-005 1:0.22222222 2:0 3:0.33333334 4:0.33333334 5:0.40000001 6:0.5 7:0.2 8:-0.5 9:0 #
-2.581331294342376e-005 1:0.22222222 2:0 3:0.16666667 4:0.33333334 5:0.80000001 6:1 7:0.40000001 8:0 9:0.5 #
2.581331294342376e-005 1:0 2:0.25 3:0.16666667 4:0.33333334 5:0.60000002 6:1 7:0.2 8:0 9:0 #
-2.581331294342376e-005 1:0 2:0.25 3:0.16666667 4:0.33333334 5:0.60000002 6:1 7:0.2 8:0 9:0 #
-2.581331294342376e-005 1:0 2:0.5 3:0.33333334 4:0.33333334 5:0.60000002 6:0.75 7:0.2 8:-0.25 9:0 #
2.581331294342376e-005 1:0 2:0.5 3:0.16666667 4:0.33333334 5:0.80000001 6:1 7:0.26666668 8:0 9:0.25 #
-2.581331294342376e-005 1:0 2:0.25 3:0.33333334 4:0.33333334 5:0.60000002 6:0.75 7:0.2 8:-0.25 9:0 #
2.581331294342376e-005 1:0 2:0.25 3:0.16666667 4:0.33333334 5:0.80000001 6:1 7:0.26666668 8:0 9:0.25 #
2.581331294342376e-005 1:0 2:0.5 3:0.16666667 4:0.5 5:0.80000001 6:1 7:0.40000001 8:0 9:0.5 #
-2.581331294342376e-005 1:0 2:0.5 3:0.33333334 4:0.5 5:0.60000002 6:0.75 7:0.30000001 8:-0.25 9:0.25 #
-8.6165991589282333e-006 1:0 2:0.25 3:0.33333334 4:1 5:0.80000001 6:0.80000001 7:0.26666668 8:-0.25 9:0.25 #
8.6165991589282333e-006 1:0 2:0.25 3:0.16666667 4:1 5:1 6:1 7:0.33333331 8:0 9:0.5 #
-2.581331294342376e-005 1:0 2:0.5 3:0.33333334 4:0.33333334 5:0.60000002 6:0.75 7:0.2 8:-0.25 9:0 #
2.581331294342376e-005 1:0 2:0.5 3:0.16666667 4:0.33333334 5:0.80000001 6:1 7:0.26666668 8:0 9:0.25 #
-2.581331294342376e-005 1:0.11111111 2:0.25 3:0.33333334 4:1 5:0.80000001 6:0.80000001 7:0.26666668 8:-0.25 9:0.25 #
-2.581331294342376e-005 1:0.11111111 2:0.25 3:0.33333334 4:1 5:0.80000001 6:0.80000001 7:0.26666668 8:-0.25 9:0.25 #
-2.581331294342376e-005 1:0.11111111 2:0.25 3:0.16666667 4:1 5:1 6:1 7:0.33333331 8:0 9:0.5 #
-2.581331294342376e-005 1:0.11111111 2:0.25 3:0.33333334 4:1 5:0.80000001 6:0.80000001 7:0.26666668 8:-0.25 9:0.25 #
0.00010325325177369504 1:0.11111111 2:0.25 3:0.33333334 4:1 5:0.80000001 6:0.80000001 7:0.26666668 8:-0.25 9:0.25 #
2.581331294342376e-005 1:0.22222222 2:0 3:0.33333334 4:0.33333334 5:0.40000001 6:0.5 7:0.2 8:-0.5 9:0 #
-2.581331294342376e-005 1:0.22222222 2:0 3:0.16666667 4:0.33333334 5:0.80000001 6:1 7:0.40000001 8:0 9:0.5 #
-2.581331294342376e-005 1:0.33333334 2:0 3:0.33333334 4:0.33333334 5:0.40000001 6:0.5 7:0.2 8:-0.5 9:0 #
2.581331294342376e-005 1:0.33333334 2:0 3:0.16666667 4:0.33333334 5:0.80000001 6:1 7:0.40000001 8:0 9:0.5 #
-2.581331294342376e-005 1:0.22222222 2:0.25 3:0.33333334 4:1 5:0.80000001 6:0.80000001 7:0.26666668 8:-0.25 9:0.25 #
0.00010325325177369504 1:0.22222222 2:0.25 3:0.33333334 4:1 5:0.80000001 6:0.80000001 7:0.26666668 8:-0.25 9:0.25 #
-2.581331294342376e-005 1:0.22222222 2:0.25 3:0.16666667 4:1 5:1 6:1 7:0.33333331 8:0 9:0.5 #
-2.581331294342376e-005 1:0.22222222 2:0.25 3:0.33333334 4:1 5:0.80000001 6:0.80000001 7:0.26666668 8:-0.25 9:0.25 #
-2.581331294342376e-005 1:0.22222222 2:0.25 3:0.33333334 4:1 5:0.80000001 6:0.80000001 7:0.26666668 8:-0.25 9:0.25 #
2.581331294342376e-005 1:0 2:0.75 3:0.16666667 4:0.33333334 5:0.60000002 6:1 7:0.2 8:0 9:0 #
-2.581331294342376e-005 1:0 2:0.75 3:0.16666667 4:0.33333334 5:0.60000002 6:1 7:0.2 8:0 9:0 #
-1.4896331175940051e-005 1:0 2:0 3:0.33333334 4:0.5 5:0.60000002 6:0.75 7:0.60000002 8:-0.25 9:0.5 #
1.4896331175940051e-005 1:0 2:0 3:0.16666667 4:0.5 5:0.80000001 6:1 7:0.80000001 8:0 9:0.75 #
-2.581331294342376e-005 1:0 2:0.5 3:0.16666667 4:0.5 5:0.60000002 6:1 7:0.30000001 8:0 9:0.25 #
2.581331294342376e-005 1:0 2:0.5 3:0.16666667 4:0.5 5:0.60000002 6:1 7:0.30000001 8:0 9:0.25 #
5.1626625886847521e-005 1:0 2:0.75 3:0.16666667 4:0.5 5:0.60000002 6:1 7:0.2 8:0 9:0 #
-2.581331294342376e-005 1:0 2:0.75 3:0.16666667 4:0.5 5:0.60000002 6:1 7:0.2 8:0 9:0 #
-2.581331294342376e-005 1:0 2:0.75 3:0.16666667 4:0.5 5:0.60000002 6:1 7:0.2 8:0 9:0 #
-2.581331294342376e-005 1:0.11111111 2:0 3:0.33333334 4:0.5 5:0.60000002 6:0.75 7:0.60000002 8:-0.25 9:0.5 #
2.581331294342376e-005 1:0.11111111 2:0 3:0.16666667 4:0.5 5:0.80000001 6:1 7:0.80000001 8:0 9:0.75 #
-2.581331294342376e-005 1:0.11111111 2:0.5 3:0.16666667 4:0.5 5:0.60000002 6:1 7:0.30000001 8:0 9:0.25 #
5.1626625886847521e-005 1:0.11111111 2:0.5 3:0.16666667 4:0.5 5:0.60000002 6:1 7:0.30000001 8:0 9:0.25 #
-2.581331294342376e-005 1:0.11111111 2:0.5 3:0.5 4:0.5 5:0.40000001 6:0.66666669 7:0.2 8:-0.25 9:0 #
-2.581331294342376e-005 1:0.11111111 2:0.75 3:0.16666667 4:0.5 5:0.60000002 6:1 7:0.2 8:0 9:0 #
5.1626625886847521e-005 1:0.11111111 2:0.75 3:0.16666667 4:0.5 5:0.60000002 6:1 7:0.2 8:0 9:0 #
-2.581331294342376e-005 1:0.11111111 2:0.75 3:0.16666667 4:0.5 5:0.60000002 6:1 7:0.2 8:0 9:0 #
-2.581331294342376e-005 1:0 2:0 3:0.33333334 4:0.33333334 5:0.40000001 6:0.66666669 7:0.2 8:-0.25 9:0 #
2.581331294342376e-005 1:0 2:0 3:0.16666667 4:0.33333334 5:0.60000002 6:1 7:0.30000001 8:0 9:0.25 #
-2.581331294342376e-005 1:0 2:0.25 3:0.16666667 4:0.33333334 5:0.60000002 6:1 7:0.2 8:0 9:0 #
2.581331294342376e-005 1:0 2:0.25 3:0.16666667 4:0.33333334 5:0.60000002 6:1 7:0.2 8:0 9:0 #
-2.581331294342376e-005 1:0 2:0.75 3:0.16666667 4:0.33333334 5:0.40000001 6:1 7:0.2 8:0 9:0 #
2.581331294342376e-005 1:0 2:0.75 3:0.16666667 4:0.33333334 5:0.40000001 6:1 7:0.2 8:0 9:0 #
2.581331294342376e-005 1:0 2:0 3:0.16666667 4:0.33333334 5:0.60000002 6:1 7:0.2 8:0 9:0 #
-2.581331294342376e-005 1:0 2:0 3:0.16666667 4:0.33333334 5:0.60000002 6:1 7:0.2 8:0 9:0 #
2.581331294342376e-005 1:0 2:0.25 3:0.16666667 4:0.33333334 5:0.80000001 6:1 7:0.26666668 8:0 9:0.25 #
-2.581331294342376e-005 1:0 2:0.25 3:0.33333334 4:0.33333334 5:0.60000002 6:0.75 7:0.2 8:-0.25 9:0 #
2.581331294342376e-005 1:0 2:0.5 3:0.16666667 4:0.33333334 5:0.80000001 6:1 7:0.26666668 8:0 9:0.25 #
-2.581331294342376e-005 1:0 2:0.5 3:0.33333334 4:0.33333334 5:0.60000002 6:0.75 7:0.2 8:-0.25 9:0 #
-2.581331294342376e-005 1:0.44444445 2:0 3:0.33333334 4:0.33333334 5:0.40000001 6:0.5 7:0.2 8:-0.5 9:0 #
2.581331294342376e-005 1:0.44444445 2:0 3:0.16666667 4:0.33333334 5:0.80000001 6:1 7:0.40000001 8:0 9:0.5 #
0.0001290665647171188 1:0.33333334 2:0.25 3:0.33333334 4:1 5:0.80000001 6:0.80000001 7:0.26666668 8:-0.25 9:0.25 #
-2.581331294342376e-005 1:0.33333334 2:0.25 3:0.33333334 4:1 5:0.80000001 6:0.80000001 7:0.26666668 8:-0.25 9:0.25 #
-2.581331294342376e-005 1:0.33333334 2:0.25 3:1 4:1 5:0.60000002 6:0.60000002 7:0.2 8:-0.5 9:0 #
-2.581331294342376e-005 1:0.33333334 2:0.25 3:0.16666667 4:1 5:1 6:1 7:0.33333331 8:0 9:0.5 #
-2.581331294342376e-005 1:0.33333334 2:0.25 3:0.33333334 4:1 5:0.80000001 6:0.80000001 7:0.26666668 8:-0.25 9:0.25 #
-2.581331294342376e-005 1:0.33333334 2:0.25 3:0.33333334 4:1 5:0.80000001 6:0.80000001 7:0.26666668 8:-0.25 9:0.25 #
-2.581331294342376e-005 1:0 2:0.5 3:0.16666667 4:0.33333334 5:0.60000002 6:1 7:0.2 8:0 9:0 #
2.581331294342376e-005 1:0 2:0.5 3:0.16666667 4:0.33333334 5:0.60000002 6:1 7:0.2 8:0 9:0 #
-2.581331294342376e-005 1:0.11111111 2:0 3:0.33333334 4:0.33333334 5:0.40000001 6:0.66666669 7:0.2 8:-0.25 9:0 #
2.581331294342376e-005 1:0.11111111 2:0 3:0.16666667 4:0.33333334 5:0.60000002 6:1 7:0.30000001 8:0 9:0.25 #
2.581331294342376e-005 1:0.11111111 2:0.25 3:0.16666667 4:0.33333334 5:0.60000002 6:1 7:0.2 8:0 9:0 #
-2.581331294342376e-005 1:0.11111111 2:0.25 3:0.16666667 4:0.33333334 5:0.60000002 6:1 7:0.2 8:0 9:0 #
2.581331294342376e-005 1:0.11111111 2:0.25 3:0.33333334 4:0.33333334 5:0.60000002 6:0.75 7:0.2 8:-0.25 9:0 #
-2.581331294342376e-005 1:0.11111111 2:0.25 3:0.16666667 4:0.33333334 5:0.80000001 6:1 7:0.26666668 8:0 9:0.25 #
-2.581331294342376e-005 1:0 2:0.75 3:0.16666667 4:0.33333334 5:0.60000002 6:1 7:0.2 8:0 9:0 #
2.581331294342376e-005 1:0 2:0.75 3:0.16666667 4:0.33333334 5:0.60000002 6:1 7:0.2 8:0 9:0 #
-8.3295090959883927e-006 1:0.22222222 2:0 3:0.5 4:0.5 5:0.2 6:0.25 7:0.2 8:-0.75 9:0 #
-2.581331294342376e-005 1:0.22222222 2:0 3:0.33333334 4:0.5 5:0.40000001 6:0.5 7:0.40000001 8:-0.5 9:0.25 #
3.4142822039412153e-005 1:0.22222222 2:0 3:0.16666667 4:0.5 5:0.80000001 6:1 7:0.80000001 8:0 9:0.75 #
-2.581331294342376e-005 1:0.22222222 2:0.25 3:0.33333334 4:0.33333334 5:0.60000002 6:0.75 7:0.2 8:-0.25 9:0 #
2.581331294342376e-005 1:0.22222222 2:0.25 3:0.16666667 4:0.33333334 5:0.80000001 6:1 7:0.26666668 8:0 9:0.25 #
-2.581331294342376e-005 1:0.11111111 2:0.5 3:0.16666667 4:0.5 5:0.80000001 6:1 7:0.40000001 8:0 9:0.5 #
5.1626625886847521e-005 1:0.11111111 2:0.5 3:0.33333334 4:0.5 5:0.60000002 6:0.75 7:0.30000001 8:-0.25 9:0.25 #
-2.581331294342376e-005 1:0.11111111 2:0.5 3:0.5 4:0.5 5:0.40000001 6:0.5 7:0.2 8:-0.5 9:0 #
-2.581331294342376e-005 1:0 2:0.75 3:0.16666667 4:0.33333334 5:0.60000002 6:1 7:0.2 8:0 9:0 #
2.581331294342376e-005 1:0 2:0.75 3:0.16666667 4:0.33333334 5:0.60000002 6:1 7:0.2 8:0 9:0 #
5.1626625886847521e-005 1:0.22222222 2:0 3:0.33333334 4:0.5 5:0.60000002 6:0.75 7:0.60000002 8:-0.25 9:0.5 #
-2.581331294342376e-005 1:0.22222222 2:0 3:0.5 4:0.5 5:0.2 6:0.25 7:0.2 8:-0.75 9:0 #
-2.581331294342376e-005 1:0.22222222 2:0 3:0.16666667 4:0.5 5:0.80000001 6:1 7:0.80000001 8:0 9:0.75 #
2.581331294342376e-005 1:0 2:0.25 3:0.16666667 4:0.5 5:0.80000001 6:1 7:0.40000001 8:0 9:0.5 #
-2.581331294342376e-005 1:0 2:0.25 3:0.33333334 4:0.5 5:0.60000002 6:0.75 7:0.30000001 8:-0.25 9:0.25 #
5.1626625886847521e-005 1:0.33333334 2:0 3:0.33333334 4:0.5 5:0.60000002 6:0.75 7:0.60000002 8:-0.25 9:0.5 #
-2.581331294342376e-005 1:0.33333334 2:0 3:0.5 4:0.5 5:0.2 6:0.25 7:0.2 8:-0.75 9:0 #
-2.581331294342376e-005 1:0.33333334 2:0 3:0.16666667 4:0.5 5:0.80000001 6:1 7:0.80000001 8:0 9:0.75 #
2.581331294342376e-005 1:0.11111111 2:0.25 3:0.16666667 4:0.5 5:0.80000001 6:1 7:0.40000001 8:0 9:0.5 #
-2.581331294342376e-005 1:0.11111111 2:0.25 3:0.33333334 4:0.5 5:0.60000002 6:0.75 7:0.30000001 8:-0.25 9:0.25 #
-2.581331294342376e-005 1:0.11111111 2:0.5 3:0.33333334 4:0.33333334 5:0.80000001 6:0.80000001 7:0.2 8:-0.25 9:0 #
2.581331294342376e-005 1:0.11111111 2:0.5 3:0.16666667 4:0.33333334 5:1 6:1 7:0.25 8:0 9:0.25 #
-2.581331294342376e-005 1:0.11111111 2:1 3:0.66666669 4:0.66666669 5:0.40000001 6:0.5 7:0.2 8:-0.5 9:0 #
7.7439938830271284e-005 1:0.11111111 2:1 3:0.33333334 4:0.66666669 5:0.60000002 6:0.75 7:0.30000001 8:-0.25 9:0.25 #
-2.581331294342376e-005 1:0.11111111 2:1 3:0.16666667 4:0.66666669 5:0.80000001 6:1 7:0.40000001 8:0 9:0.5 #
-2.581331294342376e-005 1:0.11111111 2:1 3:0.33333334 4:0.66666669 5:0.60000002 6:0.75 7:0.30000001 8:-0.25 9:0.25 #
2.581331294342376e-005 1:0.11111111 2:0 3:0.16666667 4:0.33333334 5:0.60000002 6:1 7:0.2 8:0 9:0 #
-2.581331294342376e-005 1:0.11111111 2:0 3:0.16666667 4:0.33333334 5:0.60000002 6:1 7:0.2 8:0 9:0 #
2.581331294342376e-005 1:0.11111111 2:0.25 3:0.16666667 4:0.33333334 5:0.80000001 6:1 7:0.26666668 8:0 9:0.25 #
-2.581331294342376e-005 1:0.11111111 2:0.25 3:0.33333334 4:0.33333334 5:0.60000002 6:0.75 7:0.2 8:-0.25 9:0 #
-2.581331294342376e-005 1:0.11111111 2:0.5 3:0.16666667 4:0.33333334 5:0.80000001 6:1 7:0.26666668 8:0 9:0.25 #
2.581331294342376e-005 1:0.11111111 2:0.5 3:0.33333334 4:0.33333334 5:0.60000002 6:0.75 7:0.2 8:-0.25 9:0 #
2.581331294342376e-005 1:0 2:0.75 3:0.16666667 4:0.5 5:0.80000001 6:1 7:0.40000001 8:0 9:0.5 #
-2.581331294342376e-005 1:0 2:0.75 3:0.16666667 4:0.5 5:0.80000001 6:1 7:0.40000001 8:0 9:0.5 #
-2.581331294342376e-005 1:0 2:1 3:0.33333334 4:0.5 5:0.80000001 6:0.80000001 7:0.26666668 8:-0.25 9:0.25 #
2.581331294342376e-005 1:0 2:1 3:0.16666667 4:0.5 5:1 6:1 7:0.33333331 8:0 9:0.5 #
2.581331294342376e-005 1:0.22222222 2:0 3:0.33333334 4:0.33333334 5:0.40000001 6:0.66666669 7:0.2 8:-0.25 9:0 #
-2.581331294342376e-005 1:0.22222222 2:0 3:0.16666667 4:0.33333334 5:0.60000002 6:1 7:0.30000001 8:0 9:0.25 #
-2.581331294342376e-005 1:0.55555558 2:0 3:0.33333334 4:0.33333334 5:0.40000001 6:0.5 7:0.2 8:-0.5 9:0 #
2.581331294342376e-005 1:0.55555558 2:0 3:0.16666667 4:0.33333334 5:0.80000001 6:1 7:0.40000001 8:0 9:0.5 #
-2.581331294342376e-005 1:0.44444445 2:0.25 3:0.33333334 4:1 5:0.80000001 6:0.80000001 7:0.26666668 8:-0.25 9:0.25 #
-2.581331294342376e-005 1:0.44444445 2:0.25 3:0.33333334 4:1 5:0.80000001 6:0.80000001 7:0.26666668 8:-0.25 9:0.25 #
-2.581331294342376e-005 1:0.44444445 2:0.25 3:1 4:1 5:0.60000002 6:0.60000002 7:0.2 8:-0.5 9:0 #
0.00010325325177369504 1:0.44444445 2:0.25 3:0.33333334 4:1 5:0.80000001 6:0.80000001 7:0.26666668 8:-0.25 9:0.25 #
-2.581331294342376e-005 1:0.44444445 2:0.25 3:0.33333334 4:1 5:0.80000001 6:0.80000001 7:0.26666668 8:-0.25 9:0.25 #
2.581331294342376e-005 1:0 2:1 3:0.16666667 4:0.5 5:0.60000002 6:1 7:0.30000001 8:0 9:0.25 #
-2.581331294342376e-005 1:0 2:1 3:0.16666667 4:0.5 5:0.60000002 6:1 7:0.30000001 8:0 9:0.25 #
-2.581331294342376e-005 1:0.33333334 2:0 3:0.5 4:0.5 5:0.2 6:0.25 7:0.2 8:-0.75 9:0 #
5.1626625886847521e-005 1:0.33333334 2:0 3:0.33333334 4:0.5 5:0.40000001 6:0.5 7:0.40000001 8:-0.5 9:0.25 #
-2.581331294342376e-005 1:0.33333334 2:0 3:0.16666667 4:0.5 5:0.80000001 6:1 7:0.80000001 8:0 9:0.75 #
-2.581331294342376e-005 1:0 2:0.25 3:0.33333334 4:0.33333334 5:0.60000002 6:0.75 7:0.2 8:-0.25 9:0 #
2.581331294342376e-005 1:0 2:0.25 3:0.16666667 4:0.33333334 5:0.80000001 6:1 7:0.26666668 8:0 9:0.25 #
2.581331294342376e-005 1:0 2:0.5 3:0.16666667 4:0.33333334 5:0.80000001 6:1 7:0.26666668 8:0 9:0.25 #
-2.581331294342376e-005 1:0 2:0.5 3:0.33333334 4:0.33333334 5:0.60000002 6:0.75 7:0.2 8:-0.25 9:0 #
5.1626625886847521e-005 1:0.44444445 2:0 3:0.5 4:0.5 5:0.2 6:0.25 7:0.2 8:-0.75 9:0 #
-2.581331294342376e-005 1:0.44444445 2:0 3:0.33333334 4:0.5 5:0.40000001 6:0.5 7:0.40000001 8:-0.5 9:0.25 #
-2.581331294342376e-005 1:0.44444445 2:0 3:0.16666667 4:0.5 5:0.80000001 6:1 7:0.80000001 8:0 9:0.75 #
2.581331294342376e-005 1:0 2:0.25 3:0.16666667 4:0.5 5:0.80000001 6:1 7:0.40000001 8:0 9:0.5 #
-2.581331294342376e-005 1:0 2:0.25 3:0.33333334 4:0.5 5:0.60000002 6:0.75 7:0.30000001 8:-0.25 9:0.25 #
2.581331294342376e-005 1:0 2:0 3:0.16666667 4:0.33333334 5:0.60000002 6:1 7:0.2 8:0 9:0 #
-2.581331294342376e-005 1:0 2:0 3:0.16666667 4:0.33333334 5:0.60000002 6:1 7:0.2 8:0 9:0 #
5.1626625886847521e-005 1:0 2:0.5 3:0.16666667 4:0.5 5:0.80000001 6:1 7:0.2 8:0 9:0 #
-2.581331294342376e-005 1:0 2:0.5 3:0.16666667 4:0.5 5:0.80000001 6:1 7:0.2 8:0 9:0 #
-2.581331294342376e-005 1:0 2:0.5 3:0.16666667 4:0.5 5:0.80000001 6:1 7:0.2 8:0 9:0 #
-2.581331294342376e-005 1:0 2:0.75 3:0.16666667 4:0.33333334 5:0.80000001 6:1 7:0.2 8:0 9:0 #
2.581331294342376e-005 1:0 2:0.75 3:0.16666667 4:0.33333334 5:0.80000001 6:1 7:0.2 8:0 9:0 #
2.581331294342376e-005 1:0.11111111 2:0 3:0.16666667 4:0.33333334 5:0.60000002 6:1 7:0.2 8:0 9:0 #
-2.581331294342376e-005 1:0.11111111 2:0 3:0.16666667 4:0.33333334 5:0.60000002 6:1 7:0.2 8:0 9:0 #
5.1626625886847521e-005 1:0.11111111 2:0.5 3:0.16666667 4:0.5 5:0.80000001 6:1 7:0.2 8:0 9:0 #
-2.581331294342376e-005 1:0.11111111 2:0.5 3:0.16666667 4:0.5 5:0.80000001 6:1 7:0.2 8:0 9:0 #
-2.581331294342376e-005 1:0.11111111 2:0.5 3:0.16666667 4:0.5 5:0.80000001 6:1 7:0.2 8:0 9:0 #
2.581331294342376e-005 1:0.11111111 2:0.75 3:0.16666667 4:0.33333334 5:0.80000001 6:1 7:0.2 8:0 9:0 #
-2.581331294342376e-005 1:0.11111111 2:0.75 3:0.16666667 4:0.33333334 5:0.80000001 6:1 7:0.2 8:0 9:0 #
2.581331294342376e-005 1:0 2:1 3:0.16666667 4:0.33333334 5:0.60000002 6:1 7:0.2 8:0 9:0 #
-2.581331294342376e-005 1:0 2:1 3:0.16666667 4:0.33333334 5:0.60000002 6:1 7:0.2 8:0 9:0 #
2.581331294342376e-005 1:0 2:0 3:0.16666667 4:0.33333334 5:0.80000001 6:1 7:0.2 8:0 9:0 #
-2.581331294342376e-005 1:0 2:0 3:0.16666667 4:0.33333334 5:0.80000001 6:1 7:0.2 8:0 9:0 #
2.581331294342376e-005 1:0 2:0.25 3:0.16666667 4:0.33333334 5:0.80000001 6:1 7:0.2 8:0 9:0 #
-2.581331294342376e-005 1:0 2:0.25 3:0.16666667 4:0.33333334 5:0.80000001 6:1 7:0.2 8:0 9:0 #
-2.581331294342376e-005 1:0 2:0.5 3:0.16666667 4:0.33333334 5:0.80000001 6:1 7:0.2 8:0 9:0 #
2.581331294342376e-005 1:0 2:0.5 3:0.16666667 4:0.33333334 5:0.80000001 6:1 7:0.2 8:0 9:0 #
2.581331294342376e-005 1:0 2:0.75 3:0.16666667 4:0.5 5:1 6:1 7:0.25 8:0 9:0.25 #
-2.581331294342376e-005 1:0 2:0.75 3:0.16666667 4:0.5 5:1 6:1 7:0.25 8:0 9:0.25 #
-2.581331294342376e-005 1:0 2:1 3:0.16666667 4:0.5 5:0.80000001 6:1 7:0.26666668 8:0 9:0.25 #
2.581331294342376e-005 1:0 2:1 3:0.16666667 4:0.5 5:0.80000001 6:1 7:0.26666668 8:0 9:0.25 #
2.581331294342376e-005 1:0.22222222 2:0 3:0.16666667 4:0.33333334 5:0.60000002 6:1 7:0.2 8:0 9:0 #
-2.581331294342376e-005 1:0.22222222 2:0 3:0.16666667 4:0.33333334 5:0.60000002 6:1 7:0.2 8:0 9:0 #
-2.581331294342376e-005 1:0.22222222 2:0.5 3:0.16666667 4:0.5 5:0.80000001 6:1 7:0.2 8:0 9:0 #
5.1626625886847521e-005 1:0.22222222 2:0.5 3:0.16666667 4:0.5 5:0.80000001 6:1 7:0.2 8:0 9:0 #
-2.581331294342376e-005 1:0.22222222 2:0.5 3:0.16666667 4:0.5 5:0.80000001 6:1 7:0.2 8:0 9:0 #
2.581331294342376e-005 1:0.33333334 2:0 3:0.16666667 4:0.33333334 5:0.60000002 6:1 7:0.2 8:0 9:0 #
-2.581331294342376e-005 1:0.33333334 2:0 3:0.16666667 4:0.33333334 5:0.60000002 6:1 7:0.2 8:0 9:0 #
-2.581331294342376e-005 1:0.33333334 2:0.5 3:0.16666667 4:0.5 5:0.80000001 6:1 7:0.2 8:0 9:0 #
-2.581331294342376e-005 1:0.33333334 2:0.5 3:0.16666667 4:0.5 5:0.80000001 6:1 7:0.2 8:0 9:0 #
5.1626625886847521e-005 1:0.33333334 2:0.5 3:0.16666667 4:0.5 5:0.80000001 6:1 7:0.2 8:0 9:0 #
-2.581331294342376e-005 1:0 2:0.75 3:0.33333334 4:0.5 5:0.40000001 6:0.66666669 7:0.2 8:-0.25 9:0 #
5.1626625886847521e-005 1:0 2:0.75 3:0.33333334 4:0.5 5:0.40000001 6:0.66666669 7:0.2 8:-0.25 9:0 #
-2.581331294342376e-005 1:0 2:0.75 3:0.16666667 4:0.5 5:0.60000002 6:1 7:0.30000001 8:0 9:0.25 #
-2.581331294342376e-005 1:0 2:1 3:0.16666667 4:0.5 5:0.60000002 6:1 7:0.2 8:0 9:0 #
-2.581331294342376e-005 1:0 2:1 3:0.16666667 4:0.5 5:0.60000002 6:1 7:0.2 8:0 9:0 #
5.1626625886847521e-005 1:0 2:1 3:0.16666667 4:0.5 5:0.60000002 6:1 7:0.2 8:0 9:0 #
-2.581331294342376e-005 1:0.11111111 2:0 3:0.16666667 4:0.33333334 5:0.80000001 6:1 7:0.2 8:0 9:0 #
2.581331294342376e-005 1:0.11111111 2:0 3:0.16666667 4:0.33333334 5:0.80000001 6:1 7:0.2 8:0 9:0 #
-2.581331294342376e-005 1:0 2:0.25 3:0.16666667 4:0.33333334 5:0.60000002 6:1 7:0.2 8:0 9:0 #
2.581331294342376e-005 1:0 2:0.25 3:0.16666667 4:0.33333334 5:0.60000002 6:1 7:0.2 8:0 9:0 #
-2.581331294342376e-005 1:0 2:1 3:0.16666667 4:0.33333334 5:0.60000002 6:1 7:0.2 8:0 9:0 #
2.581331294342376e-005 1:0 2:1 3:0.16666667 4:0.33333334 5:0.60000002 6:1 7:0.2 8:0 9:0 #
-2.581331294342376e-005 1:0 2:0 3:0.16666667 4:0.33333334 5:0.60000002 6:1 7:0.2 8:0 9:0 #
2.581331294342376e-005 1:0 2:0 3:0.16666667 4:0.33333334 5:0.60000002 6:1 7:0.2 8:0 9:0 #
2.581331294342376e-005 1:0 2:0.25 3:0.16666667 4:0.33333334 5:0.80000001 6:1 7:0.2 8:0 9:0 #
-2.581331294342376e-005 1:0 2:0.25 3:0.16666667 4:0.33333334 5:0.80000001 6:1 7:0.2 8:0 9:0 #
-2.581331294342376e-005 1:0 2:0.5 3:0.16666667 4:0.33333334 5:1 6:1 7:0.2 8:0 9:0 #
2.581331294342376e-005 1:0 2:0.5 3:0.16666667 4:0.33333334 5:1 6:1 7:0.2 8:0 9:0 #
5.1626625886847521e-005 1:0 2:0 3:0.16666667 4:0.5 5:0.60000002 6:1 7:0.2 8:0 9:0 #
-2.581331294342376e-005 1:0 2:0 3:0.16666667 4:0.5 5:0.60000002 6:1 7:0.2 8:0 9:0 #
-2.581331294342376e-005 1:0 2:0 3:0.16666667 4:0.5 5:0.60000002 6:1 7:0.2 8:0 9:0 #
5.1626625886847521e-005 1:0 2:0.25 3:0.16666667 4:0.5 5:0.60000002 6:1 7:0.2 8:0 9:0 #
-2.581331294342376e-005 1:0 2:0.25 3:0.16666667 4:0.5 5:0.60000002 6:1 7:0.2 8:0 9:0 #
-2.581331294342376e-005 1:0 2:0.25 3:0.16666667 4:0.5 5:0.60000002 6:1 7:0.2 8:0 9:0 #
-2.581331294342376e-005 1:0 2:0.5 3:0.16666667 4:0.33333334 5:0.60000002 6:1 7:0.2 8:0 9:0 #
2.581331294342376e-005 1:0 2:0.5 3:0.16666667 4:0.33333334 5:0.60000002 6:1 7:0.2 8:0 9:0 #
7.7439938830271284e-005 1:0 2:1 3:0.16666667 4:0.66666669 5:0.60000002 6:1 7:0.2 8:0 9:0 #
-2.581331294342376e-005 1:0 2:1 3:0.16666667 4:0.66666669 5:0.60000002 6:1 7:0.2 8:0 9:0 #
-2.581331294342376e-005 1:0 2:1 3:0.16666667 4:0.66666669 5:0.60000002 6:1 7:0.2 8:0 9:0 #
-2.581331294342376e-005 1:0 2:1 3:0.16666667 4:0.66666669 5:0.60000002 6:1 7:0.2 8:0 9:0 #
-2.581331294342376e-005 1:0.44444445 2:0 3:0.16666667 4:0.33333334 5:0.60000002 6:1 7:0.2 8:0 9:0 #
2.581331294342376e-005 1:0.44444445 2:0 3:0.16666667 4:0.33333334 5:0.60000002 6:1 7:0.2 8:0 9:0 #
2.581331294342376e-005 1:0 2:0.25 3:0.16666667 4:1 5:0.80000001 6:1 7:0.80000001 8:0 9:0.75 #
-2.581331294342376e-005 1:0 2:0.25 3:0.16666667 4:1 5:0.80000001 6:1 7:0.80000001 8:0 9:0.75 #
-2.581331294342376e-005 1:0 2:0.5 3:0.16666667 4:0.33333334 5:0.80000001 6:1 7:0.2 8:0 9:0 #
2.581331294342376e-005 1:0 2:0.5 3:0.16666667 4:0.33333334 5:0.80000001 6:1 7:0.2 8:0 9:0 #
-2.581331294342376e-005 1:0.11111111 2:0 3:0.16666667 4:0.33333334 5:0.60000002 6:1 7:0.2 8:0 9:0 #
2.581331294342376e-005 1:0.11111111 2:0 3:0.16666667 4:0.33333334 5:0.60000002 6:1 7:0.2 8:0 9:0 #
-2.581331294342376e-005 1:0.11111111 2:0.25 3:0.16666667 4:0.33333334 5:0.80000001 6:1 7:0.2 8:0 9:0 #
2.581331294342376e-005 1:0.11111111 2:0.25 3:0.16666667 4:0.33333334 5:0.80000001 6:1 7:0.2 8:0 9:0 #
2.581331294342376e-005 1:0 2:1 3:0.16666667 4:0.33333334 5:0.60000002 6:1 7:0.2 8:0 9:0 #
-2.581331294342376e-005 1:0 2:1 3:0.16666667 4:0.33333334 5:0.60000002 6:1 7:0.2 8:0 9:0 #
-2.581331294342376e-005 1:0.55555558 2:0 3:0.16666667 4:0.33333334 5:0.60000002 6:1 7:0.2 8:0 9:0 #
2.581331294342376e-005 1:0.55555558 2:0 3:0.16666667 4:0.33333334 5:0.60000002 6:1 7:0.2 8:0 9:0 #
-2.581331294342376e-005 1:0.11111111 2:0.25 3:0.16666667 4:1 5:0.80000001 6:1 7:0.80000001 8:0 9:0.75 #
-2.581331294342376e-005 1:0.11111111 2:0.25 3:0.66666669 4:1 5:0.2 6:0.25 7:0.2 8:-0.75 9:0 #
-2.581331294342376e-005 1:0.11111111 2:0.25 3:0.5 4:1 5:0.40000001 6:0.5 7:0.40000001 8:-0.5 9:0.25 #
0.0001290665647171188 1:0.11111111 2:0.25 3:0.16666667 4:1 5:0.80000001 6:1 7:0.80000001 8:0 9:0.75 #
-2.581331294342376e-005 1:0.11111111 2:0.25 3:0.66666669 4:1 5:0.2 6:0.25 7:0.2 8:-0.75 9:0 #
-2.581331294342376e-005 1:0.11111111 2:0.25 3:0.66666669 4:1 5:0.2 6:0.25 7:0.2 8:-0.75 9:0 #
2.581331294342376e-005 1:0 2:0.5 3:0.16666667 4:0.33333334 5:0.60000002 6:1 7:0.2 8:0 9:0 #
-2.581331294342376e-005 1:0 2:0.5 3:0.16666667 4:0.33333334 5:0.60000002 6:1 7:0.2 8:0 9:0 #
2.581331294342376e-005 1:0.22222222 2:0 3:0.16666667 4:0.33333334 5:0.60000002 6:1 7:0.2 8:0 9:0 #
-2.581331294342376e-005 1:0.22222222 2:0 3:0.16666667 4:0.33333334 5:0.60000002 6:1 7:0.2 8:0 9:0 #
-2.581331294342376e-005 1:0.11111111 2:0 3:0.16666667 4:0.5 5:0.60000002 6:1 7:0.2 8:0 9:0 #
5.1626625886847521e-005 1:0.11111111 2:0 3:0.16666667 4:0.5 5:0.60000002 6:1 7:0.2 8:0 9:0 #
-2.581331294342376e-005 1:0.11111111 2:0 3:0.16666667 4:0.5 5:0.60000002 6:1 7:0.2 8:0 9:0 #
-2.581331294342376e-005 1:0.66666669 2:0 3:0.16666667 4:0.33333334 5:0.60000002 6:1 7:0.2 8:0 9:0 #
2.581331294342376e-005 1:0.66666669 2:0 3:0.16666667 4:0.33333334 5:0.60000002 6:1 7:0.2 8:0 9:0 #
-2.581331294342376e-005 1:0.22222222 2:0.25 3:0.16666667 4:1 5:0.80000001 6:1 7:0.80000001 8:0 9:0.75 #
-2.581331294342376e-005 1:0.22222222 2:0.25 3:0.66666669 4:1 5:0.2 6:0.25 7:0.2 8:-0.75 9:0 #
-2.581331294342376e-005 1:0.22222222 2:0.25 3:0.5 4:1 5:0.40000001 6:0.5 7:0.40000001 8:-0.5 9:0.25 #
-2.581331294342376e-005 1:0.22222222 2:0.25 3:0.16666667 4:1 5:0.80000001 6:1 7:0.80000001 8:0 9:0.75 #
-2.581331294342376e-005 1:0.22222222 2:0.25 3:0.66666669 4:1 5:0.2 6:0.25 7:0.2 8:-0.75 9:0 #
0.0001290665647171188 1:0.22222222 2:0.25 3:0.66666669 4:1 5:0.2 6:0.25 7:0.2 8:-0.75 9:0 #
2.581331294342376e-005 1:0 2:0.75 3:0.16666667 4:0.33333334 5:0.60000002 6:1 7:0.2 8:0 9:0 #
-2.581331294342376e-005 1:0 2:0.75 3:0.16666667 4:0.33333334 5:0.60000002 6:1 7:0.2 8:0 9:0 #
-2.581331294342376e-005 1:0.22222222 2:0 3:0.16666667 4:0.5 5:0.60000002 6:1 7:0.2 8:0 9:0 #
-2.581331294342376e-005 1:0.22222222 2:0 3:0.16666667 4:0.5 5:0.60000002 6:1 7:0.2 8:0 9:0 #
5.1626625886847521e-005 1:0.22222222 2:0 3:0.16666667 4:0.5 5:0.60000002 6:1 7:0.2 8:0 9:0 #
-2.581331294342376e-005 1:0 2:0.5 3:0.16666667 4:0.5 5:0.60000002 6:1 7:0.2 8:0 9:0 #
-2.581331294342376e-005 1:0 2:0.5 3:0.16666667 4:0.5 5:0.60000002 6:1 7:0.2 8:0 9:0 #
5.1626625886847521e-005 1:0 2:0.5 3:0.16666667 4:0.5 5:0.60000002 6:1 7:0.2 8:0 9:0 #
2.581331294342376e-005 1:0 2:1 3:0.16666667 4:0.33333334 5:0.60000002 6:1 7:0.2 8:0 9:0 #
-2.581331294342376e-005 1:0 2:1 3:0.16666667 4:0.33333334 5:0.60000002 6:1 7:0.2 8:0 9:0 #
-2.581331294342376e-005 1:0.33333334 2:0 3:0.16666667 4:0.5 5:0.60000002 6:1 7:0.2 8:0 9:0 #
-2.581331294342376e-005 1:0.33333334 2:0 3:0.16666667 4:0.5 5:0.60000002 6:1 7:0.2 8:0 9:0 #
5.1626625886847521e-005 1:0.33333334 2:0 3:0.16666667 4:0.5 5:0.60000002 6:1 7:0.2 8:0 9:0 #
5.1626625886847521e-005 1:0.11111111 2:0.5 3:0.16666667 4:0.5 5:0.60000002 6:1 7:0.2 8:0 9:0 #
-2.581331294342376e-005 1:0.11111111 2:0.5 3:0.16666667 4:0.5 5:0.60000002 6:1 7:0.2 8:0 9:0 #
-2.581331294342376e-005 1:0.11111111 2:0.5 3:0.16666667 4:0.5 5:0.60000002 6:1 7:0.2 8:0 9:0 #
-2.581331294342376e-005 1:0 2:0 3:0.16666667 4:0.5 5:0.60000002 6:1 7:0.2 8:0 9:0 #
-2.581331294342376e-005 1:0 2:0 3:0.16666667 4:0.5 5:0.60000002 6:1 7:0.2 8:0 9:0 #
5.1626625886847521e-005 1:0 2:0 3:0.16666667 4:0.5 5:0.60000002 6:1 7:0.2 8:0 9:0 #
-2.581331294342376e-005 1:0 2:0.25 3:0.16666667 4:0.33333334 5:0.80000001 6:1 7:0.2 8:0 9:0 #
2.581331294342376e-005 1:0 2:0.25 3:0.16666667 4:0.33333334 5:0.80000001 6:1 7:0.2 8:0 9:0 #
5.1626625886847521e-005 1:0 2:0.5 3:0.16666667 4:0.5 5:0.60000002 6:1 7:0.2 8:0 9:0 #
-2.581331294342376e-005 1:0 2:0.5 3:0.16666667 4:0.5 5:0.60000002 6:1 7:0.2 8:0 9:0 #
-2.581331294342376e-005 1:0 2:0.5 3:0.16666667 4:0.5 5:0.60000002 6:1 7:0.2 8:0 9:0 #
2.581331294342376e-005 1:0 2:1 3:0.16666667 4:0.33333334 5:0.60000002 6:1 7:0.2 8:0 9:0 #
-2.581331294342376e-005 1:0 2:1 3:0.16666667 4:0.33333334 5:0.60000002 6:1 7:0.2 8:0 9:0 #
2.581331294342376e-005 1:0.22222222 2:0 3:0.16666667 4:0.33333334 5:0.80000001 6:1 7:0.2 8:0 9:0 #
-2.581331294342376e-005 1:0.22222222 2:0 3:0.16666667 4:0.33333334 5:0.80000001 6:1 7:0.2 8:0 9:0 #
-2.581331294342376e-005 1:0.11111111 2:0.25 3:0.16666667 4:0.33333334 5:0.80000001 6:1 7:0.2 8:0 9:0 #
2.581331294342376e-005 1:0.11111111 2:0.25 3:0.16666667 4:0.33333334 5:0.80000001 6:1 7:0.2 8:0 9:0 #
-2.581331294342376e-005 1:0 2:0.5 3:0.16666667 4:0.66666669 5:0.80000001 6:1 7:0.2 8:0 9:0 #
-2.581331294342376e-005 1:0 2:0.5 3:0.16666667 4:0.66666669 5:0.80000001 6:1 7:0.2 8:0 9:0 #
7.7439938830271284e-005 1:0 2:0.5 3:0.16666667 4:0.66666669 5:0.80000001 6:1 7:0.2 8:0 9:0 #
-2.581331294342376e-005 1:0 2:0.5 3:0.16666667 4:0.66666669 5:0.80000001 6:1 7:0.2 8:0 9:0 #
2.581331294342376e-005 1:0.33333334 2:0 3:0.16666667 4:0.33333334 5:0.60000002 6:1 7:0.2 8:0 9:0 #
-2.581331294342376e-005 1:0.33333334 2:0 3:0.16666667 4:0.33333334 5:0.60000002 6:1 7:0.2 8:0 9:0 #
-2.581331294342376e-005 1:0.44444445 2:0 3:0.16666667 4:0.33333334 5:0.60000002 6:1 7:0.2 8:0 9:0 #
2.581331294342376e-005 1:0.44444445 2:0 3:0.16666667 4:0.33333334 5:0.60000002 6:1 7:0.2 8:0 9:0 #
2.581331294342376e-005 1:0.22222222 2:0.25 3:0.16666667 4:0.33333334 5:0.80000001 6:1 7:0.2 8:0 9:0 #
-2.581331294342376e-005 1:0.22222222 2:0.25 3:0.16666667 4:0.33333334 5:0.80000001 6:1 7:0.2 8:0 9:0 #
2.581331294342376e-005 1:0.11111111 2:0.5 3:0.16666667 4:0.33333334 5:1 6:1 7:0.2 8:0 9:0 #
-2.581331294342376e-005 1:0.11111111 2:0.5 3:0.16666667 4:0.33333334 5:1 6:1 7:0.2 8:0 9:0 #
2.581331294342376e-005 1:0 2:0.75 3:0.16666667 4:0.33333334 5:0.60000002 6:1 7:0.2 8:0 9:0 #
-2.581331294342376e-005 1:0 2:0.75 3:0.16666667 4:0.33333334 5:0.60000002 6:1 7:0.2 8:0 9:0 #
5.1626625886847521e-005 1:0 2:0 3:0.16666667 4:0.5 5:0.60000002 6:1 7:0.30000001 8:0 9:0.25 #
-2.581331294342376e-005 1:0 2:0 3:0.33333334 4:0.5 5:0.40000001 6:0.66666669 7:0.2 8:-0.25 9:0 #
-2.581331294342376e-005 1:0 2:0 3:0.33333334 4:0.5 5:0.40000001 6:0.66666669 7:0.2 8:-0.25 9:0 #
1.8082288120804044e-005 1:0 2:0.25 3:0.16666667 4:0.5 5:0.80000001 6:1 7:0.40000001 8:0 9:0.5 #
-1.8082288120804044e-005 1:0 2:0.25 3:0.33333334 4:0.5 5:0.60000002 6:0.75 7:0.30000001 8:-0.25 9:0.25 #
-2.581331294342376e-005 1:0 2:1 3:0.16666667 4:0.33333334 5:0.80000001 6:1 7:0.2 8:0 9:0 #
2.581331294342376e-005 1:0 2:1 3:0.16666667 4:0.33333334 5:0.80000001 6:1 7:0.2 8:0 9:0 #
-2.581331294342376e-005 1:0.11111111 2:0 3:0.16666667 4:0.5 5:0.60000002 6:1 7:0.30000001 8:0 9:0.25 #
5.1626625886847521e-005 1:0.11111111 2:0 3:0.33333334 4:0.5 5:0.40000001 6:0.66666669 7:0.2 8:-0.25 9:0 #
-2.581331294342376e-005 1:0.11111111 2:0 3:0.33333334 4:0.5 5:0.40000001 6:0.66666669 7:0.2 8:-0.25 9:0 #
-2.581331294342376e-005 1:0.22222222 2:0 3:0.16666667 4:0.5 5:0.60000002 6:1 7:0.30000001 8:0 9:0.25 #
-2.581331294342376e-005 1:0.22222222 2:0 3:0.33333334 4:0.5 5:0.40000001 6:0.66666669 7:0.2 8:-0.25 9:0 #
5.1626625886847521e-005 1:0.22222222 2:0 3:0.33333334 4:0.5 5:0.40000001 6:0.66666669 7:0.2 8:-0.25 9:0 #
-2.581331294342376e-005 1:0 2:0.5 3:0.16666667 4:0.5 5:0.80000001 6:1 7:0.26666668 8:0 9:0.25 #
2.581331294342376e-005 1:0 2:0.5 3:0.16666667 4:0.5 5:0.80000001 6:1 7:0.26666668 8:0 9:0.25 #
-2.581331294342376e-005 1:0.11111111 2:0 3:0.33333334 4:0.5 5:0.60000002 6:0.75 7:0.30000001 8:-0.25 9:0.25 #
-2.581331294342376e-005 1:0.11111111 2:0 3:0.16666667 4:0.5 5:0.80000001 6:1 7:0.40000001 8:0 9:0.5 #
5.1626625886847521e-005 1:0.11111111 2:0 3:0.5 4:0.5 5:0.40000001 6:0.5 7:0.2 8:-0.5 9:0 #
-2.581331294342376e-005 1:0 2:0.25 3:0.33333334 4:0.33333334 5:0.60000002 6:0.75 7:0.2 8:-0.25 9:0 #
2.581331294342376e-005 1:0 2:0.25 3:0.16666667 4:0.33333334 5:0.80000001 6:1 7:0.26666668 8:0 9:0.25 #
2.581331294342376e-005 1:0 2:0.5 3:0.16666667 4:0.5 5:1 6:1 7:0.5 8:0 9:0.75 #
-2.581331294342376e-005 1:0 2:0.5 3:0.33333334 4:0.5 5:0.80000001 6:0.80000001 7:0.40000001 8:-0.25 9:0.5 #
5.1626625886847521e-005 1:0.22222222 2:0 3:0.33333334 4:0.5 5:0.60000002 6:0.75 7:0.30000001 8:-0.25 9:0.25 #
-2.581331294342376e-005 1:0.22222222 2:0 3:0.16666667 4:0.5 5:0.80000001 6:1 7:0.40000001 8:0 9:0.5 #
-2.581331294342376e-005 1:0.22222222 2:0 3:0.5 4:0.5 5:0.40000001 6:0.5 7:0.2 8:-0.5 9:0 #
5.0132586504488034e-006 1:0 2:1 3:0.16666667 4:0.33333334 5:1 6:1 7:0.25 8:0 9:0.25 #
-5.0132586504488034e-006 1:0 2:1 3:0.33333334 4:0.33333334 5:0.80000001 6:0.80000001 7:0.2 8:-0.25 9:0 #
-2.581331294342376e-005 1:0 2:0 3:0.33333334 4:0.33333334 5:0.60000002 6:0.75 7:0.2 8:-0.25 9:0 #
2.581331294342376e-005 1:0 2:0 3:0.16666667 4:0.33333334 5:0.80000001 6:1 7:0.26666668 8:0 9:0.25 #
2.581331294342376e-005 1:0 2:0.25 3:0.16666667 4:0.33333334 5:1 6:1 7:0.25 8:0 9:0.25 #
-2.581331294342376e-005 1:0 2:0.25 3:0.33333334 4:0.33333334 5:0.80000001 6:0.80000001 7:0.2 8:-0.25 9:0 #
2.581331294342376e-005 1:0.11111111 2:0 3:0.33333334 4:0.33333334 5:0.60000002 6:0.75 7:0.2 8:-0.25 9:0 #
-2.581331294342376e-005 1:0.11111111 2:0 3:0.16666667 4:0.33333334 5:0.80000001 6:1 7:0.26666668 8:0 9:0.25 #
-2.581331294342376e-005 1:0 2:0.5 3:0.16666667 4:0.66666669 5:1 6:1 7:0.25 8:0 9:0.25 #
2.581331294342376e-005 1:0 2:0.5 3:0.16666667 4:0.66666669 5:1 6:1 7:0.25 8:0 9:0.25 #
-2.581331294342376e-005 1:0.33333334 2:0 3:0.33333334 4:0.5 5:0.60000002 6:0.75 7:0.30000001 8:-0.25 9:0.25 #
5.1626625886847521e-005 1:0.33333334 2:0 3:0.16666667 4:0.5 5:0.80000001 6:1 7:0.40000001 8:0 9:0.5 #
-2.581331294342376e-005 1:0.33333334 2:0 3:0.5 4:0.5 5:0.40000001 6:0.5 7:0.2 8:-0.5 9:0 #
-2.581331294342376e-005 1:0.11111111 2:0.25 3:0.33333334 4:0.33333334 5:0.2 6:0.25 7:0.2 8:-0.75 9:0 #
2.581331294342376e-005 1:0.11111111 2:0.25 3:0.16666667 4:0.33333334 5:0.80000001 6:1 7:0.80000001 8:0 9:0.75 #
-2.581331294342376e-005 1:0.11111111 2:0.5 3:0.16666667 4:0.33333334 5:1 6:1 7:0.25 8:0 9:0.25 #
2.581331294342376e-005 1:0.11111111 2:0.5 3:0.33333334 4:0.33333334 5:0.80000001 6:0.80000001 7:0.2 8:-0.25 9:0 #
2.581331294342376e-005 1:0 2:0 3:0.16666667 4:0.33333334 5:1 6:1 7:0.25 8:0 9:0.25 #
-2.581331294342376e-005 1:0 2:0 3:0.33333334 4:0.33333334 5:0.80000001 6:0.80000001 7:0.2 8:-0.25 9:0 #
-2.581331294342376e-005 1:0.44444445 2:0 3:0.33333334 4:0.5 5:0.60000002 6:0.75 7:0.30000001 8:-0.25 9:0.25 #
5.1626625886847521e-005 1:0.44444445 2:0 3:0.16666667 4:0.5 5:0.80000001 6:1 7:0.40000001 8:0 9:0.5 #
-2.581331294342376e-005 1:0.44444445 2:0 3:0.5 4:0.5 5:0.40000001 6:0.5 7:0.2 8:-0.5 9:0 #
2.581331294342376e-005 1:0.22222222 2:0.25 3:0.33333334 4:0.33333334 5:0.2 6:0.25 7:0.2 8:-0.75 9:0 #
-2.581331294342376e-005 1:0.22222222 2:0.25 3:0.16666667 4:0.33333334 5:0.80000001 6:1 7:0.80000001 8:0 9:0.75 #
-2.581331294342376e-005 1:0.55555558 2:0 3:0.33333334 4:0.5 5:0.60000002 6:0.75 7:0.30000001 8:-0.25 9:0.25 #
5.1626625886847521e-005 1:0.55555558 2:0 3:0.16666667 4:0.5 5:0.80000001 6:1 7:0.40000001 8:0 9:0.5 #
-2.581331294342376e-005 1:0.55555558 2:0 3:0.5 4:0.5 5:0.40000001 6:0.5 7:0.2 8:-0.5 9:0 #
-2.581331294342376e-005 1:0.33333334 2:0.25 3:0.33333334 4:0.33333334 5:0.2 6:0.25 7:0.2 8:-0.75 9:0 #
2.581331294342376e-005 1:0.33333334 2:0.25 3:0.16666667 4:0.33333334 5:0.80000001 6:1 7:0.80000001 8:0 9:0.75 #
2.581331294342376e-005 1:0.22222222 2:0.5 3:0.16666667 4:0.33333334 5:1 6:1 7:0.25 8:0 9:0.25 #
-2.581331294342376e-005 1:0.22222222 2:0.5 3:0.33333334 4:0.33333334 5:0.80000001 6:0.80000001 7:0.2 8:-0.25 9:0 #
2.581331294342376e-005 1:0.11111111 2:1 3:0.16666667 4:0.33333334 5:0.80000001 6:1 7:0.2 8:0 9:0 #
-2.581331294342376e-005 1:0.11111111 2:1 3:0.16666667 4:0.33333334 5:0.80000001 6:1 7:0.2 8:0 9:0 #
-2.581331294342376e-005 1:0.11111111 2:0 3:0.16666667 4:0.33333334 5:1 6:1 7:0.25 8:0 9:0.25 #
2.581331294342376e-005 1:0.11111111 2:0 3:0.33333334 4:0.33333334 5:0.80000001 6:0.80000001 7:0.2 8:-0.25 9:0 #
-2.581331294342376e-005 1:0 2:0.25 3:0.16666667 4:1 5:1 6:1 7:0.5 8:0 9:0.75 #
-2.581331294342376e-005 1:0 2:0.25 3:0.66666669 4:1 5:0.80000001 6:0.80000001 7:0.40000001 8:-0.25 9:0.5 #
-2.581331294342376e-005 1:0 2:0.25 3:0.16666667 4:1 5:1 6:1 7:0.5 8:0 9:0.75 #
7.7439938830271284e-005 1:0 2:0.25 3:0.16666667 4:1 5:1 6:1 7:0.5 8:0 9:0.75 #
-2.581331294342376e-005 1:0.66666669 2:0 3:0.33333334 4:0.5 5:0.60000002 6:0.75 7:0.30000001 8:-0.25 9:0.25 #
-2.581331294342376e-005 1:0.66666669 2:0 3:0.16666667 4:0.5 5:0.80000001 6:1 7:0.40000001 8:0 9:0.5 #
5.1626625886847521e-005 1:0.66666669 2:0 3:0.5 4:0.5 5:0.40000001 6:0.5 7:0.2 8:-0.5 9:0 #
2.581331294342376e-005 1:0.11111111 2:0.25 3:0.33333334 4:0.33333334 5:0.60000002 6:0.75 7:0.2 8:-0.25 9:0 #
-2.581331294342376e-005 1:0.11111111 2:0.25 3:0.16666667 4:0.33333334 5:0.80000001 6:1 7:0.26666668 8:0 9:0.25 #
2.581331294342376e-005 1:0.22222222 2:0 3:0.16666667 4:0.33333334 5:1 6:1 7:0.25 8:0 9:0.25 #
-2.581331294342376e-005 1:0.22222222 2:0 3:0.33333334 4:0.33333334 5:0.80000001 6:0.80000001 7:0.2 8:-0.25 9:0 #
-2.581331294342376e-005 1:0.11111111 2:0.5 3:0.33333334 4:0.5 5:0.2 6:0.25 7:0.2 8:-0.75 9:0 #
-2.581331294342376e-005 1:0.11111111 2:0.5 3:0.16666667 4:0.5 5:0.80000001 6:1 7:0.80000001 8:0 9:0.75 #
5.1626625886847521e-005 1:0.11111111 2:0.5 3:0.33333334 4:0.5 5:0.2 6:0.25 7:0.2 8:-0.75 9:0 #
-2.581331294342376e-005 1:0 2:0.75 3:0.33333334 4:0.5 5:0.80000001 6:0.80000001 7:0.40000001 8:-0.25 9:0.5 #
2.581331294342376e-005 1:0 2:0.75 3:0.16666667 4:0.5 5:1 6:1 7:0.5 8:0 9:0.75 #
-2.581331294342376e-005 1:0.22222222 2:0 3:0.33333334 4:0.33333334 5:0.60000002 6:0.75 7:0.2 8:-0.25 9:0 #
2.581331294342376e-005 1:0.22222222 2:0 3:0.16666667 4:0.33333334 5:0.80000001 6:1 7:0.26666668 8:0 9:0.25 #
-2.581331294342376e-005 1:0.11111111 2:0.25 3:0.16666667 4:0.33333334 5:1 6:1 7:0.25 8:0 9:0.25 #
2.581331294342376e-005 1:0.11111111 2:0.25 3:0.33333334 4:0.33333334 5:0.80000001 6:0.80000001 7:0.2 8:-0.25 9:0 #
-2.581331294342376e-005 1:0 2:1 3:0.16666667 4:0.33333334 5:0.80000001 6:1 7:0.2 8:0 9:0 #
2.581331294342376e-005 1:0 2:1 3:0.16666667 4:0.33333334 5:0.80000001 6:1 7:0.2 8:0 9:0 #
-2.581331294342376e-005 1:0.33333334 2:0 3:0.16666667 4:0.33333334 5:1 6:1 7:0.25 8:0 9:0.25 #
2.581331294342376e-005 1:0.33333334 2:0 3:0.33333334 4:0.33333334 5:0.80000001 6:0.80000001 7:0.2 8:-0.25 9:0 #
0.00010035975664607696 1:0.11111111 2:0.25 3:0.16666667 4:1 5:1 6:1 7:0.5 8:0 9:0.75 #
-2.581331294342376e-005 1:0.11111111 2:0.25 3:0.66666669 4:1 5:0.80000001 6:0.80000001 7:0.40000001 8:-0.25 9:0.5 #
-2.581331294342376e-005 1:0.11111111 2:0.25 3:0.16666667 4:1 5:1 6:1 7:0.5 8:0 9:0.75 #
-2.581331294342376e-005 1:0.11111111 2:0.25 3:0.16666667 4:1 5:1 6:1 7:0.5 8:0 9:0.75 #
-2.2853764493822264e-005 1:0.11111111 2:0.25 3:0.83333331 4:1 5:0.40000001 6:0.40000001 7:0.2 8:-0.75 9:0 #
-6.6053321983417232e-008 1:0.11111111 2:0.25 3:0.83333331 4:1 5:0.40000001 6:0.40000001 7:0.2 8:-0.75 9:0 #
-2.581331294342376e-005 1:0 2:0.5 3:0.16666667 4:0.33333334 5:0.80000001 6:1 7:0.2 8:0 9:0 #
2.581331294342376e-005 1:0 2:0.5 3:0.16666667 4:0.33333334 5:0.80000001 6:1 7:0.2 8:0 9:0 #
5.1626625886847521e-005 1:0.33333334 2:0 3:0.16666667 4:0.5 5:0.60000002 6:1 7:0.30000001 8:0 9:0.25 #
-2.581331294342376e-005 1:0.33333334 2:0 3:0.33333334 4:0.5 5:0.40000001 6:0.66666669 7:0.2 8:-0.25 9:0 #
-2.581331294342376e-005 1:0.33333334 2:0 3:0.33333334 4:0.5 5:0.40000001 6:0.66666669 7:0.2 8:-0.25 9:0 #
-2.581331294342376e-005 1:0.11111111 2:0.25 3:0.5 4:0.5 5:0.40000001 6:0.5 7:0.2 8:-0.5 9:0 #
-2.581331294342376e-005 1:0.11111111 2:0.25 3:0.16666667 4:0.5 5:0.80000001 6:1 7:0.40000001 8:0 9:0.5 #
5.1626625886847521e-005 1:0.11111111 2:0.25 3:0.33333334 4:0.5 5:0.60000002 6:0.75 7:0.30000001 8:-0.25 9:0.25 #
2.581331294342376e-005 1:0 2:0.75 3:0.16666667 4:0.33333334 5:0.80000001 6:1 7:0.2 8:0 9:0 #
-2.581331294342376e-005 1:0 2:0.75 3:0.16666667 4:0.33333334 5:0.80000001 6:1 7:0.2 8:0 9:0 #
-2.581331294342376e-005 1:0.44444445 2:0 3:0.16666667 4:0.33333334 5:1 6:1 7:0.25 8:0 9:0.25 #
2.581331294342376e-005 1:0.44444445 2:0 3:0.33333334 4:0.33333334 5:0.80000001 6:0.80000001 7:0.2 8:-0.25 9:0 #
-2.2914721594356253e-005 1:0.22222222 2:0.25 3:0.16666667 4:1 5:1 6:1 7:0.5 8:0 9:0.75 #
9.9107251757318577e-005 1:0.22222222 2:0.25 3:0.66666669 4:1 5:0.80000001 6:0.80000001 7:0.40000001 8:-0.25 9:0.5 #
-2.4754724843062735e-006 1:0.22222222 2:0.25 3:0.16666667 4:1 5:1 6:1 7:0.5 8:0 9:0.75 #
-2.2090431791808533e-005 1:0.22222222 2:0.25 3:0.16666667 4:1 5:1 6:1 7:0.5 8:0 9:0.75 #
-2.581331294342376e-005 1:0.22222222 2:0.25 3:0.83333331 4:1 5:0.40000001 6:0.40000001 7:0.2 8:-0.75 9:0 #
-2.581331294342376e-005 1:0.22222222 2:0.25 3:0.83333331 4:1 5:0.40000001 6:0.40000001 7:0.2 8:-0.75 9:0 #
1.591949020843294e-005 1:0 2:1 3:0.16666667 4:0.33333334 5:1 6:1 7:0.25 8:0 9:0.25 #
-1.591949020843294e-005 1:0 2:1 3:0.33333334 4:0.33333334 5:0.80000001 6:0.80000001 7:0.2 8:-0.25 9:0 #
-2.581331294342376e-005 1:0.77777779 2:0 3:0.33333334 4:0.5 5:0.60000002 6:0.75 7:0.30000001 8:-0.25 9:0.25 #
-2.581331294342376e-005 1:0.77777779 2:0 3:0.16666667 4:0.5 5:0.80000001 6:1 7:0.40000001 8:0 9:0.5 #
5.1626625886847521e-005 1:0.77777779 2:0 3:0.5 4:0.5 5:0.40000001 6:0.5 7:0.2 8:-0.5 9:0 #
2.581331294342376e-005 1:0.22222222 2:0.25 3:0.33333334 4:0.33333334 5:0.60000002 6:0.75 7:0.2 8:-0.25 9:0 #
-2.581331294342376e-005 1:0.22222222 2:0.25 3:0.16666667 4:0.33333334 5:0.80000001 6:1 7:0.26666668 8:0 9:0.25 #
-2.581331294342376e-005 1:0.11111111 2:0.5 3:0.16666667 4:0.33333334 5:1 6:1 7:0.25 8:0 9:0.25 #
2.581331294342376e-005 1:0.11111111 2:0.5 3:0.33333334 4:0.33333334 5:0.80000001 6:0.80000001 7:0.2 8:-0.25 9:0 #
-2.581331294342376e-005 1:0 2:0 3:0.33333334 4:0.5 5:0.80000001 6:0.80000001 7:0.2 8:-0.25 9:0 #
-2.581331294342376e-005 1:0 2:0 3:0.16666667 4:0.5 5:1 6:1 7:0.25 8:0 9:0.25 #
5.1626625886847521e-005 1:0 2:0 3:0.33333334 4:0.5 5:0.80000001 6:0.80000001 7:0.2 8:-0.25 9:0 #
-2.581331294342376e-005 1:0 2:0.5 3:0.33333334 4:0.33333334 5:0.60000002 6:0.75 7:0.2 8:-0.25 9:0 #
2.581331294342376e-005 1:0 2:0.5 3:0.16666667 4:0.33333334 5:0.80000001 6:1 7:0.26666668 8:0 9:0.25 #
-2.581331294342376e-005 1:0.11111111 2:0 3:0.33333334 4:0.5 5:0.80000001 6:0.80000001 7:0.2 8:-0.25 9:0 #
5.1626625886847521e-005 1:0.11111111 2:0 3:0.16666667 4:0.5 5:1 6:1 7:0.25 8:0 9:0.25 #
-2.581331294342376e-005 1:0.11111111 2:0 3:0.33333334 4:0.5 5:0.80000001 6:0.80000001 7:0.2 8:-0.25 9:0 #
-2.581331294342376e-005 1:0 2:0.25 3:0.33333334 4:0.5 5:0.60000002 6:0.75 7:0.60000002 8:-0.25 9:0.5 #
2.581331294342376e-005 1:0 2:0.25 3:0.16666667 4:0.5 5:0.80000001 6:1 7:0.80000001 8:0 9:0.75 #
2.581331294342376e-005 1:0 2:0.5 3:0.16666667 4:0.5 5:0.80000001 6:1 7:0.40000001 8:0 9:0.5 #
-2.581331294342376e-005 1:0 2:0.5 3:0.33333334 4:0.5 5:0.60000002 6:0.75 7:0.30000001 8:-0.25 9:0.25 #
-2.581331294342376e-005 1:0.22222222 2:0 3:0.33333334 4:0.5 5:0.80000001 6:0.80000001 7:0.2 8:-0.25 9:0 #
-2.581331294342376e-005 1:0.22222222 2:0 3:0.16666667 4:0.5 5:1 6:1 7:0.25 8:0 9:0.25 #
5.1626625886847521e-005 1:0.22222222 2:0 3:0.33333334 4:0.5 5:0.80000001 6:0.80000001 7:0.2 8:-0.25 9:0 #
2.581331294342376e-005 1:0.11111111 2:0.25 3:0.16666667 4:0.33333334 5:0.80000001 6:1 7:0.40000001 8:0 9:0.5 #
-2.581331294342376e-005 1:0.11111111 2:0.25 3:0.33333334 4:0.33333334 5:0.40000001 6:0.5 7:0.2 8:-0.5 9:0 #
2.581331294342376e-005 1:0.11111111 2:0.5 3:0.33333334 4:0.33333334 5:0.60000002 6:0.75 7:0.2 8:-0.25 9:0 #
-2.581331294342376e-005 1:0.11111111 2:0.5 3:0.16666667 4:0.33333334 5:0.80000001 6:1 7:0.26666668 8:0 9:0.25 #
2.581331294342376e-005 1:0 2:0.25 3:0.16666667 4:1 5:0.80000001 6:1 7:0.80000001 8:0 9:0.75 #
-2.581331294342376e-005 1:0 2:0.25 3:0.16666667 4:1 5:0.80000001 6:1 7:0.80000001 8:0 9:0.75 #
2.581331294342376e-005 1:0 2:0.5 3:0.16666667 4:0.33333334 5:0.80000001 6:1 7:0.2 8:0 9:0 #
-2.581331294342376e-005 1:0 2:0.5 3:0.16666667 4:0.33333334 5:0.80000001 6:1 7:0.2 8:0 9:0 #
-2.581331294342376e-005 1:0.11111111 2:0 3:0.16666667 4:0.33333334 5:1 6:1 7:0.33333331 8:0 9:0.5 #
2.581331294342376e-005 1:0.11111111 2:0 3:0.33333334 4:0.33333334 5:0.60000002 6:0.60000002 7:0.2 8:-0.5 9:0 #
2.581331294342376e-005 1:0 2:0.25 3:0.16666667 4:0.33333334 5:0.80000001 6:1 7:0.26666668 8:0 9:0.25 #
-2.581331294342376e-005 1:0 2:0.25 3:0.33333334 4:0.33333334 5:0.60000002 6:0.75 7:0.2 8:-0.25 9:0 #
-1.4055804211043783e-005 1:0.11111111 2:0 3:0.33333334 4:0.33333334 5:0.60000002 6:0.60000002 7:0.2 8:-0.5 9:0 #
1.4055804211043783e-005 1:0.11111111 2:0 3:0.16666667 4:0.33333334 5:1 6:1 7:0.33333331 8:0 9:0.5 #
-2.581331294342376e-005 1:0.11111111 2:0.25 3:0.16666667 4:1 5:0.80000001 6:1 7:0.80000001 8:0 9:0.75 #
-2.581331294342376e-005 1:0.11111111 2:0.25 3:0.5 4:1 5:0.60000002 6:0.75 7:0.60000002 8:-0.25 9:0.5 #
-2.581331294342376e-005 1:0.11111111 2:0.25 3:0.5 4:1 5:0.60000002 6:0.75 7:0.60000002 8:-0.25 9:0.5 #
7.7439938830271284e-005 1:0.11111111 2:0.25 3:0.16666667 4:1 5:0.80000001 6:1 7:0.80000001 8:0 9:0.75 #
-2.581331294342376e-005 1:0 2:1 3:0.16666667 4:0.5 5:0.80000001 6:1 7:0.40000001 8:0 9:0.5 #
2.581331294342376e-005 1:0 2:1 3:0.16666667 4:0.5 5:0.80000001 6:1 7:0.40000001 8:0 9:0.5 #
-2.581331294342376e-005 1:0.33333334 2:0 3:0.33333334 4:0.5 5:0.80000001 6:0.80000001 7:0.2 8:-0.25 9:0 #
-2.581331294342376e-005 1:0.33333334 2:0 3:0.16666667 4:0.5 5:1 6:1 7:0.25 8:0 9:0.25 #
5.1626625886847521e-005 1:0.33333334 2:0 3:0.33333334 4:0.5 5:0.80000001 6:0.80000001 7:0.2 8:-0.25 9:0 #
-2.581331294342376e-005 1:0.22222222 2:0.25 3:0.16666667 4:0.33333334 5:0.80000001 6:1 7:0.40000001 8:0 9:0.5 #
2.581331294342376e-005 1:0.22222222 2:0.25 3:0.33333334 4:0.33333334 5:0.40000001 6:0.5 7:0.2 8:-0.5 9:0 #
2.581331294342376e-005 1:0 2:0.5 3:0.16666667 4:0.5 5:0.80000001 6:1 7:0.40000001 8:0 9:0.5 #
-2.581331294342376e-005 1:0 2:0.5 3:0.33333334 4:0.5 5:0.60000002 6:0.75 7:0.30000001 8:-0.25 9:0.25 #
5.1626625886847521e-005 1:0.44444445 2:0 3:0.33333334 4:0.5 5:0.80000001 6:0.80000001 7:0.2 8:-0.25 9:0 #
-2.581331294342376e-005 1:0.44444445 2:0 3:0.16666667 4:0.5 5:1 6:1 7:0.25 8:0 9:0.25 #
-2.581331294342376e-005 1:0.44444445 2:0 3:0.33333334 4:0.5 5:0.80000001 6:0.80000001 7:0.2 8:-0.25 9:0 #
2.581331294342376e-005 1:0 2:0.25 3:0.16666667 4:0.5 5:0.80000001 6:1 7:0.26666668 8:0 9:0.25 #
-2.581331294342376e-005 1:0 2:0.25 3:0.16666667 4:0.5 5:0.80000001 6:1 7:0.26666668 8:0 9:0.25 #
2.581331294342376e-005 1:0.11111111 2:0 3:0.16666667 4:0.5 5:1 6:1 7:0.5 8:0 9:0.75 #
-2.581331294342376e-005 1:0.11111111 2:0 3:0.33333334 4:0.5 5:0.60000002 6:0.60000002 7:0.30000001 8:-0.5 9:0.25 #
-2.581331294342376e-005 1:0.11111111 2:0.25 3:0.5 4:0.5 5:0.2 6:0.25 7:0.2 8:-0.75 9:0 #
5.1626625886847521e-005 1:0.11111111 2:0.25 3:0.33333334 4:0.5 5:0.60000002 6:0.75 7:0.60000002 8:-0.25 9:0.5 #
-2.581331294342376e-005 1:0.11111111 2:0.25 3:0.16666667 4:0.5 5:0.80000001 6:1 7:0.80000001 8:0 9:0.75 #
2.581331294342376e-005 1:0 2:0.75 3:0.16666667 4:0.33333334 5:0.80000001 6:1 7:0.2 8:0 9:0 #
-2.581331294342376e-005 1:0 2:0.75 3:0.16666667 4:0.33333334 5:0.80000001 6:1 7:0.2 8:0 9:0 #
5.1626625886847521e-005 1:0.55555558 2:0 3:0.33333334 4:0.5 5:0.80000001 6:0.80000001 7:0.2 8:-0.25 9:0 #
-2.581331294342376e-005 1:0.55555558 2:0 3:0.16666667 4:0.5 5:1 6:1 7:0.25 8:0 9:0.25 #
-2.581331294342376e-005 1:0.55555558 2:0 3:0.33333334 4:0.5 5:0.80000001 6:0.80000001 7:0.2 8:-0.25 9:0 #
-2.581331294342376e-005 1:0.11111111 2:0.25 3:0.16666667 4:0.5 5:0.80000001 6:1 7:0.26666668 8:0 9:0.25 #
-2.581331294342376e-005 1:0.11111111 2:0.25 3:0.5 4:0.5 5:0.60000002 6:0.75 7:0.2 8:-0.25 9:0 #
5.1626625886847521e-005 1:0.11111111 2:0.25 3:0.16666667 4:0.5 5:0.80000001 6:1 7:0.26666668 8:0 9:0.25 #
-2.581331294342376e-005 1:0.66666669 2:0 3:0.33333334 4:0.5 5:0.80000001 6:0.80000001 7:0.2 8:-0.25 9:0 #
-2.581331294342376e-005 1:0.66666669 2:0 3:0.16666667 4:0.5 5:1 6:1 7:0.25 8:0 9:0.25 #
5.1626625886847521e-005 1:0.66666669 2:0 3:0.33333334 4:0.5 5:0.80000001 6:0.80000001 7:0.2 8:-0.25 9:0 #
2.581331294342376e-005 1:0.33333334 2:0.25 3:0.16666667 4:0.33333334 5:0.80000001 6:1 7:0.40000001 8:0 9:0.5 #
-2.581331294342376e-005 1:0.33333334 2:0.25 3:0.33333334 4:0.33333334 5:0.40000001 6:0.5 7:0.2 8:-0.5 9:0 #
-2.581331294342376e-005 1:0.22222222 2:0.5 3:0.33333334 4:0.33333334 5:0.60000002 6:0.75 7:0.2 8:-0.25 9:0 #
2.581331294342376e-005 1:0.22222222 2:0.5 3:0.16666667 4:0.33333334 5:0.80000001 6:1 7:0.26666668 8:0 9:0.25 #
2.581331294342376e-005 1:0.11111111 2:0.75 3:0.33333334 4:0.33333334 5:0.40000001 6:0.5 7:0.2 8:-0.5 9:0 #
-2.581331294342376e-005 1:0.11111111 2:0.75 3:0.16666667 4:0.33333334 5:0.80000001 6:1 7:0.40000001 8:0 9:0.5 #
2.581331294342376e-005 1:0 2:1 3:0.16666667 4:0.33333334 5:0.80000001 6:1 7:0.2 8:0 9:0 #
-2.581331294342376e-005 1:0 2:1 3:0.16666667 4:0.33333334 5:0.80000001 6:1 7:0.2 8:0 9:0 #
-2.581331294342376e-005 1:0.77777779 2:0 3:0.33333334 4:0.5 5:0.80000001 6:0.80000001 7:0.2 8:-0.25 9:0 #
-2.581331294342376e-005 1:0.77777779 2:0 3:0.16666667 4:0.5 5:1 6:1 7:0.25 8:0 9:0.25 #
5.1626625886847521e-005 1:0.77777779 2:0 3:0.33333334 4:0.5 5:0.80000001 6:0.80000001 7:0.2 8:-0.25 9:0 #
2.581331294342376e-005 1:0.44444445 2:0.25 3:0.16666667 4:0.33333334 5:0.80000001 6:1 7:0.40000001 8:0 9:0.5 #
-2.581331294342376e-005 1:0.44444445 2:0.25 3:0.33333334 4:0.33333334 5:0.40000001 6:0.5 7:0.2 8:-0.5 9:0 #
-2.581331294342376e-005 1:0.33333334 2:0.5 3:0.33333334 4:0.33333334 5:0.60000002 6:0.75 7:0.2 8:-0.25 9:0 #
2.581331294342376e-005 1:0.33333334 2:0.5 3:0.16666667 4:0.33333334 5:0.80000001 6:1 7:0.26666668 8:0 9:0.25 #
2.581331294342376e-005 1:0.22222222 2:0.75 3:0.33333334 4:0.33333334 5:0.40000001 6:0.5 7:0.2 8:-0.5 9:0 #
-2.581331294342376e-005 1:0.22222222 2:0.75 3:0.16666667 4:0.33333334 5:0.80000001 6:1 7:0.40000001 8:0 9:0.5 #
-2.581331294342376e-005 1:0.11111111 2:1 3:0.16666667 4:0.33333334 5:0.80000001 6:1 7:0.2 8:0 9:0 #
2.581331294342376e-005 1:0.11111111 2:1 3:0.16666667 4:0.33333334 5:0.80000001 6:1 7:0.2 8:0 9:0 #
-2.581331294342376e-005 1:0.22222222 2:0 3:0.16666667 4:0.5 5:1 6:1 7:0.5 8:0 9:0.75 #
-2.581331294342376e-005 1:0.22222222 2:0 3:0.5 4:0.5 5:0.40000001 6:0.40000001 7:0.2 8:-0.75 9:0 #
5.1626625886847521e-005 1:0.22222222 2:0 3:0.33333334 4:0.5 5:0.60000002 6:0.60000002 7:0.30000001 8:-0.5 9:0.25 #
2.581331294342376e-005 1:0 2:0.75 3:0.16666667 4:0.5 5:1 6:1 7:0.33333331 8:0 9:0.5 #
-2.581331294342376e-005 1:0 2:0.75 3:0.33333334 4:0.5 5:0.80000001 6:0.80000001 7:0.26666668 8:-0.25 9:0.25 #
2.581331294342376e-005 1:0.22222222 2:0 3:0.33333334 4:0.33333334 5:0.60000002 6:0.60000002 7:0.2 8:-0.5 9:0 #
-2.581331294342376e-005 1:0.22222222 2:0 3:0.16666667 4:0.33333334 5:1 6:1 7:0.33333331 8:0 9:0.5 #
6.9407077022281793e-006 1:0 2:0.5 3:0.16666667 4:0.5 5:1 6:1 7:1 8:0 9:1 #
-6.9407077022281793e-006 1:0 2:0.5 3:0.33333334 4:0.5 5:0.80000001 6:0.80000001 7:0.80000001 8:-0.25 9:0.75 #
-2.581331294342376e-005 1:0.11111111 2:0.25 3:0.16666667 4:0.33333334 5:1 6:1 7:0.33333331 8:0 9:0.5 #
2.581331294342376e-005 1:0.11111111 2:0.25 3:0.33333334 4:0.33333334 5:0.60000002 6:0.60000002 7:0.2 8:-0.5 9:0 #
-2.581331294342376e-005 1:0 2:0.5 3:0.33333334 4:0.66666669 5:0.60000002 6:0.75 7:0.30000001 8:-0.25 9:0.25 #
-2.581331294342376e-005 1:0 2:0.5 3:0.16666667 4:0.66666669 5:0.80000001 6:1 7:0.40000001 8:0 9:0.5 #
-2.581331294342376e-005 1:0 2:0.5 3:0.66666669 4:0.66666669 5:0.40000001 6:0.5 7:0.2 8:-0.5 9:0 #
7.7439938830271284e-005 1:0 2:0.5 3:0.33333334 4:0.66666669 5:0.60000002 6:0.75 7:0.30000001 8:-0.25 9:0.25 #
2.581331294342376e-005 1:0 2:0.75 3:0.16666667 4:0.5 5:0.80000001 6:1 7:0.26666668 8:0 9:0.25 #
-2.581331294342376e-005 1:0 2:0.75 3:0.16666667 4:0.5 5:0.80000001 6:1 7:0.26666668 8:0 9:0.25 #
2.581331294342376e-005 1:0.22222222 2:0 3:0.16666667 4:0.33333334 5:0.80000001 6:1 7:0.40000001 8:0 9:0.5 #
-2.581331294342376e-005 1:0.22222222 2:0 3:0.33333334 4:0.33333334 5:0.40000001 6:0.5 7:0.2 8:-0.5 9:0 #
-2.581331294342376e-005 1:0.22222222 2:0.25 3:0.16666667 4:0.33333334 5:1 6:1 7:0.33333331 8:0 9:0.5 #
2.581331294342376e-005 1:0.22222222 2:0.25 3:0.33333334 4:0.33333334 5:0.60000002 6:0.60000002 7:0.2 8:-0.5 9:0 #
7.7439938830271284e-005 1:0.11111111 2:0.5 3:0.33333334 4:0.66666669 5:0.60000002 6:0.75 7:0.30000001 8:-0.25 9:0.25 #
-2.581331294342376e-005 1:0.11111111 2:0.5 3:0.16666667 4:0.66666669 5:0.80000001 6:1 7:0.40000001 8:0 9:0.5 #
-2.581331294342376e-005 1:0.11111111 2:0.5 3:0.66666669 4:0.66666669 5:0.40000001 6:0.5 7:0.2 8:-0.5 9:0 #
-2.581331294342376e-005 1:0.11111111 2:0.5 3:0.33333334 4:0.66666669 5:0.60000002 6:0.75 7:0.30000001 8:-0.25 9:0.25 #
-5.889786184944433e-006 1:0 2:1 3:0.33333334 4:0.33333334 5:0.80000001 6:0.80000001 7:0.2 8:-0.25 9:0 #
5.889786184944433e-006 1:0 2:1 3:0.16666667 4:0.33333334 5:1 6:1 7:0.25 8:0 9:0.25 #
2.581331294342376e-005 1:0.33333334 2:0 3:0.33333334 4:0.33333334 5:0.60000002 6:0.60000002 7:0.2 8:-0.5 9:0 #
-2.581331294342376e-005 1:0.33333334 2:0 3:0.16666667 4:0.33333334 5:1 6:1 7:0.33333331 8:0 9:0.5 #
-2.581331294342376e-005 1:0.11111111 2:0.5 3:0.16666667 4:0.5 5:1 6:1 7:1 8:0 9:1 #
5.1626625886847521e-005 1:0.11111111 2:0.5 3:0.33333334 4:0.5 5:0.80000001 6:0.80000001 7:0.80000001 8:-0.25 9:0.75 #
-2.581331294342376e-005 1:0.11111111 2:0.5 3:0.5 4:0.5 5:0.2 6:0.2 7:0.2 8:-1 9:0 #
2.581331294342376e-005 1:0 2:0.25 3:0.16666667 4:0.33333334 5:0.80000001 6:1 7:0.26666668 8:0 9:0.25 #
-2.581331294342376e-005 1:0 2:0.25 3:0.33333334 4:0.33333334 5:0.60000002 6:0.75 7:0.2 8:-0.25 9:0 #
2.581331294342376e-005 1:0 2:0.25 3:0.16666667 4:0.33333334 5:0.80000001 6:1 7:0.2 8:0 9:0 #
-2.581331294342376e-005 1:0 2:0.25 3:0.16666667 4:0.33333334 5:0.80000001 6:1 7:0.2 8:0 9:0 #
-2.581331294342376e-005 1:0.11111111 2:0 3:0.33333334 4:0.5 5:0.60000002 6:0.75 7:0.2 8:-0.25 9:0 #
5.1626625886847521e-005 1:0.11111111 2:0 3:0.33333334 4:0.5 5:0.60000002 6:0.75 7:0.2 8:-0.25 9:0 #
-2.581331294342376e-005 1:0.11111111 2:0 3:0.16666667 4:0.5 5:0.80000001 6:1 7:0.26666668 8:0 9:0.25 #
2.581331294342376e-005 1:0 2:0.25 3:0.16666667 4:0.33333334 5:0.80000001 6:1 7:0.2 8:0 9:0 #
-2.581331294342376e-005 1:0 2:0.25 3:0.16666667 4:0.33333334 5:0.80000001 6:1 7:0.2 8:0 9:0 #
2.581331294342376e-005 1:0 2:0 3:0.16666667 4:0.33333334 5:0.80000001 6:1 7:0.26666668 8:0 9:0.25 #
-2.581331294342376e-005 1:0 2:0 3:0.33333334 4:0.33333334 5:0.60000002 6:0.75 7:0.2 8:-0.25 9:0 #
-2.581331294342376e-005 1:0 2:0.5 3:0.16666667 4:0.5 5:0.80000001 6:1 7:0.40000001 8:0 9:0.5 #
2.581331294342376e-005 1:0 2:0.5 3:0.16666667 4:0.5 5:0.80000001 6:1 7:0.40000001 8:0 9:0.5 #
-2.581331294342376e-005 1:0.11111111 2:0 3:0.16666667 4:0.5 5:0.80000001 6:1 7:0.40000001 8:0 9:0.5 #
-2.581331294342376e-005 1:0.11111111 2:0 3:0.33333334 4:0.5 5:0.40000001 6:0.5 7:0.2 8:-0.5 9:0 #
5.1626625886847521e-005 1:0.11111111 2:0 3:0.33333334 4:0.5 5:0.40000001 6:0.5 7:0.2 8:-0.5 9:0 #
2.581331294342376e-005 1:0 2:1 3:0.16666667 4:0.33333334 5:0.80000001 6:1 7:0.2 8:0 9:0 #
-2.581331294342376e-005 1:0 2:1 3:0.16666667 4:0.33333334 5:0.80000001 6:1 7:0.2 8:0 9:0 #
-2.581331294342376e-005 1:0.22222222 2:0 3:0.33333334 4:0.5 5:0.60000002 6:0.75 7:0.2 8:-0.25 9:0 #
-2.581331294342376e-005 1:0.22222222 2:0 3:0.33333334 4:0.5 5:0.60000002 6:0.75 7:0.2 8:-0.25 9:0 #
5.1626625886847521e-005 1:0.22222222 2:0 3:0.16666667 4:0.5 5:0.80000001 6:1 7:0.26666668 8:0 9:0.25 #
-2.581331294342376e-005 1:0.11111111 2:0.25 3:0.16666667 4:0.33333334 5:0.80000001 6:1 7:0.2 8:0 9:0 #
2.581331294342376e-005 1:0.11111111 2:0.25 3:0.16666667 4:0.33333334 5:0.80000001 6:1 7:0.2 8:0 9:0 #
-2.581331294342376e-005 1:0 2:0.5 3:0.16666667 4:0.5 5:0.80000001 6:1 7:0.26666668 8:0 9:0.25 #
2.581331294342376e-005 1:0 2:0.5 3:0.16666667 4:0.5 5:0.80000001 6:1 7:0.26666668 8:0 9:0.25 #
-2.581331294342376e-005 1:0.11111111 2:0 3:0.16666667 4:0.33333334 5:0.80000001 6:1 7:0.26666668 8:0 9:0.25 #
2.581331294342376e-005 1:0.11111111 2:0 3:0.33333334 4:0.33333334 5:0.60000002 6:0.75 7:0.2 8:-0.25 9:0 #
-2.581331294342376e-005 1:0 2:0.25 3:0.16666667 4:1 5:0.80000001 6:1 7:0.26666668 8:0 9:0.25 #
2.581331294342376e-005 1:0 2:0.25 3:0.16666667 4:1 5:0.80000001 6:1 7:0.26666668 8:0 9:0.25 #
2.581331294342376e-005 1:0 2:0.5 3:0.16666667 4:0.33333334 5:0.60000002 6:1 7:0.2 8:0 9:0 #
-2.581331294342376e-005 1:0 2:0.5 3:0.16666667 4:0.33333334 5:0.60000002 6:1 7:0.2 8:0 9:0 #
-2.581331294342376e-005 1:0.22222222 2:0 3:0.16666667 4:0.5 5:0.80000001 6:1 7:0.40000001 8:0 9:0.5 #
5.1626625886847521e-005 1:0.22222222 2:0 3:0.33333334 4:0.5 5:0.40000001 6:0.5 7:0.2 8:-0.5 9:0 #
-2.581331294342376e-005 1:0.22222222 2:0 3:0.33333334 4:0.5 5:0.40000001 6:0.5 7:0.2 8:-0.5 9:0 #
5.1626625886847521e-005 1:0.33333334 2:0 3:0.16666667 4:0.5 5:0.80000001 6:1 7:0.40000001 8:0 9:0.5 #
-2.581331294342376e-005 1:0.33333334 2:0 3:0.33333334 4:0.5 5:0.40000001 6:0.5 7:0.2 8:-0.5 9:0 #
-2.581331294342376e-005 1:0.33333334 2:0 3:0.33333334 4:0.5 5:0.40000001 6:0.5 7:0.2 8:-0.5 9:0 #
-2.581331294342376e-005 1:0.11111111 2:0.25 3:0.5 4:0.5 5:0.40000001 6:0.40000001 7:0.2 8:-0.75 9:0 #
5.1626625886847521e-005 1:0.11111111 2:0.25 3:0.33333334 4:0.5 5:0.60000002 6:0.60000002 7:0.30000001 8:-0.5 9:0.25 #
-2.581331294342376e-005 1:0.11111111 2:0.25 3:0.16666667 4:0.5 5:1 6:1 7:0.5 8:0 9:0.75 #
2.581331294342376e-005 1:0 2:0.75 3:0.16666667 4:0.33333334 5:0.60000002 6:1 7:0.2 8:0 9:0 #
-2.581331294342376e-005 1:0 2:0.75 3:0.16666667 4:0.33333334 5:0.60000002 6:1 7:0.2 8:0 9:0 #
-2.581331294342376e-005 1:0.33333334 2:0 3:0.33333334 4:0.5 5:0.60000002 6:0.75 7:0.2 8:-0.25 9:0 #
-2.581331294342376e-005 1:0.33333334 2:0 3:0.33333334 4:0.5 5:0.60000002 6:0.75 7:0.2 8:-0.25 9:0 #
5.1626625886847521e-005 1:0.33333334 2:0 3:0.16666667 4:0.5 5:0.80000001 6:1 7:0.26666668 8:0 9:0.25 #
2.581331294342376e-005 1:0.22222222 2:0.25 3:0.16666667 4:0.33333334 5:0.80000001 6:1 7:0.2 8:0 9:0 #
-2.581331294342376e-005 1:0.22222222 2:0.25 3:0.16666667 4:0.33333334 5:0.80000001 6:1 7:0.2 8:0 9:0 #
-2.581331294342376e-005 1:0.11111111 2:0.5 3:0.16666667 4:0.33333334 5:1 6:1 7:0.25 8:0 9:0.25 #
2.581331294342376e-005 1:0.11111111 2:0.5 3:0.33333334 4:0.33333334 5:0.80000001 6:0.80000001 7:0.2 8:-0.25 9:0 #
-2.581331294342376e-005 1:0.44444445 2:0 3:0.33333334 4:0.5 5:0.60000002 6:0.75 7:0.2 8:-0.25 9:0 #
-2.581331294342376e-005 1:0.44444445 2:0 3:0.33333334 4:0.5 5:0.60000002 6:0.75 7:0.2 8:-0.25 9:0 #
5.1626625886847521e-005 1:0.44444445 2:0 3:0.16666667 4:0.5 5:0.80000001 6:1 7:0.26666668 8:0 9:0.25 #
2.581331294342376e-005 1:0.33333334 2:0.25 3:0.16666667 4:0.33333334 5:0.80000001 6:1 7:0.2 8:0 9:0 #
-2.581331294342376e-005 1:0.33333334 2:0.25 3:0.16666667 4:0.33333334 5:0.80000001 6:1 7:0.2 8:0 9:0 #
-2.581331294342376e-005 1:0.22222222 2:0.5 3:0.16666667 4:0.33333334 5:1 6:1 7:0.25 8:0 9:0.25 #
2.581331294342376e-005 1:0.22222222 2:0.5 3:0.33333334 4:0.33333334 5:0.80000001 6:0.80000001 7:0.2 8:-0.25 9:0 #
2.581331294342376e-005 1:0.11111111 2:0.75 3:0.33333334 4:0.33333334 5:0.40000001 6:0.40000001 7:0.2 8:-0.75 9:0 #
-2.581331294342376e-005 1:0.11111111 2:0.75 3:0.16666667 4:0.33333334 5:1 6:1 7:0.5 8:0 9:0.75 #
1.2737487610395231e-006 1:0 2:1 3:0.16666667 4:0.33333334 5:0.60000002 6:1 7:0.30000001 8:0 9:0.25 #
-1.2737487610395231e-006 1:0 2:1 3:0.33333334 4:0.33333334 5:0.40000001 6:0.66666669 7:0.2 8:-0.25 9:0 #
5.1626625886847521e-005 1:0.44444445 2:0 3:0.16666667 4:0.5 5:0.80000001 6:1 7:0.40000001 8:0 9:0.5 #
-2.581331294342376e-005 1:0.44444445 2:0 3:0.33333334 4:0.5 5:0.40000001 6:0.5 7:0.2 8:-0.5 9:0 #
-2.581331294342376e-005 1:0.44444445 2:0 3:0.33333334 4:0.5 5:0.40000001 6:0.5 7:0.2 8:-0.5 9:0 #
-2.581331294342376e-005 1:0.22222222 2:0.25 3:0.5 4:0.5 5:0.40000001 6:0.40000001 7:0.2 8:-0.75 9:0 #
5.1626625886847521e-005 1:0.22222222 2:0.25 3:0.33333334 4:0.5 5:0.60000002 6:0.60000002 7:0.30000001 8:-0.5 9:0.25 #
-2.581331294342376e-005 1:0.22222222 2:0.25 3:0.16666667 4:0.5 5:1 6:1 7:0.5 8:0 9:0.75 #
-2.581331294342376e-005 1:0.11111111 2:0.75 3:0.16666667 4:0.33333334 5:0.60000002 6:1 7:0.2 8:0 9:0 #
2.581331294342376e-005 1:0.11111111 2:0.75 3:0.16666667 4:0.33333334 5:0.60000002 6:1 7:0.2 8:0 9:0 #
-2.581331294342376e-005 1:0.55555558 2:0 3:0.33333334 4:0.5 5:0.60000002 6:0.75 7:0.2 8:-0.25 9:0 #
-2.581331294342376e-005 1:0.55555558 2:0 3:0.33333334 4:0.5 5:0.60000002 6:0.75 7:0.2 8:-0.25 9:0 #
5.1626625886847521e-005 1:0.55555558 2:0 3:0.16666667 4:0.5 5:0.80000001 6:1 7:0.26666668 8:0 9:0.25 #
2.581331294342376e-005 1:0.44444445 2:0.25 3:0.16666667 4:0.33333334 5:0.80000001 6:1 7:0.2 8:0 9:0 #
-2.581331294342376e-005 1:0.44444445 2:0.25 3:0.16666667 4:0.33333334 5:0.80000001 6:1 7:0.2 8:0 9:0 #
2.581331294342376e-005 1:0.33333334 2:0.5 3:0.16666667 4:0.33333334 5:1 6:1 7:0.25 8:0 9:0.25 #
-2.581331294342376e-005 1:0.33333334 2:0.5 3:0.33333334 4:0.33333334 5:0.80000001 6:0.80000001 7:0.2 8:-0.25 9:0 #
5.1626625886847521e-005 1:0.55555558 2:0 3:0.16666667 4:0.5 5:0.80000001 6:1 7:0.40000001 8:0 9:0.5 #
-2.581331294342376e-005 1:0.55555558 2:0 3:0.33333334 4:0.5 5:0.40000001 6:0.5 7:0.2 8:-0.5 9:0 #
-2.581331294342376e-005 1:0.55555558 2:0 3:0.33333334 4:0.5 5:0.40000001 6:0.5 7:0.2 8:-0.5 9:0 #
-2.581331294342376e-005 1:0.33333334 2:0.25 3:0.5 4:0.5 5:0.40000001 6:0.40000001 7:0.2 8:-0.75 9:0 #
5.1626625886847521e-005 1:0.33333334 2:0.25 3:0.33333334 4:0.5 5:0.60000002 6:0.60000002 7:0.30000001 8:-0.5 9:0.25 #
-2.581331294342376e-005 1:0.33333334 2:0.25 3:0.16666667 4:0.5 5:1 6:1 7:0.5 8:0 9:0.75 #
2.581331294342376e-005 1:0.22222222 2:0.75 3:0.16666667 4:0.33333334 5:0.60000002 6:1 7:0.2 8:0 9:0 #
-2.581331294342376e-005 1:0.22222222 2:0.75 3:0.16666667 4:0.33333334 5:0.60000002 6:1 7:0.2 8:0 9:0 #
-2.581331294342376e-005 1:0.11111111 2:1 3:0.16666667 4:0.33333334 5:0.80000001 6:1 7:0.26666668 8:0 9:0.25 #
2.581331294342376e-005 1:0.11111111 2:1 3:0.33333334 4:0.33333334 5:0.60000002 6:0.75 7:0.2 8:-0.25 9:0 #
-2.581331294342376e-005 1:0 2:0 3:0.33333334 4:0.33333334 5:0.60000002 6:0.75 7:0.2 8:-0.25 9:0 #
2.581331294342376e-005 1:0 2:0 3:0.16666667 4:0.33333334 5:0.80000001 6:1 7:0.26666668 8:0 9:0.25 #
-2.581331294342376e-005 1:0.22222222 2:0 3:0.16666667 4:0.33333334 5:0.80000001 6:1 7:0.26666668 8:0 9:0.25 #
2.581331294342376e-005 1:0.22222222 2:0 3:0.33333334 4:0.33333334 5:0.60000002 6:0.75 7:0.2 8:-0.25 9:0 #
-2.581331294342376e-005 1:0.11111111 2:0.25 3:0.5 4:1 5:0.60000002 6:0.75 7:0.2 8:-0.25 9:0 #
-2.581331294342376e-005 1:0.11111111 2:0.25 3:0.5 4:1 5:0.60000002 6:0.75 7:0.2 8:-0.25 9:0 #
0.0001290665647171188 1:0.11111111 2:0.25 3:0.16666667 4:1 5:0.80000001 6:1 7:0.26666668 8:0 9:0.25 #
-2.581331294342376e-005 1:0.11111111 2:0.25 3:0.16666667 4:1 5:0.80000001 6:1 7:0.26666668 8:0 9:0.25 #
-2.581331294342376e-005 1:0.11111111 2:0.25 3:0.5 4:1 5:0.60000002 6:0.75 7:0.2 8:-0.25 9:0 #
-2.581331294342376e-005 1:0.11111111 2:0.25 3:0.5 4:1 5:0.60000002 6:0.75 7:0.2 8:-0.25 9:0 #
2.581331294342376e-005 1:0 2:1 3:0.16666667 4:0.83333331 5:0.80000001 6:1 7:0.80000001 8:0 9:0.75 #
-2.581331294342376e-005 1:0 2:1 3:0.16666667 4:0.83333331 5:0.80000001 6:1 7:0.80000001 8:0 9:0.75 #
-2.581331294342376e-005 1:0.11111111 2:0 3:0.33333334 4:0.33333334 5:0.60000002 6:0.75 7:0.2 8:-0.25 9:0 #
2.581331294342376e-005 1:0.11111111 2:0 3:0.16666667 4:0.33333334 5:0.80000001 6:1 7:0.26666668 8:0 9:0.25 #
-2.581331294342376e-005 1:0.11111111 2:0.25 3:0.16666667 4:0.33333334 5:0.80000001 6:1 7:0.80000001 8:0 9:0.75 #
2.581331294342376e-005 1:0.11111111 2:0.25 3:0.33333334 4:0.33333334 5:0.2 6:0.25 7:0.2 8:-0.75 9:0 #
-2.581331294342376e-005 1:0.66666669 2:0 3:0.33333334 4:0.5 5:0.60000002 6:0.75 7:0.2 8:-0.25 9:0 #
-2.581331294342376e-005 1:0.66666669 2:0 3:0.33333334 4:0.5 5:0.60000002 6:0.75 7:0.2 8:-0.25 9:0 #
5.1626625886847521e-005 1:0.66666669 2:0 3:0.16666667 4:0.5 5:0.80000001 6:1 7:0.26666668 8:0 9:0.25 #
-2.581331294342376e-005 1:0.55555558 2:0.25 3:0.16666667 4:0.33333334 5:0.80000001 6:1 7:0.2 8:0 9:0 #
2.581331294342376e-005 1:0.55555558 2:0.25 3:0.16666667 4:0.33333334 5:0.80000001 6:1 7:0.2 8:0 9:0 #
5.1626625886847521e-005 1:0.11111111 2:0.5 3:0.16666667 4:0.5 5:0.80000001 6:1 7:0.26666668 8:0 9:0.25 #
-2.581331294342376e-005 1:0.11111111 2:0.5 3:0.5 4:0.5 5:0.60000002 6:0.75 7:0.2 8:-0.25 9:0 #
-2.581331294342376e-005 1:0.11111111 2:0.5 3:0.16666667 4:0.5 5:0.80000001 6:1 7:0.26666668 8:0 9:0.25 #
-2.581331294342376e-005 1:0.33333334 2:0 3:0.16666667 4:0.33333334 5:0.80000001 6:1 7:0.26666668 8:0 9:0.25 #
2.581331294342376e-005 1:0.33333334 2:0 3:0.33333334 4:0.33333334 5:0.60000002 6:0.75 7:0.2 8:-0.25 9:0 #
0.0001290665647171188 1:0.22222222 2:0.25 3:0.5 4:1 5:0.60000002 6:0.75 7:0.2 8:-0.25 9:0 #
-2.581331294342376e-005 1:0.22222222 2:0.25 3:0.5 4:1 5:0.60000002 6:0.75 7:0.2 8:-0.25 9:0 #
-2.581331294342376e-005 1:0.22222222 2:0.25 3:0.16666667 4:1 5:0.80000001 6:1 7:0.26666668 8:0 9:0.25 #
-2.581331294342376e-005 1:0.22222222 2:0.25 3:0.16666667 4:1 5:0.80000001 6:1 7:0.26666668 8:0 9:0.25 #
-2.581331294342376e-005 1:0.22222222 2:0.25 3:0.5 4:1 5:0.60000002 6:0.75 7:0.2 8:-0.25 9:0 #
-2.581331294342376e-005 1:0.22222222 2:0.25 3:0.5 4:1 5:0.60000002 6:0.75 7:0.2 8:-0.25 9:0 #
-2.581331294342376e-005 1:0 2:0.5 3:0.16666667 4:0.33333334 5:0.60000002 6:1 7:0.2 8:0 9:0 #
2.581331294342376e-005 1:0 2:0.5 3:0.16666667 4:0.33333334 5:0.60000002 6:1 7:0.2 8:0 9:0 #
-2.581331294342376e-005 1:0 2:0 3:0.33333334 4:0.33333334 5:0.60000002 6:0.75 7:0.2 8:-0.25 9:0 #
2.581331294342376e-005 1:0 2:0 3:0.16666667 4:0.33333334 5:0.80000001 6:1 7:0.26666668 8:0 9:0.25 #
2.581331294342376e-005 1:0 2:0.25 3:0.16666667 4:1 5:0.80000001 6:1 7:0.80000001 8:0 9:0.75 #
-2.581331294342376e-005 1:0 2:0.25 3:0.16666667 4:1 5:0.80000001 6:1 7:0.80000001 8:0 9:0.75 #
-2.581331294342376e-005 1:0 2:0.5 3:0.33333334 4:0.33333334 5:0.60000002 6:0.75 7:0.2 8:-0.25 9:0 #
2.581331294342376e-005 1:0 2:0.5 3:0.16666667 4:0.33333334 5:0.80000001 6:1 7:0.26666668 8:0 9:0.25 #
2.581331294342376e-005 1:0 2:0 3:0.16666667 4:0.5 5:0.80000001 6:1 7:0.40000001 8:0 9:0.5 #
-2.581331294342376e-005 1:0 2:0 3:0.16666667 4:0.5 5:0.80000001 6:1 7:0.40000001 8:0 9:0.5 #
-2.581331294342376e-005 1:0 2:0.25 3:0.16666667 4:0.5 5:0.80000001 6:1 7:0.2 8:0 9:0 #
-2.581331294342376e-005 1:0 2:0.25 3:0.16666667 4:0.5 5:0.80000001 6:1 7:0.2 8:0 9:0 #
5.1626625886847521e-005 1:0 2:0.25 3:0.16666667 4:0.5 5:0.80000001 6:1 7:0.2 8:0 9:0 #
-2.581331294342376e-005 1:0 2:0.5 3:0.16666667 4:0.5 5:0.80000001 6:1 7:0.80000001 8:0 9:0.75 #
2.581331294342376e-005 1:0 2:0.5 3:0.16666667 4:0.5 5:0.80000001 6:1 7:0.80000001 8:0 9:0.75 #
2.581331294342376e-005 1:0 2:1 3:0.16666667 4:0.33333334 5:1 6:1 7:0.2 8:0 9:0 #
-2.581331294342376e-005 1:0 2:1 3:0.16666667 4:0.33333334 5:1 6:1 7:0.2 8:0 9:0 #
2.581331294342376e-005 1:0 2:0 3:0.16666667 4:0.33333334 5:0.80000001 6:1 7:0.2 8:0 9:0 #
-2.581331294342376e-005 1:0 2:0 3:0.16666667 4:0.33333334 5:0.80000001 6:1 7:0.2 8:0 9:0 #
2.581331294342376e-005 1:0 2:0.25 3:0.16666667 4:0.33333334 5:0.80000001 6:1 7:0.2 8:0 9:0 #
-2.581331294342376e-005 1:0 2:0.25 3:0.16666667 4:0.33333334 5:0.80000001 6:1 7:0.2 8:0 9:0 #
-2.581331294342376e-005 1:0 2:0.5 3:0.16666667 4:0.33333334 5:1 6:1 7:0.2 8:0 9:0 #
2.581331294342376e-005 1:0 2:0.5 3:0.16666667 4:0.33333334 5:1 6:1 7:0.2 8:0 9:0 #
2.581331294342376e-005 1:0 2:0.75 3:0.16666667 4:0.5 5:1 6:1 7:1 8:0 9:1 #
-2.581331294342376e-005 1:0 2:0.75 3:0.16666667 4:0.5 5:1 6:1 7:1 8:0 9:1 #
-2.581331294342376e-005 1:0 2:1 3:0.16666667 4:0.5 5:1 6:1 7:1 8:0 9:1 #
2.581331294342376e-005 1:0 2:1 3:0.16666667 4:0.5 5:1 6:1 7:1 8:0 9:1 #
-2.581331294342376e-005 1:0.11111111 2:0 3:0.16666667 4:0.5 5:0.80000001 6:1 7:0.40000001 8:0 9:0.5 #
2.581331294342376e-005 1:0.11111111 2:0 3:0.16666667 4:0.5 5:0.80000001 6:1 7:0.40000001 8:0 9:0.5 #
-2.581331294342376e-005 1:0 2:0.5 3:0.16666667 4:0.5 5:1 6:1 7:1 8:0 9:1 #
2.581331294342376e-005 1:0 2:0.5 3:0.16666667 4:0.5 5:1 6:1 7:1 8:0 9:1 #
-2.581331294342376e-005 1:0 2:1 3:0.16666667 4:0.33333334 5:1 6:1 7:0.2 8:0 9:0 #
2.581331294342376e-005 1:0 2:1 3:0.16666667 4:0.33333334 5:1 6:1 7:0.2 8:0 9:0 #
-2.581331294342376e-005 1:0.22222222 2:0 3:0.16666667 4:0.5 5:0.80000001 6:1 7:0.40000001 8:0 9:0.5 #
2.581331294342376e-005 1:0.22222222 2:0 3:0.16666667 4:0.5 5:0.80000001 6:1 7:0.40000001 8:0 9:0.5 #
5.1626625886847521e-005 1:0.11111111 2:0.5 3:0.16666667 4:0.5 5:1 6:1 7:1 8:0 9:1 #
-2.581331294342376e-005 1:0.11111111 2:0.5 3:0.5 4:0.5 5:0.2 6:0.2 7:0.2 8:-1 9:0 #
-2.581331294342376e-005 1:0.11111111 2:0.5 3:0.16666667 4:0.5 5:1 6:1 7:1 8:0 9:1 #
5.1626625886847521e-005 1:0.33333334 2:0 3:0.16666667 4:0.5 5:0.80000001 6:1 7:0.40000001 8:0 9:0.5 #
-2.581331294342376e-005 1:0.33333334 2:0 3:0.5 4:0.5 5:0.40000001 6:0.5 7:0.2 8:-0.5 9:0 #
-2.581331294342376e-005 1:0.33333334 2:0 3:0.16666667 4:0.5 5:0.80000001 6:1 7:0.40000001 8:0 9:0.5 #
-2.581331294342376e-005 1:0.11111111 2:0.25 3:0.16666667 4:0.5 5:0.80000001 6:1 7:0.2 8:0 9:0 #
5.1626625886847521e-005 1:0.11111111 2:0.25 3:0.16666667 4:0.5 5:0.80000001 6:1 7:0.2 8:0 9:0 #
-2.581331294342376e-005 1:0.11111111 2:0.25 3:0.16666667 4:0.5 5:0.80000001 6:1 7:0.2 8:0 9:0 #
2.581331294342376e-005 1:0 2:0.75 3:0.16666667 4:0.33333334 5:0.80000001 6:1 7:0.2 8:0 9:0 #
-2.581331294342376e-005 1:0 2:0.75 3:0.16666667 4:0.33333334 5:0.80000001 6:1 7:0.2 8:0 9:0 #
2.581331294342376e-005 1:0 2:1 3:0.16666667 4:0.33333334 5:1 6:1 7:0.2 8:0 9:0 #
-2.581331294342376e-005 1:0 2:1 3:0.16666667 4:0.33333334 5:1 6:1 7:0.2 8:0 9:0 #
5.1626625886847521e-005 1:0.44444445 2:0 3:0.16666667 4:0.5 5:0.80000001 6:1 7:0.40000001 8:0 9:0.5 #
-2.581331294342376e-005 1:0.44444445 2:0 3:0.5 4:0.5 5:0.40000001 6:0.5 7:0.2 8:-0.5 9:0 #
-2.581331294342376e-005 1:0.44444445 2:0 3:0.16666667 4:0.5 5:0.80000001 6:1 7:0.40000001 8:0 9:0.5 #
5.1626625886847521e-005 1:0.22222222 2:0.25 3:0.16666667 4:0.5 5:0.80000001 6:1 7:0.2 8:0 9:0 #
-2.581331294342376e-005 1:0.22222222 2:0.25 3:0.16666667 4:0.5 5:0.80000001 6:1 7:0.2 8:0 9:0 #
-2.581331294342376e-005 1:0.22222222 2:0.25 3:0.16666667 4:0.5 5:0.80000001 6:1 7:0.2 8:0 9:0 #
-2.581331294342376e-005 1:0 2:0.5 3:0.16666667 4:0.33333334 5:1 6:1 7:0.2 8:0 9:0 #
2.581331294342376e-005 1:0 2:0.5 3:0.16666667 4:0.33333334 5:1 6:1 7:0.2 8:0 9:0 #
-2.581331294342376e-005 1:0 2:1 3:0.16666667 4:0.66666669 5:1 6:1 7:1 8:0 9:1 #
2.581331294342376e-005 1:0 2:1 3:0.16666667 4:0.66666669 5:1 6:1 7:1 8:0 9:1 #
2.581331294342376e-005 1:0 2:0 3:0.16666667 4:0.33333334 5:1 6:1 7:0.2 8:0 9:0 #
-2.581331294342376e-005 1:0 2:0 3:0.16666667 4:0.33333334 5:1 6:1 7:0.2 8:0 9:0 #
-2.581331294342376e-005 1:0 2:0 3:0.16666667 4:0.5 5:1 6:1 7:0.25 8:0 9:0.25 #
2.581331294342376e-005 1:0 2:0 3:0.16666667 4:0.5 5:1 6:1 7:0.25 8:0 9:0.25 #
2.581331294342376e-005 1:0 2:0.25 3:0.16666667 4:0.33333334 5:1 6:1 7:0.2 8:0 9:0 #
-2.581331294342376e-005 1:0 2:0.25 3:0.16666667 4:0.33333334 5:1 6:1 7:0.2 8:0 9:0 #
2.581331294342376e-005 1:0 2:0.5 3:0.16666667 4:0.33333334 5:1 6:1 7:0.2 8:0 9:0 #
-2.581331294342376e-005 1:0 2:0.5 3:0.16666667 4:0.33333334 5:1 6:1 7:0.2 8:0 9:0 #
-2.581331294342376e-005 1:0.11111111 2:0 3:0.16666667 4:0.33333334 5:0.80000001 6:1 7:0.2 8:0 9:0 #
2.581331294342376e-005 1:0.11111111 2:0 3:0.16666667 4:0.33333334 5:0.80000001 6:1 7:0.2 8:0 9:0 #
-2.581331294342376e-005 1:0 2:0.25 3:0.16666667 4:0.33333334 5:1 6:1 7:0.2 8:0 9:0 #
2.581331294342376e-005 1:0 2:0.25 3:0.16666667 4:0.33333334 5:1 6:1 7:0.2 8:0 9:0 #
-2.581331294342376e-005 1:0 2:1 3:0.16666667 4:0.33333334 5:1 6:1 7:0.2 8:0 9:0 #
2.581331294342376e-005 1:0 2:1 3:0.16666667 4:0.33333334 5:1 6:1 7:0.2 8:0 9:0 #
-2.581331294342376e-005 1:0.22222222 2:0 3:0.16666667 4:0.33333334 5:0.80000001 6:1 7:0.2 8:0 9:0 #
2.581331294342376e-005 1:0.22222222 2:0 3:0.16666667 4:0.33333334 5:0.80000001 6:1 7:0.2 8:0 9:0 #
-2.581331294342376e-005 1:0.11111111 2:0.25 3:0.16666667 4:0.33333334 5:1 6:1 7:0.2 8:0 9:0 #
2.581331294342376e-005 1:0.11111111 2:0.25 3:0.16666667 4:0.33333334 5:1 6:1 7:0.2 8:0 9:0 #
2.581331294342376e-005 1:0.11111111 2:1 3:0.16666667 4:0.33333334 5:1 6:1 7:0.2 8:0 9:0 #
-2.581331294342376e-005 1:0.11111111 2:1 3:0.16666667 4:0.33333334 5:1 6:1 7:0.2 8:0 9:0 #
2.581331294342376e-005 1:0.11111111 2:0 3:0.33333334 4:0.33333334 5:0.60000002 6:0.75 7:0.2 8:-0.25 9:0 #
-2.581331294342376e-005 1:0.11111111 2:0 3:0.16666667 4:0.33333334 5:0.80000001 6:1 7:0.26666668 8:0 9:0.25 #
-2.581331294342376e-005 1:0 2:0.5 3:0.16666667 4:0.5 5:1 6:1 7:1 8:0 9:1 #
2.581331294342376e-005 1:0 2:0.5 3:0.16666667 4:0.5 5:1 6:1 7:1 8:0 9:1 #
-2.581331294342376e-005 1:0.55555558 2:0 3:0.16666667 4:0.5 5:0.80000001 6:1 7:0.40000001 8:0 9:0.5 #
5.1626625886847521e-005 1:0.55555558 2:0 3:0.5 4:0.5 5:0.40000001 6:0.5 7:0.2 8:-0.5 9:0 #
-2.581331294342376e-005 1:0.55555558 2:0 3:0.16666667 4:0.5 5:0.80000001 6:1 7:0.40000001 8:0 9:0.5 #
5.1167979486704845e-005 1:0.66666669 2:0 3:0.16666667 4:0.5 5:0.80000001 6:1 7:0.40000001 8:0 9:0.5 #
-2.5354666543281084e-005 1:0.66666669 2:0 3:0.5 4:0.5 5:0.40000001 6:0.5 7:0.2 8:-0.5 9:0 #
-2.581331294342376e-005 1:0.66666669 2:0 3:0.16666667 4:0.5 5:0.80000001 6:1 7:0.40000001 8:0 9:0.5 #
-2.581331294342376e-005 1:0.33333334 2:0.25 3:0.16666667 4:0.5 5:0.80000001 6:1 7:0.2 8:0 9:0 #
-2.581331294342376e-005 1:0.33333334 2:0.25 3:0.16666667 4:0.5 5:0.80000001 6:1 7:0.2 8:0 9:0 #
5.1626625886847521e-005 1:0.33333334 2:0.25 3:0.16666667 4:0.5 5:0.80000001 6:1 7:0.2 8:0 9:0 #
5.1626625886847521e-005 1:0.11111111 2:0.5 3:0.16666667 4:0.5 5:0.80000001 6:1 7:0.80000001 8:0 9:0.75 #
-2.581331294342376e-005 1:0.11111111 2:0.5 3:0.5 4:0.5 5:0.2 6:0.25 7:0.2 8:-0.75 9:0 #
-2.581331294342376e-005 1:0.11111111 2:0.5 3:0.16666667 4:0.5 5:0.80000001 6:1 7:0.80000001 8:0 9:0.75 #
2.581331294342376e-005 1:0 2:0.75 3:0.16666667 4:0.33333334 5:1 6:1 7:0.2 8:0 9:0 #
-2.581331294342376e-005 1:0 2:0.75 3:0.16666667 4:0.33333334 5:1 6:1 7:0.2 8:0 9:0 #
2.581331294342376e-005 1:0 2:1 3:0.16666667 4:0.33333334 5:1 6:1 7:0.2 8:0 9:0 #
-2.581331294342376e-005 1:0 2:1 3:0.16666667 4:0.33333334 5:1 6:1 7:0.2 8:0 9:0 #
2.581331294342376e-005 1:0.77777779 2:0 3:0.16666667 4:0.5 5:0.80000001 6:1 7:0.40000001 8:0 9:0.5 #
-2.581331294342376e-005 1:0.77777779 2:0 3:0.16666667 4:0.5 5:0.80000001 6:1 7:0.40000001 8:0 9:0.5 #
-2.581331294342376e-005 1:0.44444445 2:0.25 3:0.16666667 4:0.5 5:0.80000001 6:1 7:0.2 8:0 9:0 #
-2.581331294342376e-005 1:0.44444445 2:0.25 3:0.16666667 4:0.5 5:0.80000001 6:1 7:0.2 8:0 9:0 #
5.1626625886847521e-005 1:0.44444445 2:0.25 3:0.16666667 4:0.5 5:0.80000001 6:1 7:0.2 8:0 9:0 #
-2.581331294342376e-005 1:0.22222222 2:0.5 3:0.16666667 4:0.5 5:0.80000001 6:1 7:0.80000001 8:0 9:0.75 #
5.1626625886847521e-005 1:0.22222222 2:0.5 3:0.5 4:0.5 5:0.2 6:0.25 7:0.2 8:-0.75 9:0 #
-2.581331294342376e-005 1:0.22222222 2:0.5 3:0.16666667 4:0.5 5:0.80000001 6:1 7:0.80000001 8:0 9:0.75 #
2.581331294342376e-005 1:0.33333334 2:0 3:0.16666667 4:0.33333334 5:0.80000001 6:1 7:0.2 8:0 9:0 #
-2.581331294342376e-005 1:0.33333334 2:0 3:0.16666667 4:0.33333334 5:0.80000001 6:1 7:0.2 8:0 9:0 #
-2.581331294342376e-005 1:0.11111111 2:0.25 3:0.16666667 4:0.33333334 5:0.80000001 6:1 7:0.2 8:0 9:0 #
2.581331294342376e-005 1:0.11111111 2:0.25 3:0.16666667 4:0.33333334 5:0.80000001 6:1 7:0.2 8:0 9:0 #
-2.581331294342376e-005 1:0 2:0.5 3:0.16666667 4:0.66666669 5:1 6:1 7:0.2 8:0 9:0 #
-2.581331294342376e-005 1:0 2:0.5 3:0.16666667 4:0.66666669 5:1 6:1 7:0.2 8:0 9:0 #
-2.581331294342376e-005 1:0 2:0.5 3:0.16666667 4:0.66666669 5:1 6:1 7:0.2 8:0 9:0 #
7.7439938830271284e-005 1:0 2:0.5 3:0.16666667 4:0.66666669 5:1 6:1 7:0.2 8:0 9:0 #
5.1626625886847521e-005 1:0 2:0.75 3:0.16666667 4:0.5 5:0.80000001 6:1 7:0.2 8:0 9:0 #
-2.581331294342376e-005 1:0 2:0.75 3:0.16666667 4:0.5 5:0.80000001 6:1 7:0.2 8:0 9:0 #
-2.581331294342376e-005 1:0 2:0.75 3:0.16666667 4:0.5 5:0.80000001 6:1 7:0.2 8:0 9:0 #
2.581331294342376e-005 1:0 2:1 3:0.16666667 4:0.5 5:1 6:1 7:1 8:0 9:1 #
-2.581331294342376e-005 1:0 2:1 3:0.16666667 4:0.5 5:1 6:1 7:1 8:0 9:1 #
2.581331294342376e-005 1:0.8888889 2:0 3:0.16666667 4:0.5 5:0.80000001 6:1 7:0.40000001 8:0 9:0.5 #
-2.581331294342376e-005 1:0.8888889 2:0 3:0.16666667 4:0.5 5:0.80000001 6:1 7:0.40000001 8:0 9:0.5 #
-2.581331294342376e-005 1:0.55555558 2:0.25 3:0.16666667 4:0.5 5:0.80000001 6:1 7:0.2 8:0 9:0 #
-2.581331294342376e-005 1:0.55555558 2:0.25 3:0.16666667 4:0.5 5:0.80000001 6:1 7:0.2 8:0 9:0 #
5.1626625886847521e-005 1:0.55555558 2:0.25 3:0.16666667 4:0.5 5:0.80000001 6:1 7:0.2 8:0 9:0 #
5.1626625886847521e-005 1:0.33333334 2:0.5 3:0.16666667 4:0.5 5:0.80000001 6:1 7:0.80000001 8:0 9:0.75 #
-2.581331294342376e-005 1:0.33333334 2:0.5 3:0.5 4:0.5 5:0.2 6:0.25 7:0.2 8:-0.75 9:0 #
-2.581331294342376e-005 1:0.33333334 2:0.5 3:0.16666667 4:0.5 5:0.80000001 6:1 7:0.80000001 8:0 9:0.75 #
-2.581331294342376e-005 1:0.11111111 2:0.75 3:0.16666667 4:0.33333334 5:1 6:1 7:0.2 8:0 9:0 #
2.581331294342376e-005 1:0.11111111 2:0.75 3:0.16666667 4:0.33333334 5:1 6:1 7:0.2 8:0 9:0 #
-2.581331294342376e-005 1:0.22222222 2:0 3:0.33333334 4:0.33333334 5:0.60000002 6:0.75 7:0.2 8:-0.25 9:0 #
2.581331294342376e-005 1:0.22222222 2:0 3:0.16666667 4:0.33333334 5:0.80000001 6:1 7:0.26666668 8:0 9:0.25 #
-2.581331294342376e-005 1:0.11111111 2:0.25 3:0.16666667 4:1 5:0.80000001 6:1 7:0.80000001 8:0 9:0.75 #
0.0001290665647171188 1:0.11111111 2:0.25 3:0.83333331 4:1 5:0.2 6:0.25 7:0.2 8:-0.75 9:0 #
-2.581331294342376e-005 1:0.11111111 2:0.25 3:0.5 4:1 5:0.40000001 6:0.5 7:0.40000001 8:-0.5 9:0.25 #
-2.581331294342376e-005 1:0.11111111 2:0.25 3:0.16666667 4:1 5:0.80000001 6:1 7:0.80000001 8:0 9:0.75 #
-2.581331294342376e-005 1:0.11111111 2:0.25 3:0.5 4:1 5:0.40000001 6:0.5 7:0.40000001 8:-0.5 9:0.25 #
-2.581331294342376e-005 1:0.11111111 2:0.25 3:0.83333331 4:1 5:0.2 6:0.25 7:0.2 8:-0.75 9:0 #
2.581331294342376e-005 1:0 2:0.75 3:0.16666667 4:0.33333334 5:1 6:1 7:0.2 8:0 9:0 #
-2.581331294342376e-005 1:0 2:0.75 3:0.16666667 4:0.33333334 5:1 6:1 7:0.2 8:0 9:0 #
2.581331294342376e-005 1:0 2:1 3:0.16666667 4:0.33333334 5:1 6:1 7:0.2 8:0 9:0 #
-2.581331294342376e-005 1:0 2:1 3:0.16666667 4:0.33333334 5:1 6:1 7:0.2 8:0 9:0 #
2.581331294342376e-005 1:1 2:0 3:0.16666667 4:0.5 5:0.80000001 6:1 7:0.40000001 8:0 9:0.5 #
-2.581331294342376e-005 1:1 2:0 3:0.16666667 4:0.5 5:0.80000001 6:1 7:0.40000001 8:0 9:0.5 #
-2.581331294342376e-005 1:0.66666669 2:0.25 3:0.16666667 4:0.5 5:0.80000001 6:1 7:0.2 8:0 9:0 #
-2.581331294342376e-005 1:0.66666669 2:0.25 3:0.16666667 4:0.5 5:0.80000001 6:1 7:0.2 8:0 9:0 #
5.1626625886847521e-005 1:0.66666669 2:0.25 3:0.16666667 4:0.5 5:0.80000001 6:1 7:0.2 8:0 9:0 #
5.1626625886847521e-005 1:0.11111111 2:0 3:0.5 4:0.5 5:0.80000001 6:0.80000001 7:0.2 8:-0.25 9:0 #
-2.581331294342376e-005 1:0.11111111 2:0 3:0.16666667 4:0.5 5:1 6:1 7:0.25 8:0 9:0.25 #
-2.581331294342376e-005 1:0.11111111 2:0 3:0.16666667 4:0.5 5:1 6:1 7:0.25 8:0 9:0.25 #
-2.581331294342376e-005 1:0 2:0.25 3:0.16666667 4:0.5 5:1 6:1 7:0.2 8:0 9:0 #
5.1626625886847521e-005 1:0 2:0.25 3:0.16666667 4:0.5 5:1 6:1 7:0.2 8:0 9:0 #
-2.581331294342376e-005 1:0 2:0.25 3:0.16666667 4:0.5 5:1 6:1 7:0.2 8:0 9:0 #
2.581331294342376e-005 1:0 2:0.5 3:0.16666667 4:0.33333334 5:0.80000001 6:1 7:0.2 8:0 9:0 #
-2.581331294342376e-005 1:0 2:0.5 3:0.16666667 4:0.33333334 5:0.80000001 6:1 7:0.2 8:0 9:0 #
-2.581331294342376e-005 1:0 2:0.75 3:0.16666667 4:0.5 5:1 6:1 7:0.2 8:0 9:0 #
5.1626625886847521e-005 1:0 2:0.75 3:0.16666667 4:0.5 5:1 6:1 7:0.2 8:0 9:0 #
-2.581331294342376e-005 1:0 2:0.75 3:0.16666667 4:0.5 5:1 6:1 7:0.2 8:0 9:0 #
-2.581331294342376e-005 1:0 2:1 3:0.16666667 4:0.33333334 5:1 6:1 7:0.2 8:0 9:0 #
2.581331294342376e-005 1:0 2:1 3:0.16666667 4:0.33333334 5:1 6:1 7:0.2 8:0 9:0 #
-2.581331294342376e-005 1:0 2:0 3:0.16666667 4:0.5 5:0.80000001 6:1 7:0.26666668 8:0 9:0.25 #
2.581331294342376e-005 1:0 2:0 3:0.16666667 4:0.5 5:0.80000001 6:1 7:0.26666668 8:0 9:0.25 #
-2.581331294342376e-005 1:0 2:0.25 3:0.16666667 4:0.33333334 5:0.80000001 6:1 7:0.2 8:0 9:0 #
2.581331294342376e-005 1:0 2:0.25 3:0.16666667 4:0.33333334 5:0.80000001 6:1 7:0.2 8:0 9:0 #
-2.581331294342376e-005 1:0 2:0.5 3:0.16666667 4:0.5 5:1 6:1 7:0.33333331 8:0 9:0.5 #
5.1626625886847521e-005 1:0 2:0.5 3:0.33333334 4:0.5 5:0.80000001 6:0.80000001 7:0.26666668 8:-0.25 9:0.25 #
-2.581331294342376e-005 1:0 2:0.5 3:0.5 4:0.5 5:0.60000002 6:0.60000002 7:0.2 8:-0.5 9:0 #
-2.581331294342376e-005 1:0 2:1 3:0.16666667 4:0.33333334 5:0.80000001 6:1 7:0.2 8:0 9:0 #
2.581331294342376e-005 1:0 2:1 3:0.16666667 4:0.33333334 5:0.80000001 6:1 7:0.2 8:0 9:0 #
-2.581331294342376e-005 1:0 2:0 3:0.16666667 4:0.33333334 5:0.80000001 6:1 7:0.2 8:0 9:0 #
2.581331294342376e-005 1:0 2:0 3:0.16666667 4:0.33333334 5:0.80000001 6:1 7:0.2 8:0 9:0 #
-2.581331294342376e-005 1:0 2:0.25 3:0.16666667 4:1 5:0.80000001 6:1 7:0.40000001 8:0 9:0.5 #
2.581331294342376e-005 1:0 2:0.25 3:0.16666667 4:1 5:0.80000001 6:1 7:0.40000001 8:0 9:0.5 #
-2.581331294342376e-005 1:0 2:0.5 3:0.16666667 4:0.33333334 5:0.80000001 6:1 7:0.2 8:0 9:0 #
2.581331294342376e-005 1:0 2:0.5 3:0.16666667 4:0.33333334 5:0.80000001 6:1 7:0.2 8:0 9:0 #
-2.581331294342376e-005 1:0 2:0 3:0.16666667 4:0.33333334 5:0.80000001 6:1 7:0.2 8:0 9:0 #
2.581331294342376e-005 1:0 2:0 3:0.16666667 4:0.33333334 5:0.80000001 6:1 7:0.2 8:0 9:0 #
-2.581331294342376e-005 1:0 2:0.25 3:0.16666667 4:0.33333334 5:0.80000001 6:1 7:0.2 8:0 9:0 #
2.581331294342376e-005 1:0 2:0.25 3:0.16666667 4:0.33333334 5:0.80000001 6:1 7:0.2 8:0 9:0 #
-2.581331294342376e-005 1:0 2:1 3:0.16666667 4:0.33333334 5:0.80000001 6:1 7:0.2 8:0 9:0 #
2.581331294342376e-005 1:0 2:1 3:0.16666667 4:0.33333334 5:0.80000001 6:1 7:0.2 8:0 9:0 #
-2.581331294342376e-005 1:0.11111111 2:0 3:0.16666667 4:0.5 5:0.80000001 6:1 7:0.26666668 8:0 9:0.25 #
5.1626625886847521e-005 1:0.11111111 2:0 3:0.5 4:0.5 5:0.60000002 6:0.75 7:0.2 8:-0.25 9:0 #
-2.581331294342376e-005 1:0.11111111 2:0 3:0.16666667 4:0.5 5:0.80000001 6:1 7:0.26666668 8:0 9:0.25 #
2.581331294342376e-005 1:0 2:0.5 3:0.16666667 4:0.33333334 5:0.80000001 6:1 7:0.2 8:0 9:0 #
-2.581331294342376e-005 1:0 2:0.5 3:0.16666667 4:0.33333334 5:0.80000001 6:1 7:0.2 8:0 9:0 #
5.1626625886847521e-005 1:0 2:0 3:0.16666667 4:0.5 5:0.60000002 6:1 7:0.2 8:0 9:0 #
-2.581331294342376e-005 1:0 2:0 3:0.16666667 4:0.5 5:0.60000002 6:1 7:0.2 8:0 9:0 #
-2.581331294342376e-005 1:0 2:0 3:0.16666667 4:0.5 5:0.60000002 6:1 7:0.2 8:0 9:0 #
2.581331294342376e-005 1:0 2:0.25 3:0.16666667 4:0.5 5:1 6:1 7:0.33333331 8:0 9:0.5 #
-2.581331294342376e-005 1:0 2:0.25 3:0.33333334 4:0.5 5:0.80000001 6:0.80000001 7:0.26666668 8:-0.25 9:0.25 #
-2.581331294342376e-005 1:0 2:0.5 3:0.33333334 4:0.33333334 5:0.60000002 6:0.75 7:0.2 8:-0.25 9:0 #
2.581331294342376e-005 1:0 2:0.5 3:0.16666667 4:0.33333334 5:0.80000001 6:1 7:0.26666668 8:0 9:0.25 #
-2.581331294342376e-005 1:0 2:1 3:0.16666667 4:0.66666669 5:0.80000001 6:1 7:0.26666668 8:0 9:0.25 #
2.581331294342376e-005 1:0 2:1 3:0.16666667 4:0.66666669 5:0.80000001 6:1 7:0.26666668 8:0 9:0.25 #
-2.581331294342376e-005 1:0.11111111 2:0 3:0.16666667 4:0.5 5:0.60000002 6:1 7:0.2 8:0 9:0 #
-2.581331294342376e-005 1:0.11111111 2:0 3:0.16666667 4:0.5 5:0.60000002 6:1 7:0.2 8:0 9:0 #
5.1626625886847521e-005 1:0.11111111 2:0 3:0.16666667 4:0.5 5:0.60000002 6:1 7:0.2 8:0 9:0 #
-2.581331294342376e-005 1:0 2:0.5 3:0.16666667 4:0.5 5:0.80000001 6:1 7:0.40000001 8:0 9:0.5 #
2.581331294342376e-005 1:0 2:0.5 3:0.16666667 4:0.5 5:0.80000001 6:1 7:0.40000001 8:0 9:0.5 #
2.581331294342376e-005 1:0 2:1 3:0.16666667 4:0.33333334 5:0.80000001 6:1 7:0.2 8:0 9:0 #
-2.581331294342376e-005 1:0 2:1 3:0.16666667 4:0.33333334 5:0.80000001 6:1 7:0.2 8:0 9:0 #
-2.581331294342376e-005 1:0.22222222 2:0 3:0.16666667 4:0.5 5:0.60000002 6:1 7:0.2 8:0 9:0 #
5.1626625886847521e-005 1:0.22222222 2:0 3:0.16666667 4:0.5 5:0.60000002 6:1 7:0.2 8:0 9:0 #
-2.581331294342376e-005 1:0.22222222 2:0 3:0.16666667 4:0.5 5:0.60000002 6:1 7:0.2 8:0 9:0 #
-2.581331294342376e-005 1:0 2:0 3:0.16666667 4:0.33333334 5:0.80000001 6:1 7:0.2 8:0 9:0 #
2.581331294342376e-005 1:0 2:0 3:0.16666667 4:0.33333334 5:0.80000001 6:1 7:0.2 8:0 9:0 #
2.581331294342376e-005 1:0 2:0.25 3:0.16666667 4:0.33333334 5:0.80000001 6:1 7:0.2 8:0 9:0 #
-2.581331294342376e-005 1:0 2:0.25 3:0.16666667 4:0.33333334 5:0.80000001 6:1 7:0.2 8:0 9:0 #
-2.581331294342376e-005 1:0 2:0.5 3:0.16666667 4:0.33333334 5:0.80000001 6:1 7:0.2 8:0 9:0 #
2.581331294342376e-005 1:0 2:0.5 3:0.16666667 4:0.33333334 5:0.80000001 6:1 7:0.2 8:0 9:0 #
2.581331294342376e-005 1:0.11111111 2:0 3:0.16666667 4:0.33333334 5:0.80000001 6:1 7:0.2 8:0 9:0 #
-2.581331294342376e-005 1:0.11111111 2:0 3:0.16666667 4:0.33333334 5:0.80000001 6:1 7:0.2 8:0 9:0 #
-2.581331294342376e-005 1:0 2:0.25 3:0.16666667 4:0.33333334 5:0.80000001 6:1 7:0.2 8:0 9:0 #
2.581331294342376e-005 1:0 2:0.25 3:0.16666667 4:0.33333334 5:0.80000001 6:1 7:0.2 8:0 9:0 #
-2.581331294342376e-005 1:0 2:0.5 3:0.16666667 4:0.66666669 5:0.80000001 6:1 7:0.2 8:0 9:0 #
-2.581331294342376e-005 1:0 2:0.5 3:0.16666667 4:0.66666669 5:0.80000001 6:1 7:0.2 8:0 9:0 #
-2.581331294342376e-005 1:0 2:0.5 3:0.16666667 4:0.66666669 5:0.80000001 6:1 7:0.2 8:0 9:0 #
7.7439938830271284e-005 1:0 2:0.5 3:0.16666667 4:0.66666669 5:0.80000001 6:1 7:0.2 8:0 9:0 #
-2.581331294342376e-005 1:0 2:0.75 3:0.16666667 4:0.5 5:0.80000001 6:1 7:0.2 8:0 9:0 #
-2.581331294342376e-005 1:0 2:0.75 3:0.16666667 4:0.5 5:0.80000001 6:1 7:0.2 8:0 9:0 #
5.1626625886847521e-005 1:0 2:0.75 3:0.16666667 4:0.5 5:0.80000001 6:1 7:0.2 8:0 9:0 #
-2.581331294342376e-005 1:0 2:1 3:0.16666667 4:0.33333334 5:0.80000001 6:1 7:0.26666668 8:0 9:0.25 #
2.581331294342376e-005 1:0 2:1 3:0.33333334 4:0.33333334 5:0.60000002 6:0.75 7:0.2 8:-0.25 9:0 #
2.581331294342376e-005 1:0.11111111 2:0 3:0.16666667 4:0.33333334 5:0.80000001 6:1 7:0.2 8:0 9:0 #
-2.581331294342376e-005 1:0.11111111 2:0 3:0.16666667 4:0.33333334 5:0.80000001 6:1 7:0.2 8:0 9:0 #
-2.581331294342376e-005 1:0 2:0.5 3:0.16666667 4:0.5 5:0.80000001 6:1 7:0.26666668 8:0 9:0.25 #
2.581331294342376e-005 1:0 2:0.5 3:0.16666667 4:0.5 5:0.80000001 6:1 7:0.26666668 8:0 9:0.25 #
5.1626625886847521e-005 1:0.22222222 2:0 3:0.16666667 4:0.5 5:0.80000001 6:1 7:0.26666668 8:0 9:0.25 #
-2.581331294342376e-005 1:0.22222222 2:0 3:0.5 4:0.5 5:0.60000002 6:0.75 7:0.2 8:-0.25 9:0 #
-2.581331294342376e-005 1:0.22222222 2:0 3:0.16666667 4:0.5 5:0.80000001 6:1 7:0.26666668 8:0 9:0.25 #
-2.581331294342376e-005 1:0 2:0.25 3:0.16666667 4:0.5 5:0.80000001 6:1 7:0.40000001 8:0 9:0.5 #
2.581331294342376e-005 1:0 2:0.25 3:0.16666667 4:0.5 5:0.80000001 6:1 7:0.40000001 8:0 9:0.5 #
-2.581331294342376e-005 1:0 2:0.5 3:0.16666667 4:0.33333334 5:0.80000001 6:1 7:0.2 8:0 9:0 #
2.581331294342376e-005 1:0 2:0.5 3:0.16666667 4:0.33333334 5:0.80000001 6:1 7:0.2 8:0 9:0 #
-2.581331294342376e-005 1:0 2:0.75 3:0.16666667 4:0.33333334 5:0.80000001 6:1 7:0.2 8:0 9:0 #
2.581331294342376e-005 1:0 2:0.75 3:0.16666667 4:0.33333334 5:0.80000001 6:1 7:0.2 8:0 9:0 #
-2.581331294342376e-005 1:0 2:1 3:0.16666667 4:0.5 5:0.80000001 6:1 7:0.2 8:0 9:0 #
5.1626625886847521e-005 1:0 2:1 3:0.16666667 4:0.5 5:0.80000001 6:1 7:0.2 8:0 9:0 #
-2.581331294342376e-005 1:0 2:1 3:0.16666667 4:0.5 5:0.80000001 6:1 7:0.2 8:0 9:0 #
-2.581331294342376e-005 1:0.33333334 2:0 3:0.16666667 4:0.5 5:0.80000001 6:1 7:0.26666668 8:0 9:0.25 #
-2.581331294342376e-005 1:0.33333334 2:0 3:0.5 4:0.5 5:0.60000002 6:0.75 7:0.2 8:-0.25 9:0 #
5.1626625886847521e-005 1:0.33333334 2:0 3:0.16666667 4:0.5 5:0.80000001 6:1 7:0.26666668 8:0 9:0.25 #
-2.581331294342376e-005 1:0.11111111 2:0.25 3:0.16666667 4:0.33333334 5:0.80000001 6:1 7:0.2 8:0 9:0 #
2.581331294342376e-005 1:0.11111111 2:0.25 3:0.16666667 4:0.33333334 5:0.80000001 6:1 7:0.2 8:0 9:0 #
5.1626625886847521e-005 1:0.11111111 2:0.5 3:0.16666667 4:0.5 5:1 6:1 7:0.33333331 8:0 9:0.5 #
-2.581331294342376e-005 1:0.11111111 2:0.5 3:0.33333334 4:0.5 5:0.80000001 6:0.80000001 7:0.26666668 8:-0.25 9:0.25 #
-2.581331294342376e-005 1:0.11111111 2:0.5 3:0.5 4:0.5 5:0.60000002 6:0.60000002 7:0.2 8:-0.5 9:0 #
-2.581331294342376e-005 1:0.22222222 2:0 3:0.16666667 4:0.33333334 5:0.80000001 6:1 7:0.2 8:0 9:0 #
2.581331294342376e-005 1:0.22222222 2:0 3:0.16666667 4:0.33333334 5:0.80000001 6:1 7:0.2 8:0 9:0 #
-2.581331294342376e-005 1:0.11111111 2:0.25 3:0.5 4:1 5:0.60000002 6:0.75 7:0.30000001 8:-0.25 9:0.25 #
7.7439938830271284e-005 1:0.11111111 2:0.25 3:0.16666667 4:1 5:0.80000001 6:1 7:0.40000001 8:0 9:0.5 #
-2.581331294342376e-005 1:0.11111111 2:0.25 3:0.16666667 4:1 5:0.80000001 6:1 7:0.40000001 8:0 9:0.5 #
-2.581331294342376e-005 1:0.11111111 2:0.25 3:0.5 4:1 5:0.60000002 6:0.75 7:0.30000001 8:-0.25 9:0.25 #
-2.581331294342376e-005 1:0 2:1 3:0.16666667 4:0.83333331 5:0.80000001 6:1 7:0.40000001 8:0 9:0.5 #
2.581331294342376e-005 1:0 2:1 3:0.16666667 4:0.83333331 5:0.80000001 6:1 7:0.40000001 8:0 9:0.5 #
-2.581331294342376e-005 1:0.33333334 2:0 3:0.16666667 4:0.33333334 5:0.80000001 6:1 7:0.2 8:0 9:0 #
2.581331294342376e-005 1:0.33333334 2:0 3:0.16666667 4:0.33333334 5:0.80000001 6:1 7:0.2 8:0 9:0 #
-2.581331294342376e-005 1:0.22222222 2:0.25 3:0.83333331 4:1 5:0.40000001 6:0.5 7:0.2 8:-0.5 9:0 #
-2.581331294342376e-005 1:0.22222222 2:0.25 3:0.5 4:1 5:0.60000002 6:0.75 7:0.30000001 8:-0.25 9:0.25 #
0.0001290665647171188 1:0.22222222 2:0.25 3:0.16666667 4:1 5:0.80000001 6:1 7:0.40000001 8:0 9:0.5 #
-2.581331294342376e-005 1:0.22222222 2:0.25 3:0.16666667 4:1 5:0.80000001 6:1 7:0.40000001 8:0 9:0.5 #
-2.581331294342376e-005 1:0.22222222 2:0.25 3:0.5 4:1 5:0.60000002 6:0.75 7:0.30000001 8:-0.25 9:0.25 #
-2.581331294342376e-005 1:0.22222222 2:0.25 3:0.83333331 4:1 5:0.40000001 6:0.5 7:0.2 8:-0.5 9:0 #
2.581331294342376e-005 1:0.11111111 2:0.5 3:0.33333334 4:0.33333334 5:0.60000002 6:0.60000002 7:0.2 8:-0.5 9:0 #
-2.581331294342376e-005 1:0.11111111 2:0.5 3:0.16666667 4:0.33333334 5:1 6:1 7:0.33333331 8:0 9:0.5 #
-2.581331294342376e-005 1:0 2:0.75 3:0.16666667 4:0.5 5:0.80000001 6:1 7:0.2 8:0 9:0 #
-2.581331294342376e-005 1:0 2:0.75 3:0.16666667 4:0.5 5:0.80000001 6:1 7:0.2 8:0 9:0 #
5.1626625886847521e-005 1:0 2:0.75 3:0.16666667 4:0.5 5:0.80000001 6:1 7:0.2 8:0 9:0 #
-2.581331294342376e-005 1:0 2:1 3:0.16666667 4:0.33333334 5:0.80000001 6:1 7:0.2 8:0 9:0 #
2.581331294342376e-005 1:0 2:1 3:0.16666667 4:0.33333334 5:0.80000001 6:1 7:0.2 8:0 9:0 #
-2.581331294342376e-005 1:0.22222222 2:0 3:0.16666667 4:0.33333334 5:0.80000001 6:1 7:0.2 8:0 9:0 #
2.581331294342376e-005 1:0.22222222 2:0 3:0.16666667 4:0.33333334 5:0.80000001 6:1 7:0.2 8:0 9:0 #
2.581331294342376e-005 1:0.11111111 2:0.25 3:0.16666667 4:0.33333334 5:0.80000001 6:1 7:0.2 8:0 9:0 #
-2.581331294342376e-005 1:0.11111111 2:0.25 3:0.16666667 4:0.33333334 5:0.80000001 6:1 7:0.2 8:0 9:0 #
-2.581331294342376e-005 1:0 2:0.5 3:0.16666667 4:0.33333334 5:0.80000001 6:1 7:0.2 8:0 9:0 #
2.581331294342376e-005 1:0 2:0.5 3:0.16666667 4:0.33333334 5:0.80000001 6:1 7:0.2 8:0 9:0 #
-2.581331294342376e-005 1:0 2:0.75 3:0.16666667 4:0.33333334 5:0.80000001 6:1 7:0.2 8:0 9:0 #
2.581331294342376e-005 1:0 2:0.75 3:0.16666667 4:0.33333334 5:0.80000001 6:1 7:0.2 8:0 9:0 #
-2.581331294342376e-005 1:0.44444445 2:0 3:0.16666667 4:0.5 5:0.80000001 6:1 7:0.26666668 8:0 9:0.25 #
5.1626625886847521e-005 1:0.44444445 2:0 3:0.5 4:0.5 5:0.60000002 6:0.75 7:0.2 8:-0.25 9:0 #
-2.581331294342376e-005 1:0.44444445 2:0 3:0.16666667 4:0.5 5:0.80000001 6:1 7:0.26666668 8:0 9:0.25 #
2.581331294342376e-005 1:0.11111111 2:0.25 3:0.33333334 4:0.33333334 5:0.40000001 6:0.5 7:0.2 8:-0.5 9:0 #
-2.581331294342376e-005 1:0.11111111 2:0.25 3:0.16666667 4:0.33333334 5:0.80000001 6:1 7:0.40000001 8:0 9:0.5 #
5.1626625886847521e-005 1:0.33333334 2:0 3:0.16666667 4:0.5 5:0.60000002 6:1 7:0.2 8:0 9:0 #
-2.581331294342376e-005 1:0.33333334 2:0 3:0.16666667 4:0.5 5:0.60000002 6:1 7:0.2 8:0 9:0 #
-2.581331294342376e-005 1:0.33333334 2:0 3:0.16666667 4:0.5 5:0.60000002 6:1 7:0.2 8:0 9:0 #
-2.581331294342376e-005 1:0.11111111 2:0.25 3:0.16666667 4:0.5 5:1 6:1 7:0.33333331 8:0 9:0.5 #
-2.581331294342376e-005 1:0.11111111 2:0.25 3:0.33333334 4:0.5 5:0.80000001 6:0.80000001 7:0.26666668 8:-0.25 9:0.25 #
5.1626625886847521e-005 1:0.11111111 2:0.25 3:0.5 4:0.5 5:0.60000002 6:0.60000002 7:0.2 8:-0.5 9:0 #
-2.581331294342376e-005 1:0 2:0.5 3:0.16666667 4:0.5 5:0.80000001 6:1 7:0.40000001 8:0 9:0.5 #
2.581331294342376e-005 1:0 2:0.5 3:0.16666667 4:0.5 5:0.80000001 6:1 7:0.40000001 8:0 9:0.5 #
2.581331294342376e-005 1:0 2:0.75 3:0.16666667 4:0.5 5:0.80000001 6:1 7:0.40000001 8:0 9:0.5 #
-2.581331294342376e-005 1:0 2:0.75 3:0.16666667 4:0.5 5:0.80000001 6:1 7:0.40000001 8:0 9:0.5 #
